x-axis,1KHZ,3
second,Volt,Volt
-24.0000000E+00,+23.4111E-03,-0.0E+00
-23.9992500E+00,+23.7458E-03,+16.7364E-03
-23.9985000E+00,+23.7458E-03,+0.0E+00
-23.9977500E+00,+23.7458E-03,-33.4728E-03
-23.9970000E+00,+23.4111E-03,-0.0E+00
-23.9962500E+00,+23.7458E-03,+0.0E+00
-23.9955000E+00,+23.7458E-03,-33.4728E-03
-23.9947500E+00,+23.0764E-03,+33.4728E-03
-23.9940000E+00,+23.0764E-03,+16.7364E-03
-23.9932500E+00,+23.7458E-03,+0.0E+00
-23.9925000E+00,+24.4153E-03,-33.4728E-03
-23.9917500E+00,+23.7458E-03,-16.7364E-03
-23.9910000E+00,+23.0764E-03,-0.0E+00
-23.9902500E+00,+24.0805E-03,-16.7364E-03
-23.9895000E+00,+23.7458E-03,-0.0E+00
-23.9887500E+00,+24.0805E-03,+16.7364E-03
-23.9880000E+00,+24.0805E-03,+16.7364E-03
-23.9872500E+00,+24.4153E-03,+0.0E+00
-23.9865000E+00,+23.7458E-03,+33.4728E-03
-23.9857500E+00,+23.7458E-03,+0.0E+00
-23.9850000E+00,+23.0764E-03,-16.7364E-03
-23.9842500E+00,+23.7458E-03,+16.7364E-03
-23.9835000E+00,+23.4111E-03,-16.7364E-03
-23.9827500E+00,+23.7458E-03,+16.7364E-03
-23.9820000E+00,+23.4111E-03,+33.4728E-03
-23.9812500E+00,+25.4195E-03,-16.7364E-03
-23.9805000E+00,+23.4111E-03,-0.0E+00
-23.9797500E+00,+23.7458E-03,-16.7364E-03
-23.9790000E+00,+24.4153E-03,-16.7364E-03
-23.9782500E+00,+23.7458E-03,+16.7364E-03
-23.9775000E+00,+24.0805E-03,+0.0E+00
-23.9767500E+00,+23.7458E-03,+0.0E+00
-23.9760000E+00,+24.4153E-03,-16.7364E-03
-23.9752500E+00,+23.7458E-03,-16.7364E-03
-23.9745000E+00,+23.7458E-03,+33.4728E-03
-23.9737500E+00,+23.4111E-03,-16.7364E-03
-23.9730000E+00,+23.4111E-03,-0.0E+00
-23.9722500E+00,+23.4111E-03,+0.0E+00
-23.9715000E+00,+23.4111E-03,+0.0E+00
-23.9707500E+00,+22.7416E-03,-16.7364E-03
-23.9700000E+00,+24.0805E-03,+33.4728E-03
-23.9692500E+00,+23.4111E-03,+16.7364E-03
-23.9685000E+00,+23.7458E-03,+16.7364E-03
-23.9677500E+00,+24.7500E-03,+0.0E+00
-23.9670000E+00,+23.7458E-03,+0.0E+00
-23.9662500E+00,+24.7500E-03,+16.7364E-03
-23.9655000E+00,+23.4111E-03,-16.7364E-03
-23.9647500E+00,+23.4111E-03,-0.0E+00
-23.9640000E+00,+24.7500E-03,+16.7364E-03
-23.9632500E+00,+24.0805E-03,-16.7364E-03
-23.9625000E+00,+23.0764E-03,-33.4728E-03
-23.9617500E+00,+24.0805E-03,-0.0E+00
-23.9610000E+00,+24.4153E-03,-33.4728E-03
-23.9602500E+00,+23.7458E-03,+16.7364E-03
-23.9595000E+00,+23.7458E-03,+0.0E+00
-23.9587500E+00,+23.0764E-03,+0.0E+00
-23.9580000E+00,+23.7458E-03,+16.7364E-03
-23.9572500E+00,+24.4153E-03,-16.7364E-03
-23.9565000E+00,+23.7458E-03,+33.4728E-03
-23.9557500E+00,+23.7458E-03,+33.4728E-03
-23.9550000E+00,+23.7458E-03,+16.7364E-03
-23.9542500E+00,+23.4111E-03,+0.0E+00
-23.9535000E+00,+23.0764E-03,+0.0E+00
-23.9527500E+00,+24.0805E-03,-16.7364E-03
-23.9520000E+00,+24.0805E-03,-16.7364E-03
-23.9512500E+00,+24.4153E-03,-16.7364E-03
-23.9505000E+00,+24.0805E-03,+0.0E+00
-23.9497500E+00,+23.4111E-03,-33.4728E-03
-23.9490000E+00,+24.0805E-03,-16.7364E-03
-23.9482500E+00,+24.0805E-03,+16.7364E-03
-23.9475000E+00,+23.4111E-03,+16.7364E-03
-23.9467500E+00,+24.4153E-03,+33.4728E-03
-23.9460000E+00,+23.7458E-03,+50.2092E-03
-23.9452500E+00,+24.7500E-03,-16.7364E-03
-23.9445000E+00,+23.7458E-03,+0.0E+00
-23.9437500E+00,+24.0805E-03,+0.0E+00
-23.9430000E+00,+23.0764E-03,-16.7364E-03
-23.9422500E+00,+24.4153E-03,+33.4728E-03
-23.9415000E+00,+24.0805E-03,+0.0E+00
-23.9407500E+00,+23.7458E-03,+0.0E+00
-23.9400000E+00,+24.4153E-03,+0.0E+00
-23.9392500E+00,+23.7458E-03,-16.7364E-03
-23.9385000E+00,+23.7458E-03,-16.7364E-03
-23.9377500E+00,+22.7416E-03,+16.7364E-03
-23.9370000E+00,+23.7458E-03,-16.7364E-03
-23.9362500E+00,+23.7458E-03,+50.2092E-03
-23.9355000E+00,+23.7458E-03,+0.0E+00
-23.9347500E+00,+23.4111E-03,+33.4728E-03
-23.9340000E+00,+24.7500E-03,-16.7364E-03
-23.9332500E+00,+24.4153E-03,+16.7364E-03
-23.9325000E+00,+24.4153E-03,-16.7364E-03
-23.9317500E+00,+23.7458E-03,+16.7364E-03
-23.9310000E+00,+23.4111E-03,+0.0E+00
-23.9302500E+00,+23.7458E-03,+16.7364E-03
-23.9295000E+00,+23.4111E-03,+0.0E+00
-23.9287500E+00,+24.0805E-03,+50.2092E-03
-23.9280000E+00,+24.7500E-03,+16.7364E-03
-23.9272500E+00,+24.7500E-03,+50.2092E-03
-23.9265000E+00,+23.0764E-03,+16.7364E-03
-23.9257500E+00,+23.0764E-03,-16.7364E-03
-23.9250000E+00,+23.4111E-03,+16.7364E-03
-23.9242500E+00,+24.4153E-03,-33.4728E-03
-23.9235000E+00,+23.7458E-03,-16.7364E-03
-23.9227500E+00,+24.7500E-03,+0.0E+00
-23.9220000E+00,+23.7458E-03,-16.7364E-03
-23.9212500E+00,+24.0805E-03,+33.4728E-03
-23.9205000E+00,+24.4153E-03,-16.7364E-03
-23.9197500E+00,+23.4111E-03,+33.4728E-03
-23.9190000E+00,+24.7500E-03,+0.0E+00
-23.9182500E+00,+24.0805E-03,+16.7364E-03
-23.9175000E+00,+24.7500E-03,+16.7364E-03
-23.9167500E+00,+24.7500E-03,-16.7364E-03
-23.9160000E+00,+24.4153E-03,+33.4728E-03
-23.9152500E+00,+23.7458E-03,+33.4728E-03
-23.9145000E+00,+23.4111E-03,-33.4728E-03
-23.9137500E+00,+22.7416E-03,+0.0E+00
-23.9130000E+00,+23.7458E-03,+0.0E+00
-23.9122500E+00,+24.0805E-03,+33.4728E-03
-23.9115000E+00,+23.0764E-03,+0.0E+00
-23.9107500E+00,+23.4111E-03,+0.0E+00
-23.9100000E+00,+24.0805E-03,+16.7364E-03
-23.9092500E+00,+24.0805E-03,-33.4728E-03
-23.9085000E+00,+23.4111E-03,-16.7364E-03
-23.9077500E+00,+22.7416E-03,+0.0E+00
-23.9070000E+00,+24.0805E-03,+33.4728E-03
-23.9062500E+00,+24.4153E-03,+0.0E+00
-23.9055000E+00,+23.7458E-03,+0.0E+00
-23.9047500E+00,+23.7458E-03,+0.0E+00
-23.9040000E+00,+24.0805E-03,+33.4728E-03
-23.9032500E+00,+24.0805E-03,+0.0E+00
-23.9025000E+00,+23.7458E-03,+33.4728E-03
-23.9017500E+00,+23.7458E-03,+50.2092E-03
-23.9010000E+00,+24.0805E-03,+16.7364E-03
-23.9002500E+00,+24.0805E-03,+0.0E+00
-23.8995000E+00,+23.7458E-03,+16.7364E-03
-23.8987500E+00,+23.7458E-03,+33.4728E-03
-23.8980000E+00,+23.4111E-03,-16.7364E-03
-23.8972500E+00,+23.4111E-03,+16.7364E-03
-23.8965000E+00,+24.7500E-03,-33.4728E-03
-23.8957500E+00,+24.0805E-03,+16.7364E-03
-23.8950000E+00,+23.4111E-03,+0.0E+00
-23.8942500E+00,+23.7458E-03,+50.2092E-03
-23.8935000E+00,+23.7458E-03,+16.7364E-03
-23.8927500E+00,+23.4111E-03,+0.0E+00
-23.8920000E+00,+24.0805E-03,-16.7364E-03
-23.8912500E+00,+22.7416E-03,-16.7364E-03
-23.8905000E+00,+23.7458E-03,+0.0E+00
-23.8897500E+00,+23.7458E-03,+16.7364E-03
-23.8890000E+00,+23.0764E-03,-33.4728E-03
-23.8882500E+00,+24.0805E-03,+0.0E+00
-23.8875000E+00,+23.4111E-03,+0.0E+00
-23.8867500E+00,+23.4111E-03,+50.2092E-03
-23.8860000E+00,+23.7458E-03,+16.7364E-03
-23.8852500E+00,+23.7458E-03,+16.7364E-03
-23.8845000E+00,+24.4153E-03,+16.7364E-03
-23.8837500E+00,+23.0764E-03,-33.4728E-03
-23.8830000E+00,+23.4111E-03,+16.7364E-03
-23.8822500E+00,+23.7458E-03,+0.0E+00
-23.8815000E+00,+24.0805E-03,+0.0E+00
-23.8807500E+00,+23.0764E-03,+0.0E+00
-23.8800000E+00,+23.0764E-03,-0.0E+00
-23.8792500E+00,+23.4111E-03,-16.7364E-03
-23.8785000E+00,+24.4153E-03,+33.4728E-03
-23.8777500E+00,+24.0805E-03,+0.0E+00
-23.8770000E+00,+23.4111E-03,-0.0E+00
-23.8762500E+00,+23.7458E-03,-16.7364E-03
-23.8755000E+00,+23.7458E-03,+0.0E+00
-23.8747500E+00,+24.0805E-03,+0.0E+00
-23.8740000E+00,+23.7458E-03,+16.7364E-03
-23.8732500E+00,+23.7458E-03,+0.0E+00
-23.8725000E+00,+24.4153E-03,-0.0E+00
-23.8717500E+00,+23.4111E-03,-16.7364E-03
-23.8710000E+00,+23.4111E-03,+0.0E+00
-23.8702500E+00,+24.0805E-03,+16.7364E-03
-23.8695000E+00,+24.0805E-03,+33.4728E-03
-23.8687500E+00,+24.0805E-03,-0.0E+00
-23.8680000E+00,+24.4153E-03,-16.7364E-03
-23.8672500E+00,+23.7458E-03,-16.7364E-03
-23.8665000E+00,+23.7458E-03,+0.0E+00
-23.8657500E+00,+23.7458E-03,+33.4728E-03
-23.8650000E+00,+24.0805E-03,-16.7364E-03
-23.8642500E+00,+24.4153E-03,+0.0E+00
-23.8635000E+00,+23.4111E-03,+16.7364E-03
-23.8627500E+00,+23.4111E-03,+33.4728E-03
-23.8620000E+00,+23.4111E-03,+0.0E+00
-23.8612500E+00,+23.7458E-03,-0.0E+00
-23.8605000E+00,+24.4153E-03,-16.7364E-03
-23.8597500E+00,+24.4153E-03,+0.0E+00
-23.8590000E+00,+23.4111E-03,-0.0E+00
-23.8582500E+00,+24.0805E-03,-16.7364E-03
-23.8575000E+00,+23.0764E-03,+0.0E+00
-23.8567500E+00,+24.7500E-03,-0.0E+00
-23.8560000E+00,+23.4111E-03,-16.7364E-03
-23.8552500E+00,+24.0805E-03,-16.7364E-03
-23.8545000E+00,+24.7500E-03,+50.2092E-03
-23.8537500E+00,+24.0805E-03,+33.4728E-03
-23.8530000E+00,+23.7458E-03,-16.7364E-03
-23.8522500E+00,+24.0805E-03,-0.0E+00
-23.8515000E+00,+24.4153E-03,-16.7364E-03
-23.8507500E+00,+23.7458E-03,+33.4728E-03
-23.8500000E+00,+24.4153E-03,-16.7364E-03
-23.8492500E+00,+22.7416E-03,+50.2092E-03
-23.8485000E+00,+24.4153E-03,+0.0E+00
-23.8477500E+00,+23.0764E-03,+33.4728E-03
-23.8470000E+00,+24.4153E-03,-0.0E+00
-23.8462500E+00,+23.4111E-03,-16.7364E-03
-23.8455000E+00,+23.4111E-03,+33.4728E-03
-23.8447500E+00,+24.0805E-03,-16.7364E-03
-23.8440000E+00,+23.0764E-03,+16.7364E-03
-23.8432500E+00,+23.4111E-03,-16.7364E-03
-23.8425000E+00,+23.7458E-03,-16.7364E-03
-23.8417500E+00,+24.0805E-03,+16.7364E-03
-23.8410000E+00,+24.4153E-03,+0.0E+00
-23.8402500E+00,+24.4153E-03,+0.0E+00
-23.8395000E+00,+23.7458E-03,+16.7364E-03
-23.8387500E+00,+23.4111E-03,+33.4728E-03
-23.8380000E+00,+24.0805E-03,+33.4728E-03
-23.8372500E+00,+25.4195E-03,+16.7364E-03
-23.8365000E+00,+24.4153E-03,-16.7364E-03
-23.8357500E+00,+24.4153E-03,-16.7364E-03
-23.8350000E+00,+23.7458E-03,+33.4728E-03
-23.8342500E+00,+24.0805E-03,-16.7364E-03
-23.8335000E+00,+23.7458E-03,+0.0E+00
-23.8327500E+00,+23.4111E-03,+0.0E+00
-23.8320000E+00,+24.4153E-03,+16.7364E-03
-23.8312500E+00,+24.0805E-03,+16.7364E-03
-23.8305000E+00,+23.7458E-03,+0.0E+00
-23.8297500E+00,+24.7500E-03,+16.7364E-03
-23.8290000E+00,+24.4153E-03,-33.4728E-03
-23.8282500E+00,+24.7500E-03,-16.7364E-03
-23.8275000E+00,+24.7500E-03,-16.7364E-03
-23.8267500E+00,+24.0805E-03,+33.4728E-03
-23.8260000E+00,+23.7458E-03,+16.7364E-03
-23.8252500E+00,+23.0764E-03,+0.0E+00
-23.8245000E+00,+24.4153E-03,+0.0E+00
-23.8237500E+00,+23.7458E-03,+16.7364E-03
-23.8230000E+00,+23.7458E-03,+16.7364E-03
-23.8222500E+00,+24.4153E-03,-0.0E+00
-23.8215000E+00,+24.0805E-03,-33.4728E-03
-23.8207500E+00,+24.0805E-03,-16.7364E-03
-23.8200000E+00,+24.0805E-03,+16.7364E-03
-23.8192500E+00,+24.7500E-03,+0.0E+00
-23.8185000E+00,+23.7458E-03,+16.7364E-03
-23.8177500E+00,+24.4153E-03,+0.0E+00
-23.8170000E+00,+24.4153E-03,+16.7364E-03
-23.8162500E+00,+24.0805E-03,+0.0E+00
-23.8155000E+00,+24.7500E-03,+16.7364E-03
-23.8147500E+00,+23.7458E-03,+0.0E+00
-23.8140000E+00,+24.4153E-03,+16.7364E-03
-23.8132500E+00,+23.7458E-03,+0.0E+00
-23.8125000E+00,+23.7458E-03,-0.0E+00
-23.8117500E+00,+23.0764E-03,-16.7364E-03
-23.8110000E+00,+24.0805E-03,-0.0E+00
-23.8102500E+00,+23.7458E-03,-16.7364E-03
-23.8095000E+00,+24.7500E-03,-33.4728E-03
-23.8087500E+00,+24.4153E-03,-33.4728E-03
-23.8080000E+00,+23.4111E-03,+16.7364E-03
-23.8072500E+00,+24.7500E-03,-16.7364E-03
-23.8065000E+00,+23.7458E-03,-16.7364E-03
-23.8057500E+00,+24.0805E-03,-16.7364E-03
-23.8050000E+00,+24.7500E-03,+16.7364E-03
-23.8042500E+00,+24.0805E-03,-16.7364E-03
-23.8035000E+00,+23.0764E-03,+0.0E+00
-23.8027500E+00,+24.0805E-03,+33.4728E-03
-23.8020000E+00,+23.0764E-03,+0.0E+00
-23.8012500E+00,+24.7500E-03,-0.0E+00
-23.8005000E+00,+23.7458E-03,-16.7364E-03
-23.7997500E+00,+24.4153E-03,-0.0E+00
-23.7990000E+00,+23.0764E-03,-16.7364E-03
-23.7982500E+00,+24.0805E-03,+16.7364E-03
-23.7975000E+00,+23.4111E-03,+0.0E+00
-23.7967500E+00,+24.0805E-03,+16.7364E-03
-23.7960000E+00,+23.7458E-03,-0.0E+00
-23.7952500E+00,+24.0805E-03,-16.7364E-03
-23.7945000E+00,+23.4111E-03,-16.7364E-03
-23.7937500E+00,+24.7500E-03,+33.4728E-03
-23.7930000E+00,+24.7500E-03,+0.0E+00
-23.7922500E+00,+23.4111E-03,+50.2092E-03
-23.7915000E+00,+23.7458E-03,+0.0E+00
-23.7907500E+00,+22.7416E-03,-0.0E+00
-23.7900000E+00,+23.7458E-03,-16.7364E-03
-23.7892500E+00,+23.4111E-03,+0.0E+00
-23.7885000E+00,+22.7416E-03,+33.4728E-03
-23.7877500E+00,+23.7458E-03,-16.7364E-03
-23.7870000E+00,+23.7458E-03,+33.4728E-03
-23.7862500E+00,+24.4153E-03,+33.4728E-03
-23.7855000E+00,+23.0764E-03,+0.0E+00
-23.7847500E+00,+24.0805E-03,+16.7364E-03
-23.7840000E+00,+25.0847E-03,+0.0E+00
-23.7832500E+00,+23.0764E-03,+16.7364E-03
-23.7825000E+00,+24.4153E-03,+16.7364E-03
-23.7817500E+00,+23.4111E-03,+0.0E+00
-23.7810000E+00,+23.4111E-03,-0.0E+00
-23.7802500E+00,+24.0805E-03,-33.4728E-03
-23.7795000E+00,+23.4111E-03,+0.0E+00
-23.7787500E+00,+24.4153E-03,+16.7364E-03
-23.7780000E+00,+23.4111E-03,-0.0E+00
-23.7772500E+00,+23.7458E-03,-16.7364E-03
-23.7765000E+00,+24.0805E-03,-0.0E+00
-23.7757500E+00,+23.7458E-03,-16.7364E-03
-23.7750000E+00,+23.7458E-03,-16.7364E-03
-23.7742500E+00,+24.0805E-03,+0.0E+00
-23.7735000E+00,+23.7458E-03,+33.4728E-03
-23.7727500E+00,+24.0805E-03,+50.2092E-03
-23.7720000E+00,+24.0805E-03,-33.4728E-03
-23.7712500E+00,+23.7458E-03,+50.2092E-03
-23.7705000E+00,+23.7458E-03,+16.7364E-03
-23.7697500E+00,+23.7458E-03,+33.4728E-03
-23.7690000E+00,+23.4111E-03,+33.4728E-03
-23.7682500E+00,+24.4153E-03,-0.0E+00
-23.7675000E+00,+23.7458E-03,-16.7364E-03
-23.7667500E+00,+24.4153E-03,+0.0E+00
-23.7660000E+00,+24.7500E-03,+0.0E+00
-23.7652500E+00,+23.0764E-03,+0.0E+00
-23.7645000E+00,+23.4111E-03,+16.7364E-03
-23.7637500E+00,+24.4153E-03,+16.7364E-03
-23.7630000E+00,+23.7458E-03,+50.2092E-03
-23.7622500E+00,+24.4153E-03,-16.7364E-03
-23.7615000E+00,+23.4111E-03,+16.7364E-03
-23.7607500E+00,+23.7458E-03,+16.7364E-03
-23.7600000E+00,+23.4111E-03,-16.7364E-03
-23.7592500E+00,+23.4111E-03,+0.0E+00
-23.7585000E+00,+23.7458E-03,+0.0E+00
-23.7577500E+00,+23.7458E-03,+33.4728E-03
-23.7570000E+00,+23.7458E-03,+0.0E+00
-23.7562500E+00,+24.0805E-03,+16.7364E-03
-23.7555000E+00,+23.4111E-03,+33.4728E-03
-23.7547500E+00,+23.7458E-03,+16.7364E-03
-23.7540000E+00,+24.4153E-03,+50.2092E-03
-23.7532500E+00,+24.4153E-03,+16.7364E-03
-23.7525000E+00,+23.7458E-03,+33.4728E-03
-23.7517500E+00,+24.0805E-03,-16.7364E-03
-23.7510000E+00,+24.7500E-03,+16.7364E-03
-23.7502500E+00,+24.4153E-03,+0.0E+00
-23.7495000E+00,+23.4111E-03,+33.4728E-03
-23.7487500E+00,+23.7458E-03,-16.7364E-03
-23.7480000E+00,+24.0805E-03,-0.0E+00
-23.7472500E+00,+23.4111E-03,-16.7364E-03
-23.7465000E+00,+23.7458E-03,-16.7364E-03
-23.7457500E+00,+23.7458E-03,+33.4728E-03
-23.7450000E+00,+24.4153E-03,+0.0E+00
-23.7442500E+00,+23.7458E-03,+0.0E+00
-23.7435000E+00,+24.0805E-03,+0.0E+00
-23.7427500E+00,+23.7458E-03,+16.7364E-03
-23.7420000E+00,+23.7458E-03,+0.0E+00
-23.7412500E+00,+23.7458E-03,+33.4728E-03
-23.7405000E+00,+24.0805E-03,+0.0E+00
-23.7397500E+00,+23.7458E-03,-0.0E+00
-23.7390000E+00,+24.7500E-03,-16.7364E-03
-23.7382500E+00,+24.4153E-03,+0.0E+00
-23.7375000E+00,+23.7458E-03,+16.7364E-03
-23.7367500E+00,+23.7458E-03,+16.7364E-03
-23.7360000E+00,+23.7458E-03,+16.7364E-03
-23.7352500E+00,+23.0764E-03,+33.4728E-03
-23.7345000E+00,+24.0805E-03,+16.7364E-03
-23.7337500E+00,+24.0805E-03,+16.7364E-03
-23.7330000E+00,+23.7458E-03,+16.7364E-03
-23.7322500E+00,+23.4111E-03,-0.0E+00
-23.7315000E+00,+23.7458E-03,-33.4728E-03
-23.7307500E+00,+23.4111E-03,-0.0E+00
-23.7300000E+00,+23.7458E-03,-16.7364E-03
-23.7292500E+00,+24.0805E-03,+33.4728E-03
-23.7285000E+00,+24.4153E-03,+16.7364E-03
-23.7277500E+00,+24.0805E-03,+50.2092E-03
-23.7270000E+00,+23.7458E-03,+0.0E+00
-23.7262500E+00,+23.7458E-03,+0.0E+00
-23.7255000E+00,+23.7458E-03,+0.0E+00
-23.7247500E+00,+23.4111E-03,+0.0E+00
-23.7240000E+00,+23.7458E-03,+16.7364E-03
-23.7232500E+00,+24.4153E-03,+0.0E+00
-23.7225000E+00,+24.0805E-03,-0.0E+00
-23.7217500E+00,+24.0805E-03,-16.7364E-03
-23.7210000E+00,+24.0805E-03,+0.0E+00
-23.7202500E+00,+23.7458E-03,+16.7364E-03
-23.7195000E+00,+23.4111E-03,-0.0E+00
-23.7187500E+00,+23.0764E-03,-16.7364E-03
-23.7180000E+00,+24.0805E-03,-33.4728E-03
-23.7172500E+00,+23.7458E-03,+33.4728E-03
-23.7165000E+00,+24.7500E-03,+0.0E+00
-23.7157500E+00,+24.7500E-03,+16.7364E-03
-23.7150000E+00,+24.0805E-03,-0.0E+00
-23.7142500E+00,+24.4153E-03,-16.7364E-03
-23.7135000E+00,+24.0805E-03,+16.7364E-03
-23.7127500E+00,+24.0805E-03,+0.0E+00
-23.7120000E+00,+22.7416E-03,+33.4728E-03
-23.7112500E+00,+23.7458E-03,-16.7364E-03
-23.7105000E+00,+24.4153E-03,+16.7364E-03
-23.7097500E+00,+23.7458E-03,+16.7364E-03
-23.7090000E+00,+23.4111E-03,-0.0E+00
-23.7082500E+00,+24.0805E-03,-16.7364E-03
-23.7075000E+00,+24.0805E-03,-16.7364E-03
-23.7067500E+00,+24.4153E-03,+0.0E+00
-23.7060000E+00,+24.7500E-03,+0.0E+00
-23.7052500E+00,+23.7458E-03,+16.7364E-03
-23.7045000E+00,+24.4153E-03,-33.4728E-03
-23.7037500E+00,+24.4153E-03,+16.7364E-03
-23.7030000E+00,+24.4153E-03,-16.7364E-03
-23.7022500E+00,+23.0764E-03,+33.4728E-03
-23.7015000E+00,+24.0805E-03,-16.7364E-03
-23.7007500E+00,+23.4111E-03,-16.7364E-03
-23.7000000E+00,+24.4153E-03,+0.0E+00
-23.6992500E+00,+23.4111E-03,+0.0E+00
-23.6985000E+00,+24.0805E-03,+16.7364E-03
-23.6977500E+00,+24.4153E-03,-33.4728E-03
-23.6970000E+00,+23.7458E-03,-0.0E+00
-23.6962500E+00,+23.0764E-03,-16.7364E-03
-23.6955000E+00,+24.0805E-03,-16.7364E-03
-23.6947500E+00,+23.4111E-03,+0.0E+00
-23.6940000E+00,+23.7458E-03,+16.7364E-03
-23.6932500E+00,+24.0805E-03,+0.0E+00
-23.6925000E+00,+24.7500E-03,+16.7364E-03
-23.6917500E+00,+24.0805E-03,-0.0E+00
-23.6910000E+00,+23.7458E-03,-16.7364E-03
-23.6902500E+00,+24.4153E-03,-16.7364E-03
-23.6895000E+00,+24.0805E-03,+16.7364E-03
-23.6887500E+00,+23.7458E-03,+0.0E+00
-23.6880000E+00,+24.0805E-03,+0.0E+00
-23.6872500E+00,+24.0805E-03,-0.0E+00
-23.6865000E+00,+23.4111E-03,-16.7364E-03
-23.6857500E+00,+24.4153E-03,+16.7364E-03
-23.6850000E+00,+24.4153E-03,-16.7364E-03
-23.6842500E+00,+24.4153E-03,+0.0E+00
-23.6835000E+00,+23.7458E-03,+0.0E+00
-23.6827500E+00,+23.4111E-03,+16.7364E-03
-23.6820000E+00,+24.4153E-03,+33.4728E-03
-23.6812500E+00,+23.7458E-03,+0.0E+00
-23.6805000E+00,+24.0805E-03,+16.7364E-03
-23.6797500E+00,+23.7458E-03,+33.4728E-03
-23.6790000E+00,+23.4111E-03,+0.0E+00
-23.6782500E+00,+23.7458E-03,+33.4728E-03
-23.6775000E+00,+23.0764E-03,+0.0E+00
-23.6767500E+00,+24.4153E-03,+0.0E+00
-23.6760000E+00,+22.7416E-03,+0.0E+00
-23.6752500E+00,+24.0805E-03,+0.0E+00
-23.6745000E+00,+23.0764E-03,+16.7364E-03
-23.6737500E+00,+23.7458E-03,+16.7364E-03
-23.6730000E+00,+24.7500E-03,+16.7364E-03
-23.6722500E+00,+24.0805E-03,+0.0E+00
-23.6715000E+00,+24.7500E-03,+0.0E+00
-23.6707500E+00,+24.0805E-03,+0.0E+00
-23.6700000E+00,+23.7458E-03,+16.7364E-03
-23.6692500E+00,+24.4153E-03,-16.7364E-03
-23.6685000E+00,+23.4111E-03,+16.7364E-03
-23.6677500E+00,+23.7458E-03,-0.0E+00
-23.6670000E+00,+23.0764E-03,-16.7364E-03
-23.6662500E+00,+24.0805E-03,-16.7364E-03
-23.6655000E+00,+24.0805E-03,+0.0E+00
-23.6647500E+00,+24.0805E-03,+16.7364E-03
-23.6640000E+00,+24.0805E-03,+0.0E+00
-23.6632500E+00,+23.4111E-03,+0.0E+00
-23.6625000E+00,+23.7458E-03,+0.0E+00
-23.6617500E+00,+23.4111E-03,+16.7364E-03
-23.6610000E+00,+24.0805E-03,-16.7364E-03
-23.6602500E+00,+24.0805E-03,-33.4728E-03
-23.6595000E+00,+24.0805E-03,+16.7364E-03
-23.6587500E+00,+24.0805E-03,-16.7364E-03
-23.6580000E+00,+24.4153E-03,+16.7364E-03
-23.6572500E+00,+23.7458E-03,-33.4728E-03
-23.6565000E+00,+24.7500E-03,+0.0E+00
-23.6557500E+00,+24.0805E-03,+50.2092E-03
-23.6550000E+00,+24.0805E-03,+16.7364E-03
-23.6542500E+00,+23.0764E-03,-0.0E+00
-23.6535000E+00,+24.0805E-03,-16.7364E-03
-23.6527500E+00,+24.4153E-03,-16.7364E-03
-23.6520000E+00,+24.0805E-03,-16.7364E-03
-23.6512500E+00,+24.0805E-03,+0.0E+00
-23.6505000E+00,+23.0764E-03,-0.0E+00
-23.6497500E+00,+24.4153E-03,-16.7364E-03
-23.6490000E+00,+23.7458E-03,+33.4728E-03
-23.6482500E+00,+24.4153E-03,+33.4728E-03
-23.6475000E+00,+23.7458E-03,-16.7364E-03
-23.6467500E+00,+24.0805E-03,-16.7364E-03
-23.6460000E+00,+24.7500E-03,-0.0E+00
-23.6452500E+00,+23.7458E-03,-16.7364E-03
-23.6445000E+00,+23.7458E-03,-16.7364E-03
-23.6437500E+00,+23.4111E-03,+0.0E+00
-23.6430000E+00,+23.4111E-03,+16.7364E-03
-23.6422500E+00,+22.7416E-03,-16.7364E-03
-23.6415000E+00,+23.7458E-03,-16.7364E-03
-23.6407500E+00,+23.4111E-03,-16.7364E-03
-23.6400000E+00,+24.0805E-03,+16.7364E-03
-23.6392500E+00,+23.4111E-03,-0.0E+00
-23.6385000E+00,+23.7458E-03,-16.7364E-03
-23.6377500E+00,+23.7458E-03,+50.2092E-03
-23.6370000E+00,+24.0805E-03,+0.0E+00
-23.6362500E+00,+24.4153E-03,-0.0E+00
-23.6355000E+00,+23.0764E-03,-16.7364E-03
-23.6347500E+00,+24.7500E-03,+0.0E+00
-23.6340000E+00,+23.7458E-03,+16.7364E-03
-23.6332500E+00,+23.0764E-03,-0.0E+00
-23.6325000E+00,+23.4111E-03,-16.7364E-03
-23.6317500E+00,+24.0805E-03,+16.7364E-03
-23.6310000E+00,+24.0805E-03,-16.7364E-03
-23.6302500E+00,+23.7458E-03,-16.7364E-03
-23.6295000E+00,+23.4111E-03,+0.0E+00
-23.6287500E+00,+24.0805E-03,+16.7364E-03
-23.6280000E+00,+23.7458E-03,-16.7364E-03
-23.6272500E+00,+23.7458E-03,+16.7364E-03
-23.6265000E+00,+24.0805E-03,+16.7364E-03
-23.6257500E+00,+24.4153E-03,+0.0E+00
-23.6250000E+00,+23.7458E-03,+16.7364E-03
-23.6242500E+00,+23.4111E-03,+0.0E+00
-23.6235000E+00,+24.0805E-03,+16.7364E-03
-23.6227500E+00,+24.0805E-03,+0.0E+00
-23.6220000E+00,+23.0764E-03,+16.7364E-03
-23.6212500E+00,+24.4153E-03,-0.0E+00
-23.6205000E+00,+24.0805E-03,-16.7364E-03
-23.6197500E+00,+23.7458E-03,-0.0E+00
-23.6190000E+00,+24.4153E-03,-16.7364E-03
-23.6182500E+00,+23.7458E-03,+33.4728E-03
-23.6175000E+00,+23.7458E-03,+16.7364E-03
-23.6167500E+00,+24.4153E-03,-16.7364E-03
-23.6160000E+00,+25.0847E-03,+0.0E+00
-23.6152500E+00,+24.0805E-03,+0.0E+00
-23.6145000E+00,+23.7458E-03,+33.4728E-03
-23.6137500E+00,+23.7458E-03,-16.7364E-03
-23.6130000E+00,+24.4153E-03,+0.0E+00
-23.6122500E+00,+22.7416E-03,+50.2092E-03
-23.6115000E+00,+24.4153E-03,-16.7364E-03
-23.6107500E+00,+24.4153E-03,+16.7364E-03
-23.6100000E+00,+24.7500E-03,+16.7364E-03
-23.6092500E+00,+23.0764E-03,+16.7364E-03
-23.6085000E+00,+23.0764E-03,-16.7364E-03
-23.6077500E+00,+24.0805E-03,+16.7364E-03
-23.6070000E+00,+25.0847E-03,+0.0E+00
-23.6062500E+00,+24.0805E-03,-0.0E+00
-23.6055000E+00,+23.7458E-03,-16.7364E-03
-23.6047500E+00,+23.7458E-03,+16.7364E-03
-23.6040000E+00,+23.0764E-03,+0.0E+00
-23.6032500E+00,+24.0805E-03,+0.0E+00
-23.6025000E+00,+24.4153E-03,-0.0E+00
-23.6017500E+00,+23.4111E-03,-16.7364E-03
-23.6010000E+00,+23.7458E-03,+16.7364E-03
-23.6002500E+00,+23.7458E-03,+16.7364E-03
-23.5995000E+00,+24.0805E-03,+50.2092E-03
-23.5987500E+00,+25.0847E-03,+16.7364E-03
-23.5980000E+00,+23.7458E-03,+16.7364E-03
-23.5972500E+00,+23.4111E-03,+0.0E+00
-23.5965000E+00,+24.0805E-03,-0.0E+00
-23.5957500E+00,+24.0805E-03,-16.7364E-03
-23.5950000E+00,+23.7458E-03,+0.0E+00
-23.5942500E+00,+23.7458E-03,+16.7364E-03
-23.5935000E+00,+25.4195E-03,+16.7364E-03
-23.5927500E+00,+23.7458E-03,+16.7364E-03
-23.5920000E+00,+23.7458E-03,-16.7364E-03
-23.5912500E+00,+23.7458E-03,+16.7364E-03
-23.5905000E+00,+23.7458E-03,+0.0E+00
-23.5897500E+00,+24.4153E-03,+0.0E+00
-23.5890000E+00,+24.7500E-03,+0.0E+00
-23.5882500E+00,+23.7458E-03,+16.7364E-03
-23.5875000E+00,+24.0805E-03,-16.7364E-03
-23.5867500E+00,+24.4153E-03,+0.0E+00
-23.5860000E+00,+24.4153E-03,+16.7364E-03
-23.5852500E+00,+23.7458E-03,+16.7364E-03
-23.5845000E+00,+23.4111E-03,-0.0E+00
-23.5837500E+00,+24.4153E-03,-16.7364E-03
-23.5830000E+00,+24.4153E-03,+33.4728E-03
-23.5822500E+00,+24.0805E-03,+16.7364E-03
-23.5815000E+00,+23.0764E-03,-33.4728E-03
-23.5807500E+00,+23.7458E-03,-16.7364E-03
-23.5800000E+00,+23.7458E-03,-0.0E+00
-23.5792500E+00,+24.0805E-03,-16.7364E-03
-23.5785000E+00,+23.0764E-03,+16.7364E-03
-23.5777500E+00,+24.0805E-03,+16.7364E-03
-23.5770000E+00,+23.7458E-03,+16.7364E-03
-23.5762500E+00,+24.0805E-03,+16.7364E-03
-23.5755000E+00,+23.7458E-03,+16.7364E-03
-23.5747500E+00,+23.0764E-03,-16.7364E-03
-23.5740000E+00,+23.7458E-03,+16.7364E-03
-23.5732500E+00,+24.0805E-03,-0.0E+00
-23.5725000E+00,+23.7458E-03,-33.4728E-03
-23.5717500E+00,+23.7458E-03,+16.7364E-03
-23.5710000E+00,+25.0847E-03,+0.0E+00
-23.5702500E+00,+24.0805E-03,+0.0E+00
-23.5695000E+00,+23.7458E-03,+0.0E+00
-23.5687500E+00,+23.4111E-03,+0.0E+00
-23.5680000E+00,+23.7458E-03,+0.0E+00
-23.5672500E+00,+23.7458E-03,-0.0E+00
-23.5665000E+00,+23.7458E-03,-33.4728E-03
-23.5657500E+00,+23.7458E-03,+0.0E+00
-23.5650000E+00,+23.7458E-03,+16.7364E-03
-23.5642500E+00,+24.7500E-03,+50.2092E-03
-23.5635000E+00,+24.4153E-03,+0.0E+00
-23.5627500E+00,+24.4153E-03,-0.0E+00
-23.5620000E+00,+24.7500E-03,-16.7364E-03
-23.5612500E+00,+24.0805E-03,+0.0E+00
-23.5605000E+00,+24.0805E-03,+16.7364E-03
-23.5597500E+00,+24.0805E-03,+16.7364E-03
-23.5590000E+00,+23.0764E-03,+16.7364E-03
-23.5582500E+00,+23.7458E-03,+16.7364E-03
-23.5575000E+00,+24.0805E-03,+0.0E+00
-23.5567500E+00,+24.7500E-03,+0.0E+00
-23.5560000E+00,+24.0805E-03,+0.0E+00
-23.5552500E+00,+24.7500E-03,+33.4728E-03
-23.5545000E+00,+24.4153E-03,+16.7364E-03
-23.5537500E+00,+24.0805E-03,-0.0E+00
-23.5530000E+00,+23.7458E-03,-16.7364E-03
-23.5522500E+00,+24.4153E-03,+16.7364E-03
-23.5515000E+00,+23.4111E-03,-16.7364E-03
-23.5507500E+00,+23.4111E-03,+33.4728E-03
-23.5500000E+00,+23.7458E-03,+16.7364E-03
-23.5492500E+00,+24.0805E-03,+16.7364E-03
-23.5485000E+00,+23.7458E-03,+33.4728E-03
-23.5477500E+00,+23.4111E-03,-0.0E+00
-23.5470000E+00,+23.4111E-03,-33.4728E-03
-23.5462500E+00,+23.7458E-03,-16.7364E-03
-23.5455000E+00,+24.7500E-03,-16.7364E-03
-23.5447500E+00,+23.4111E-03,-0.0E+00
-23.5440000E+00,+23.4111E-03,-33.4728E-03
-23.5432500E+00,+23.4111E-03,+0.0E+00
-23.5425000E+00,+23.4111E-03,+33.4728E-03
-23.5417500E+00,+24.0805E-03,+33.4728E-03
-23.5410000E+00,+23.7458E-03,-0.0E+00
-23.5402500E+00,+23.4111E-03,-16.7364E-03
-23.5395000E+00,+23.0764E-03,-33.4728E-03
-23.5387500E+00,+24.0805E-03,+16.7364E-03
-23.5380000E+00,+24.0805E-03,-33.4728E-03
-23.5372500E+00,+24.0805E-03,+16.7364E-03
-23.5365000E+00,+24.4153E-03,+0.0E+00
-23.5357500E+00,+24.0805E-03,+16.7364E-03
-23.5350000E+00,+23.4111E-03,+16.7364E-03
-23.5342500E+00,+23.7458E-03,+0.0E+00
-23.5335000E+00,+23.7458E-03,+33.4728E-03
-23.5327500E+00,+23.7458E-03,+0.0E+00
-23.5320000E+00,+24.0805E-03,+0.0E+00
-23.5312500E+00,+23.4111E-03,+33.4728E-03
-23.5305000E+00,+23.7458E-03,+0.0E+00
-23.5297500E+00,+24.0805E-03,+0.0E+00
-23.5290000E+00,+23.4111E-03,+0.0E+00
-23.5282500E+00,+24.7500E-03,+0.0E+00
-23.5275000E+00,+24.0805E-03,-0.0E+00
-23.5267500E+00,+23.7458E-03,-16.7364E-03
-23.5260000E+00,+24.0805E-03,+0.0E+00
-23.5252500E+00,+23.7458E-03,+16.7364E-03
-23.5245000E+00,+24.0805E-03,-16.7364E-03
-23.5237500E+00,+24.0805E-03,+0.0E+00
-23.5230000E+00,+24.0805E-03,+16.7364E-03
-23.5222500E+00,+24.4153E-03,-16.7364E-03
-23.5215000E+00,+23.7458E-03,+0.0E+00
-23.5207500E+00,+24.7500E-03,-0.0E+00
-23.5200000E+00,+24.4153E-03,-16.7364E-03
-23.5192500E+00,+23.4111E-03,+33.4728E-03
-23.5185000E+00,+24.0805E-03,+0.0E+00
-23.5177500E+00,+23.7458E-03,+0.0E+00
-23.5170000E+00,+24.0805E-03,+0.0E+00
-23.5162500E+00,+24.0805E-03,+16.7364E-03
-23.5155000E+00,+24.4153E-03,+0.0E+00
-23.5147500E+00,+24.0805E-03,+16.7364E-03
-23.5140000E+00,+24.7500E-03,+16.7364E-03
-23.5132500E+00,+23.4111E-03,-16.7364E-03
-23.5125000E+00,+24.0805E-03,+16.7364E-03
-23.5117500E+00,+23.7458E-03,+16.7364E-03
-23.5110000E+00,+23.7458E-03,-16.7364E-03
-23.5102500E+00,+24.0805E-03,-16.7364E-03
-23.5095000E+00,+23.4111E-03,-16.7364E-03
-23.5087500E+00,+24.0805E-03,-33.4728E-03
-23.5080000E+00,+24.4153E-03,+0.0E+00
-23.5072500E+00,+22.7416E-03,+33.4728E-03
-23.5065000E+00,+24.0805E-03,+16.7364E-03
-23.5057500E+00,+23.7458E-03,-16.7364E-03
-23.5050000E+00,+22.7416E-03,-16.7364E-03
-23.5042500E+00,+23.4111E-03,+0.0E+00
-23.5035000E+00,+23.7458E-03,+16.7364E-03
-23.5027500E+00,+24.4153E-03,-16.7364E-03
-23.5020000E+00,+24.0805E-03,+33.4728E-03
-23.5012500E+00,+26.0889E-03,-16.7364E-03
-23.5005000E+00,+23.7458E-03,+16.7364E-03
-23.4997500E+00,+23.7458E-03,+16.7364E-03
-23.4990000E+00,+24.4153E-03,+0.0E+00
-23.4982500E+00,+24.7500E-03,+16.7364E-03
-23.4975000E+00,+23.0764E-03,-16.7364E-03
-23.4967500E+00,+23.7458E-03,+33.4728E-03
-23.4960000E+00,+23.4111E-03,+0.0E+00
-23.4952500E+00,+24.4153E-03,+0.0E+00
-23.4945000E+00,+23.7458E-03,+0.0E+00
-23.4937500E+00,+23.0764E-03,+0.0E+00
-23.4930000E+00,+23.7458E-03,-0.0E+00
-23.4922500E+00,+24.7500E-03,-16.7364E-03
-23.4915000E+00,+23.4111E-03,+0.0E+00
-23.4907500E+00,+24.0805E-03,+33.4728E-03
-23.4900000E+00,+24.0805E-03,-33.4728E-03
-23.4892500E+00,+24.0805E-03,+0.0E+00
-23.4885000E+00,+23.7458E-03,+0.0E+00
-23.4877500E+00,+23.4111E-03,+16.7364E-03
-23.4870000E+00,+24.0805E-03,-0.0E+00
-23.4862500E+00,+23.4111E-03,-16.7364E-03
-23.4855000E+00,+24.0805E-03,-16.7364E-03
-23.4847500E+00,+23.4111E-03,+0.0E+00
-23.4840000E+00,+23.7458E-03,+16.7364E-03
-23.4832500E+00,+24.4153E-03,+0.0E+00
-23.4825000E+00,+23.7458E-03,+0.0E+00
-23.4817500E+00,+24.0805E-03,+0.0E+00
-23.4810000E+00,+23.0764E-03,-0.0E+00
-23.4802500E+00,+23.4111E-03,-33.4728E-03
-23.4795000E+00,+23.7458E-03,+16.7364E-03
-23.4787500E+00,+24.4153E-03,+50.2092E-03
-23.4780000E+00,+24.0805E-03,-16.7364E-03
-23.4772500E+00,+23.7458E-03,+16.7364E-03
-23.4765000E+00,+23.7458E-03,+16.7364E-03
-23.4757500E+00,+24.7500E-03,+16.7364E-03
-23.4750000E+00,+24.0805E-03,+16.7364E-03
-23.4742500E+00,+24.0805E-03,-16.7364E-03
-23.4735000E+00,+24.7500E-03,+0.0E+00
-23.4727500E+00,+23.4111E-03,+16.7364E-03
-23.4720000E+00,+23.4111E-03,+33.4728E-03
-23.4712500E+00,+23.4111E-03,+0.0E+00
-23.4705000E+00,+23.7458E-03,+0.0E+00
-23.4697500E+00,+24.4153E-03,+16.7364E-03
-23.4690000E+00,+24.0805E-03,+0.0E+00
-23.4682500E+00,+23.4111E-03,+16.7364E-03
-23.4675000E+00,+25.0847E-03,+0.0E+00
-23.4667500E+00,+23.0764E-03,+16.7364E-03
-23.4660000E+00,+23.4111E-03,+0.0E+00
-23.4652500E+00,+23.7458E-03,+16.7364E-03
-23.4645000E+00,+24.0805E-03,+16.7364E-03
-23.4637500E+00,+24.7500E-03,+16.7364E-03
-23.4630000E+00,+24.0805E-03,-50.2092E-03
-23.4622500E+00,+23.7458E-03,-16.7364E-03
-23.4615000E+00,+23.4111E-03,-16.7364E-03
-23.4607500E+00,+23.4111E-03,-33.4728E-03
-23.4600000E+00,+23.7458E-03,+16.7364E-03
-23.4592500E+00,+24.4153E-03,+0.0E+00
-23.4585000E+00,+25.4195E-03,+0.0E+00
-23.4577500E+00,+24.0805E-03,+0.0E+00
-23.4570000E+00,+24.4153E-03,+16.7364E-03
-23.4562500E+00,+25.0847E-03,+16.7364E-03
-23.4555000E+00,+24.0805E-03,-16.7364E-03
-23.4547500E+00,+24.0805E-03,-16.7364E-03
-23.4540000E+00,+24.0805E-03,+16.7364E-03
-23.4532500E+00,+23.7458E-03,-16.7364E-03
-23.4525000E+00,+24.7500E-03,+16.7364E-03
-23.4517500E+00,+24.0805E-03,-16.7364E-03
-23.4510000E+00,+24.0805E-03,+0.0E+00
-23.4502500E+00,+23.4111E-03,+16.7364E-03
-23.4495000E+00,+25.0847E-03,+16.7364E-03
-23.4487500E+00,+22.7416E-03,+0.0E+00
-23.4480000E+00,+23.7458E-03,-0.0E+00
-23.4472500E+00,+22.7416E-03,-16.7364E-03
-23.4465000E+00,+23.4111E-03,+16.7364E-03
-23.4457500E+00,+23.7458E-03,+16.7364E-03
-23.4450000E+00,+24.4153E-03,+33.4728E-03
-23.4442500E+00,+24.0805E-03,+16.7364E-03
-23.4435000E+00,+24.4153E-03,+16.7364E-03
-23.4427500E+00,+23.7458E-03,+16.7364E-03
-23.4420000E+00,+24.0805E-03,+33.4728E-03
-23.4412500E+00,+23.0764E-03,+16.7364E-03
-23.4405000E+00,+23.7458E-03,-0.0E+00
-23.4397500E+00,+24.0805E-03,-33.4728E-03
-23.4390000E+00,+23.4111E-03,+33.4728E-03
-23.4382500E+00,+23.4111E-03,+0.0E+00
-23.4375000E+00,+23.7458E-03,-0.0E+00
-23.4367500E+00,+24.4153E-03,-16.7364E-03
-23.4360000E+00,+25.0847E-03,-33.4728E-03
-23.4352500E+00,+23.4111E-03,+16.7364E-03
-23.4345000E+00,+24.0805E-03,+16.7364E-03
-23.4337500E+00,+23.4111E-03,-16.7364E-03
-23.4330000E+00,+23.7458E-03,+16.7364E-03
-23.4322500E+00,+24.7500E-03,-16.7364E-03
-23.4315000E+00,+23.4111E-03,+16.7364E-03
-23.4307500E+00,+23.7458E-03,+33.4728E-03
-23.4300000E+00,+24.4153E-03,+16.7364E-03
-23.4292500E+00,+24.4153E-03,-16.7364E-03
-23.4285000E+00,+24.0805E-03,+0.0E+00
-23.4277500E+00,+24.0805E-03,+0.0E+00
-23.4270000E+00,+24.4153E-03,+16.7364E-03
-23.4262500E+00,+24.0805E-03,-0.0E+00
-23.4255000E+00,+23.0764E-03,-16.7364E-03
-23.4247500E+00,+23.7458E-03,+16.7364E-03
-23.4240000E+00,+23.7458E-03,+0.0E+00
-23.4232500E+00,+24.0805E-03,+16.7364E-03
-23.4225000E+00,+23.7458E-03,-16.7364E-03
-23.4217500E+00,+24.0805E-03,+16.7364E-03
-23.4210000E+00,+23.4111E-03,+0.0E+00
-23.4202500E+00,+23.7458E-03,+33.4728E-03
-23.4195000E+00,+23.7458E-03,-0.0E+00
-23.4187500E+00,+23.4111E-03,-16.7364E-03
-23.4180000E+00,+23.7458E-03,-50.2092E-03
-23.4172500E+00,+23.7458E-03,-0.0E+00
-23.4165000E+00,+23.7458E-03,-33.4728E-03
-23.4157500E+00,+23.0764E-03,+0.0E+00
-23.4150000E+00,+23.7458E-03,-0.0E+00
-23.4142500E+00,+23.0764E-03,-16.7364E-03
-23.4135000E+00,+23.0764E-03,+0.0E+00
-23.4127500E+00,+23.7458E-03,+16.7364E-03
-23.4120000E+00,+23.4111E-03,+16.7364E-03
-23.4112500E+00,+24.0805E-03,+0.0E+00
-23.4105000E+00,+23.4111E-03,+0.0E+00
-23.4097500E+00,+23.7458E-03,+0.0E+00
-23.4090000E+00,+23.7458E-03,+50.2092E-03
-23.4082500E+00,+23.4111E-03,-0.0E+00
-23.4075000E+00,+24.0805E-03,-33.4728E-03
-23.4067500E+00,+23.7458E-03,-0.0E+00
-23.4060000E+00,+24.4153E-03,-16.7364E-03
-23.4052500E+00,+24.0805E-03,-16.7364E-03
-23.4045000E+00,+23.7458E-03,+16.7364E-03
-23.4037500E+00,+23.0764E-03,-16.7364E-03
-23.4030000E+00,+23.7458E-03,+0.0E+00
-23.4022500E+00,+23.0764E-03,+33.4728E-03
-23.4015000E+00,+24.4153E-03,+16.7364E-03
-23.4007500E+00,+23.7458E-03,-0.0E+00
-23.4000000E+00,+24.0805E-03,-33.4728E-03
-23.3992500E+00,+24.4153E-03,+0.0E+00
-23.3985000E+00,+23.7458E-03,+16.7364E-03
-23.3977500E+00,+24.0805E-03,+16.7364E-03
-23.3970000E+00,+24.4153E-03,+16.7364E-03
-23.3962500E+00,+23.4111E-03,+0.0E+00
-23.3955000E+00,+23.4111E-03,+0.0E+00
-23.3947500E+00,+23.4111E-03,+33.4728E-03
-23.3940000E+00,+23.4111E-03,+16.7364E-03
-23.3932500E+00,+23.4111E-03,+16.7364E-03
-23.3925000E+00,+24.0805E-03,+33.4728E-03
-23.3917500E+00,+25.0847E-03,-0.0E+00
-23.3910000E+00,+22.0722E-03,-16.7364E-03
-23.3902500E+00,+24.0805E-03,+16.7364E-03
-23.3895000E+00,+24.0805E-03,+0.0E+00
-23.3887500E+00,+23.4111E-03,+16.7364E-03
-23.3880000E+00,+23.4111E-03,+33.4728E-03
-23.3872500E+00,+24.0805E-03,-16.7364E-03
-23.3865000E+00,+25.4195E-03,+0.0E+00
-23.3857500E+00,+23.4111E-03,+16.7364E-03
-23.3850000E+00,+23.7458E-03,+16.7364E-03
-23.3842500E+00,+22.7416E-03,-16.7364E-03
-23.3835000E+00,+23.4111E-03,-33.4728E-03
-23.3827500E+00,+24.4153E-03,-16.7364E-03
-23.3820000E+00,+24.0805E-03,+16.7364E-03
-23.3812500E+00,+24.7500E-03,-33.4728E-03
-23.3805000E+00,+24.0805E-03,+33.4728E-03
-23.3797500E+00,+23.0764E-03,+0.0E+00
-23.3790000E+00,+23.7458E-03,-0.0E+00
-23.3782500E+00,+23.4111E-03,-16.7364E-03
-23.3775000E+00,+23.7458E-03,+0.0E+00
-23.3767500E+00,+23.7458E-03,+0.0E+00
-23.3760000E+00,+23.7458E-03,+33.4728E-03
-23.3752500E+00,+23.0764E-03,+33.4728E-03
-23.3745000E+00,+24.7500E-03,-16.7364E-03
-23.3737500E+00,+23.4111E-03,+0.0E+00
-23.3730000E+00,+24.7500E-03,+16.7364E-03
-23.3722500E+00,+23.7458E-03,-16.7364E-03
-23.3715000E+00,+24.7500E-03,+0.0E+00
-23.3707500E+00,+23.0764E-03,-0.0E+00
-23.3700000E+00,+23.4111E-03,-16.7364E-03
-23.3692500E+00,+23.7458E-03,-0.0E+00
-23.3685000E+00,+24.7500E-03,-16.7364E-03
-23.3677500E+00,+24.4153E-03,+16.7364E-03
-23.3670000E+00,+24.4153E-03,+16.7364E-03
-23.3662500E+00,+23.7458E-03,+0.0E+00
-23.3655000E+00,+24.0805E-03,+16.7364E-03
-23.3647500E+00,+25.0847E-03,+0.0E+00
-23.3640000E+00,+24.4153E-03,+0.0E+00
-23.3632500E+00,+24.4153E-03,+16.7364E-03
-23.3625000E+00,+23.4111E-03,+0.0E+00
-23.3617500E+00,+23.7458E-03,+0.0E+00
-23.3610000E+00,+23.7458E-03,+16.7364E-03
-23.3602500E+00,+24.0805E-03,+0.0E+00
-23.3595000E+00,+23.0764E-03,+50.2092E-03
-23.3587500E+00,+24.4153E-03,+33.4728E-03
-23.3580000E+00,+25.0847E-03,+50.2092E-03
-23.3572500E+00,+24.0805E-03,-16.7364E-03
-23.3565000E+00,+23.4111E-03,+16.7364E-03
-23.3557500E+00,+23.0764E-03,+0.0E+00
-23.3550000E+00,+23.7458E-03,+0.0E+00
-23.3542500E+00,+24.0805E-03,+0.0E+00
-23.3535000E+00,+23.4111E-03,+16.7364E-03
-23.3527500E+00,+24.7500E-03,-50.2092E-03
-23.3520000E+00,+23.7458E-03,+16.7364E-03
-23.3512500E+00,+23.7458E-03,+0.0E+00
-23.3505000E+00,+23.4111E-03,+16.7364E-03
-23.3497500E+00,+24.0805E-03,+16.7364E-03
-23.3490000E+00,+24.0805E-03,-33.4728E-03
-23.3482500E+00,+23.4111E-03,+0.0E+00
-23.3475000E+00,+23.0764E-03,-0.0E+00
-23.3467500E+00,+22.7416E-03,-16.7364E-03
-23.3460000E+00,+23.0764E-03,+0.0E+00
-23.3452500E+00,+24.0805E-03,+0.0E+00
-23.3445000E+00,+24.7500E-03,+0.0E+00
-23.3437500E+00,+24.4153E-03,-0.0E+00
-23.3430000E+00,+23.7458E-03,-16.7364E-03
-23.3422500E+00,+23.0764E-03,+33.4728E-03
-23.3415000E+00,+23.4111E-03,-33.4728E-03
-23.3407500E+00,+24.0805E-03,+16.7364E-03
-23.3400000E+00,+23.7458E-03,+16.7364E-03
-23.3392500E+00,+24.0805E-03,+16.7364E-03
-23.3385000E+00,+23.7458E-03,+16.7364E-03
-23.3377500E+00,+24.4153E-03,+16.7364E-03
-23.3370000E+00,+23.7458E-03,+0.0E+00
-23.3362500E+00,+24.7500E-03,+16.7364E-03
-23.3355000E+00,+23.4111E-03,-16.7364E-03
-23.3347500E+00,+24.4153E-03,+16.7364E-03
-23.3340000E+00,+24.4153E-03,+16.7364E-03
-23.3332500E+00,+24.7500E-03,-33.4728E-03
-23.3325000E+00,+23.4111E-03,+16.7364E-03
-23.3317500E+00,+24.4153E-03,-16.7364E-03
-23.3310000E+00,+24.7500E-03,-16.7364E-03
-23.3302500E+00,+24.4153E-03,-16.7364E-03
-23.3295000E+00,+23.7458E-03,-0.0E+00
-23.3287500E+00,+24.4153E-03,-16.7364E-03
-23.3280000E+00,+23.0764E-03,+16.7364E-03
-23.3272500E+00,+24.0805E-03,-0.0E+00
-23.3265000E+00,+24.0805E-03,-33.4728E-03
-23.3257500E+00,+24.0805E-03,-16.7364E-03
-23.3250000E+00,+23.7458E-03,+33.4728E-03
-23.3242500E+00,+23.4111E-03,+33.4728E-03
-23.3235000E+00,+23.4111E-03,+0.0E+00
-23.3227500E+00,+24.7500E-03,+16.7364E-03
-23.3220000E+00,+23.7458E-03,-16.7364E-03
-23.3212500E+00,+24.4153E-03,-0.0E+00
-23.3205000E+00,+25.0847E-03,-16.7364E-03
-23.3197500E+00,+24.4153E-03,+33.4728E-03
-23.3190000E+00,+25.0847E-03,+16.7364E-03
-23.3182500E+00,+23.0764E-03,+0.0E+00
-23.3175000E+00,+24.0805E-03,-0.0E+00
-23.3167500E+00,+23.7458E-03,-16.7364E-03
-23.3160000E+00,+23.4111E-03,-0.0E+00
-23.3152500E+00,+23.4111E-03,-16.7364E-03
-23.3145000E+00,+23.0764E-03,-16.7364E-03
-23.3137500E+00,+24.4153E-03,+16.7364E-03
-23.3130000E+00,+23.0764E-03,+0.0E+00
-23.3122500E+00,+23.4111E-03,+0.0E+00
-23.3115000E+00,+24.4153E-03,+0.0E+00
-23.3107500E+00,+23.4111E-03,+0.0E+00
-23.3100000E+00,+24.0805E-03,-0.0E+00
-23.3092500E+00,+23.4111E-03,-16.7364E-03
-23.3085000E+00,+23.4111E-03,-33.4728E-03
-23.3077500E+00,+23.7458E-03,+16.7364E-03
-23.3070000E+00,+23.7458E-03,-16.7364E-03
-23.3062500E+00,+24.0805E-03,+0.0E+00
-23.3055000E+00,+24.0805E-03,+16.7364E-03
-23.3047500E+00,+24.4153E-03,+0.0E+00
-23.3040000E+00,+23.7458E-03,+33.4728E-03
-23.3032500E+00,+24.0805E-03,+16.7364E-03
-23.3025000E+00,+24.0805E-03,-33.4728E-03
-23.3017500E+00,+24.0805E-03,-16.7364E-03
-23.3010000E+00,+24.0805E-03,+0.0E+00
-23.3002500E+00,+23.7458E-03,+0.0E+00
-23.2995000E+00,+24.7500E-03,+16.7364E-03
-23.2987500E+00,+24.0805E-03,+33.4728E-03
-23.2980000E+00,+24.4153E-03,+0.0E+00
-23.2972500E+00,+23.4111E-03,+0.0E+00
-23.2965000E+00,+24.0805E-03,+0.0E+00
-23.2957500E+00,+23.7458E-03,+0.0E+00
-23.2950000E+00,+23.7458E-03,-0.0E+00
-23.2942500E+00,+24.0805E-03,-16.7364E-03
-23.2935000E+00,+23.7458E-03,-16.7364E-03
-23.2927500E+00,+24.4153E-03,+16.7364E-03
-23.2920000E+00,+23.7458E-03,+50.2092E-03
-23.2912500E+00,+23.7458E-03,+16.7364E-03
-23.2905000E+00,+24.4153E-03,+16.7364E-03
-23.2897500E+00,+23.7458E-03,+0.0E+00
-23.2890000E+00,+23.7458E-03,+16.7364E-03
-23.2882500E+00,+24.0805E-03,+16.7364E-03
-23.2875000E+00,+23.4111E-03,+16.7364E-03
-23.2867500E+00,+23.4111E-03,-16.7364E-03
-23.2860000E+00,+23.4111E-03,+0.0E+00
-23.2852500E+00,+23.7458E-03,+0.0E+00
-23.2845000E+00,+23.7458E-03,+0.0E+00
-23.2837500E+00,+23.7458E-03,-0.0E+00
-23.2830000E+00,+24.7500E-03,-33.4728E-03
-23.2822500E+00,+23.7458E-03,+0.0E+00
-23.2815000E+00,+23.4111E-03,+0.0E+00
-23.2807500E+00,+23.4111E-03,+0.0E+00
-23.2800000E+00,+23.7458E-03,+16.7364E-03
-23.2792500E+00,+24.4153E-03,+16.7364E-03
-23.2785000E+00,+23.4111E-03,+0.0E+00
-23.2777500E+00,+23.7458E-03,+0.0E+00
-23.2770000E+00,+24.4153E-03,+16.7364E-03
-23.2762500E+00,+24.4153E-03,+16.7364E-03
-23.2755000E+00,+23.7458E-03,+0.0E+00
-23.2747500E+00,+24.0805E-03,+16.7364E-03
-23.2740000E+00,+23.7458E-03,+0.0E+00
-23.2732500E+00,+24.7500E-03,+16.7364E-03
-23.2725000E+00,+23.7458E-03,+50.2092E-03
-23.2717500E+00,+23.4111E-03,+0.0E+00
-23.2710000E+00,+24.0805E-03,+16.7364E-03
-23.2702500E+00,+23.4111E-03,+16.7364E-03
-23.2695000E+00,+23.7458E-03,+16.7364E-03
-23.2687500E+00,+24.7500E-03,+50.2092E-03
-23.2680000E+00,+24.7500E-03,+16.7364E-03
-23.2672500E+00,+23.0764E-03,-16.7364E-03
-23.2665000E+00,+24.7500E-03,+0.0E+00
-23.2657500E+00,+24.0805E-03,+0.0E+00
-23.2650000E+00,+23.7458E-03,+0.0E+00
-23.2642500E+00,+24.7500E-03,+16.7364E-03
-23.2635000E+00,+23.7458E-03,-33.4728E-03
-23.2627500E+00,+24.0805E-03,-16.7364E-03
-23.2620000E+00,+23.4111E-03,-33.4728E-03
-23.2612500E+00,+24.0805E-03,+33.4728E-03
-23.2605000E+00,+23.7458E-03,+50.2092E-03
-23.2597500E+00,+24.4153E-03,+16.7364E-03
-23.2590000E+00,+24.4153E-03,-33.4728E-03
-23.2582500E+00,+23.7458E-03,+50.2092E-03
-23.2575000E+00,+23.7458E-03,+16.7364E-03
-23.2567500E+00,+24.4153E-03,+0.0E+00
-23.2560000E+00,+23.7458E-03,+33.4728E-03
-23.2552500E+00,+23.4111E-03,-16.7364E-03
-23.2545000E+00,+24.0805E-03,+0.0E+00
-23.2537500E+00,+23.7458E-03,+16.7364E-03
-23.2530000E+00,+24.7500E-03,+33.4728E-03
-23.2522500E+00,+24.4153E-03,+0.0E+00
-23.2515000E+00,+24.4153E-03,-0.0E+00
-23.2507500E+00,+23.4111E-03,-16.7364E-03
-23.2500000E+00,+24.7500E-03,+16.7364E-03
-23.2492500E+00,+23.7458E-03,+33.4728E-03
-23.2485000E+00,+23.0764E-03,+0.0E+00
-23.2477500E+00,+23.7458E-03,+0.0E+00
-23.2470000E+00,+23.7458E-03,+0.0E+00
-23.2462500E+00,+24.0805E-03,+33.4728E-03
-23.2455000E+00,+23.7458E-03,+0.0E+00
-23.2447500E+00,+23.7458E-03,+0.0E+00
-23.2440000E+00,+23.7458E-03,+16.7364E-03
-23.2432500E+00,+23.7458E-03,-16.7364E-03
-23.2425000E+00,+23.7458E-03,-16.7364E-03
-23.2417500E+00,+24.7500E-03,+0.0E+00
-23.2410000E+00,+23.4111E-03,+16.7364E-03
-23.2402500E+00,+23.7458E-03,+0.0E+00
-23.2395000E+00,+23.7458E-03,+16.7364E-03
-23.2387500E+00,+24.0805E-03,+33.4728E-03
-23.2380000E+00,+23.7458E-03,+0.0E+00
-23.2372500E+00,+24.0805E-03,+16.7364E-03
-23.2365000E+00,+24.4153E-03,-16.7364E-03
-23.2357500E+00,+22.7416E-03,-16.7364E-03
-23.2350000E+00,+23.7458E-03,+16.7364E-03
-23.2342500E+00,+23.4111E-03,+16.7364E-03
-23.2335000E+00,+23.4111E-03,+0.0E+00
-23.2327500E+00,+23.4111E-03,+0.0E+00
-23.2320000E+00,+24.4153E-03,+16.7364E-03
-23.2312500E+00,+24.0805E-03,-16.7364E-03
-23.2305000E+00,+23.4111E-03,-16.7364E-03
-23.2297500E+00,+23.7458E-03,+0.0E+00
-23.2290000E+00,+23.4111E-03,+0.0E+00
-23.2282500E+00,+23.4111E-03,+0.0E+00
-23.2275000E+00,+23.4111E-03,+16.7364E-03
-23.2267500E+00,+23.7458E-03,+0.0E+00
-23.2260000E+00,+23.4111E-03,+0.0E+00
-23.2252500E+00,+24.4153E-03,+0.0E+00
-23.2245000E+00,+23.4111E-03,+16.7364E-03
-23.2237500E+00,+23.7458E-03,-16.7364E-03
-23.2230000E+00,+23.7458E-03,+33.4728E-03
-23.2222500E+00,+24.4153E-03,-16.7364E-03
-23.2215000E+00,+25.0847E-03,-16.7364E-03
-23.2207500E+00,+23.0764E-03,-50.2092E-03
-23.2200000E+00,+23.0764E-03,+16.7364E-03
-23.2192500E+00,+23.7458E-03,+0.0E+00
-23.2185000E+00,+23.7458E-03,+0.0E+00
-23.2177500E+00,+24.4153E-03,+33.4728E-03
-23.2170000E+00,+24.7500E-03,-16.7364E-03
-23.2162500E+00,+24.0805E-03,-0.0E+00
-23.2155000E+00,+23.4111E-03,-16.7364E-03
-23.2147500E+00,+25.0847E-03,+50.2092E-03
-23.2140000E+00,+24.7500E-03,+16.7364E-03
-23.2132500E+00,+23.0764E-03,-16.7364E-03
-23.2125000E+00,+22.7416E-03,+33.4728E-03
-23.2117500E+00,+24.4153E-03,-33.4728E-03
-23.2110000E+00,+24.0805E-03,-16.7364E-03
-23.2102500E+00,+23.7458E-03,+16.7364E-03
-23.2095000E+00,+24.0805E-03,+0.0E+00
-23.2087500E+00,+23.7458E-03,+16.7364E-03
-23.2080000E+00,+24.0805E-03,+16.7364E-03
-23.2072500E+00,+23.7458E-03,-16.7364E-03
-23.2065000E+00,+23.7458E-03,+16.7364E-03
-23.2057500E+00,+23.7458E-03,-16.7364E-03
-23.2050000E+00,+23.7458E-03,+33.4728E-03
-23.2042500E+00,+24.0805E-03,-16.7364E-03
-23.2035000E+00,+25.0847E-03,+16.7364E-03
-23.2027500E+00,+23.7458E-03,+0.0E+00
-23.2020000E+00,+24.4153E-03,+0.0E+00
-23.2012500E+00,+23.7458E-03,-0.0E+00
-23.2005000E+00,+23.7458E-03,-16.7364E-03
-23.1997500E+00,+23.7458E-03,+33.4728E-03
-23.1990000E+00,+24.4153E-03,+0.0E+00
-23.1982500E+00,+23.7458E-03,+0.0E+00
-23.1975000E+00,+24.4153E-03,+0.0E+00
-23.1967500E+00,+23.4111E-03,+16.7364E-03
-23.1960000E+00,+23.4111E-03,-16.7364E-03
-23.1952500E+00,+23.4111E-03,+0.0E+00
-23.1945000E+00,+23.4111E-03,+16.7364E-03
-23.1937500E+00,+23.4111E-03,+16.7364E-03
-23.1930000E+00,+22.4069E-03,+0.0E+00
-23.1922500E+00,+23.0764E-03,+16.7364E-03
-23.1915000E+00,+24.0805E-03,+33.4728E-03
-23.1907500E+00,+24.0805E-03,+0.0E+00
-23.1900000E+00,+24.7500E-03,+16.7364E-03
-23.1892500E+00,+23.7458E-03,-0.0E+00
-23.1885000E+00,+23.4111E-03,-16.7364E-03
-23.1877500E+00,+24.4153E-03,-0.0E+00
-23.1870000E+00,+24.0805E-03,-33.4728E-03
-23.1862500E+00,+23.7458E-03,-16.7364E-03
-23.1855000E+00,+23.4111E-03,+16.7364E-03
-23.1847500E+00,+24.0805E-03,+0.0E+00
-23.1840000E+00,+24.7500E-03,+0.0E+00
-23.1832500E+00,+23.0764E-03,+33.4728E-03
-23.1825000E+00,+23.0764E-03,+16.7364E-03
-23.1817500E+00,+23.7458E-03,+0.0E+00
-23.1810000E+00,+23.7458E-03,+16.7364E-03
-23.1802500E+00,+24.4153E-03,-16.7364E-03
-23.1795000E+00,+23.7458E-03,+33.4728E-03
-23.1787500E+00,+23.7458E-03,-16.7364E-03
-23.1780000E+00,+23.7458E-03,+0.0E+00
-23.1772500E+00,+23.4111E-03,+16.7364E-03
-23.1765000E+00,+23.4111E-03,-16.7364E-03
-23.1757500E+00,+24.7500E-03,+0.0E+00
-23.1750000E+00,+24.0805E-03,+0.0E+00
-23.1742500E+00,+24.7500E-03,+16.7364E-03
-23.1735000E+00,+23.4111E-03,-16.7364E-03
-23.1727500E+00,+24.0805E-03,-16.7364E-03
-23.1720000E+00,+24.0805E-03,+16.7364E-03
-23.1712500E+00,+23.7458E-03,+33.4728E-03
-23.1705000E+00,+24.4153E-03,-33.4728E-03
-23.1697500E+00,+23.4111E-03,-16.7364E-03
-23.1690000E+00,+24.0805E-03,+16.7364E-03
-23.1682500E+00,+23.0764E-03,-0.0E+00
-23.1675000E+00,+24.0805E-03,-16.7364E-03
-23.1667500E+00,+24.0805E-03,+0.0E+00
-23.1660000E+00,+24.0805E-03,+0.0E+00
-23.1652500E+00,+24.0805E-03,+16.7364E-03
-23.1645000E+00,+23.0764E-03,+33.4728E-03
-23.1637500E+00,+24.4153E-03,+16.7364E-03
-23.1630000E+00,+24.4153E-03,-16.7364E-03
-23.1622500E+00,+24.0805E-03,+33.4728E-03
-23.1615000E+00,+23.7458E-03,+0.0E+00
-23.1607500E+00,+23.7458E-03,+16.7364E-03
-23.1600000E+00,+23.4111E-03,+16.7364E-03
-23.1592500E+00,+24.0805E-03,-0.0E+00
-23.1585000E+00,+23.7458E-03,-16.7364E-03
-23.1577500E+00,+23.7458E-03,-33.4728E-03
-23.1570000E+00,+24.7500E-03,-16.7364E-03
-23.1562500E+00,+23.4111E-03,+16.7364E-03
-23.1555000E+00,+23.7458E-03,-16.7364E-03
-23.1547500E+00,+23.7458E-03,+33.4728E-03
-23.1540000E+00,+24.0805E-03,+0.0E+00
-23.1532500E+00,+24.7500E-03,+0.0E+00
-23.1525000E+00,+24.4153E-03,+16.7364E-03
-23.1517500E+00,+24.4153E-03,-16.7364E-03
-23.1510000E+00,+23.0764E-03,+16.7364E-03
-23.1502500E+00,+24.0805E-03,+16.7364E-03
-23.1495000E+00,+23.7458E-03,+16.7364E-03
-23.1487500E+00,+23.4111E-03,+33.4728E-03
-23.1480000E+00,+24.0805E-03,-0.0E+00
-23.1472500E+00,+23.7458E-03,-16.7364E-03
-23.1465000E+00,+24.4153E-03,+0.0E+00
-23.1457500E+00,+23.0764E-03,+0.0E+00
-23.1450000E+00,+25.4195E-03,+33.4728E-03
-23.1442500E+00,+25.0847E-03,+16.7364E-03
-23.1435000E+00,+24.4153E-03,-16.7364E-03
-23.1427500E+00,+24.4153E-03,+16.7364E-03
-23.1420000E+00,+23.7458E-03,-16.7364E-03
-23.1412500E+00,+23.7458E-03,+33.4728E-03
-23.1405000E+00,+23.4111E-03,-0.0E+00
-23.1397500E+00,+24.4153E-03,-33.4728E-03
-23.1390000E+00,+24.7500E-03,-0.0E+00
-23.1382500E+00,+23.0764E-03,-16.7364E-03
-23.1375000E+00,+24.4153E-03,-16.7364E-03
-23.1367500E+00,+23.7458E-03,+0.0E+00
-23.1360000E+00,+23.4111E-03,+0.0E+00
-23.1352500E+00,+23.7458E-03,+16.7364E-03
-23.1345000E+00,+24.4153E-03,+16.7364E-03
-23.1337500E+00,+23.4111E-03,+33.4728E-03
-23.1330000E+00,+23.4111E-03,+16.7364E-03
-23.1322500E+00,+23.4111E-03,-16.7364E-03
-23.1315000E+00,+24.0805E-03,+0.0E+00
-23.1307500E+00,+24.0805E-03,-0.0E+00
-23.1300000E+00,+23.7458E-03,-16.7364E-03
-23.1292500E+00,+23.0764E-03,+16.7364E-03
-23.1285000E+00,+23.4111E-03,+33.4728E-03
-23.1277500E+00,+24.4153E-03,-0.0E+00
-23.1270000E+00,+24.0805E-03,-16.7364E-03
-23.1262500E+00,+24.0805E-03,+16.7364E-03
-23.1255000E+00,+23.7458E-03,+16.7364E-03
-23.1247500E+00,+23.4111E-03,-0.0E+00
-23.1240000E+00,+24.0805E-03,-16.7364E-03
-23.1232500E+00,+23.7458E-03,+0.0E+00
-23.1225000E+00,+24.4153E-03,-0.0E+00
-23.1217500E+00,+23.7458E-03,-16.7364E-03
-23.1210000E+00,+24.0805E-03,+16.7364E-03
-23.1202500E+00,+24.0805E-03,+0.0E+00
-23.1195000E+00,+23.7458E-03,+0.0E+00
-23.1187500E+00,+23.7458E-03,+33.4728E-03
-23.1180000E+00,+23.0764E-03,-16.7364E-03
-23.1172500E+00,+24.4153E-03,+0.0E+00
-23.1165000E+00,+23.4111E-03,+16.7364E-03
-23.1157500E+00,+24.0805E-03,+33.4728E-03
-23.1150000E+00,+24.0805E-03,+16.7364E-03
-23.1142500E+00,+23.7458E-03,-0.0E+00
-23.1135000E+00,+23.7458E-03,-33.4728E-03
-23.1127500E+00,+24.0805E-03,+0.0E+00
-23.1120000E+00,+23.7458E-03,+33.4728E-03
-23.1112500E+00,+24.4153E-03,+16.7364E-03
-23.1105000E+00,+23.0764E-03,-0.0E+00
-23.1097500E+00,+23.0764E-03,-16.7364E-03
-23.1090000E+00,+23.4111E-03,+0.0E+00
-23.1082500E+00,+23.7458E-03,+0.0E+00
-23.1075000E+00,+23.4111E-03,+33.4728E-03
-23.1067500E+00,+22.7416E-03,+0.0E+00
-23.1060000E+00,+24.0805E-03,+0.0E+00
-23.1052500E+00,+23.7458E-03,+16.7364E-03
-23.1045000E+00,+24.7500E-03,-0.0E+00
-23.1037500E+00,+23.7458E-03,-16.7364E-03
-23.1030000E+00,+24.0805E-03,-33.4728E-03
-23.1022500E+00,+23.0764E-03,-16.7364E-03
-23.1015000E+00,+24.7500E-03,-16.7364E-03
-23.1007500E+00,+23.4111E-03,+0.0E+00
-23.1000000E+00,+24.0805E-03,+50.2092E-03
-23.0992500E+00,+24.0805E-03,-16.7364E-03
-23.0985000E+00,+24.7500E-03,+0.0E+00
-23.0977500E+00,+22.7416E-03,+16.7364E-03
-23.0970000E+00,+23.4111E-03,+16.7364E-03
-23.0962500E+00,+24.0805E-03,-0.0E+00
-23.0955000E+00,+23.7458E-03,-16.7364E-03
-23.0947500E+00,+23.7458E-03,+16.7364E-03
-23.0940000E+00,+24.7500E-03,+50.2092E-03
-23.0932500E+00,+23.4111E-03,+16.7364E-03
-23.0925000E+00,+24.4153E-03,-16.7364E-03
-23.0917500E+00,+23.7458E-03,+0.0E+00
-23.0910000E+00,+23.0764E-03,+0.0E+00
-23.0902500E+00,+23.4111E-03,+16.7364E-03
-23.0895000E+00,+24.0805E-03,-16.7364E-03
-23.0887500E+00,+24.4153E-03,+16.7364E-03
-23.0880000E+00,+23.4111E-03,+0.0E+00
-23.0872500E+00,+24.0805E-03,+33.4728E-03
-23.0865000E+00,+23.4111E-03,+16.7364E-03
-23.0857500E+00,+23.0764E-03,-16.7364E-03
-23.0850000E+00,+23.4111E-03,-0.0E+00
-23.0842500E+00,+23.4111E-03,-16.7364E-03
-23.0835000E+00,+23.4111E-03,+0.0E+00
-23.0827500E+00,+24.4153E-03,+0.0E+00
-23.0820000E+00,+23.7458E-03,-0.0E+00
-23.0812500E+00,+24.0805E-03,-16.7364E-03
-23.0805000E+00,+24.7500E-03,+16.7364E-03
-23.0797500E+00,+24.0805E-03,-0.0E+00
-23.0790000E+00,+24.4153E-03,-16.7364E-03
-23.0782500E+00,+23.4111E-03,+0.0E+00
-23.0775000E+00,+23.7458E-03,-0.0E+00
-23.0767500E+00,+24.4153E-03,-16.7364E-03
-23.0760000E+00,+23.0764E-03,-0.0E+00
-23.0752500E+00,+24.0805E-03,-16.7364E-03
-23.0745000E+00,+23.7458E-03,+0.0E+00
-23.0737500E+00,+23.7458E-03,+0.0E+00
-23.0730000E+00,+23.7458E-03,+0.0E+00
-23.0722500E+00,+23.7458E-03,+33.4728E-03
-23.0715000E+00,+23.7458E-03,+33.4728E-03
-23.0707500E+00,+23.7458E-03,+0.0E+00
-23.0700000E+00,+23.4111E-03,+33.4728E-03
-23.0692500E+00,+23.7458E-03,-16.7364E-03
-23.0685000E+00,+23.7458E-03,+16.7364E-03
-23.0677500E+00,+23.7458E-03,+33.4728E-03
-23.0670000E+00,+24.4153E-03,+16.7364E-03
-23.0662500E+00,+24.0805E-03,+33.4728E-03
-23.0655000E+00,+23.4111E-03,-33.4728E-03
-23.0647500E+00,+23.7458E-03,+16.7364E-03
-23.0640000E+00,+23.0764E-03,-50.2092E-03
-23.0632500E+00,+23.7458E-03,-0.0E+00
-23.0625000E+00,+24.0805E-03,-16.7364E-03
-23.0617500E+00,+23.7458E-03,-33.4728E-03
-23.0610000E+00,+23.4111E-03,+16.7364E-03
-23.0602500E+00,+24.4153E-03,+33.4728E-03
-23.0595000E+00,+23.7458E-03,+16.7364E-03
-23.0587500E+00,+23.0764E-03,-0.0E+00
-23.0580000E+00,+24.0805E-03,-16.7364E-03
-23.0572500E+00,+23.7458E-03,-16.7364E-03
-23.0565000E+00,+24.0805E-03,-16.7364E-03
-23.0557500E+00,+24.4153E-03,+16.7364E-03
-23.0550000E+00,+23.4111E-03,+16.7364E-03
-23.0542500E+00,+23.7458E-03,-16.7364E-03
-23.0535000E+00,+23.4111E-03,+0.0E+00
-23.0527500E+00,+23.7458E-03,+16.7364E-03
-23.0520000E+00,+24.0805E-03,+33.4728E-03
-23.0512500E+00,+24.4153E-03,-0.0E+00
-23.0505000E+00,+24.0805E-03,-16.7364E-03
-23.0497500E+00,+24.0805E-03,-16.7364E-03
-23.0490000E+00,+23.7458E-03,+0.0E+00
-23.0482500E+00,+24.0805E-03,-0.0E+00
-23.0475000E+00,+23.7458E-03,-50.2092E-03
-23.0467500E+00,+24.7500E-03,+33.4728E-03
-23.0460000E+00,+23.4111E-03,+16.7364E-03
-23.0452500E+00,+23.7458E-03,-0.0E+00
-23.0445000E+00,+24.0805E-03,-16.7364E-03
-23.0437500E+00,+24.0805E-03,-16.7364E-03
-23.0430000E+00,+23.4111E-03,+33.4728E-03
-23.0422500E+00,+23.7458E-03,+0.0E+00
-23.0415000E+00,+23.4111E-03,+16.7364E-03
-23.0407500E+00,+24.0805E-03,+0.0E+00
-23.0400000E+00,+24.0805E-03,+0.0E+00
-23.0392500E+00,+23.0764E-03,-0.0E+00
-23.0385000E+00,+24.4153E-03,-16.7364E-03
-23.0377500E+00,+23.0764E-03,-0.0E+00
-23.0370000E+00,+24.4153E-03,-16.7364E-03
-23.0362500E+00,+23.4111E-03,+0.0E+00
-23.0355000E+00,+23.7458E-03,+16.7364E-03
-23.0347500E+00,+23.7458E-03,+16.7364E-03
-23.0340000E+00,+23.0764E-03,+16.7364E-03
-23.0332500E+00,+24.4153E-03,+0.0E+00
-23.0325000E+00,+23.7458E-03,+16.7364E-03
-23.0317500E+00,+23.4111E-03,+33.4728E-03
-23.0310000E+00,+23.7458E-03,-0.0E+00
-23.0302500E+00,+23.0764E-03,-16.7364E-03
-23.0295000E+00,+23.7458E-03,-16.7364E-03
-23.0287500E+00,+24.4153E-03,+33.4728E-03
-23.0280000E+00,+24.0805E-03,+0.0E+00
-23.0272500E+00,+23.7458E-03,+16.7364E-03
-23.0265000E+00,+23.4111E-03,+0.0E+00
-23.0257500E+00,+23.7458E-03,+16.7364E-03
-23.0250000E+00,+24.4153E-03,-0.0E+00
-23.0242500E+00,+23.7458E-03,-50.2092E-03
-23.0235000E+00,+24.0805E-03,-16.7364E-03
-23.0227500E+00,+23.7458E-03,-33.4728E-03
-23.0220000E+00,+23.7458E-03,+16.7364E-03
-23.0212500E+00,+23.7458E-03,+16.7364E-03
-23.0205000E+00,+23.7458E-03,-16.7364E-03
-23.0197500E+00,+24.0805E-03,+33.4728E-03
-23.0190000E+00,+24.0805E-03,+16.7364E-03
-23.0182500E+00,+24.7500E-03,-33.4728E-03
-23.0175000E+00,+23.7458E-03,+16.7364E-03
-23.0167500E+00,+24.0805E-03,-0.0E+00
-23.0160000E+00,+23.7458E-03,-16.7364E-03
-23.0152500E+00,+23.0764E-03,-16.7364E-03
-23.0145000E+00,+24.0805E-03,+0.0E+00
-23.0137500E+00,+24.4153E-03,+0.0E+00
-23.0130000E+00,+24.0805E-03,-0.0E+00
-23.0122500E+00,+23.7458E-03,-16.7364E-03
-23.0115000E+00,+24.7500E-03,+16.7364E-03
-23.0107500E+00,+23.0764E-03,-33.4728E-03
-23.0100000E+00,+23.7458E-03,-0.0E+00
-23.0092500E+00,+23.7458E-03,-16.7364E-03
-23.0085000E+00,+23.4111E-03,+33.4728E-03
-23.0077500E+00,+23.7458E-03,+0.0E+00
-23.0070000E+00,+23.7458E-03,+50.2092E-03
-23.0062500E+00,+23.4111E-03,-16.7364E-03
-23.0055000E+00,+24.7500E-03,-16.7364E-03
-23.0047500E+00,+23.7458E-03,+0.0E+00
-23.0040000E+00,+23.7458E-03,+33.4728E-03
-23.0032500E+00,+24.0805E-03,-16.7364E-03
-23.0025000E+00,+24.4153E-03,+0.0E+00
-23.0017500E+00,+24.7500E-03,+16.7364E-03
-23.0010000E+00,+23.7458E-03,+0.0E+00
-23.0002500E+00,+24.0805E-03,+0.0E+00
-22.9995000E+00,+23.7458E-03,+0.0E+00
-22.9987500E+00,+24.0805E-03,+16.7364E-03
-22.9980000E+00,+23.4111E-03,+16.7364E-03
-22.9972500E+00,+23.0764E-03,+16.7364E-03
-22.9965000E+00,+23.7458E-03,-33.4728E-03
-22.9957500E+00,+23.7458E-03,-33.4728E-03
-22.9950000E+00,+23.0764E-03,+0.0E+00
-22.9942500E+00,+22.7416E-03,+16.7364E-03
-22.9935000E+00,+23.0764E-03,+33.4728E-03
-22.9927500E+00,+23.7458E-03,+33.4728E-03
-22.9920000E+00,+23.7458E-03,+16.7364E-03
-22.9912500E+00,+24.4153E-03,+16.7364E-03
-22.9905000E+00,+23.7458E-03,+33.4728E-03
-22.9897500E+00,+23.7458E-03,-33.4728E-03
-22.9890000E+00,+24.4153E-03,+16.7364E-03
-22.9882500E+00,+24.4153E-03,-16.7364E-03
-22.9875000E+00,+23.7458E-03,+0.0E+00
-22.9867500E+00,+23.7458E-03,+0.0E+00
-22.9860000E+00,+23.7458E-03,+16.7364E-03
-22.9852500E+00,+24.0805E-03,-16.7364E-03
-22.9845000E+00,+24.0805E-03,+0.0E+00
-22.9837500E+00,+24.4153E-03,+16.7364E-03
-22.9830000E+00,+23.4111E-03,+33.4728E-03
-22.9822500E+00,+24.7500E-03,+0.0E+00
-22.9815000E+00,+23.7458E-03,+33.4728E-03
-22.9807500E+00,+24.0805E-03,+0.0E+00
-22.9800000E+00,+23.0764E-03,+0.0E+00
-22.9792500E+00,+23.4111E-03,-0.0E+00
-22.9785000E+00,+23.4111E-03,-33.4728E-03
-22.9777500E+00,+23.4111E-03,-16.7364E-03
-22.9770000E+00,+23.7458E-03,-16.7364E-03
-22.9762500E+00,+24.0805E-03,+33.4728E-03
-22.9755000E+00,+24.0805E-03,+16.7364E-03
-22.9747500E+00,+24.0805E-03,+50.2092E-03
-22.9740000E+00,+23.7458E-03,+0.0E+00
-22.9732500E+00,+23.7458E-03,+0.0E+00
-22.9725000E+00,+23.7458E-03,+33.4728E-03
-22.9717500E+00,+23.7458E-03,+16.7364E-03
-22.9710000E+00,+23.7458E-03,+16.7364E-03
-22.9702500E+00,+24.0805E-03,+0.0E+00
-22.9695000E+00,+22.7416E-03,+0.0E+00
-22.9687500E+00,+23.0764E-03,+16.7364E-03
-22.9680000E+00,+24.0805E-03,+16.7364E-03
-22.9672500E+00,+24.0805E-03,+0.0E+00
-22.9665000E+00,+24.7500E-03,+0.0E+00
-22.9657500E+00,+24.4153E-03,+16.7364E-03
-22.9650000E+00,+24.0805E-03,-16.7364E-03
-22.9642500E+00,+23.4111E-03,+33.4728E-03
-22.9635000E+00,+23.7458E-03,-33.4728E-03
-22.9627500E+00,+23.4111E-03,+0.0E+00
-22.9620000E+00,+24.4153E-03,-0.0E+00
-22.9612500E+00,+24.0805E-03,-16.7364E-03
-22.9605000E+00,+24.0805E-03,-0.0E+00
-22.9597500E+00,+24.4153E-03,-16.7364E-03
-22.9590000E+00,+24.4153E-03,-16.7364E-03
-22.9582500E+00,+23.7458E-03,+33.4728E-03
-22.9575000E+00,+24.0805E-03,-16.7364E-03
-22.9567500E+00,+23.7458E-03,+0.0E+00
-22.9560000E+00,+24.7500E-03,+33.4728E-03
-22.9552500E+00,+24.0805E-03,+0.0E+00
-22.9545000E+00,+23.4111E-03,+33.4728E-03
-22.9537500E+00,+24.4153E-03,+0.0E+00
-22.9530000E+00,+24.4153E-03,+0.0E+00
-22.9522500E+00,+24.0805E-03,+33.4728E-03
-22.9515000E+00,+24.4153E-03,-16.7364E-03
-22.9507500E+00,+23.0764E-03,+0.0E+00
-22.9500000E+00,+24.4153E-03,+16.7364E-03
-22.9492500E+00,+24.0805E-03,-16.7364E-03
-22.9485000E+00,+23.4111E-03,+0.0E+00
-22.9477500E+00,+23.7458E-03,+16.7364E-03
-22.9470000E+00,+23.7458E-03,+0.0E+00
-22.9462500E+00,+23.7458E-03,+50.2092E-03
-22.9455000E+00,+24.4153E-03,+33.4728E-03
-22.9447500E+00,+24.0805E-03,-16.7364E-03
-22.9440000E+00,+23.7458E-03,+16.7364E-03
-22.9432500E+00,+23.4111E-03,+0.0E+00
-22.9425000E+00,+23.7458E-03,+16.7364E-03
-22.9417500E+00,+23.0764E-03,-16.7364E-03
-22.9410000E+00,+22.7416E-03,-33.4728E-03
-22.9402500E+00,+24.4153E-03,-0.0E+00
-22.9395000E+00,+24.4153E-03,-16.7364E-03
-22.9387500E+00,+23.4111E-03,-16.7364E-03
-22.9380000E+00,+23.0764E-03,+0.0E+00
-22.9372500E+00,+23.0764E-03,+0.0E+00
-22.9365000E+00,+25.4195E-03,+33.4728E-03
-22.9357500E+00,+24.7500E-03,+16.7364E-03
-22.9350000E+00,+24.0805E-03,-33.4728E-03
-22.9342500E+00,+23.7458E-03,-0.0E+00
-22.9335000E+00,+23.7458E-03,-33.4728E-03
-22.9327500E+00,+23.7458E-03,+16.7364E-03
-22.9320000E+00,+22.7416E-03,+0.0E+00
-22.9312500E+00,+24.0805E-03,+0.0E+00
-22.9305000E+00,+23.7458E-03,+16.7364E-03
-22.9297500E+00,+23.7458E-03,-16.7364E-03
-22.9290000E+00,+24.7500E-03,+33.4728E-03
-22.9282500E+00,+23.7458E-03,-33.4728E-03
-22.9275000E+00,+24.4153E-03,+33.4728E-03
-22.9267500E+00,+24.4153E-03,-0.0E+00
-22.9260000E+00,+22.7416E-03,-16.7364E-03
-22.9252500E+00,+24.4153E-03,+33.4728E-03
-22.9245000E+00,+24.0805E-03,+33.4728E-03
-22.9237500E+00,+24.0805E-03,-33.4728E-03
-22.9230000E+00,+23.0764E-03,+0.0E+00
-22.9222500E+00,+24.4153E-03,+16.7364E-03
-22.9215000E+00,+24.0805E-03,+0.0E+00
-22.9207500E+00,+23.7458E-03,+0.0E+00
-22.9200000E+00,+24.7500E-03,+16.7364E-03
-22.9192500E+00,+23.0764E-03,+16.7364E-03
-22.9185000E+00,+24.4153E-03,+16.7364E-03
-22.9177500E+00,+23.7458E-03,+16.7364E-03
-22.9170000E+00,+23.7458E-03,+33.4728E-03
-22.9162500E+00,+23.7458E-03,-33.4728E-03
-22.9155000E+00,+23.4111E-03,+33.4728E-03
-22.9147500E+00,+24.4153E-03,+0.0E+00
-22.9140000E+00,+23.4111E-03,-0.0E+00
-22.9132500E+00,+24.7500E-03,-16.7364E-03
-22.9125000E+00,+23.4111E-03,-0.0E+00
-22.9117500E+00,+24.0805E-03,-16.7364E-03
-22.9110000E+00,+23.4111E-03,+0.0E+00
-22.9102500E+00,+24.0805E-03,+33.4728E-03
-22.9095000E+00,+23.7458E-03,+16.7364E-03
-22.9087500E+00,+24.0805E-03,+16.7364E-03
-22.9080000E+00,+23.7458E-03,+16.7364E-03
-22.9072500E+00,+23.7458E-03,+16.7364E-03
-22.9065000E+00,+23.7458E-03,-0.0E+00
-22.9057500E+00,+23.0764E-03,-16.7364E-03
-22.9050000E+00,+23.7458E-03,+0.0E+00
-22.9042500E+00,+23.7458E-03,+16.7364E-03
-22.9035000E+00,+23.7458E-03,-16.7364E-03
-22.9027500E+00,+23.7458E-03,-16.7364E-03
-22.9020000E+00,+23.4111E-03,+0.0E+00
-22.9012500E+00,+24.7500E-03,+33.4728E-03
-22.9005000E+00,+23.0764E-03,+0.0E+00
-22.8997500E+00,+24.7500E-03,+16.7364E-03
-22.8990000E+00,+23.7458E-03,-33.4728E-03
-22.8982500E+00,+23.0764E-03,+16.7364E-03
-22.8975000E+00,+23.7458E-03,+0.0E+00
-22.8967500E+00,+23.4111E-03,+0.0E+00
-22.8960000E+00,+23.4111E-03,+33.4728E-03
-22.8952500E+00,+24.4153E-03,-16.7364E-03
-22.8945000E+00,+23.7458E-03,-0.0E+00
-22.8937500E+00,+23.7458E-03,-16.7364E-03
-22.8930000E+00,+24.0805E-03,+50.2092E-03
-22.8922500E+00,+23.4111E-03,-33.4728E-03
-22.8915000E+00,+23.4111E-03,+16.7364E-03
-22.8907500E+00,+23.4111E-03,+0.0E+00
-22.8900000E+00,+24.0805E-03,+16.7364E-03
-22.8892500E+00,+23.4111E-03,+33.4728E-03
-22.8885000E+00,+23.7458E-03,+0.0E+00
-22.8877500E+00,+25.0847E-03,+33.4728E-03
-22.8870000E+00,+24.0805E-03,-16.7364E-03
-22.8862500E+00,+23.7458E-03,+33.4728E-03
-22.8855000E+00,+24.0805E-03,-16.7364E-03
-22.8847500E+00,+23.7458E-03,-0.0E+00
-22.8840000E+00,+24.4153E-03,-16.7364E-03
-22.8832500E+00,+23.4111E-03,-16.7364E-03
-22.8825000E+00,+24.0805E-03,-16.7364E-03
-22.8817500E+00,+24.0805E-03,+0.0E+00
-22.8810000E+00,+24.0805E-03,+16.7364E-03
-22.8802500E+00,+24.7500E-03,+0.0E+00
-22.8795000E+00,+23.0764E-03,+0.0E+00
-22.8787500E+00,+24.0805E-03,+33.4728E-03
-22.8780000E+00,+24.4153E-03,+16.7364E-03
-22.8772500E+00,+23.4111E-03,+16.7364E-03
-22.8765000E+00,+23.7458E-03,+0.0E+00
-22.8757500E+00,+23.4111E-03,+16.7364E-03
-22.8750000E+00,+23.0764E-03,+16.7364E-03
-22.8742500E+00,+22.7416E-03,+0.0E+00
-22.8735000E+00,+23.7458E-03,+0.0E+00
-22.8727500E+00,+25.0847E-03,+0.0E+00
-22.8720000E+00,+23.7458E-03,+16.7364E-03
-22.8712500E+00,+24.0805E-03,+0.0E+00
-22.8705000E+00,+24.4153E-03,+33.4728E-03
-22.8697500E+00,+23.4111E-03,+0.0E+00
-22.8690000E+00,+24.4153E-03,+50.2092E-03
-22.8682500E+00,+23.7458E-03,+33.4728E-03
-22.8675000E+00,+24.4153E-03,+0.0E+00
-22.8667500E+00,+24.0805E-03,+0.0E+00
-22.8660000E+00,+23.7458E-03,+0.0E+00
-22.8652500E+00,+23.0764E-03,+0.0E+00
-22.8645000E+00,+24.7500E-03,+16.7364E-03
-22.8637500E+00,+24.0805E-03,-16.7364E-03
-22.8630000E+00,+23.7458E-03,+33.4728E-03
-22.8622500E+00,+23.7458E-03,+0.0E+00
-22.8615000E+00,+24.4153E-03,+16.7364E-03
-22.8607500E+00,+24.0805E-03,+16.7364E-03
-22.8600000E+00,+23.7458E-03,-0.0E+00
-22.8592500E+00,+23.7458E-03,-16.7364E-03
-22.8585000E+00,+24.0805E-03,+33.4728E-03
-22.8577500E+00,+23.7458E-03,+33.4728E-03
-22.8570000E+00,+24.0805E-03,-16.7364E-03
-22.8562500E+00,+23.0764E-03,+0.0E+00
-22.8555000E+00,+23.7458E-03,+33.4728E-03
-22.8547500E+00,+24.7500E-03,+0.0E+00
-22.8540000E+00,+24.0805E-03,-0.0E+00
-22.8532500E+00,+23.7458E-03,-16.7364E-03
-22.8525000E+00,+24.4153E-03,-16.7364E-03
-22.8517500E+00,+24.4153E-03,-0.0E+00
-22.8510000E+00,+22.7416E-03,-16.7364E-03
-22.8502500E+00,+23.0764E-03,+16.7364E-03
-22.8495000E+00,+23.0764E-03,+16.7364E-03
-22.8487500E+00,+23.7458E-03,-0.0E+00
-22.8480000E+00,+23.4111E-03,-16.7364E-03
-22.8472500E+00,+23.7458E-03,+33.4728E-03
-22.8465000E+00,+23.4111E-03,+16.7364E-03
-22.8457500E+00,+23.0764E-03,+16.7364E-03
-22.8450000E+00,+24.0805E-03,-33.4728E-03
-22.8442500E+00,+22.7416E-03,+0.0E+00
-22.8435000E+00,+23.0764E-03,-0.0E+00
-22.8427500E+00,+23.7458E-03,-16.7364E-03
-22.8420000E+00,+23.4111E-03,-33.4728E-03
-22.8412500E+00,+23.7458E-03,+16.7364E-03
-22.8405000E+00,+23.4111E-03,-0.0E+00
-22.8397500E+00,+23.4111E-03,-16.7364E-03
-22.8390000E+00,+24.0805E-03,-16.7364E-03
-22.8382500E+00,+24.4153E-03,+16.7364E-03
-22.8375000E+00,+24.0805E-03,-16.7364E-03
-22.8367500E+00,+23.7458E-03,+0.0E+00
-22.8360000E+00,+24.7500E-03,-0.0E+00
-22.8352500E+00,+23.0764E-03,-16.7364E-03
-22.8345000E+00,+23.7458E-03,+0.0E+00
-22.8337500E+00,+23.7458E-03,+16.7364E-03
-22.8330000E+00,+23.0764E-03,+0.0E+00
-22.8322500E+00,+24.0805E-03,+0.0E+00
-22.8315000E+00,+23.4111E-03,+33.4728E-03
-22.8307500E+00,+24.0805E-03,+33.4728E-03
-22.8300000E+00,+23.7458E-03,-0.0E+00
-22.8292500E+00,+23.0764E-03,-16.7364E-03
-22.8285000E+00,+23.4111E-03,+16.7364E-03
-22.8277500E+00,+24.0805E-03,+16.7364E-03
-22.8270000E+00,+23.7458E-03,+16.7364E-03
-22.8262500E+00,+23.0764E-03,+16.7364E-03
-22.8255000E+00,+22.7416E-03,+33.4728E-03
-22.8247500E+00,+23.4111E-03,-0.0E+00
-22.8240000E+00,+23.7458E-03,-33.4728E-03
-22.8232500E+00,+23.4111E-03,+16.7364E-03
-22.8225000E+00,+23.7458E-03,+33.4728E-03
-22.8217500E+00,+23.4111E-03,-0.0E+00
-22.8210000E+00,+23.0764E-03,-16.7364E-03
-22.8202500E+00,+23.0764E-03,-0.0E+00
-22.8195000E+00,+23.4111E-03,-33.4728E-03
-22.8187500E+00,+23.7458E-03,+0.0E+00
-22.8180000E+00,+23.7458E-03,+16.7364E-03
-22.8172500E+00,+23.7458E-03,+0.0E+00
-22.8165000E+00,+24.0805E-03,-0.0E+00
-22.8157500E+00,+23.4111E-03,-16.7364E-03
-22.8150000E+00,+22.7416E-03,+16.7364E-03
-22.8142500E+00,+24.0805E-03,-16.7364E-03
-22.8135000E+00,+23.4111E-03,+33.4728E-03
-22.8127500E+00,+23.4111E-03,-16.7364E-03
-22.8120000E+00,+23.7458E-03,+0.0E+00
-22.8112500E+00,+24.0805E-03,+16.7364E-03
-22.8105000E+00,+23.0764E-03,-16.7364E-03
-22.8097500E+00,+23.0764E-03,+16.7364E-03
-22.8090000E+00,+24.7500E-03,+16.7364E-03
-22.8082500E+00,+23.7458E-03,+33.4728E-03
-22.8075000E+00,+23.0764E-03,+16.7364E-03
-22.8067500E+00,+24.4153E-03,+50.2092E-03
-22.8060000E+00,+24.0805E-03,-0.0E+00
-22.8052500E+00,+24.4153E-03,-16.7364E-03
-22.8045000E+00,+23.7458E-03,+0.0E+00
-22.8037500E+00,+24.0805E-03,+0.0E+00
-22.8030000E+00,+23.4111E-03,+0.0E+00
-22.8022500E+00,+23.7458E-03,+33.4728E-03
-22.8015000E+00,+23.7458E-03,+0.0E+00
-22.8007500E+00,+23.7458E-03,+16.7364E-03
-22.8000000E+00,+24.4153E-03,+0.0E+00
-22.7992500E+00,+24.4153E-03,-0.0E+00
-22.7985000E+00,+23.7458E-03,-16.7364E-03
-22.7977500E+00,+23.7458E-03,+16.7364E-03
-22.7970000E+00,+24.4153E-03,-16.7364E-03
-22.7962500E+00,+24.4153E-03,+16.7364E-03
-22.7955000E+00,+24.0805E-03,-16.7364E-03
-22.7947500E+00,+23.4111E-03,-0.0E+00
-22.7940000E+00,+23.4111E-03,-16.7364E-03
-22.7932500E+00,+23.0764E-03,+16.7364E-03
-22.7925000E+00,+23.4111E-03,+0.0E+00
-22.7917500E+00,+23.7458E-03,+0.0E+00
-22.7910000E+00,+24.0805E-03,+0.0E+00
-22.7902500E+00,+24.0805E-03,+16.7364E-03
-22.7895000E+00,+23.4111E-03,+33.4728E-03
-22.7887500E+00,+23.7458E-03,+16.7364E-03
-22.7880000E+00,+24.0805E-03,-16.7364E-03
-22.7872500E+00,+23.4111E-03,-16.7364E-03
-22.7865000E+00,+24.0805E-03,+16.7364E-03
-22.7857500E+00,+24.0805E-03,+16.7364E-03
-22.7850000E+00,+23.0764E-03,+0.0E+00
-22.7842500E+00,+23.7458E-03,+16.7364E-03
-22.7835000E+00,+24.4153E-03,+16.7364E-03
-22.7827500E+00,+24.0805E-03,-16.7364E-03
-22.7820000E+00,+23.0764E-03,+16.7364E-03
-22.7812500E+00,+23.7458E-03,-16.7364E-03
-22.7805000E+00,+23.4111E-03,+16.7364E-03
-22.7797500E+00,+23.4111E-03,-0.0E+00
-22.7790000E+00,+23.7458E-03,-16.7364E-03
-22.7782500E+00,+23.0764E-03,-16.7364E-03
-22.7775000E+00,+24.7500E-03,+0.0E+00
-22.7767500E+00,+23.7458E-03,+33.4728E-03
-22.7760000E+00,+23.4111E-03,-16.7364E-03
-22.7752500E+00,+24.4153E-03,+0.0E+00
-22.7745000E+00,+24.0805E-03,+33.4728E-03
-22.7737500E+00,+24.0805E-03,+0.0E+00
-22.7730000E+00,+23.7458E-03,+33.4728E-03
-22.7722500E+00,+23.4111E-03,+33.4728E-03
-22.7715000E+00,+23.0764E-03,+0.0E+00
-22.7707500E+00,+23.0764E-03,+33.4728E-03
-22.7700000E+00,+23.4111E-03,+16.7364E-03
-22.7692500E+00,+24.4153E-03,+0.0E+00
-22.7685000E+00,+23.7458E-03,+16.7364E-03
-22.7677500E+00,+24.0805E-03,+0.0E+00
-22.7670000E+00,+24.0805E-03,+50.2092E-03
-22.7662500E+00,+24.7500E-03,+0.0E+00
-22.7655000E+00,+23.7458E-03,+16.7364E-03
-22.7647500E+00,+24.4153E-03,+16.7364E-03
-22.7640000E+00,+24.7500E-03,-16.7364E-03
-22.7632500E+00,+23.4111E-03,+33.4728E-03
-22.7625000E+00,+23.7458E-03,+0.0E+00
-22.7617500E+00,+23.4111E-03,+0.0E+00
-22.7610000E+00,+24.0805E-03,+50.2092E-03
-22.7602500E+00,+23.7458E-03,+16.7364E-03
-22.7595000E+00,+23.4111E-03,-0.0E+00
-22.7587500E+00,+23.7458E-03,-16.7364E-03
-22.7580000E+00,+23.0764E-03,-33.4728E-03
-22.7572500E+00,+24.0805E-03,+0.0E+00
-22.7565000E+00,+22.7416E-03,+50.2092E-03
-22.7557500E+00,+24.0805E-03,+16.7364E-03
-22.7550000E+00,+24.0805E-03,+0.0E+00
-22.7542500E+00,+23.7458E-03,+16.7364E-03
-22.7535000E+00,+24.0805E-03,+0.0E+00
-22.7527500E+00,+24.4153E-03,+16.7364E-03
-22.7520000E+00,+23.0764E-03,-16.7364E-03
-22.7512500E+00,+24.4153E-03,+16.7364E-03
-22.7505000E+00,+24.0805E-03,+16.7364E-03
-22.7497500E+00,+24.0805E-03,+0.0E+00
-22.7490000E+00,+23.7458E-03,+16.7364E-03
-22.7482500E+00,+23.7458E-03,+0.0E+00
-22.7475000E+00,+24.7500E-03,+16.7364E-03
-22.7467500E+00,+23.4111E-03,+16.7364E-03
-22.7460000E+00,+24.0805E-03,+0.0E+00
-22.7452500E+00,+23.7458E-03,+0.0E+00
-22.7445000E+00,+24.0805E-03,+16.7364E-03
-22.7437500E+00,+25.0847E-03,-16.7364E-03
-22.7430000E+00,+23.4111E-03,-33.4728E-03
-22.7422500E+00,+23.4111E-03,-0.0E+00
-22.7415000E+00,+23.4111E-03,-33.4728E-03
-22.7407500E+00,+23.7458E-03,+16.7364E-03
-22.7400000E+00,+23.7458E-03,+16.7364E-03
-22.7392500E+00,+23.4111E-03,-16.7364E-03
-22.7385000E+00,+23.7458E-03,-16.7364E-03
-22.7377500E+00,+24.0805E-03,-16.7364E-03
-22.7370000E+00,+24.0805E-03,-16.7364E-03
-22.7362500E+00,+24.0805E-03,+0.0E+00
-22.7355000E+00,+23.7458E-03,+50.2092E-03
-22.7347500E+00,+24.4153E-03,+16.7364E-03
-22.7340000E+00,+24.7500E-03,+16.7364E-03
-22.7332500E+00,+23.0764E-03,-0.0E+00
-22.7325000E+00,+23.7458E-03,-16.7364E-03
-22.7317500E+00,+24.0805E-03,+0.0E+00
-22.7310000E+00,+23.7458E-03,+0.0E+00
-22.7302500E+00,+23.4111E-03,+16.7364E-03
-22.7295000E+00,+23.7458E-03,+16.7364E-03
-22.7287500E+00,+24.0805E-03,-33.4728E-03
-22.7280000E+00,+22.7416E-03,+0.0E+00
-22.7272500E+00,+24.0805E-03,-0.0E+00
-22.7265000E+00,+23.0764E-03,-16.7364E-03
-22.7257500E+00,+24.4153E-03,+33.4728E-03
-22.7250000E+00,+23.4111E-03,+0.0E+00
-22.7242500E+00,+23.4111E-03,+16.7364E-03
-22.7235000E+00,+23.0764E-03,+16.7364E-03
-22.7227500E+00,+23.0764E-03,+16.7364E-03
-22.7220000E+00,+24.0805E-03,-16.7364E-03
-22.7212500E+00,+23.7458E-03,+0.0E+00
-22.7205000E+00,+24.4153E-03,+0.0E+00
-22.7197500E+00,+25.0847E-03,+0.0E+00
-22.7190000E+00,+24.7500E-03,+33.4728E-03
-22.7182500E+00,+24.0805E-03,-33.4728E-03
-22.7175000E+00,+24.0805E-03,+0.0E+00
-22.7167500E+00,+23.7458E-03,+16.7364E-03
-22.7160000E+00,+23.4111E-03,+33.4728E-03
-22.7152500E+00,+23.7458E-03,+16.7364E-03
-22.7145000E+00,+23.0764E-03,+16.7364E-03
-22.7137500E+00,+23.0764E-03,+16.7364E-03
-22.7130000E+00,+24.0805E-03,+0.0E+00
-22.7122500E+00,+23.7458E-03,+16.7364E-03
-22.7115000E+00,+23.7458E-03,-16.7364E-03
-22.7107500E+00,+23.4111E-03,+33.4728E-03
-22.7100000E+00,+23.7458E-03,-16.7364E-03
-22.7092500E+00,+22.7416E-03,+0.0E+00
-22.7085000E+00,+23.7458E-03,+16.7364E-03
-22.7077500E+00,+23.4111E-03,-33.4728E-03
-22.7070000E+00,+23.7458E-03,+16.7364E-03
-22.7062500E+00,+23.0764E-03,+16.7364E-03
-22.7055000E+00,+24.0805E-03,+16.7364E-03
-22.7047500E+00,+23.7458E-03,+33.4728E-03
-22.7040000E+00,+24.7500E-03,+33.4728E-03
-22.7032500E+00,+24.4153E-03,+33.4728E-03
-22.7025000E+00,+25.0847E-03,+0.0E+00
-22.7017500E+00,+24.0805E-03,+0.0E+00
-22.7010000E+00,+23.7458E-03,+16.7364E-03
-22.7002500E+00,+24.0805E-03,-16.7364E-03
-22.6995000E+00,+23.7458E-03,-0.0E+00
-22.6987500E+00,+22.4069E-03,-16.7364E-03
-22.6980000E+00,+23.7458E-03,+0.0E+00
-22.6972500E+00,+23.7458E-03,+16.7364E-03
-22.6965000E+00,+23.7458E-03,+16.7364E-03
-22.6957500E+00,+24.4153E-03,+33.4728E-03
-22.6950000E+00,+23.4111E-03,+0.0E+00
-22.6942500E+00,+23.4111E-03,+16.7364E-03
-22.6935000E+00,+24.7500E-03,+16.7364E-03
-22.6927500E+00,+24.7500E-03,+16.7364E-03
-22.6920000E+00,+23.7458E-03,-16.7364E-03
-22.6912500E+00,+23.4111E-03,+0.0E+00
-22.6905000E+00,+23.4111E-03,+0.0E+00
-22.6897500E+00,+24.4153E-03,+0.0E+00
-22.6890000E+00,+24.0805E-03,+16.7364E-03
-22.6882500E+00,+22.7416E-03,-0.0E+00
-22.6875000E+00,+23.4111E-03,-33.4728E-03
-22.6867500E+00,+24.7500E-03,+16.7364E-03
-22.6860000E+00,+24.0805E-03,+0.0E+00
-22.6852500E+00,+23.4111E-03,+0.0E+00
-22.6845000E+00,+24.7500E-03,+33.4728E-03
-22.6837500E+00,+24.0805E-03,+16.7364E-03
-22.6830000E+00,+23.0764E-03,+33.4728E-03
-22.6822500E+00,+23.7458E-03,+0.0E+00
-22.6815000E+00,+24.0805E-03,+33.4728E-03
-22.6807500E+00,+24.0805E-03,-16.7364E-03
-22.6800000E+00,+24.7500E-03,-0.0E+00
-22.6792500E+00,+23.7458E-03,-33.4728E-03
-22.6785000E+00,+24.7500E-03,+0.0E+00
-22.6777500E+00,+23.7458E-03,+16.7364E-03
-22.6770000E+00,+23.7458E-03,+0.0E+00
-22.6762500E+00,+23.7458E-03,+50.2092E-03
-22.6755000E+00,+23.7458E-03,+33.4728E-03
-22.6747500E+00,+24.4153E-03,-0.0E+00
-22.6740000E+00,+23.0764E-03,-33.4728E-03
-22.6732500E+00,+24.0805E-03,+16.7364E-03
-22.6725000E+00,+23.7458E-03,-16.7364E-03
-22.6717500E+00,+24.4153E-03,+16.7364E-03
-22.6710000E+00,+24.4153E-03,-16.7364E-03
-22.6702500E+00,+23.0764E-03,+0.0E+00
-22.6695000E+00,+24.0805E-03,-0.0E+00
-22.6687500E+00,+24.4153E-03,-16.7364E-03
-22.6680000E+00,+23.4111E-03,+16.7364E-03
-22.6672500E+00,+24.0805E-03,+16.7364E-03
-22.6665000E+00,+24.0805E-03,-16.7364E-03
-22.6657500E+00,+23.0764E-03,+16.7364E-03
-22.6650000E+00,+23.4111E-03,-16.7364E-03
-22.6642500E+00,+23.4111E-03,+16.7364E-03
-22.6635000E+00,+23.7458E-03,+16.7364E-03
-22.6627500E+00,+24.0805E-03,-0.0E+00
-22.6620000E+00,+23.4111E-03,-16.7364E-03
-22.6612500E+00,+23.0764E-03,+0.0E+00
-22.6605000E+00,+23.0764E-03,+16.7364E-03
-22.6597500E+00,+23.7458E-03,-0.0E+00
-22.6590000E+00,+23.4111E-03,-33.4728E-03
-22.6582500E+00,+24.7500E-03,+83.6820E-03
-22.6575000E+00,+23.4111E-03,+16.7364E-03
-22.6567500E+00,+23.7458E-03,+16.7364E-03
-22.6560000E+00,+23.7458E-03,+0.0E+00
-22.6552500E+00,+23.7458E-03,+16.7364E-03
-22.6545000E+00,+23.0764E-03,+16.7364E-03
-22.6537500E+00,+24.4153E-03,-16.7364E-03
-22.6530000E+00,+24.4153E-03,-0.0E+00
-22.6522500E+00,+24.0805E-03,-16.7364E-03
-22.6515000E+00,+23.4111E-03,+16.7364E-03
-22.6507500E+00,+23.4111E-03,-16.7364E-03
-22.6500000E+00,+23.7458E-03,+16.7364E-03
-22.6492500E+00,+24.0805E-03,+16.7364E-03
-22.6485000E+00,+23.0764E-03,-16.7364E-03
-22.6477500E+00,+22.7416E-03,-0.0E+00
-22.6470000E+00,+23.4111E-03,-16.7364E-03
-22.6462500E+00,+24.4153E-03,-16.7364E-03
-22.6455000E+00,+23.4111E-03,-16.7364E-03
-22.6447500E+00,+23.4111E-03,+0.0E+00
-22.6440000E+00,+24.4153E-03,+16.7364E-03
-22.6432500E+00,+24.4153E-03,+0.0E+00
-22.6425000E+00,+23.4111E-03,+16.7364E-03
-22.6417500E+00,+23.0764E-03,-16.7364E-03
-22.6410000E+00,+23.0764E-03,+50.2092E-03
-22.6402500E+00,+23.0764E-03,-16.7364E-03
-22.6395000E+00,+24.7500E-03,-16.7364E-03
-22.6387500E+00,+22.7416E-03,+16.7364E-03
-22.6380000E+00,+23.0764E-03,+16.7364E-03
-22.6372500E+00,+23.7458E-03,+33.4728E-03
-22.6365000E+00,+23.7458E-03,+16.7364E-03
-22.6357500E+00,+23.4111E-03,+0.0E+00
-22.6350000E+00,+23.7458E-03,+16.7364E-03
-22.6342500E+00,+23.7458E-03,-16.7364E-03
-22.6335000E+00,+23.7458E-03,-33.4728E-03
-22.6327500E+00,+24.7500E-03,-0.0E+00
-22.6320000E+00,+24.0805E-03,-16.7364E-03
-22.6312500E+00,+24.7500E-03,-16.7364E-03
-22.6305000E+00,+23.7458E-03,-16.7364E-03
-22.6297500E+00,+23.4111E-03,-16.7364E-03
-22.6290000E+00,+23.0764E-03,+16.7364E-03
-22.6282500E+00,+23.4111E-03,+16.7364E-03
-22.6275000E+00,+24.0805E-03,+0.0E+00
-22.6267500E+00,+24.0805E-03,+0.0E+00
-22.6260000E+00,+23.4111E-03,+0.0E+00
-22.6252500E+00,+24.4153E-03,+16.7364E-03
-22.6245000E+00,+23.7458E-03,+50.2092E-03
-22.6237500E+00,+24.0805E-03,+33.4728E-03
-22.6230000E+00,+23.4111E-03,+16.7364E-03
-22.6222500E+00,+24.7500E-03,+0.0E+00
-22.6215000E+00,+24.4153E-03,+16.7364E-03
-22.6207500E+00,+23.4111E-03,-16.7364E-03
-22.6200000E+00,+24.0805E-03,-16.7364E-03
-22.6192500E+00,+24.4153E-03,-16.7364E-03
-22.6185000E+00,+24.0805E-03,+16.7364E-03
-22.6177500E+00,+24.0805E-03,-16.7364E-03
-22.6170000E+00,+23.4111E-03,+0.0E+00
-22.6162500E+00,+23.7458E-03,+33.4728E-03
-22.6155000E+00,+22.7416E-03,+0.0E+00
-22.6147500E+00,+23.4111E-03,+0.0E+00
-22.6140000E+00,+22.7416E-03,+50.2092E-03
-22.6132500E+00,+23.4111E-03,-16.7364E-03
-22.6125000E+00,+24.7500E-03,+33.4728E-03
-22.6117500E+00,+23.4111E-03,+16.7364E-03
-22.6110000E+00,+23.4111E-03,+16.7364E-03
-22.6102500E+00,+23.7458E-03,+0.0E+00
-22.6095000E+00,+23.4111E-03,+0.0E+00
-22.6087500E+00,+23.7458E-03,+50.2092E-03
-22.6080000E+00,+23.7458E-03,+0.0E+00
-22.6072500E+00,+23.4111E-03,+0.0E+00
-22.6065000E+00,+23.7458E-03,+33.4728E-03
-22.6057500E+00,+23.4111E-03,-0.0E+00
-22.6050000E+00,+23.7458E-03,-16.7364E-03
-22.6042500E+00,+23.7458E-03,+0.0E+00
-22.6035000E+00,+23.4111E-03,+0.0E+00
-22.6027500E+00,+24.0805E-03,+0.0E+00
-22.6020000E+00,+23.4111E-03,+16.7364E-03
-22.6012500E+00,+24.7500E-03,+33.4728E-03
-22.6005000E+00,+24.7500E-03,-16.7364E-03
-22.5997500E+00,+23.7458E-03,+0.0E+00
-22.5990000E+00,+24.0805E-03,-0.0E+00
-22.5982500E+00,+24.0805E-03,-33.4728E-03
-22.5975000E+00,+24.0805E-03,+16.7364E-03
-22.5967500E+00,+23.7458E-03,-16.7364E-03
-22.5960000E+00,+24.0805E-03,-0.0E+00
-22.5952500E+00,+23.7458E-03,-16.7364E-03
-22.5945000E+00,+23.0764E-03,-16.7364E-03
-22.5937500E+00,+23.0764E-03,+16.7364E-03
-22.5930000E+00,+23.4111E-03,+0.0E+00
-22.5922500E+00,+24.7500E-03,+16.7364E-03
-22.5915000E+00,+24.4153E-03,-16.7364E-03
-22.5907500E+00,+23.0764E-03,+0.0E+00
-22.5900000E+00,+23.7458E-03,+0.0E+00
-22.5892500E+00,+24.4153E-03,+33.4728E-03
-22.5885000E+00,+23.4111E-03,-16.7364E-03
-22.5877500E+00,+23.7458E-03,+0.0E+00
-22.5870000E+00,+24.4153E-03,-0.0E+00
-22.5862500E+00,+24.0805E-03,-16.7364E-03
-22.5855000E+00,+24.0805E-03,+0.0E+00
-22.5847500E+00,+23.7458E-03,+16.7364E-03
-22.5840000E+00,+22.7416E-03,-33.4728E-03
-22.5832500E+00,+23.4111E-03,+0.0E+00
-22.5825000E+00,+24.0805E-03,+16.7364E-03
-22.5817500E+00,+24.0805E-03,+50.2092E-03
-22.5810000E+00,+23.0764E-03,+0.0E+00
-22.5802500E+00,+24.0805E-03,+33.4728E-03
-22.5795000E+00,+23.7458E-03,+16.7364E-03
-22.5787500E+00,+23.0764E-03,+0.0E+00
-22.5780000E+00,+24.7500E-03,+0.0E+00
-22.5772500E+00,+23.7458E-03,+16.7364E-03
-22.5765000E+00,+23.7458E-03,+16.7364E-03
-22.5757500E+00,+23.4111E-03,-16.7364E-03
-22.5750000E+00,+24.4153E-03,+0.0E+00
-22.5742500E+00,+23.0764E-03,+0.0E+00
-22.5735000E+00,+23.7458E-03,+16.7364E-03
-22.5727500E+00,+23.7458E-03,+0.0E+00
-22.5720000E+00,+23.4111E-03,+33.4728E-03
-22.5712500E+00,+24.7500E-03,+0.0E+00
-22.5705000E+00,+24.7500E-03,+0.0E+00
-22.5697500E+00,+23.7458E-03,+16.7364E-03
-22.5690000E+00,+23.7458E-03,+16.7364E-03
-22.5682500E+00,+23.7458E-03,+16.7364E-03
-22.5675000E+00,+23.0764E-03,+16.7364E-03
-22.5667500E+00,+24.4153E-03,+0.0E+00
-22.5660000E+00,+23.7458E-03,+50.2092E-03
-22.5652500E+00,+23.7458E-03,+33.4728E-03
-22.5645000E+00,+23.7458E-03,+33.4728E-03
-22.5637500E+00,+23.7458E-03,+16.7364E-03
-22.5630000E+00,+23.0764E-03,+0.0E+00
-22.5622500E+00,+24.0805E-03,+33.4728E-03
-22.5615000E+00,+23.4111E-03,+16.7364E-03
-22.5607500E+00,+23.4111E-03,+16.7364E-03
-22.5600000E+00,+24.0805E-03,+0.0E+00
-22.5592500E+00,+23.0764E-03,+33.4728E-03
-22.5585000E+00,+23.4111E-03,+16.7364E-03
-22.5577500E+00,+24.4153E-03,+16.7364E-03
-22.5570000E+00,+24.0805E-03,+16.7364E-03
-22.5562500E+00,+23.7458E-03,+16.7364E-03
-22.5555000E+00,+23.7458E-03,+16.7364E-03
-22.5547500E+00,+24.0805E-03,-16.7364E-03
-22.5540000E+00,+22.7416E-03,+33.4728E-03
-22.5532500E+00,+23.0764E-03,+16.7364E-03
-22.5525000E+00,+23.7458E-03,-16.7364E-03
-22.5517500E+00,+23.7458E-03,-33.4728E-03
-22.5510000E+00,+24.0805E-03,+0.0E+00
-22.5502500E+00,+23.7458E-03,+16.7364E-03
-22.5495000E+00,+24.4153E-03,+0.0E+00
-22.5487500E+00,+23.4111E-03,+33.4728E-03
-22.5480000E+00,+22.7416E-03,+16.7364E-03
-22.5472500E+00,+23.7458E-03,+33.4728E-03
-22.5465000E+00,+23.4111E-03,+0.0E+00
-22.5457500E+00,+24.0805E-03,-0.0E+00
-22.5450000E+00,+24.0805E-03,-16.7364E-03
-22.5442500E+00,+23.4111E-03,+0.0E+00
-22.5435000E+00,+23.4111E-03,+33.4728E-03
-22.5427500E+00,+24.0805E-03,-0.0E+00
-22.5420000E+00,+23.7458E-03,-16.7364E-03
-22.5412500E+00,+23.0764E-03,+16.7364E-03
-22.5405000E+00,+24.0805E-03,+0.0E+00
-22.5397500E+00,+23.7458E-03,+33.4728E-03
-22.5390000E+00,+24.0805E-03,-16.7364E-03
-22.5382500E+00,+24.4153E-03,+16.7364E-03
-22.5375000E+00,+23.0764E-03,+33.4728E-03
-22.5367500E+00,+24.4153E-03,+0.0E+00
-22.5360000E+00,+23.7458E-03,+16.7364E-03
-22.5352500E+00,+24.4153E-03,+0.0E+00
-22.5345000E+00,+24.0805E-03,+33.4728E-03
-22.5337500E+00,+23.7458E-03,+33.4728E-03
-22.5330000E+00,+23.4111E-03,+0.0E+00
-22.5322500E+00,+23.7458E-03,+50.2092E-03
-22.5315000E+00,+23.7458E-03,+16.7364E-03
-22.5307500E+00,+24.0805E-03,+16.7364E-03
-22.5300000E+00,+23.0764E-03,+0.0E+00
-22.5292500E+00,+23.7458E-03,+33.4728E-03
-22.5285000E+00,+24.7500E-03,-33.4728E-03
-22.5277500E+00,+23.4111E-03,+0.0E+00
-22.5270000E+00,+23.7458E-03,+0.0E+00
-22.5262500E+00,+23.7458E-03,+16.7364E-03
-22.5255000E+00,+23.4111E-03,-16.7364E-03
-22.5247500E+00,+24.4153E-03,+16.7364E-03
-22.5240000E+00,+24.4153E-03,-16.7364E-03
-22.5232500E+00,+23.4111E-03,+33.4728E-03
-22.5225000E+00,+24.0805E-03,+0.0E+00
-22.5217500E+00,+24.7500E-03,+0.0E+00
-22.5210000E+00,+23.4111E-03,+16.7364E-03
-22.5202500E+00,+24.0805E-03,-16.7364E-03
-22.5195000E+00,+23.4111E-03,-16.7364E-03
-22.5187500E+00,+23.7458E-03,+16.7364E-03
-22.5180000E+00,+23.4111E-03,+0.0E+00
-22.5172500E+00,+23.7458E-03,+16.7364E-03
-22.5165000E+00,+23.4111E-03,+0.0E+00
-22.5157500E+00,+24.7500E-03,+33.4728E-03
-22.5150000E+00,+23.7458E-03,+0.0E+00
-22.5142500E+00,+23.7458E-03,+16.7364E-03
-22.5135000E+00,+22.7416E-03,+16.7364E-03
-22.5127500E+00,+24.0805E-03,+0.0E+00
-22.5120000E+00,+23.7458E-03,+16.7364E-03
-22.5112500E+00,+23.4111E-03,+50.2092E-03
-22.5105000E+00,+23.7458E-03,+0.0E+00
-22.5097500E+00,+24.4153E-03,+16.7364E-03
-22.5090000E+00,+24.0805E-03,-16.7364E-03
-22.5082500E+00,+23.7458E-03,+16.7364E-03
-22.5075000E+00,+23.7458E-03,-0.0E+00
-22.5067500E+00,+23.4111E-03,-16.7364E-03
-22.5060000E+00,+24.4153E-03,+16.7364E-03
-22.5052500E+00,+24.0805E-03,+16.7364E-03
-22.5045000E+00,+23.7458E-03,+16.7364E-03
-22.5037500E+00,+24.0805E-03,+16.7364E-03
-22.5030000E+00,+23.7458E-03,+16.7364E-03
-22.5022500E+00,+23.4111E-03,+33.4728E-03
-22.5015000E+00,+23.0764E-03,-0.0E+00
-22.5007500E+00,+24.0805E-03,-16.7364E-03
-22.5000000E+00,+24.0805E-03,+0.0E+00
-22.4992500E+00,+24.0805E-03,+16.7364E-03
-22.4985000E+00,+24.4153E-03,+16.7364E-03
-22.4977500E+00,+24.0805E-03,-16.7364E-03
-22.4970000E+00,+23.4111E-03,-16.7364E-03
-22.4962500E+00,+23.0764E-03,-16.7364E-03
-22.4955000E+00,+23.0764E-03,+0.0E+00
-22.4947500E+00,+23.7458E-03,+33.4728E-03
-22.4940000E+00,+23.7458E-03,+16.7364E-03
-22.4932500E+00,+23.4111E-03,-33.4728E-03
-22.4925000E+00,+22.7416E-03,+16.7364E-03
-22.4917500E+00,+23.0764E-03,+33.4728E-03
-22.4910000E+00,+22.7416E-03,+0.0E+00
-22.4902500E+00,+24.0805E-03,-0.0E+00
-22.4895000E+00,+23.0764E-03,-16.7364E-03
-22.4887500E+00,+23.7458E-03,+33.4728E-03
-22.4880000E+00,+24.0805E-03,+0.0E+00
-22.4872500E+00,+25.0847E-03,+16.7364E-03
-22.4865000E+00,+22.4069E-03,+16.7364E-03
-22.4857500E+00,+24.0805E-03,+0.0E+00
-22.4850000E+00,+24.0805E-03,+0.0E+00
-22.4842500E+00,+24.0805E-03,+50.2092E-03
-22.4835000E+00,+24.4153E-03,-16.7364E-03
-22.4827500E+00,+23.7458E-03,-33.4728E-03
-22.4820000E+00,+23.7458E-03,+0.0E+00
-22.4812500E+00,+23.7458E-03,-0.0E+00
-22.4805000E+00,+23.4111E-03,-16.7364E-03
-22.4797500E+00,+23.4111E-03,+0.0E+00
-22.4790000E+00,+24.0805E-03,+16.7364E-03
-22.4782500E+00,+24.0805E-03,+16.7364E-03
-22.4775000E+00,+24.0805E-03,-16.7364E-03
-22.4767500E+00,+24.4153E-03,-0.0E+00
-22.4760000E+00,+23.4111E-03,-33.4728E-03
-22.4752500E+00,+23.7458E-03,+0.0E+00
-22.4745000E+00,+23.7458E-03,-0.0E+00
-22.4737500E+00,+23.7458E-03,-16.7364E-03
-22.4730000E+00,+23.4111E-03,+0.0E+00
-22.4722500E+00,+24.4153E-03,+0.0E+00
-22.4715000E+00,+24.7500E-03,+33.4728E-03
-22.4707500E+00,+24.7500E-03,+16.7364E-03
-22.4700000E+00,+24.4153E-03,+33.4728E-03
-22.4692500E+00,+24.4153E-03,-0.0E+00
-22.4685000E+00,+23.7458E-03,-16.7364E-03
-22.4677500E+00,+23.7458E-03,+0.0E+00
-22.4670000E+00,+24.0805E-03,+16.7364E-03
-22.4662500E+00,+24.0805E-03,+33.4728E-03
-22.4655000E+00,+23.0764E-03,+16.7364E-03
-22.4647500E+00,+25.0847E-03,-16.7364E-03
-22.4640000E+00,+23.7458E-03,+0.0E+00
-22.4632500E+00,+24.0805E-03,+0.0E+00
-22.4625000E+00,+23.4111E-03,+50.2092E-03
-22.4617500E+00,+23.4111E-03,+16.7364E-03
-22.4610000E+00,+23.4111E-03,-16.7364E-03
-22.4602500E+00,+23.0764E-03,+16.7364E-03
-22.4595000E+00,+23.7458E-03,+33.4728E-03
-22.4587500E+00,+23.7458E-03,+33.4728E-03
-22.4580000E+00,+23.4111E-03,+16.7364E-03
-22.4572500E+00,+23.7458E-03,+0.0E+00
-22.4565000E+00,+24.4153E-03,+50.2092E-03
-22.4557500E+00,+23.4111E-03,+16.7364E-03
-22.4550000E+00,+24.0805E-03,+33.4728E-03
-22.4542500E+00,+24.4153E-03,+0.0E+00
-22.4535000E+00,+24.7500E-03,+0.0E+00
-22.4527500E+00,+23.7458E-03,-0.0E+00
-22.4520000E+00,+23.7458E-03,-16.7364E-03
-22.4512500E+00,+24.0805E-03,+16.7364E-03
-22.4505000E+00,+23.0764E-03,+0.0E+00
-22.4497500E+00,+23.4111E-03,+16.7364E-03
-22.4490000E+00,+23.7458E-03,+33.4728E-03
-22.4482500E+00,+23.7458E-03,+16.7364E-03
-22.4475000E+00,+24.0805E-03,+16.7364E-03
-22.4467500E+00,+24.0805E-03,+0.0E+00
-22.4460000E+00,+23.4111E-03,+0.0E+00
-22.4452500E+00,+23.7458E-03,+16.7364E-03
-22.4445000E+00,+23.7458E-03,-16.7364E-03
-22.4437500E+00,+23.0764E-03,+0.0E+00
-22.4430000E+00,+24.0805E-03,+0.0E+00
-22.4422500E+00,+22.7416E-03,+33.4728E-03
-22.4415000E+00,+23.7458E-03,-33.4728E-03
-22.4407500E+00,+23.0764E-03,+0.0E+00
-22.4400000E+00,+23.4111E-03,-0.0E+00
-22.4392500E+00,+23.0764E-03,-16.7364E-03
-22.4385000E+00,+24.0805E-03,+33.4728E-03
-22.4377500E+00,+22.0722E-03,-33.4728E-03
-22.4370000E+00,+24.7500E-03,+16.7364E-03
-22.4362500E+00,+24.4153E-03,-16.7364E-03
-22.4355000E+00,+23.7458E-03,-16.7364E-03
-22.4347500E+00,+24.0805E-03,-16.7364E-03
-22.4340000E+00,+23.4111E-03,+16.7364E-03
-22.4332500E+00,+23.7458E-03,+16.7364E-03
-22.4325000E+00,+22.7416E-03,-0.0E+00
-22.4317500E+00,+22.7416E-03,-33.4728E-03
-22.4310000E+00,+22.7416E-03,+33.4728E-03
-22.4302500E+00,+23.4111E-03,+16.7364E-03
-22.4295000E+00,+23.4111E-03,-16.7364E-03
-22.4287500E+00,+23.7458E-03,+16.7364E-03
-22.4280000E+00,+24.4153E-03,-0.0E+00
-22.4272500E+00,+24.4153E-03,-16.7364E-03
-22.4265000E+00,+23.7458E-03,+0.0E+00
-22.4257500E+00,+23.4111E-03,+0.0E+00
-22.4250000E+00,+23.4111E-03,+16.7364E-03
-22.4242500E+00,+24.0805E-03,+50.2092E-03
-22.4235000E+00,+23.7458E-03,-33.4728E-03
-22.4227500E+00,+24.0805E-03,-16.7364E-03
-22.4220000E+00,+24.0805E-03,-0.0E+00
-22.4212500E+00,+24.0805E-03,-16.7364E-03
-22.4205000E+00,+23.7458E-03,+0.0E+00
-22.4197500E+00,+24.4153E-03,+16.7364E-03
-22.4190000E+00,+23.7458E-03,+0.0E+00
-22.4182500E+00,+23.4111E-03,+16.7364E-03
-22.4175000E+00,+24.0805E-03,-16.7364E-03
-22.4167500E+00,+24.7500E-03,+33.4728E-03
-22.4160000E+00,+23.4111E-03,+16.7364E-03
-22.4152500E+00,+23.0764E-03,-0.0E+00
-22.4145000E+00,+23.0764E-03,-16.7364E-03
-22.4137500E+00,+23.0764E-03,+0.0E+00
-22.4130000E+00,+23.7458E-03,+0.0E+00
-22.4122500E+00,+23.4111E-03,+0.0E+00
-22.4115000E+00,+22.7416E-03,+0.0E+00
-22.4107500E+00,+23.7458E-03,+16.7364E-03
-22.4100000E+00,+23.7458E-03,+16.7364E-03
-22.4092500E+00,+23.4111E-03,-0.0E+00
-22.4085000E+00,+24.4153E-03,-16.7364E-03
-22.4077500E+00,+23.7458E-03,+33.4728E-03
-22.4070000E+00,+23.7458E-03,-16.7364E-03
-22.4062500E+00,+23.4111E-03,+16.7364E-03
-22.4055000E+00,+23.7458E-03,+16.7364E-03
-22.4047500E+00,+25.0847E-03,+16.7364E-03
-22.4040000E+00,+24.4153E-03,+0.0E+00
-22.4032500E+00,+24.4153E-03,+16.7364E-03
-22.4025000E+00,+24.0805E-03,+0.0E+00
-22.4017500E+00,+24.0805E-03,+16.7364E-03
-22.4010000E+00,+23.7458E-03,-16.7364E-03
-22.4002500E+00,+23.7458E-03,+33.4728E-03
-22.3995000E+00,+23.0764E-03,+0.0E+00
-22.3987500E+00,+23.4111E-03,-0.0E+00
-22.3980000E+00,+24.0805E-03,-16.7364E-03
-22.3972500E+00,+23.4111E-03,+33.4728E-03
-22.3965000E+00,+23.7458E-03,+16.7364E-03
-22.3957500E+00,+24.0805E-03,+0.0E+00
-22.3950000E+00,+23.4111E-03,+16.7364E-03
-22.3942500E+00,+23.4111E-03,+0.0E+00
-22.3935000E+00,+24.0805E-03,+0.0E+00
-22.3927500E+00,+23.7458E-03,+16.7364E-03
-22.3920000E+00,+23.0764E-03,+16.7364E-03
-22.3912500E+00,+23.4111E-03,+16.7364E-03
-22.3905000E+00,+23.7458E-03,-16.7364E-03
-22.3897500E+00,+23.7458E-03,+16.7364E-03
-22.3890000E+00,+23.0764E-03,+16.7364E-03
-22.3882500E+00,+24.0805E-03,-16.7364E-03
-22.3875000E+00,+23.4111E-03,-0.0E+00
-22.3867500E+00,+24.0805E-03,-16.7364E-03
-22.3860000E+00,+24.4153E-03,+16.7364E-03
-22.3852500E+00,+22.7416E-03,+16.7364E-03
-22.3845000E+00,+23.4111E-03,+0.0E+00
-22.3837500E+00,+24.0805E-03,+16.7364E-03
-22.3830000E+00,+22.7416E-03,+0.0E+00
-22.3822500E+00,+23.7458E-03,+0.0E+00
-22.3815000E+00,+23.0764E-03,+0.0E+00
-22.3807500E+00,+23.7458E-03,+0.0E+00
-22.3800000E+00,+24.4153E-03,-0.0E+00
-22.3792500E+00,+23.4111E-03,-16.7364E-03
-22.3785000E+00,+24.0805E-03,+0.0E+00
-22.3777500E+00,+23.4111E-03,+0.0E+00
-22.3770000E+00,+23.7458E-03,+16.7364E-03
-22.3762500E+00,+24.4153E-03,+0.0E+00
-22.3755000E+00,+24.7500E-03,-0.0E+00
-22.3747500E+00,+24.0805E-03,-16.7364E-03
-22.3740000E+00,+23.0764E-03,+50.2092E-03
-22.3732500E+00,+23.7458E-03,+33.4728E-03
-22.3725000E+00,+23.7458E-03,+33.4728E-03
-22.3717500E+00,+23.0764E-03,-16.7364E-03
-22.3710000E+00,+24.0805E-03,-16.7364E-03
-22.3702500E+00,+24.0805E-03,+16.7364E-03
-22.3695000E+00,+23.0764E-03,-16.7364E-03
-22.3687500E+00,+25.0847E-03,+16.7364E-03
-22.3680000E+00,+23.0764E-03,+16.7364E-03
-22.3672500E+00,+23.7458E-03,-16.7364E-03
-22.3665000E+00,+22.7416E-03,-0.0E+00
-22.3657500E+00,+23.4111E-03,-16.7364E-03
-22.3650000E+00,+22.7416E-03,+0.0E+00
-22.3642500E+00,+23.0764E-03,+16.7364E-03
-22.3635000E+00,+23.4111E-03,+0.0E+00
-22.3627500E+00,+23.4111E-03,+16.7364E-03
-22.3620000E+00,+24.4153E-03,+16.7364E-03
-22.3612500E+00,+23.7458E-03,+0.0E+00
-22.3605000E+00,+23.7458E-03,+16.7364E-03
-22.3597500E+00,+22.7416E-03,-0.0E+00
-22.3590000E+00,+24.0805E-03,-33.4728E-03
-22.3582500E+00,+24.0805E-03,+16.7364E-03
-22.3575000E+00,+24.0805E-03,+16.7364E-03
-22.3567500E+00,+24.4153E-03,+0.0E+00
-22.3560000E+00,+24.0805E-03,+0.0E+00
-22.3552500E+00,+23.7458E-03,-0.0E+00
-22.3545000E+00,+23.7458E-03,-16.7364E-03
-22.3537500E+00,+23.7458E-03,+33.4728E-03
-22.3530000E+00,+23.4111E-03,+0.0E+00
-22.3522500E+00,+23.4111E-03,+0.0E+00
-22.3515000E+00,+23.0764E-03,+33.4728E-03
-22.3507500E+00,+23.4111E-03,+0.0E+00
-22.3500000E+00,+24.4153E-03,+0.0E+00
-22.3492500E+00,+24.4153E-03,+0.0E+00
-22.3485000E+00,+23.4111E-03,-0.0E+00
-22.3477500E+00,+24.4153E-03,-16.7364E-03
-22.3470000E+00,+23.7458E-03,+0.0E+00
-22.3462500E+00,+23.7458E-03,+0.0E+00
-22.3455000E+00,+23.4111E-03,+0.0E+00
-22.3447500E+00,+23.7458E-03,+16.7364E-03
-22.3440000E+00,+23.4111E-03,+16.7364E-03
-22.3432500E+00,+23.7458E-03,+16.7364E-03
-22.3425000E+00,+23.4111E-03,+0.0E+00
-22.3417500E+00,+23.0764E-03,-0.0E+00
-22.3410000E+00,+23.7458E-03,-33.4728E-03
-22.3402500E+00,+24.0805E-03,-16.7364E-03
-22.3395000E+00,+24.0805E-03,-16.7364E-03
-22.3387500E+00,+22.7416E-03,+0.0E+00
-22.3380000E+00,+24.4153E-03,+0.0E+00
-22.3372500E+00,+23.4111E-03,+0.0E+00
-22.3365000E+00,+24.4153E-03,+0.0E+00
-22.3357500E+00,+24.0805E-03,+33.4728E-03
-22.3350000E+00,+24.7500E-03,+0.0E+00
-22.3342500E+00,+23.4111E-03,+0.0E+00
-22.3335000E+00,+24.4153E-03,+0.0E+00
-22.3327500E+00,+24.0805E-03,+16.7364E-03
-22.3320000E+00,+24.0805E-03,+16.7364E-03
-22.3312500E+00,+23.4111E-03,+33.4728E-03
-22.3305000E+00,+23.7458E-03,+0.0E+00
-22.3297500E+00,+23.4111E-03,+16.7364E-03
-22.3290000E+00,+23.7458E-03,+16.7364E-03
-22.3282500E+00,+23.4111E-03,+16.7364E-03
-22.3275000E+00,+24.0805E-03,-16.7364E-03
-22.3267500E+00,+23.4111E-03,+16.7364E-03
-22.3260000E+00,+24.0805E-03,+16.7364E-03
-22.3252500E+00,+23.0764E-03,+16.7364E-03
-22.3245000E+00,+23.4111E-03,-16.7364E-03
-22.3237500E+00,+23.4111E-03,-0.0E+00
-22.3230000E+00,+23.4111E-03,-16.7364E-03
-22.3222500E+00,+23.0764E-03,+0.0E+00
-22.3215000E+00,+23.4111E-03,+50.2092E-03
-22.3207500E+00,+25.0847E-03,+16.7364E-03
-22.3200000E+00,+23.4111E-03,+16.7364E-03
-22.3192500E+00,+23.0764E-03,+16.7364E-03
-22.3185000E+00,+24.0805E-03,+16.7364E-03
-22.3177500E+00,+23.0764E-03,-16.7364E-03
-22.3170000E+00,+23.7458E-03,-33.4728E-03
-22.3162500E+00,+23.4111E-03,+16.7364E-03
-22.3155000E+00,+22.7416E-03,-16.7364E-03
-22.3147500E+00,+24.4153E-03,-50.2092E-03
-22.3140000E+00,+23.7458E-03,+33.4728E-03
-22.3132500E+00,+23.7458E-03,-0.0E+00
-22.3125000E+00,+23.7458E-03,-16.7364E-03
-22.3117500E+00,+24.7500E-03,+33.4728E-03
-22.3110000E+00,+24.0805E-03,-0.0E+00
-22.3102500E+00,+22.7416E-03,-16.7364E-03
-22.3095000E+00,+23.7458E-03,+16.7364E-03
-22.3087500E+00,+22.4069E-03,+16.7364E-03
-22.3080000E+00,+24.4153E-03,-0.0E+00
-22.3072500E+00,+23.4111E-03,-33.4728E-03
-22.3065000E+00,+23.7458E-03,+0.0E+00
-22.3057500E+00,+22.7416E-03,+0.0E+00
-22.3050000E+00,+24.4153E-03,+16.7364E-03
-22.3042500E+00,+23.0764E-03,+50.2092E-03
-22.3035000E+00,+22.7416E-03,+0.0E+00
-22.3027500E+00,+23.0764E-03,+16.7364E-03
-22.3020000E+00,+24.4153E-03,-16.7364E-03
-22.3012500E+00,+23.7458E-03,+16.7364E-03
-22.3005000E+00,+23.7458E-03,+16.7364E-03
-22.2997500E+00,+22.7416E-03,+0.0E+00
-22.2990000E+00,+23.4111E-03,+33.4728E-03
-22.2982500E+00,+23.7458E-03,+16.7364E-03
-22.2975000E+00,+23.7458E-03,-16.7364E-03
-22.2967500E+00,+24.4153E-03,+16.7364E-03
-22.2960000E+00,+24.0805E-03,+16.7364E-03
-22.2952500E+00,+23.7458E-03,-16.7364E-03
-22.2945000E+00,+24.0805E-03,-33.4728E-03
-22.2937500E+00,+24.4153E-03,+16.7364E-03
-22.2930000E+00,+23.7458E-03,-16.7364E-03
-22.2922500E+00,+24.4153E-03,-16.7364E-03
-22.2915000E+00,+23.0764E-03,+33.4728E-03
-22.2907500E+00,+24.0805E-03,+16.7364E-03
-22.2900000E+00,+23.4111E-03,-0.0E+00
-22.2892500E+00,+24.0805E-03,-16.7364E-03
-22.2885000E+00,+24.7500E-03,-0.0E+00
-22.2877500E+00,+24.0805E-03,-33.4728E-03
-22.2870000E+00,+23.7458E-03,+16.7364E-03
-22.2862500E+00,+23.4111E-03,+0.0E+00
-22.2855000E+00,+24.0805E-03,+0.0E+00
-22.2847500E+00,+23.4111E-03,+0.0E+00
-22.2840000E+00,+24.4153E-03,+16.7364E-03
-22.2832500E+00,+25.0847E-03,+0.0E+00
-22.2825000E+00,+24.0805E-03,+0.0E+00
-22.2817500E+00,+23.0764E-03,+16.7364E-03
-22.2810000E+00,+23.7458E-03,+33.4728E-03
-22.2802500E+00,+24.4153E-03,-16.7364E-03
-22.2795000E+00,+23.7458E-03,+16.7364E-03
-22.2787500E+00,+23.7458E-03,-16.7364E-03
-22.2780000E+00,+23.7458E-03,+16.7364E-03
-22.2772500E+00,+24.0805E-03,+0.0E+00
-22.2765000E+00,+23.7458E-03,+0.0E+00
-22.2757500E+00,+24.4153E-03,+16.7364E-03
-22.2750000E+00,+23.0764E-03,-0.0E+00
-22.2742500E+00,+23.4111E-03,-16.7364E-03
-22.2735000E+00,+23.7458E-03,+0.0E+00
-22.2727500E+00,+23.4111E-03,+0.0E+00
-22.2720000E+00,+23.4111E-03,+0.0E+00
-22.2712500E+00,+23.0764E-03,+0.0E+00
-22.2705000E+00,+24.4153E-03,-0.0E+00
-22.2697500E+00,+24.7500E-03,-16.7364E-03
-22.2690000E+00,+23.7458E-03,+16.7364E-03
-22.2682500E+00,+23.7458E-03,+0.0E+00
-22.2675000E+00,+23.4111E-03,+16.7364E-03
-22.2667500E+00,+23.7458E-03,-0.0E+00
-22.2660000E+00,+23.4111E-03,-16.7364E-03
-22.2652500E+00,+23.7458E-03,+16.7364E-03
-22.2645000E+00,+24.0805E-03,-16.7364E-03
-22.2637500E+00,+23.0764E-03,+16.7364E-03
-22.2630000E+00,+23.7458E-03,+0.0E+00
-22.2622500E+00,+23.7458E-03,+16.7364E-03
-22.2615000E+00,+22.7416E-03,-16.7364E-03
-22.2607500E+00,+23.7458E-03,+16.7364E-03
-22.2600000E+00,+24.0805E-03,+0.0E+00
-22.2592500E+00,+23.7458E-03,+16.7364E-03
-22.2585000E+00,+23.0764E-03,+0.0E+00
-22.2577500E+00,+23.4111E-03,+16.7364E-03
-22.2570000E+00,+23.7458E-03,+16.7364E-03
-22.2562500E+00,+24.0805E-03,-16.7364E-03
-22.2555000E+00,+24.7500E-03,-0.0E+00
-22.2547500E+00,+23.0764E-03,-16.7364E-03
-22.2540000E+00,+23.7458E-03,+50.2092E-03
-22.2532500E+00,+23.0764E-03,-16.7364E-03
-22.2525000E+00,+23.4111E-03,+16.7364E-03
-22.2517500E+00,+24.4153E-03,+0.0E+00
-22.2510000E+00,+23.0764E-03,+16.7364E-03
-22.2502500E+00,+24.0805E-03,+16.7364E-03
-22.2495000E+00,+23.0764E-03,-0.0E+00
-22.2487500E+00,+23.7458E-03,-16.7364E-03
-22.2480000E+00,+24.0805E-03,-33.4728E-03
-22.2472500E+00,+24.0805E-03,-16.7364E-03
-22.2465000E+00,+23.7458E-03,-16.7364E-03
-22.2457500E+00,+24.0805E-03,+16.7364E-03
-22.2450000E+00,+23.7458E-03,+0.0E+00
-22.2442500E+00,+24.0805E-03,+0.0E+00
-22.2435000E+00,+24.0805E-03,+0.0E+00
-22.2427500E+00,+23.4111E-03,-0.0E+00
-22.2420000E+00,+23.4111E-03,-33.4728E-03
-22.2412500E+00,+24.0805E-03,+16.7364E-03
-22.2405000E+00,+23.4111E-03,+0.0E+00
-22.2397500E+00,+23.7458E-03,+0.0E+00
-22.2390000E+00,+23.0764E-03,-0.0E+00
-22.2382500E+00,+23.7458E-03,-33.4728E-03
-22.2375000E+00,+24.4153E-03,+0.0E+00
-22.2367500E+00,+23.7458E-03,+16.7364E-03
-22.2360000E+00,+23.0764E-03,+0.0E+00
-22.2352500E+00,+24.0805E-03,+0.0E+00
-22.2345000E+00,+23.7458E-03,+16.7364E-03
-22.2337500E+00,+23.4111E-03,+33.4728E-03
-22.2330000E+00,+23.7458E-03,+16.7364E-03
-22.2322500E+00,+24.0805E-03,+16.7364E-03
-22.2315000E+00,+23.7458E-03,+0.0E+00
-22.2307500E+00,+23.4111E-03,+33.4728E-03
-22.2300000E+00,+23.7458E-03,+33.4728E-03
-22.2292500E+00,+24.0805E-03,+0.0E+00
-22.2285000E+00,+24.0805E-03,+33.4728E-03
-22.2277500E+00,+23.7458E-03,+16.7364E-03
-22.2270000E+00,+22.7416E-03,-16.7364E-03
-22.2262500E+00,+23.0764E-03,+16.7364E-03
-22.2255000E+00,+23.7458E-03,-33.4728E-03
-22.2247500E+00,+24.4153E-03,+0.0E+00
-22.2240000E+00,+23.0764E-03,+16.7364E-03
-22.2232500E+00,+22.4069E-03,-16.7364E-03
-22.2225000E+00,+23.7458E-03,+16.7364E-03
-22.2217500E+00,+23.4111E-03,-16.7364E-03
-22.2210000E+00,+23.4111E-03,-16.7364E-03
-22.2202500E+00,+24.0805E-03,+16.7364E-03
-22.2195000E+00,+24.0805E-03,+16.7364E-03
-22.2187500E+00,+24.0805E-03,+16.7364E-03
-22.2180000E+00,+23.7458E-03,-16.7364E-03
-22.2172500E+00,+24.0805E-03,+0.0E+00
-22.2165000E+00,+23.0764E-03,+0.0E+00
-22.2157500E+00,+23.4111E-03,-0.0E+00
-22.2150000E+00,+24.0805E-03,-16.7364E-03
-22.2142500E+00,+23.4111E-03,+33.4728E-03
-22.2135000E+00,+24.0805E-03,+33.4728E-03
-22.2127500E+00,+24.0805E-03,+16.7364E-03
-22.2120000E+00,+23.7458E-03,+0.0E+00
-22.2112500E+00,+24.0805E-03,+16.7364E-03
-22.2105000E+00,+24.0805E-03,+16.7364E-03
-22.2097500E+00,+23.7458E-03,+0.0E+00
-22.2090000E+00,+23.7458E-03,+16.7364E-03
-22.2082500E+00,+23.4111E-03,+16.7364E-03
-22.2075000E+00,+24.0805E-03,+16.7364E-03
-22.2067500E+00,+23.7458E-03,+33.4728E-03
-22.2060000E+00,+23.7458E-03,+0.0E+00
-22.2052500E+00,+24.4153E-03,+50.2092E-03
-22.2045000E+00,+23.4111E-03,+0.0E+00
-22.2037500E+00,+24.4153E-03,+0.0E+00
-22.2030000E+00,+23.4111E-03,+0.0E+00
-22.2022500E+00,+23.7458E-03,-0.0E+00
-22.2015000E+00,+23.7458E-03,-16.7364E-03
-22.2007500E+00,+24.4153E-03,-16.7364E-03
-22.2000000E+00,+24.7500E-03,+0.0E+00
-22.1992500E+00,+25.0847E-03,+16.7364E-03
-22.1985000E+00,+23.4111E-03,+33.4728E-03
-22.1977500E+00,+23.4111E-03,+16.7364E-03
-22.1970000E+00,+23.4111E-03,+0.0E+00
-22.1962500E+00,+22.7416E-03,+33.4728E-03
-22.1955000E+00,+24.0805E-03,-16.7364E-03
-22.1947500E+00,+24.0805E-03,-50.2092E-03
-22.1940000E+00,+24.4153E-03,+0.0E+00
-22.1932500E+00,+23.7458E-03,+16.7364E-03
-22.1925000E+00,+24.0805E-03,-16.7364E-03
-22.1917500E+00,+23.4111E-03,+33.4728E-03
-22.1910000E+00,+23.7458E-03,+16.7364E-03
-22.1902500E+00,+23.4111E-03,-0.0E+00
-22.1895000E+00,+24.4153E-03,-16.7364E-03
-22.1887500E+00,+22.7416E-03,+16.7364E-03
-22.1880000E+00,+24.0805E-03,+33.4728E-03
-22.1872500E+00,+23.7458E-03,+0.0E+00
-22.1865000E+00,+23.4111E-03,+0.0E+00
-22.1857500E+00,+23.7458E-03,+16.7364E-03
-22.1850000E+00,+23.7458E-03,+16.7364E-03
-22.1842500E+00,+23.7458E-03,+16.7364E-03
-22.1835000E+00,+23.4111E-03,+50.2092E-03
-22.1827500E+00,+23.7458E-03,-0.0E+00
-22.1820000E+00,+24.4153E-03,-16.7364E-03
-22.1812500E+00,+23.7458E-03,+33.4728E-03
-22.1805000E+00,+23.7458E-03,+0.0E+00
-22.1797500E+00,+22.7416E-03,+16.7364E-03
-22.1790000E+00,+24.0805E-03,+16.7364E-03
-22.1782500E+00,+23.4111E-03,-0.0E+00
-22.1775000E+00,+23.7458E-03,-16.7364E-03
-22.1767500E+00,+23.4111E-03,-0.0E+00
-22.1760000E+00,+22.7416E-03,-16.7364E-03
-22.1752500E+00,+23.7458E-03,-16.7364E-03
-22.1745000E+00,+23.7458E-03,-16.7364E-03
-22.1737500E+00,+24.4153E-03,+0.0E+00
-22.1730000E+00,+23.0764E-03,+33.4728E-03
-22.1722500E+00,+23.7458E-03,+0.0E+00
-22.1715000E+00,+23.7458E-03,+16.7364E-03
-22.1707500E+00,+23.0764E-03,+33.4728E-03
-22.1700000E+00,+23.4111E-03,+0.0E+00
-22.1692500E+00,+22.7416E-03,-0.0E+00
-22.1685000E+00,+23.0764E-03,-33.4728E-03
-22.1677500E+00,+23.7458E-03,-0.0E+00
-22.1670000E+00,+23.4111E-03,-33.4728E-03
-22.1662500E+00,+23.7458E-03,+16.7364E-03
-22.1655000E+00,+23.7458E-03,-16.7364E-03
-22.1647500E+00,+23.0764E-03,-16.7364E-03
-22.1640000E+00,+24.0805E-03,+0.0E+00
-22.1632500E+00,+23.7458E-03,+33.4728E-03
-22.1625000E+00,+24.0805E-03,-16.7364E-03
-22.1617500E+00,+23.4111E-03,+0.0E+00
-22.1610000E+00,+24.0805E-03,+0.0E+00
-22.1602500E+00,+23.0764E-03,-0.0E+00
-22.1595000E+00,+23.0764E-03,-16.7364E-03
-22.1587500E+00,+23.7458E-03,+0.0E+00
-22.1580000E+00,+24.0805E-03,+16.7364E-03
-22.1572500E+00,+24.0805E-03,+0.0E+00
-22.1565000E+00,+24.0805E-03,+16.7364E-03
-22.1557500E+00,+23.7458E-03,+0.0E+00
