x-axis,1KHZ,3
second,Volt,Volt
-50.800000E+00,,
-50.798600E+00,,
-50.797200E+00,,
-50.795800E+00,,
-50.794400E+00,,
-50.793000E+00,,
-50.791600E+00,,
-50.790200E+00,,
-50.788800E+00,,
-50.787400E+00,,
-50.786000E+00,,
-50.784600E+00,,
-50.783200E+00,,
-50.781800E+00,,
-50.780400E+00,,
-50.779000E+00,,
-50.777600E+00,,
-50.776200E+00,,
-50.774800E+00,,
-50.773400E+00,,
-50.772000E+00,,
-50.770600E+00,,
-50.769200E+00,,
-50.767800E+00,,
-50.766400E+00,,
-50.765000E+00,,
-50.763600E+00,,
-50.762200E+00,,
-50.760800E+00,,
-50.759400E+00,,
-50.758000E+00,,
-50.756600E+00,,
-50.755200E+00,,
-50.753799E+00,,
-50.752399E+00,,
-50.750999E+00,,
-50.749599E+00,,
-50.748199E+00,,
-50.746799E+00,,
-50.745399E+00,,
-50.743999E+00,,
-50.742599E+00,,
-50.741199E+00,,
-50.739799E+00,,
-50.738399E+00,,
-50.736999E+00,,
-50.735599E+00,,
-50.734199E+00,,
-50.732799E+00,,
-50.731399E+00,,
-50.729999E+00,,
-50.728599E+00,,
-50.727199E+00,,
-50.725799E+00,,
-50.724399E+00,,
-50.722999E+00,,
-50.721599E+00,,
-50.720199E+00,,
-50.718799E+00,,
-50.717399E+00,,
-50.715999E+00,,
-50.714599E+00,,
-50.713199E+00,,
-50.711799E+00,,
-50.710399E+00,,
-50.708999E+00,,
-50.707599E+00,,
-50.706199E+00,,
-50.704799E+00,,
-50.703399E+00,,
-50.701999E+00,,
-50.700599E+00,,
-50.699199E+00,,
-50.697799E+00,,
-50.696399E+00,,
-50.694999E+00,,
-50.693599E+00,,
-50.692199E+00,,
-50.690799E+00,,
-50.689399E+00,,
-50.687999E+00,,
-50.686599E+00,,
-50.685199E+00,,
-50.683799E+00,,
-50.682399E+00,,
-50.680999E+00,,
-50.679599E+00,,
-50.678199E+00,,
-50.676799E+00,,
-50.675399E+00,,
-50.673999E+00,,
-50.672599E+00,,
-50.671199E+00,,
-50.669799E+00,,
-50.668399E+00,,
-50.666999E+00,,
-50.665599E+00,,
-50.664198E+00,,
-50.662798E+00,,
-50.661398E+00,,
-50.659998E+00,,
-50.658598E+00,,
-50.657198E+00,,
-50.655798E+00,,
-50.654398E+00,,
-50.652998E+00,,
-50.651598E+00,,
-50.650198E+00,,
-50.648798E+00,,
-50.647398E+00,,
-50.645998E+00,,
-50.644598E+00,,
-50.643198E+00,,
-50.641798E+00,,
-50.640398E+00,,
-50.638998E+00,,
-50.637598E+00,,
-50.636198E+00,,
-50.634798E+00,,
-50.633398E+00,,
-50.631998E+00,,
-50.630598E+00,,
-50.629198E+00,,
-50.627798E+00,,
-50.626398E+00,,
-50.624998E+00,,
-50.623598E+00,,
-50.622198E+00,,
-50.620798E+00,,
-50.619398E+00,,
-50.617998E+00,,
-50.616598E+00,,
-50.615198E+00,,
-50.613798E+00,,
-50.612398E+00,,
-50.610998E+00,,
-50.609598E+00,,
-50.608198E+00,,
-50.606798E+00,,
-50.605398E+00,,
-50.603998E+00,,
-50.602598E+00,,
-50.601198E+00,,
-50.599798E+00,,
-50.598398E+00,,
-50.596998E+00,,
-50.595598E+00,,
-50.594198E+00,,
-50.592798E+00,,
-50.591398E+00,,
-50.589998E+00,,
-50.588598E+00,,
-50.587198E+00,,
-50.585798E+00,,
-50.584398E+00,,
-50.582998E+00,,
-50.581598E+00,,
-50.580198E+00,,
-50.578798E+00,,
-50.577398E+00,,
-50.575998E+00,,
-50.574597E+00,,
-50.573197E+00,,
-50.571797E+00,,
-50.570397E+00,,
-50.568997E+00,,
-50.567597E+00,,
-50.566197E+00,,
-50.564797E+00,,
-50.563397E+00,,
-50.561997E+00,,
-50.560597E+00,,
-50.559197E+00,,
-50.557797E+00,,
-50.556397E+00,,
-50.554997E+00,,
-50.553597E+00,,
-50.552197E+00,,
-50.550797E+00,,
-50.549397E+00,,
-50.547997E+00,,
-50.546597E+00,,
-50.545197E+00,,
-50.543797E+00,,
-50.542397E+00,,
-50.540997E+00,,
-50.539597E+00,,
-50.538197E+00,,
-50.536797E+00,,
-50.535397E+00,,
-50.533997E+00,,
-50.532597E+00,,
-50.531197E+00,,
-50.529797E+00,,
-50.528397E+00,,
-50.526997E+00,,
-50.525597E+00,,
-50.524197E+00,,
-50.522797E+00,,
-50.521397E+00,,
-50.519997E+00,,
-50.518597E+00,,
-50.517197E+00,,
-50.515797E+00,,
-50.514397E+00,,
-50.512997E+00,,
-50.511597E+00,,
-50.510197E+00,,
-50.508797E+00,,
-50.507397E+00,,
-50.505997E+00,,
-50.504597E+00,,
-50.503197E+00,,
-50.501797E+00,,
-50.500397E+00,,
-50.498997E+00,,
-50.497597E+00,,
-50.496197E+00,,
-50.494797E+00,,
-50.493397E+00,,
-50.491997E+00,,
-50.490597E+00,,
-50.489197E+00,,
-50.487797E+00,,
-50.486397E+00,,
-50.484996E+00,,
-50.483596E+00,,
-50.482196E+00,,
-50.480796E+00,,
-50.479396E+00,,
-50.477996E+00,,
-50.476596E+00,,
-50.475196E+00,,
-50.473796E+00,,
-50.472396E+00,,
-50.470996E+00,,
-50.469596E+00,,
-50.468196E+00,,
-50.466796E+00,,
-50.465396E+00,,
-50.463996E+00,,
-50.462596E+00,,
-50.461196E+00,,
-50.459796E+00,,
-50.458396E+00,,
-50.456996E+00,,
-50.455596E+00,,
-50.454196E+00,,
-50.452796E+00,,
-50.451396E+00,,
-50.449996E+00,,
-50.448596E+00,,
-50.447196E+00,,
-50.445796E+00,,
-50.444396E+00,,
-50.442996E+00,,
-50.441596E+00,,
-50.440196E+00,,
-50.438796E+00,,
-50.437396E+00,,
-50.435996E+00,,
-50.434596E+00,,
-50.433196E+00,,
-50.431796E+00,,
-50.430396E+00,,
-50.428996E+00,,
-50.427596E+00,,
-50.426196E+00,,
-50.424796E+00,,
-50.423396E+00,,
-50.421996E+00,,
-50.420596E+00,,
-50.419196E+00,,
-50.417796E+00,,
-50.416396E+00,,
-50.414996E+00,,
-50.413596E+00,,
-50.412196E+00,,
-50.410796E+00,,
-50.409396E+00,,
-50.407996E+00,,
-50.406596E+00,,
-50.405196E+00,,
-50.403796E+00,,
-50.402396E+00,,
-50.400996E+00,,
-50.399596E+00,,
-50.398196E+00,,
-50.396796E+00,,
-50.395396E+00,,
-50.393995E+00,,
-50.392595E+00,,
-50.391195E+00,,
-50.389795E+00,,
-50.388395E+00,,
-50.386995E+00,,
-50.385595E+00,,
-50.384195E+00,,
-50.382795E+00,,
-50.381395E+00,,
-50.379995E+00,,
-50.378595E+00,,
-50.377195E+00,,
-50.375795E+00,,
-50.374395E+00,,
-50.372995E+00,,
-50.371595E+00,,
-50.370195E+00,,
-50.368795E+00,,
-50.367395E+00,,
-50.365995E+00,,
-50.364595E+00,,
-50.363195E+00,,
-50.361795E+00,,
-50.360395E+00,,
-50.358995E+00,,
-50.357595E+00,,
-50.356195E+00,,
-50.354795E+00,,
-50.353395E+00,,
-50.351995E+00,,
-50.350595E+00,,
-50.349195E+00,,
-50.347795E+00,,
-50.346395E+00,,
-50.344995E+00,,
-50.343595E+00,,
-50.342195E+00,,
-50.340795E+00,,
-50.339395E+00,,
-50.337995E+00,,
-50.336595E+00,,
-50.335195E+00,,
-50.333795E+00,,
-50.332395E+00,,
-50.330995E+00,,
-50.329595E+00,,
-50.328195E+00,,
-50.326795E+00,,
-50.325395E+00,,
-50.323995E+00,,
-50.322595E+00,,
-50.321195E+00,,
-50.319795E+00,,
-50.318395E+00,,
-50.316995E+00,,
-50.315595E+00,,
-50.314195E+00,,
-50.312795E+00,,
-50.311395E+00,,
-50.309995E+00,,
-50.308595E+00,,
-50.307195E+00,,
-50.305795E+00,,
-50.304394E+00,,
-50.302994E+00,,
-50.301594E+00,,
-50.300194E+00,,
-50.298794E+00,,
-50.297394E+00,,
-50.295994E+00,,
-50.294594E+00,,
-50.293194E+00,,
-50.291794E+00,,
-50.290394E+00,,
-50.288994E+00,,
-50.287594E+00,,
-50.286194E+00,,
-50.284794E+00,,
-50.283394E+00,,
-50.281994E+00,,
-50.280594E+00,,
-50.279194E+00,,
-50.277794E+00,,
-50.276394E+00,,
-50.274994E+00,,
-50.273594E+00,,
-50.272194E+00,,
-50.270794E+00,,
-50.269394E+00,,
-50.267994E+00,,
-50.266594E+00,,
-50.265194E+00,,
-50.263794E+00,,
-50.262394E+00,,
-50.260994E+00,,
-50.259594E+00,,
-50.258194E+00,,
-50.256794E+00,,
-50.255394E+00,,
-50.253994E+00,,
-50.252594E+00,,
-50.251194E+00,,
-50.249794E+00,,
-50.248394E+00,,
-50.246994E+00,,
-50.245594E+00,,
-50.244194E+00,,
-50.242794E+00,,
-50.241394E+00,,
-50.239994E+00,,
-50.238594E+00,,
-50.237194E+00,,
-50.235794E+00,,
-50.234394E+00,,
-50.232994E+00,,
-50.231594E+00,,
-50.230194E+00,,
-50.228794E+00,,
-50.227394E+00,,
-50.225994E+00,,
-50.224594E+00,,
-50.223194E+00,,
-50.221794E+00,,
-50.220394E+00,,
-50.218994E+00,,
-50.217594E+00,,
-50.216194E+00,,
-50.214793E+00,,
-50.213393E+00,,
-50.211993E+00,,
-50.210593E+00,,
-50.209193E+00,,
-50.207793E+00,,
-50.206393E+00,,
-50.204993E+00,,
-50.203593E+00,,
-50.202193E+00,,
-50.200793E+00,,
-50.199393E+00,,
-50.197993E+00,,
-50.196593E+00,,
-50.195193E+00,,
-50.193793E+00,,
-50.192393E+00,,
-50.190993E+00,,
-50.189593E+00,,
-50.188193E+00,,
-50.186793E+00,,
-50.185393E+00,,
-50.183993E+00,,
-50.182593E+00,,
-50.181193E+00,,
-50.179793E+00,,
-50.178393E+00,,
-50.176993E+00,,
-50.175593E+00,,
-50.174193E+00,,
-50.172793E+00,,
-50.171393E+00,,
-50.169993E+00,,
-50.168593E+00,,
-50.167193E+00,,
-50.165793E+00,,
-50.164393E+00,,
-50.162993E+00,,
-50.161593E+00,,
-50.160193E+00,,
-50.158793E+00,,
-50.157393E+00,,
-50.155993E+00,,
-50.154593E+00,,
-50.153193E+00,,
-50.151793E+00,,
-50.150393E+00,,
-50.148993E+00,,
-50.147593E+00,,
-50.146193E+00,,
-50.144793E+00,,
-50.143393E+00,,
-50.141993E+00,,
-50.140593E+00,,
-50.139193E+00,,
-50.137793E+00,,
-50.136393E+00,,
-50.134993E+00,,
-50.133593E+00,,
-50.132193E+00,,
-50.130793E+00,,
-50.129393E+00,,
-50.127993E+00,,
-50.126593E+00,,
-50.125193E+00,,
-50.123792E+00,,
-50.122392E+00,,
-50.120992E+00,,
-50.119592E+00,,
-50.118192E+00,,
-50.116792E+00,,
-50.115392E+00,,
-50.113992E+00,,
-50.112592E+00,,
-50.111192E+00,,
-50.109792E+00,,
-50.108392E+00,,
-50.106992E+00,,
-50.105592E+00,,
-50.104192E+00,,
-50.102792E+00,,
-50.101392E+00,,
-50.099992E+00,,
-50.098592E+00,,
-50.097192E+00,,
-50.095792E+00,,
-50.094392E+00,,
-50.092992E+00,,
-50.091592E+00,,
-50.090192E+00,,
-50.088792E+00,,
-50.087392E+00,,
-50.085992E+00,,
-50.084592E+00,,
-50.083192E+00,,
-50.081792E+00,,
-50.080392E+00,,
-50.078992E+00,,
-50.077592E+00,,
-50.076192E+00,,
-50.074792E+00,,
-50.073392E+00,,
-50.071992E+00,,
-50.070592E+00,,
-50.069192E+00,,
-50.067792E+00,,
-50.066392E+00,,
-50.064992E+00,,
-50.063592E+00,,
-50.062192E+00,,
-50.060792E+00,,
-50.059392E+00,,
-50.057992E+00,,
-50.056592E+00,,
-50.055192E+00,,
-50.053792E+00,,
-50.052392E+00,,
-50.050992E+00,,
-50.049592E+00,,
-50.048192E+00,,
-50.046792E+00,,
-50.045392E+00,,
-50.043992E+00,,
-50.042592E+00,,
-50.041192E+00,,
-50.039792E+00,,
-50.038392E+00,,
-50.036992E+00,,
-50.035592E+00,,
-50.034191E+00,,
-50.032791E+00,,
-50.031391E+00,,
-50.029991E+00,,
-50.028591E+00,,
-50.027191E+00,,
-50.025791E+00,,
-50.024391E+00,,
-50.022991E+00,,
-50.021591E+00,,
-50.020191E+00,,
-50.018791E+00,,
-50.017391E+00,,
-50.015991E+00,,
-50.014591E+00,,
-50.013191E+00,,
-50.011791E+00,,
-50.010391E+00,,
-50.008991E+00,,
-50.007591E+00,,
-50.006191E+00,,
-50.004791E+00,,
-50.003391E+00,,
-50.001991E+00,,
-50.000591E+00,+22.363E-03,+9.260E-03
-49.999191E+00,+21.498E-03,-14.952E-03
-49.997791E+00,+21.922E-03,-25.997E-03
-49.996391E+00,+21.793E-03,-1.784E-03
-49.994991E+00,+21.979E-03,+9.260E-03
-49.993591E+00,+22.128E-03,+0.0E+00
-49.992191E+00,+22.388E-03,-14.952E-03
-49.990791E+00,+22.705E-03,-18.520E-03
-49.989391E+00,+23.207E-03,-7.476E-03
-49.987991E+00,+22.662E-03,-9.260E-03
-49.986591E+00,+22.018E-03,+7.476E-03
-49.985191E+00,+22.256E-03,+9.260E-03
-49.983791E+00,+22.053E-03,-7.476E-03
-49.982391E+00,+22.445E-03,-9.260E-03
-49.980991E+00,+22.292E-03,+14.952E-03
-49.979591E+00,+22.092E-03,+11.044E-03
-49.978191E+00,+22.125E-03,-1.784E-03
-49.976791E+00,+21.850E-03,+24.213E-03
-49.975391E+00,+22.014E-03,+11.044E-03
-49.973991E+00,+21.793E-03,-9.260E-03
-49.972591E+00,+21.904E-03,+14.952E-03
-49.971191E+00,+22.110E-03,+18.520E-03
-49.969791E+00,+22.331E-03,+7.476E-03
-49.968391E+00,+21.996E-03,+16.736E-03
-49.966991E+00,+22.035E-03,+24.213E-03
-49.965591E+00,+22.388E-03,+18.520E-03
-49.964191E+00,+22.107E-03,+0.0E+00
-49.962791E+00,+21.644E-03,-14.952E-03
-49.961391E+00,+22.018E-03,-25.997E-03
-49.959991E+00,+22.107E-03,-1.784E-03
-49.958591E+00,+21.644E-03,+16.736E-03
-49.957191E+00,+21.868E-03,+1.784E-03
-49.955791E+00,+22.071E-03,-1.784E-03
-49.954391E+00,+22.203E-03,+9.260E-03
-49.952991E+00,+22.481E-03,-7.476E-03
-49.951591E+00,+22.107E-03,-9.260E-03
-49.950191E+00,+22.018E-03,+0.0E+00
-49.948791E+00,+22.331E-03,+0.0E+00
-49.947391E+00,+21.996E-03,-7.476E-03
-49.945991E+00,+22.035E-03,-1.784E-03
-49.944590E+00,+22.313E-03,+1.784E-03
-49.943190E+00,+22.089E-03,-1.784E-03
-49.941790E+00,+22.409E-03,+1.784E-03
-49.940390E+00,+22.627E-03,-9.260E-03
-49.938990E+00,+21.904E-03,+14.952E-03
-49.937590E+00,+21.961E-03,+11.044E-03
-49.936190E+00,+22.071E-03,-16.736E-03
-49.934790E+00,+22.203E-03,-1.784E-03
-49.933390E+00,+22.182E-03,+16.736E-03
-49.931990E+00,+22.035E-03,+9.260E-03
-49.930590E+00,+22.164E-03,+7.476E-03
-49.929190E+00,+21.979E-03,+16.736E-03
-49.927790E+00,+21.680E-03,+9.260E-03
-49.926390E+00,+22.057E-03,+14.952E-03
-49.924990E+00,+22.758E-03,+18.520E-03
-49.923590E+00,+21.957E-03,-7.476E-03
-49.922190E+00,+21.832E-03,-9.260E-03
-49.920790E+00,+22.256E-03,-7.476E-03
-49.919390E+00,+22.128E-03,-1.784E-03
-49.917990E+00,+21.939E-03,+1.784E-03
-49.916590E+00,+21.850E-03,-9.260E-03
-49.915190E+00,+22.164E-03,+7.476E-03
-49.913790E+00,+21.904E-03,+16.736E-03
-49.912390E+00,+21.886E-03,+16.736E-03
-49.910990E+00,+21.829E-03,+16.736E-03
-49.909590E+00,+21.270E-03,+9.260E-03
-49.908190E+00,+21.704E-03,-7.476E-03
-49.906790E+00,+22.442E-03,-1.784E-03
-49.905390E+00,+21.979E-03,+16.736E-03
-49.903990E+00,+21.979E-03,+16.736E-03
-49.902590E+00,+22.053E-03,+9.260E-03
-49.901190E+00,+22.146E-03,+7.476E-03
-49.899790E+00,+22.295E-03,+16.736E-03
-49.898390E+00,+22.256E-03,+16.736E-03
-49.896990E+00,+21.754E-03,-5.692E-03
-49.895590E+00,+21.925E-03,-11.044E-03
-49.894190E+00,+22.331E-03,+1.784E-03
-49.892790E+00,+22.445E-03,-16.736E-03
-49.891390E+00,+22.890E-03,-16.736E-03
-49.889990E+00,+22.534E-03,-16.736E-03
-49.888590E+00,+21.829E-03,-9.260E-03
-49.887190E+00,+21.943E-03,-7.476E-03
-49.885790E+00,+22.388E-03,-16.736E-03
-49.884390E+00,+22.406E-03,-1.784E-03
-49.882990E+00,+22.463E-03,+31.689E-03
-49.881590E+00,+21.900E-03,+20.305E-03
-49.880190E+00,+21.647E-03,-9.260E-03
-49.878790E+00,+22.256E-03,-7.476E-03
-49.877390E+00,+22.053E-03,-1.784E-03
-49.875990E+00,+22.071E-03,-5.692E-03
-49.874590E+00,+22.203E-03,-11.044E-03
-49.873190E+00,+22.555E-03,+24.213E-03
-49.871790E+00,+22.349E-03,+25.997E-03
-49.870390E+00,+22.053E-03,+9.260E-03
-49.868990E+00,+22.295E-03,+7.476E-03
-49.867590E+00,+22.032E-03,+24.213E-03
-49.866190E+00,+21.776E-03,+25.997E-03
-49.864790E+00,+22.221E-03,+16.736E-03
-49.863390E+00,+22.014E-03,+16.736E-03
-49.861990E+00,+22.242E-03,+16.736E-03
-49.860590E+00,+22.833E-03,+9.260E-03
-49.859190E+00,+22.125E-03,-7.476E-03
-49.857790E+00,+22.075E-03,-16.736E-03
-49.856390E+00,+22.442E-03,-16.736E-03
-49.854989E+00,+21.979E-03,-16.736E-03
-49.853589E+00,+22.053E-03,-16.736E-03
-49.852189E+00,+22.071E-03,-1.784E-03
-49.850789E+00,+21.680E-03,-5.692E-03
-49.849389E+00,+21.309E-03,-11.044E-03
-49.847989E+00,+21.982E-03,+1.784E-03
-49.846589E+00,+22.965E-03,-1.784E-03
-49.845189E+00,+22.402E-03,+9.260E-03
-49.843789E+00,+21.551E-03,-7.476E-03
-49.842389E+00,+21.868E-03,+5.692E-03
-49.840989E+00,+22.370E-03,+11.044E-03
-49.839589E+00,+22.274E-03,-16.736E-03
-49.838189E+00,+21.961E-03,-9.260E-03
-49.836789E+00,+22.146E-03,+14.952E-03
-49.835389E+00,+22.295E-03,+25.997E-03
-49.833989E+00,+22.854E-03,+24.213E-03
-49.832589E+00,+22.869E-03,+18.520E-03
-49.831189E+00,+21.939E-03,+0.0E+00
-49.829789E+00,+22.000E-03,+0.0E+00
-49.828389E+00,+22.050E-03,+7.476E-03
-49.826989E+00,+21.982E-03,+9.260E-03
-49.825589E+00,+23.040E-03,+0.0E+00
-49.824189E+00,+22.869E-03,-7.476E-03
-49.822789E+00,+22.164E-03,-24.213E-03
-49.821389E+00,+21.829E-03,-11.044E-03
-49.819989E+00,+22.317E-03,+24.213E-03
-49.818589E+00,+22.552E-03,+25.997E-03
-49.817189E+00,+21.961E-03,+1.784E-03
-49.815789E+00,+21.847E-03,+5.692E-03
-49.814389E+00,+21.476E-03,+33.473E-03
-49.812989E+00,+21.776E-03,+18.520E-03
-49.811589E+00,+21.996E-03,-7.476E-03
-49.810189E+00,+21.961E-03,-16.736E-03
-49.808789E+00,+22.146E-03,-9.260E-03
-49.807389E+00,+22.445E-03,+7.476E-03
-49.805989E+00,+22.666E-03,+9.260E-03
-49.804589E+00,+22.406E-03,+7.476E-03
-49.803189E+00,+22.164E-03,+9.260E-03
-49.801789E+00,+22.278E-03,-7.476E-03
-49.800389E+00,+22.498E-03,-16.736E-03
-49.798989E+00,+22.164E-03,+5.692E-03
-49.797589E+00,+21.829E-03,+18.520E-03
-49.796189E+00,+21.569E-03,+0.0E+00
-49.794789E+00,+21.551E-03,+14.952E-03
-49.793389E+00,+21.420E-03,+25.997E-03
-49.791989E+00,+21.590E-03,+1.784E-03
-49.790589E+00,+22.744E-03,-9.260E-03
-49.789189E+00,+22.588E-03,-14.952E-03
-49.787789E+00,+22.149E-03,-18.520E-03
-49.786389E+00,+22.609E-03,+0.0E+00
-49.784989E+00,+22.295E-03,+0.0E+00
-49.783589E+00,+22.107E-03,+7.476E-03
-49.782189E+00,+21.943E-03,+16.736E-03
-49.780789E+00,+22.388E-03,+9.260E-03
-49.779389E+00,+22.331E-03,+0.0E+00
-49.777989E+00,+22.221E-03,+7.476E-03
-49.776589E+00,+22.388E-03,+9.260E-03
-49.775189E+00,+22.406E-03,+7.476E-03
-49.773789E+00,+22.014E-03,+1.784E-03
-49.772389E+00,+22.018E-03,-24.213E-03
-49.770989E+00,+22.406E-03,-11.044E-03
-49.769589E+00,+22.463E-03,+1.784E-03
-49.768189E+00,+22.424E-03,-1.784E-03
-49.766789E+00,+22.445E-03,+16.736E-03
-49.765389E+00,+22.666E-03,+24.213E-03
-49.763988E+00,+22.182E-03,+18.520E-03
-49.762588E+00,+21.662E-03,+0.0E+00
-49.761188E+00,+21.402E-03,+0.0E+00
-49.759788E+00,+21.982E-03,-7.476E-03
-49.758388E+00,+22.442E-03,-1.784E-03
-49.756988E+00,+21.979E-03,+9.260E-03
-49.755588E+00,+22.128E-03,-7.476E-03
-49.754188E+00,+22.313E-03,-16.736E-03
-49.752788E+00,+22.313E-03,-9.260E-03
-49.751388E+00,+22.313E-03,+14.952E-03
-49.749988E+00,+22.313E-03,+11.044E-03
-49.748588E+00,+22.089E-03,+5.692E-03
-49.747188E+00,+21.961E-03,+25.997E-03
-49.745788E+00,+22.146E-03,+9.260E-03
-49.744388E+00,+22.146E-03,-7.476E-03
-49.742988E+00,+22.221E-03,-1.784E-03
-49.741588E+00,+22.538E-03,+16.736E-03
-49.740188E+00,+22.741E-03,+16.736E-03
-49.738788E+00,+22.274E-03,+9.260E-03
-49.737388E+00,+21.811E-03,+7.476E-03
-49.735988E+00,+21.886E-03,+9.260E-03
-49.734588E+00,+21.904E-03,-7.476E-03
-49.733188E+00,+21.886E-03,-16.736E-03
-49.731788E+00,+21.904E-03,-1.784E-03
-49.730388E+00,+22.335E-03,+9.260E-03
-49.728988E+00,+22.459E-03,+7.476E-03
-49.727588E+00,+22.185E-03,-5.692E-03
-49.726188E+00,+22.424E-03,-11.044E-03
-49.724788E+00,+22.071E-03,+9.260E-03
-49.723388E+00,+21.979E-03,+14.952E-03
-49.721988E+00,+21.829E-03,+11.044E-03
-49.720588E+00,+21.793E-03,+5.692E-03
-49.719188E+00,+21.829E-03,+11.044E-03
-49.717788E+00,+21.793E-03,-16.736E-03
-49.716388E+00,+21.904E-03,-9.260E-03
-49.714988E+00,+21.437E-03,-7.476E-03
-49.713588E+00,+21.647E-03,-1.784E-03
-49.712188E+00,+22.705E-03,+1.784E-03
-49.710788E+00,+22.758E-03,-9.260E-03
-49.709388E+00,+22.630E-03,-7.476E-03
-49.707988E+00,+22.741E-03,-9.260E-03
-49.706588E+00,+22.424E-03,-7.476E-03
-49.705188E+00,+21.996E-03,-1.784E-03
-49.703788E+00,+22.110E-03,+9.260E-03
-49.702388E+00,+22.481E-03,+0.0E+00
-49.700988E+00,+22.182E-03,+7.476E-03
-49.699588E+00,+22.335E-03,+16.736E-03
-49.698188E+00,+22.534E-03,+9.260E-03
-49.696788E+00,+21.829E-03,+7.476E-03
-49.695388E+00,+21.569E-03,+1.784E-03
-49.693988E+00,+21.626E-03,-9.260E-03
-49.692588E+00,+22.035E-03,+7.476E-03
-49.691188E+00,+22.239E-03,+16.736E-03
-49.689788E+00,+22.295E-03,+9.260E-03
-49.688388E+00,+22.630E-03,-7.476E-03
-49.686988E+00,+22.591E-03,-24.213E-03
-49.685588E+00,+22.164E-03,+3.908E-03
-49.684188E+00,+21.979E-03,+27.781E-03
-49.682788E+00,+21.979E-03,-7.476E-03
-49.681388E+00,+21.979E-03,-16.736E-03
-49.679988E+00,+22.128E-03,-16.736E-03
-49.678588E+00,+22.313E-03,-9.260E-03
-49.677188E+00,+22.463E-03,+7.476E-03
-49.675788E+00,+22.498E-03,+9.260E-03
-49.674387E+00,+22.164E-03,+7.476E-03
-49.672987E+00,+21.904E-03,+16.736E-03
-49.671587E+00,+22.110E-03,+1.784E-03
-49.670187E+00,+22.331E-03,-24.213E-03
-49.668787E+00,+22.146E-03,-25.997E-03
-49.667387E+00,+22.071E-03,-9.260E-03
-49.665987E+00,+22.203E-03,+0.0E+00
-49.664587E+00,+21.957E-03,+0.0E+00
-49.663187E+00,+21.832E-03,+7.476E-03
-49.661787E+00,+22.481E-03,+9.260E-03
-49.660387E+00,+22.256E-03,-7.476E-03
-49.658987E+00,+21.680E-03,-9.260E-03
-49.657587E+00,+21.459E-03,-7.476E-03
-49.656187E+00,+22.018E-03,+5.692E-03
-49.654787E+00,+22.331E-03,+18.520E-03
-49.653387E+00,+22.146E-03,+14.952E-03
-49.651987E+00,+22.146E-03,+11.044E-03
-49.650587E+00,+22.370E-03,-1.784E-03
-49.649187E+00,+22.648E-03,+9.260E-03
-49.647787E+00,+22.498E-03,+0.0E+00
-49.646387E+00,+22.313E-03,+0.0E+00
-49.644987E+00,+22.388E-03,+0.0E+00
-49.643587E+00,+22.256E-03,-14.952E-03
-49.642187E+00,+22.128E-03,-18.520E-03
-49.640787E+00,+22.164E-03,+7.476E-03
-49.639387E+00,+22.053E-03,+9.260E-03
-49.637987E+00,+22.221E-03,+0.0E+00
-49.636587E+00,+22.239E-03,+0.0E+00
-49.635187E+00,+22.295E-03,+0.0E+00
-49.633787E+00,+22.107E-03,-7.476E-03
-49.632387E+00,+21.569E-03,+5.692E-03
-49.630987E+00,+21.701E-03,+11.044E-03
-49.629587E+00,+21.979E-03,-31.689E-03
-49.628187E+00,+21.829E-03,-35.257E-03
-49.626787E+00,+21.943E-03,-9.260E-03
-49.625387E+00,+22.164E-03,+7.476E-03
-49.623987E+00,+22.203E-03,+16.736E-03
-49.622587E+00,+22.331E-03,+9.260E-03
-49.621187E+00,+21.922E-03,+0.0E+00
-49.619787E+00,+21.719E-03,+7.476E-03
-49.618387E+00,+21.811E-03,+16.736E-03
-49.616987E+00,+22.185E-03,+9.260E-03
-49.615587E+00,+22.424E-03,+0.0E+00
-49.614187E+00,+22.146E-03,+0.0E+00
-49.612787E+00,+21.697E-03,+7.476E-03
-49.611387E+00,+21.216E-03,+9.260E-03
-49.609987E+00,+21.832E-03,+7.476E-03
-49.608587E+00,+22.555E-03,+16.736E-03
-49.607187E+00,+22.424E-03,+16.736E-03
-49.605787E+00,+22.295E-03,+16.736E-03
-49.604387E+00,+22.705E-03,+1.784E-03
-49.602987E+00,+22.609E-03,-9.260E-03
-49.601587E+00,+22.221E-03,+14.952E-03
-49.600187E+00,+22.014E-03,+18.520E-03
-49.598787E+00,+22.616E-03,+0.0E+00
-49.597387E+00,+23.221E-03,-7.476E-03
-49.595987E+00,+22.256E-03,-16.736E-03
-49.594587E+00,+21.680E-03,-16.736E-03
-49.593187E+00,+21.683E-03,+5.692E-03
-49.591787E+00,+22.146E-03,+33.473E-03
-49.590387E+00,+22.071E-03,+11.044E-03
-49.588987E+00,+22.053E-03,-9.260E-03
-49.587587E+00,+22.071E-03,-14.952E-03
-49.586187E+00,+22.352E-03,-11.044E-03
-49.584786E+00,+22.292E-03,+9.260E-03
-49.583386E+00,+21.868E-03,+7.476E-03
-49.581986E+00,+21.772E-03,+9.260E-03
-49.580586E+00,+21.758E-03,+7.476E-03
-49.579186E+00,+22.313E-03,+9.260E-03
-49.577786E+00,+22.089E-03,+0.0E+00
-49.576386E+00,+22.185E-03,+0.0E+00
-49.574986E+00,+22.723E-03,+0.0E+00
-49.573586E+00,+22.367E-03,+0.0E+00
-49.572186E+00,+22.185E-03,+7.476E-03
-49.570786E+00,+22.125E-03,-13.168E-03
-49.569386E+00,+22.000E-03,-27.781E-03
-49.567986E+00,+22.723E-03,-22.429E-03
-49.566586E+00,+22.591E-03,-27.781E-03
-49.565186E+00,+22.538E-03,+7.476E-03
-49.563786E+00,+22.591E-03,+16.736E-03
-49.562386E+00,+22.239E-03,-5.692E-03
-49.560986E+00,+21.996E-03,-11.044E-03
-49.559586E+00,+21.587E-03,+1.784E-03
-49.558186E+00,+21.608E-03,-9.260E-03
-49.556786E+00,+22.278E-03,-7.476E-03
-49.555386E+00,+22.424E-03,-9.260E-03
-49.553986E+00,+21.922E-03,+14.952E-03
-49.552586E+00,+21.793E-03,+25.997E-03
-49.551186E+00,+22.278E-03,+9.260E-03
-49.549786E+00,+22.424E-03,+0.0E+00
-49.548386E+00,+22.445E-03,+0.0E+00
-49.546986E+00,+22.442E-03,+0.0E+00
-49.545586E+00,+22.203E-03,+0.0E+00
-49.544186E+00,+22.331E-03,+0.0E+00
-49.542786E+00,+22.071E-03,+7.476E-03
-49.541386E+00,+22.203E-03,+1.784E-03
-49.539986E+00,+22.481E-03,-9.260E-03
-49.538586E+00,+22.481E-03,-7.476E-03
-49.537186E+00,+22.481E-03,-16.736E-03
-49.535786E+00,+22.406E-03,-16.736E-03
-49.534386E+00,+22.463E-03,-16.736E-03
-49.532986E+00,+22.798E-03,-16.736E-03
-49.531586E+00,+22.684E-03,-16.736E-03
-49.530186E+00,+22.164E-03,-16.736E-03
-49.528786E+00,+22.427E-03,-16.736E-03
-49.527386E+00,+22.833E-03,-9.260E-03
-49.525986E+00,+22.199E-03,+14.952E-03
-49.524586E+00,+21.868E-03,+18.520E-03
-49.523186E+00,+22.146E-03,+0.0E+00
-49.521786E+00,+22.520E-03,+14.952E-03
-49.520386E+00,+22.534E-03,+25.997E-03
-49.518986E+00,+22.128E-03,+9.260E-03
-49.517586E+00,+22.014E-03,-7.476E-03
-49.516186E+00,+22.167E-03,-9.260E-03
-49.514786E+00,+22.516E-03,-7.476E-03
-49.513386E+00,+21.623E-03,-1.784E-03
-49.511986E+00,+21.423E-03,+16.736E-03
-49.510586E+00,+22.203E-03,+16.736E-03
-49.509186E+00,+22.107E-03,+9.260E-03
-49.507786E+00,+21.793E-03,+0.0E+00
-49.506386E+00,+22.203E-03,-7.476E-03
-49.504986E+00,+22.630E-03,-9.260E-03
-49.503586E+00,+22.442E-03,+7.476E-03
-49.502186E+00,+21.754E-03,+9.260E-03
-49.500786E+00,+21.327E-03,-7.476E-03
-49.499386E+00,+21.516E-03,-24.213E-03
-49.497986E+00,+22.053E-03,-33.473E-03
-49.496586E+00,+22.520E-03,-18.520E-03
-49.495186E+00,+22.534E-03,+0.0E+00
-49.493785E+00,+22.278E-03,+7.476E-03
-49.492385E+00,+22.498E-03,-5.692E-03
-49.490985E+00,+22.463E-03,-11.044E-03
-49.489585E+00,+22.424E-03,+24.213E-03
-49.488185E+00,+21.922E-03,+33.473E-03
-49.486785E+00,+22.018E-03,+25.997E-03
-49.485385E+00,+22.107E-03,+9.260E-03
-49.483985E+00,+21.569E-03,-7.476E-03
-49.482585E+00,+21.776E-03,-9.260E-03
-49.481185E+00,+21.548E-03,+0.0E+00
-49.479785E+00,+21.256E-03,+7.476E-03
-49.478385E+00,+21.736E-03,+1.784E-03
-49.476985E+00,+22.018E-03,-9.260E-03
-49.475585E+00,+22.256E-03,+0.0E+00
-49.474185E+00,+21.979E-03,-7.476E-03
-49.472785E+00,+22.203E-03,-16.736E-03
-49.471385E+00,+22.481E-03,-9.260E-03
-49.469985E+00,+22.107E-03,+7.476E-03
-49.468585E+00,+21.644E-03,+1.784E-03
-49.467185E+00,+21.943E-03,-9.260E-03
-49.465785E+00,+22.313E-03,-7.476E-03
-49.464385E+00,+22.089E-03,-9.260E-03
-49.462985E+00,+21.736E-03,+0.0E+00
-49.461585E+00,+22.167E-03,+0.0E+00
-49.460185E+00,+22.292E-03,-7.476E-03
-49.458785E+00,+22.018E-03,-16.736E-03
-49.457385E+00,+22.331E-03,-9.260E-03
-49.455985E+00,+22.146E-03,+22.429E-03
-49.454585E+00,+22.146E-03,+35.257E-03
-49.453185E+00,+22.071E-03,+16.736E-03
-49.451785E+00,+21.605E-03,+9.260E-03
-49.450385E+00,+21.815E-03,-7.476E-03
-49.448985E+00,+22.424E-03,-16.736E-03
-49.447585E+00,+22.071E-03,-1.784E-03
-49.446185E+00,+21.680E-03,+9.260E-03
-49.444785E+00,+21.608E-03,+0.0E+00
-49.443385E+00,+21.979E-03,+0.0E+00
-49.441985E+00,+22.278E-03,+14.952E-03
-49.440585E+00,+22.498E-03,+11.044E-03
-49.439185E+00,+22.089E-03,-9.260E-03
-49.437785E+00,+21.961E-03,-7.476E-03
-49.436385E+00,+22.445E-03,-16.736E-03
-49.434985E+00,+22.516E-03,-16.736E-03
-49.433585E+00,+22.071E-03,-9.260E-03
-49.432185E+00,+22.053E-03,+7.476E-03
-49.430785E+00,+22.295E-03,+16.736E-03
-49.429385E+00,+22.406E-03,+1.784E-03
-49.427985E+00,+22.164E-03,-16.736E-03
-49.426585E+00,+21.605E-03,+5.692E-03
-49.425185E+00,+22.039E-03,+33.473E-03
-49.423785E+00,+22.477E-03,+33.473E-03
-49.422385E+00,+22.018E-03,+33.473E-03
-49.420985E+00,+22.256E-03,+25.997E-03
-49.419585E+00,+21.979E-03,+1.784E-03
-49.418185E+00,+22.053E-03,-1.784E-03
-49.416785E+00,+22.146E-03,+9.260E-03
-49.415385E+00,+21.922E-03,+0.0E+00
-49.413985E+00,+21.868E-03,+0.0E+00
-49.412585E+00,+22.295E-03,+0.0E+00
-49.411185E+00,+22.481E-03,+7.476E-03
-49.409785E+00,+22.256E-03,+9.260E-03
-49.408385E+00,+22.053E-03,+7.476E-03
-49.406985E+00,+22.071E-03,+9.260E-03
-49.405585E+00,+22.053E-03,+7.476E-03
-49.404184E+00,+22.445E-03,+24.213E-03
-49.402784E+00,+22.666E-03,+25.997E-03
-49.401384E+00,+22.705E-03,+9.260E-03
-49.399984E+00,+22.609E-03,-14.952E-03
-49.398584E+00,+22.146E-03,-18.520E-03
-49.397184E+00,+22.146E-03,-7.476E-03
-49.395784E+00,+22.221E-03,-1.784E-03
-49.394384E+00,+22.089E-03,+24.213E-03
-49.392984E+00,+22.110E-03,+25.997E-03
-49.391584E+00,+22.032E-03,+16.736E-03
-49.390184E+00,+21.551E-03,+9.260E-03
-49.388784E+00,+21.644E-03,+0.0E+00
-49.387384E+00,+22.092E-03,+0.0E+00
-49.385984E+00,+22.274E-03,+7.476E-03
-49.384584E+00,+22.035E-03,+9.260E-03
-49.383184E+00,+22.239E-03,-7.476E-03
-49.381784E+00,+21.996E-03,-1.784E-03
-49.380384E+00,+21.961E-03,+9.260E-03
-49.378984E+00,+21.847E-03,-7.476E-03
-49.377584E+00,+22.075E-03,-9.260E-03
-49.376184E+00,+22.367E-03,+7.476E-03
-49.374784E+00,+22.035E-03,+9.260E-03
-49.373384E+00,+22.463E-03,+7.476E-03
-49.371984E+00,+22.274E-03,+9.260E-03
-49.370584E+00,+22.185E-03,+0.0E+00
-49.369184E+00,+21.900E-03,+0.0E+00
-49.367784E+00,+21.423E-03,+7.476E-03
-49.366384E+00,+22.128E-03,-13.168E-03
-49.364984E+00,+22.014E-03,-12.828E-03
-49.363584E+00,+21.719E-03,-11.384E-03
-49.362184E+00,+22.035E-03,-29.565E-03
-49.360784E+00,+22.313E-03,+9.260E-03
-49.359384E+00,+22.313E-03,+14.952E-03
-49.357984E+00,+22.089E-03,+11.044E-03
-49.356584E+00,+21.811E-03,-9.260E-03
-49.355184E+00,+21.961E-03,+7.476E-03
-49.353784E+00,+22.146E-03,+9.260E-03
-49.352384E+00,+22.146E-03,+0.0E+00
-49.350984E+00,+22.071E-03,-7.476E-03
-49.349584E+00,+21.680E-03,-16.736E-03
-49.348184E+00,+21.608E-03,-16.736E-03
-49.346784E+00,+22.352E-03,-24.213E-03
-49.345384E+00,+22.591E-03,-11.044E-03
-49.343984E+00,+22.014E-03,+1.784E-03
-49.342584E+00,+21.719E-03,-16.736E-03
-49.341184E+00,+21.736E-03,+5.692E-03
-49.339784E+00,+21.569E-03,+3.568E-03
-49.338384E+00,+21.701E-03,-11.044E-03
-49.336984E+00,+22.278E-03,+9.260E-03
-49.335584E+00,+22.498E-03,+0.0E+00
-49.334184E+00,+22.239E-03,+7.476E-03
-49.332784E+00,+22.520E-03,+1.784E-03
-49.331384E+00,+22.534E-03,-9.260E-03
-49.329984E+00,+22.128E-03,-7.476E-03
-49.328584E+00,+22.239E-03,-16.736E-03
-49.327184E+00,+22.071E-03,-1.784E-03
-49.325784E+00,+22.128E-03,+24.213E-03
-49.324384E+00,+22.089E-03,+11.044E-03
-49.322984E+00,+21.512E-03,-24.213E-03
-49.321584E+00,+21.516E-03,-25.997E-03
-49.320184E+00,+22.128E-03,-9.260E-03
-49.318784E+00,+22.388E-03,+0.0E+00
-49.317384E+00,+22.705E-03,+0.0E+00
-49.315984E+00,+22.758E-03,-7.476E-03
-49.314583E+00,+22.256E-03,-9.260E-03
-49.313183E+00,+22.502E-03,-7.476E-03
-49.311783E+00,+22.477E-03,-1.784E-03
-49.310383E+00,+21.569E-03,+16.736E-03
-49.308983E+00,+21.776E-03,+9.260E-03
-49.307583E+00,+22.146E-03,+0.0E+00
-49.306183E+00,+22.146E-03,-14.952E-03
-49.304783E+00,+22.295E-03,-25.997E-03
-49.303383E+00,+22.256E-03,-9.260E-03
-49.301983E+00,+22.128E-03,+7.476E-03
-49.300583E+00,+22.313E-03,+1.784E-03
-49.299183E+00,+22.313E-03,-24.213E-03
-49.297783E+00,+21.790E-03,-11.044E-03
-49.296383E+00,+21.665E-03,+16.736E-03
-49.294983E+00,+22.014E-03,-5.692E-03
-49.293583E+00,+21.868E-03,-18.520E-03
-49.292183E+00,+21.772E-03,-7.476E-03
-49.290783E+00,+21.907E-03,-16.736E-03
-49.289383E+00,+22.947E-03,-9.260E-03
-49.287983E+00,+22.570E-03,+0.0E+00
-49.286583E+00,+21.868E-03,-7.476E-03
-49.285183E+00,+22.221E-03,-9.260E-03
-49.283783E+00,+22.164E-03,-14.952E-03
-49.282383E+00,+21.754E-03,-11.044E-03
-49.280983E+00,+21.626E-03,+9.260E-03
-49.279583E+00,+22.035E-03,+7.476E-03
-49.278183E+00,+22.313E-03,+9.260E-03
-49.276783E+00,+22.463E-03,-22.429E-03
-49.275383E+00,+22.424E-03,-12.828E-03
-49.273983E+00,+21.922E-03,+18.520E-03
-49.272583E+00,+21.943E-03,+7.476E-03
-49.271183E+00,+22.089E-03,+9.260E-03
-49.269783E+00,+21.961E-03,+0.0E+00
-49.268383E+00,+22.295E-03,+7.476E-03
-49.266983E+00,+22.107E-03,+1.784E-03
-49.265583E+00,+22.092E-03,-24.213E-03
-49.264183E+00,+22.274E-03,-25.997E-03
-49.262783E+00,+22.035E-03,-24.213E-03
-49.261383E+00,+22.538E-03,-3.568E-03
-49.259983E+00,+22.741E-03,+18.520E-03
-49.258583E+00,+22.498E-03,-7.476E-03
-49.257183E+00,+22.313E-03,-1.784E-03
-49.255783E+00,+22.388E-03,+24.213E-03
-49.254383E+00,+22.406E-03,+11.044E-03
-49.252983E+00,+22.313E-03,-1.784E-03
-49.251583E+00,+22.463E-03,+16.736E-03
-49.250183E+00,+22.424E-03,+1.784E-03
-49.248783E+00,+21.996E-03,-9.260E-03
-49.247383E+00,+22.035E-03,+0.0E+00
-49.245983E+00,+22.313E-03,-14.952E-03
-49.244583E+00,+22.313E-03,-11.044E-03
-49.243183E+00,+22.164E-03,+9.260E-03
-49.241783E+00,+22.203E-03,+14.952E-03
-49.240383E+00,+22.331E-03,+25.997E-03
-49.238983E+00,+22.295E-03,+9.260E-03
-49.237583E+00,+22.182E-03,-7.476E-03
-49.236183E+00,+22.110E-03,-16.736E-03
-49.234783E+00,+22.481E-03,+13.168E-03
-49.233383E+00,+22.406E-03,+12.828E-03
-49.231983E+00,+22.164E-03,-18.520E-03
-49.230583E+00,+21.979E-03,-14.952E-03
-49.229183E+00,+21.904E-03,-18.520E-03
-49.227783E+00,+22.035E-03,+0.0E+00
-49.226383E+00,+22.538E-03,+7.476E-03
-49.224982E+00,+22.591E-03,+16.736E-03
-49.223582E+00,+22.313E-03,+24.213E-03
-49.222182E+00,+22.164E-03,+18.520E-03
-49.220782E+00,+21.829E-03,-7.476E-03
-49.219382E+00,+21.943E-03,-1.784E-03
-49.217982E+00,+22.313E-03,+9.260E-03
-49.216582E+00,+22.463E-03,+7.476E-03
-49.215182E+00,+22.648E-03,+9.260E-03
-49.213782E+00,+22.498E-03,+0.0E+00
-49.212382E+00,+22.089E-03,+7.476E-03
-49.210982E+00,+21.736E-03,+9.260E-03
-49.209582E+00,+22.167E-03,+0.0E+00
-49.208182E+00,+22.591E-03,+0.0E+00
-49.206782E+00,+22.687E-03,-7.476E-03
-49.205382E+00,+22.776E-03,+5.692E-03
-49.203982E+00,+22.089E-03,+18.520E-03
-49.202582E+00,+22.035E-03,-7.476E-03
-49.201182E+00,+21.865E-03,-16.736E-03
-49.199782E+00,+21.683E-03,-24.213E-03
-49.198382E+00,+22.295E-03,-11.044E-03
-49.196982E+00,+22.331E-03,+9.260E-03
-49.195582E+00,+22.146E-03,+0.0E+00
-49.194182E+00,+22.520E-03,+7.476E-03
-49.192782E+00,+22.534E-03,+1.784E-03
-49.191382E+00,+21.904E-03,-1.784E-03
-49.189982E+00,+21.736E-03,+9.260E-03
-49.188582E+00,+21.644E-03,+0.0E+00
-49.187182E+00,+21.943E-03,+7.476E-03
-49.185782E+00,+22.388E-03,+1.784E-03
-49.184382E+00,+22.331E-03,-9.260E-03
-49.182982E+00,+22.445E-03,-7.476E-03
-49.181582E+00,+23.040E-03,-16.736E-03
-49.180182E+00,+22.944E-03,-9.260E-03
-49.178782E+00,+22.555E-03,-7.476E-03
-49.177382E+00,+22.648E-03,-24.213E-03
-49.175982E+00,+22.199E-03,-18.520E-03
-49.174582E+00,+22.391E-03,+0.0E+00
-49.173182E+00,+22.869E-03,+0.0E+00
-49.171782E+00,+22.239E-03,-7.476E-03
-49.170382E+00,+21.922E-03,-16.736E-03
-49.168982E+00,+21.943E-03,-9.260E-03
-49.167582E+00,+22.388E-03,+0.0E+00
-49.166182E+00,+22.406E-03,-7.476E-03
-49.164782E+00,+22.313E-03,-9.260E-03
-49.163382E+00,+22.538E-03,+0.0E+00
-49.161982E+00,+22.217E-03,+7.476E-03
-49.160582E+00,+21.850E-03,+16.736E-03
-49.159182E+00,+22.164E-03,+1.784E-03
-49.157782E+00,+22.203E-03,+5.692E-03
-49.156382E+00,+22.481E-03,+11.044E-03
-49.154982E+00,+22.630E-03,-9.260E-03
-49.153582E+00,+23.040E-03,+0.0E+00
-49.152182E+00,+23.018E-03,+0.0E+00
-49.150782E+00,+22.349E-03,+14.952E-03
-49.149382E+00,+21.979E-03,+25.997E-03
-49.147982E+00,+22.128E-03,+16.736E-03
-49.146582E+00,+22.239E-03,+1.784E-03
-49.145182E+00,+22.146E-03,-9.260E-03
-49.143782E+00,+22.295E-03,+7.476E-03
-49.142382E+00,+22.780E-03,+9.260E-03
-49.140982E+00,+22.702E-03,-7.476E-03
-49.139582E+00,+22.370E-03,-1.784E-03
-49.138182E+00,+22.648E-03,+16.736E-03
-49.136782E+00,+22.573E-03,+9.260E-03
-49.135382E+00,+22.630E-03,+7.476E-03
-49.133981E+00,+22.890E-03,+16.736E-03
-49.132581E+00,+22.908E-03,+16.736E-03
-49.131181E+00,+22.815E-03,+9.260E-03
-49.129781E+00,+22.292E-03,-22.429E-03
-49.128381E+00,+22.317E-03,-35.257E-03
-49.126981E+00,+22.627E-03,+5.692E-03
-49.125581E+00,+22.502E-03,+11.044E-03
-49.124181E+00,+22.402E-03,-9.260E-03
-49.122781E+00,+21.551E-03,-7.476E-03
-49.121381E+00,+22.092E-03,-16.736E-03
-49.119981E+00,+22.573E-03,-1.784E-03
-49.118581E+00,+22.406E-03,+9.260E-03
-49.117181E+00,+22.164E-03,+0.0E+00
-49.115781E+00,+22.352E-03,+7.476E-03
-49.114381E+00,+22.591E-03,+16.736E-03
-49.112981E+00,+22.014E-03,+9.260E-03
-49.111581E+00,+21.868E-03,+0.0E+00
-49.110181E+00,+21.996E-03,+7.476E-03
-49.108781E+00,+21.961E-03,+9.260E-03
-49.107381E+00,+22.594E-03,+7.476E-03
-49.105981E+00,+23.225E-03,-5.692E-03
-49.104581E+00,+22.719E-03,-18.520E-03
-49.103181E+00,+21.979E-03,+0.0E+00
-49.101781E+00,+21.979E-03,+0.0E+00
-49.100381E+00,+22.053E-03,+0.0E+00
-49.098981E+00,+22.146E-03,+7.476E-03
-49.097581E+00,+21.922E-03,+16.736E-03
-49.096181E+00,+22.092E-03,+1.784E-03
-49.094781E+00,+22.498E-03,+13.168E-03
-49.093381E+00,+22.313E-03,+27.781E-03
-49.091981E+00,+22.313E-03,+0.0E+00
-49.090581E+00,+22.239E-03,+0.0E+00
-49.089181E+00,+22.221E-03,+7.476E-03
-49.087781E+00,+22.313E-03,+1.784E-03
-49.086381E+00,+22.388E-03,-1.784E-03
-49.084981E+00,+22.256E-03,+1.784E-03
-49.083581E+00,+21.829E-03,-1.784E-03
-49.082181E+00,+21.719E-03,+9.260E-03
-49.080781E+00,+21.662E-03,-7.476E-03
-49.079381E+00,+21.626E-03,-9.260E-03
-49.077981E+00,+21.886E-03,-7.476E-03
-49.076581E+00,+21.904E-03,-1.784E-03
-49.075181E+00,+22.185E-03,+9.260E-03
-49.073781E+00,+22.573E-03,+0.0E+00
-49.072381E+00,+22.630E-03,-7.476E-03
-49.070981E+00,+22.217E-03,-16.736E-03
-49.069581E+00,+21.925E-03,-9.260E-03
-49.068181E+00,+22.107E-03,+0.0E+00
-49.066781E+00,+21.943E-03,+0.0E+00
-49.065381E+00,+22.538E-03,+0.0E+00
-49.063981E+00,+22.292E-03,+7.476E-03
-49.062581E+00,+21.644E-03,+16.736E-03
-49.061181E+00,+22.092E-03,+1.784E-03
-49.059781E+00,+22.199E-03,-9.260E-03
-49.058381E+00,+22.242E-03,+0.0E+00
-49.056981E+00,+22.534E-03,+14.952E-03
-49.055581E+00,+22.203E-03,+18.520E-03
-49.054181E+00,+22.256E-03,-7.476E-03
-49.052781E+00,+22.053E-03,-1.784E-03
-49.051381E+00,+22.221E-03,+16.736E-03
-49.049981E+00,+22.239E-03,+16.736E-03
-49.048581E+00,+22.146E-03,+9.260E-03
-49.047181E+00,+21.548E-03,-7.476E-03
-49.045781E+00,+21.106E-03,-9.260E-03
-49.044380E+00,+21.850E-03,+0.0E+00
-49.042980E+00,+22.388E-03,-7.476E-03
-49.041580E+00,+22.705E-03,-16.736E-03
-49.040180E+00,+22.684E-03,+13.168E-03
-49.038780E+00,+22.164E-03,+50.209E-03
-49.037380E+00,+22.203E-03,+42.733E-03
-49.035980E+00,+22.256E-03,+25.997E-03
-49.034580E+00,+21.904E-03,+9.260E-03
-49.033180E+00,+22.035E-03,-7.476E-03
-49.031780E+00,+22.313E-03,-1.784E-03
-49.030380E+00,+22.089E-03,+9.260E-03
-49.028980E+00,+21.886E-03,+0.0E+00
-49.027580E+00,+22.352E-03,-7.476E-03
-49.026180E+00,+22.292E-03,-9.260E-03
-49.024780E+00,+22.092E-03,+7.476E-03
-49.023380E+00,+22.349E-03,+1.784E-03
-49.021980E+00,+22.053E-03,+5.692E-03
-49.020580E+00,+22.221E-03,+25.997E-03
-49.019180E+00,+22.687E-03,+9.260E-03
-49.017780E+00,+22.552E-03,+0.0E+00
-49.016380E+00,+21.886E-03,+0.0E+00
-49.014980E+00,+21.829E-03,+7.476E-03
-49.013580E+00,+21.943E-03,+9.260E-03
-49.012180E+00,+22.239E-03,+0.0E+00
-49.010780E+00,+22.146E-03,-7.476E-03
-49.009380E+00,+22.146E-03,-24.213E-03
-49.007980E+00,+22.295E-03,+3.908E-03
-49.006580E+00,+22.481E-03,+27.781E-03
-49.005180E+00,+22.032E-03,+0.0E+00
-49.003780E+00,+21.551E-03,+0.0E+00
-49.002380E+00,+21.494E-03,-7.476E-03
-49.000980E+00,+21.384E-03,-16.736E-03
-48.999580E+00,+21.626E-03,-1.784E-03
-48.998180E+00,+21.811E-03,+24.213E-03
-48.996780E+00,+22.110E-03,+18.520E-03
-48.995380E+00,+22.331E-03,+0.0E+00
-48.993980E+00,+22.071E-03,+7.476E-03
-48.992580E+00,+22.128E-03,+1.784E-03
-48.991180E+00,+22.164E-03,-1.784E-03
-48.989780E+00,+21.605E-03,+1.784E-03
-48.988380E+00,+21.516E-03,+5.692E-03
-48.986980E+00,+21.904E-03,+25.997E-03
-48.985580E+00,+21.886E-03,+1.784E-03
-48.984180E+00,+22.053E-03,-16.736E-03
-48.982780E+00,+21.922E-03,-16.736E-03
-48.981380E+00,+22.092E-03,-9.260E-03
-48.979980E+00,+22.199E-03,-7.476E-03
-48.978580E+00,+21.943E-03,-24.213E-03
-48.977180E+00,+22.239E-03,-18.520E-03
-48.975780E+00,+22.146E-03,+0.0E+00
-48.974380E+00,+21.996E-03,+0.0E+00
-48.972980E+00,+22.335E-03,-7.476E-03
-48.971580E+00,+22.459E-03,-16.736E-03
-48.970180E+00,+22.035E-03,-1.784E-03
-48.968780E+00,+22.313E-03,+1.784E-03
-48.967380E+00,+22.239E-03,-1.784E-03
-48.965980E+00,+22.071E-03,+9.260E-03
-48.964580E+00,+22.203E-03,+0.0E+00
-48.963180E+00,+22.406E-03,+0.0E+00
-48.961780E+00,+21.939E-03,-7.476E-03
-48.960380E+00,+22.075E-03,+5.692E-03
-48.958980E+00,+22.442E-03,+18.520E-03
-48.957580E+00,+21.754E-03,+0.0E+00
-48.956180E+00,+21.626E-03,+22.429E-03
-48.954779E+00,+22.035E-03,+27.781E-03
-48.953379E+00,+22.313E-03,+7.476E-03
-48.951979E+00,+22.538E-03,+9.260E-03
-48.950579E+00,+22.591E-03,+7.476E-03
-48.949179E+00,+22.463E-03,+24.213E-03
-48.947779E+00,+22.798E-03,+11.044E-03
-48.946379E+00,+22.758E-03,-16.736E-03
-48.944979E+00,+22.256E-03,-1.784E-03
-48.943579E+00,+22.203E-03,+1.784E-03
-48.942179E+00,+22.107E-03,-16.736E-03
-48.940779E+00,+22.018E-03,-16.736E-03
-48.939379E+00,+22.630E-03,-16.736E-03
-48.937979E+00,+22.890E-03,-16.736E-03
-48.936579E+00,+22.459E-03,-9.260E-03
-48.935179E+00,+22.185E-03,+14.952E-03
-48.933779E+00,+22.349E-03,+18.520E-03
-48.932379E+00,+22.128E-03,-7.476E-03
-48.930979E+00,+22.313E-03,-1.784E-03
-48.929579E+00,+22.164E-03,+9.260E-03
-48.928179E+00,+22.427E-03,+0.0E+00
-48.926779E+00,+22.684E-03,+7.476E-03
-48.925379E+00,+22.313E-03,+1.784E-03
-48.923979E+00,+22.313E-03,-16.736E-03
-48.922579E+00,+22.164E-03,-9.260E-03
-48.921179E+00,+22.203E-03,-7.476E-03
-48.919779E+00,+22.331E-03,-1.784E-03
-48.918379E+00,+22.594E-03,+9.260E-03
-48.916979E+00,+22.627E-03,+7.476E-03
-48.915579E+00,+21.829E-03,+1.784E-03
-48.914179E+00,+21.943E-03,-9.260E-03
-48.912779E+00,+21.939E-03,-7.476E-03
-48.911379E+00,+21.776E-03,-9.260E-03
-48.909979E+00,+22.221E-03,+0.0E+00
-48.908579E+00,+22.612E-03,+0.0E+00
-48.907179E+00,+22.983E-03,+7.476E-03
-48.905779E+00,+22.609E-03,-5.692E-03
-48.904379E+00,+22.295E-03,-18.520E-03
-48.902979E+00,+22.630E-03,+7.476E-03
-48.901579E+00,+22.217E-03,+16.736E-03
-48.900179E+00,+21.850E-03,+9.260E-03
-48.898779E+00,+22.388E-03,+22.429E-03
-48.897379E+00,+22.032E-03,+27.781E-03
-48.895979E+00,+21.776E-03,+14.952E-03
-48.894579E+00,+22.221E-03,+11.044E-03
-48.893179E+00,+22.239E-03,-16.736E-03
-48.891779E+00,+21.996E-03,-16.736E-03
-48.890379E+00,+22.260E-03,+5.692E-03
-48.888979E+00,+22.591E-03,+11.044E-03
-48.887579E+00,+22.313E-03,-1.784E-03
-48.886179E+00,+22.089E-03,-5.692E-03
-48.884779E+00,+22.335E-03,-18.520E-03
-48.883379E+00,+22.758E-03,-14.952E-03
-48.881979E+00,+22.182E-03,-25.997E-03
-48.880579E+00,+22.185E-03,-16.736E-03
-48.879179E+00,+22.573E-03,-9.260E-03
-48.877779E+00,+22.256E-03,+0.0E+00
-48.876379E+00,+22.053E-03,+7.476E-03
-48.874979E+00,+22.520E-03,+24.213E-03
-48.873579E+00,+22.609E-03,+18.520E-03
-48.872179E+00,+22.594E-03,-7.476E-03
-48.870779E+00,+22.552E-03,-24.213E-03
-48.869379E+00,+22.185E-03,-25.997E-03
-48.867979E+00,+22.648E-03,-16.736E-03
-48.866579E+00,+22.498E-03,-9.260E-03
-48.865179E+00,+22.463E-03,+7.476E-03
-48.863778E+00,+22.498E-03,+16.736E-03
-48.862378E+00,+22.313E-03,+9.260E-03
-48.860978E+00,+22.313E-03,-7.476E-03
-48.859578E+00,+21.715E-03,-16.736E-03
-48.858178E+00,+21.647E-03,-1.784E-03
-48.856778E+00,+21.883E-03,+24.213E-03
-48.855378E+00,+21.815E-03,+25.997E-03
-48.853978E+00,+22.573E-03,+16.736E-03
-48.852578E+00,+22.406E-03,+1.784E-03
-48.851178E+00,+22.239E-03,-1.784E-03
-48.849778E+00,+22.071E-03,+1.784E-03
-48.848378E+00,+22.053E-03,-1.784E-03
-48.846978E+00,+22.295E-03,+24.213E-03
-48.845578E+00,+22.481E-03,+18.520E-03
-48.844178E+00,+22.555E-03,+0.0E+00
-48.842778E+00,+22.573E-03,-7.476E-03
-48.841378E+00,+22.481E-03,-1.784E-03
-48.839978E+00,+22.331E-03,+9.260E-03
-48.838578E+00,+22.221E-03,+0.0E+00
-48.837178E+00,+22.164E-03,+0.0E+00
-48.835778E+00,+22.352E-03,+0.0E+00
-48.834378E+00,+22.591E-03,+0.0E+00
-48.832978E+00,+22.239E-03,-7.476E-03
-48.831578E+00,+21.697E-03,-16.736E-03
-48.830178E+00,+21.291E-03,-16.736E-03
-48.828778E+00,+21.776E-03,-1.784E-03
-48.827378E+00,+22.146E-03,+16.736E-03
-48.825978E+00,+22.445E-03,+1.784E-03
-48.824578E+00,+22.292E-03,-9.260E-03
-48.823178E+00,+21.793E-03,+7.476E-03
-48.821778E+00,+21.979E-03,+24.213E-03
-48.820378E+00,+22.128E-03,+18.520E-03
-48.818978E+00,+22.463E-03,-14.952E-03
-48.817578E+00,+22.573E-03,-18.520E-03
-48.816178E+00,+22.182E-03,+7.476E-03
-48.814778E+00,+21.961E-03,+24.213E-03
-48.813378E+00,+21.996E-03,+25.997E-03
-48.811978E+00,+21.736E-03,+16.736E-03
-48.810578E+00,+21.793E-03,+1.784E-03
-48.809178E+00,+22.352E-03,-16.736E-03
-48.807778E+00,+22.516E-03,-9.260E-03
-48.806378E+00,+22.221E-03,+7.476E-03
-48.804978E+00,+22.463E-03,+16.736E-03
-48.803578E+00,+22.798E-03,+16.736E-03
-48.802178E+00,+22.534E-03,+9.260E-03
-48.800778E+00,+22.203E-03,+7.476E-03
-48.799378E+00,+22.705E-03,+16.736E-03
-48.797978E+00,+22.684E-03,+1.784E-03
-48.796578E+00,+22.239E-03,+5.692E-03
-48.795178E+00,+22.146E-03,+18.520E-03
-48.793778E+00,+22.071E-03,+7.476E-03
-48.792378E+00,+22.053E-03,+9.260E-03
-48.790978E+00,+21.922E-03,-7.476E-03
-48.789578E+00,+22.092E-03,-16.736E-03
-48.788178E+00,+22.498E-03,-9.260E-03
-48.786778E+00,+22.388E-03,+0.0E+00
-48.785378E+00,+22.406E-03,+7.476E-03
-48.783978E+00,+22.239E-03,+1.784E-03
-48.782578E+00,+21.922E-03,-16.736E-03
-48.781178E+00,+21.793E-03,-9.260E-03
-48.779778E+00,+22.427E-03,+0.0E+00
-48.778378E+00,+22.684E-03,+14.952E-03
-48.776978E+00,+22.014E-03,+25.997E-03
-48.775578E+00,+21.644E-03,+1.784E-03
-48.774177E+00,+21.719E-03,-9.260E-03
-48.772777E+00,+22.185E-03,+7.476E-03
-48.771377E+00,+22.424E-03,+9.260E-03
-48.769977E+00,+22.445E-03,+0.0E+00
-48.768577E+00,+22.442E-03,-14.952E-03
-48.767177E+00,+22.053E-03,-25.997E-03
-48.765777E+00,+21.996E-03,-16.736E-03
-48.764377E+00,+21.961E-03,-9.260E-03
-48.762977E+00,+21.548E-03,-14.952E-03
-48.761577E+00,+21.330E-03,-11.044E-03
-48.760177E+00,+21.979E-03,+16.736E-03
-48.758777E+00,+22.278E-03,+9.260E-03
-48.757377E+00,+22.274E-03,+0.0E+00
-48.755977E+00,+21.886E-03,+0.0E+00
-48.754577E+00,+22.053E-03,-14.952E-03
-48.753177E+00,+21.996E-03,-18.520E-03
-48.751777E+00,+21.811E-03,+0.0E+00
-48.750377E+00,+21.736E-03,-7.476E-03
-48.748977E+00,+21.943E-03,+5.692E-03
-48.747577E+00,+22.313E-03,+18.520E-03
-48.746177E+00,+22.239E-03,+7.476E-03
-48.744777E+00,+22.445E-03,+1.784E-03
-48.743377E+00,+22.666E-03,-9.260E-03
-48.741977E+00,+22.705E-03,+0.0E+00
-48.740577E+00,+22.684E-03,-7.476E-03
-48.739177E+00,+22.239E-03,+5.692E-03
-48.737777E+00,+21.922E-03,+18.520E-03
-48.736377E+00,+22.018E-03,+7.476E-03
-48.734977E+00,+22.331E-03,+16.736E-03
-48.733577E+00,+21.922E-03,+24.213E-03
-48.732177E+00,+21.270E-03,+11.044E-03
-48.730777E+00,+21.480E-03,-1.784E-03
-48.729377E+00,+22.239E-03,+9.260E-03
-48.727977E+00,+22.146E-03,-7.476E-03
-48.726577E+00,+21.996E-03,-16.736E-03
-48.725177E+00,+21.886E-03,-16.736E-03
-48.723777E+00,+22.128E-03,-16.736E-03
-48.722377E+00,+22.463E-03,-1.784E-03
-48.720977E+00,+22.498E-03,+16.736E-03
-48.719577E+00,+21.865E-03,+9.260E-03
-48.718177E+00,+21.907E-03,+7.476E-03
-48.716777E+00,+22.125E-03,+1.784E-03
-48.715377E+00,+21.476E-03,-1.784E-03
-48.713977E+00,+21.850E-03,+1.784E-03
-48.712577E+00,+22.538E-03,+5.692E-03
-48.711177E+00,+22.815E-03,+33.473E-03
-48.709777E+00,+22.741E-03,+25.997E-03
-48.708377E+00,+22.872E-03,+1.784E-03
-48.706977E+00,+22.702E-03,-1.784E-03
-48.705577E+00,+22.221E-03,+1.784E-03
-48.704177E+00,+22.239E-03,-16.736E-03
-48.702777E+00,+22.146E-03,-24.213E-03
-48.701377E+00,+21.996E-03,-25.997E-03
-48.699977E+00,+22.185E-03,-1.784E-03
-48.698577E+00,+22.274E-03,+16.736E-03
-48.697177E+00,+22.185E-03,+1.784E-03
-48.695777E+00,+22.798E-03,-9.260E-03
-48.694377E+00,+22.833E-03,+7.476E-03
-48.692977E+00,+22.573E-03,+9.260E-03
-48.691577E+00,+22.406E-03,+7.476E-03
-48.690177E+00,+21.865E-03,+16.736E-03
-48.688777E+00,+21.683E-03,-5.692E-03
-48.687377E+00,+22.146E-03,-18.520E-03
-48.685977E+00,+22.221E-03,+7.476E-03
-48.684576E+00,+22.239E-03,+24.213E-03
-48.683176E+00,+22.295E-03,+11.044E-03
-48.681776E+00,+22.331E-03,-24.213E-03
-48.680376E+00,+21.922E-03,-33.473E-03
-48.678976E+00,+21.943E-03,-25.997E-03
-48.677576E+00,+22.538E-03,-1.784E-03
-48.676176E+00,+21.993E-03,+9.260E-03
-48.674776E+00,+22.021E-03,+0.0E+00
-48.673376E+00,+22.869E-03,+0.0E+00
-48.671976E+00,+22.612E-03,+0.0E+00
-48.670576E+00,+22.908E-03,+0.0E+00
-48.669176E+00,+22.815E-03,-7.476E-03
-48.667776E+00,+22.591E-03,-9.260E-03
-48.666376E+00,+22.463E-03,+7.476E-03
-48.664976E+00,+22.573E-03,-5.692E-03
-48.663576E+00,+22.107E-03,-18.520E-03
-48.662176E+00,+22.018E-03,+7.476E-03
-48.660776E+00,+22.182E-03,-5.692E-03
-48.659376E+00,+22.035E-03,-11.044E-03
-48.657976E+00,+22.239E-03,+24.213E-03
-48.656576E+00,+22.445E-03,+11.044E-03
-48.655176E+00,+22.666E-03,-9.260E-03
-48.653776E+00,+21.957E-03,+22.429E-03
-48.652376E+00,+21.758E-03,+35.257E-03
-48.650976E+00,+22.388E-03,+16.736E-03
-48.649576E+00,+22.555E-03,+9.260E-03
-48.648176E+00,+22.274E-03,+7.476E-03
-48.646776E+00,+21.662E-03,+1.784E-03
-48.645376E+00,+21.850E-03,-16.736E-03
-48.643976E+00,+21.939E-03,-1.784E-03
-48.642576E+00,+21.551E-03,+16.736E-03
-48.641176E+00,+21.420E-03,+16.736E-03
-48.639776E+00,+21.590E-03,+1.784E-03
-48.638376E+00,+22.221E-03,-1.784E-03
-48.636976E+00,+22.014E-03,+9.260E-03
-48.635576E+00,+21.719E-03,+0.0E+00
-48.634176E+00,+22.335E-03,+0.0E+00
-48.632776E+00,+22.758E-03,+0.0E+00
-48.631376E+00,+22.630E-03,-14.952E-03
-48.629976E+00,+22.965E-03,-11.044E-03
-48.628576E+00,+22.702E-03,+9.260E-03
-48.627176E+00,+22.295E-03,+0.0E+00
-48.625776E+00,+22.107E-03,+0.0E+00
-48.624376E+00,+21.943E-03,+0.0E+00
-48.622976E+00,+22.239E-03,-14.952E-03
-48.621576E+00,+22.071E-03,-25.997E-03
-48.620176E+00,+22.128E-03,-31.689E-03
-48.618776E+00,+22.014E-03,-27.781E-03
-48.617376E+00,+21.943E-03,+0.0E+00
-48.615976E+00,+21.790E-03,-14.952E-03
-48.614576E+00,+21.740E-03,-25.997E-03
-48.613176E+00,+22.331E-03,-9.260E-03
-48.611776E+00,+21.772E-03,+0.0E+00
-48.610376E+00,+21.384E-03,-7.476E-03
-48.608976E+00,+22.000E-03,-9.260E-03
-48.607576E+00,+22.424E-03,+7.476E-03
-48.606176E+00,+22.146E-03,+9.260E-03
-48.604776E+00,+22.370E-03,+0.0E+00
-48.603376E+00,+22.573E-03,+14.952E-03
-48.601976E+00,+22.406E-03,+18.520E-03
-48.600576E+00,+22.388E-03,+0.0E+00
-48.599176E+00,+22.256E-03,-7.476E-03
-48.597776E+00,+22.053E-03,-1.784E-03
-48.596376E+00,+22.071E-03,+1.784E-03
-48.594975E+00,+21.754E-03,-9.260E-03
-48.593575E+00,+21.701E-03,-7.476E-03
-48.592175E+00,+21.754E-03,-9.260E-03
-48.590775E+00,+21.925E-03,-7.476E-03
-48.589375E+00,+22.481E-03,-1.784E-03
-48.587975E+00,+22.555E-03,+1.784E-03
-48.586575E+00,+22.424E-03,-9.260E-03
-48.585175E+00,+22.071E-03,-14.952E-03
-48.583775E+00,+21.904E-03,-18.520E-03
-48.582375E+00,+21.512E-03,+7.476E-03
-48.580975E+00,+21.441E-03,+1.784E-03
-48.579575E+00,+22.260E-03,-16.736E-03
-48.578175E+00,+22.591E-03,-1.784E-03
-48.576775E+00,+22.687E-03,+9.260E-03
-48.575375E+00,+22.402E-03,-7.476E-03
-48.573975E+00,+21.925E-03,-16.736E-03
-48.572575E+00,+22.032E-03,-16.736E-03
-48.571175E+00,+21.551E-03,-1.784E-03
-48.569775E+00,+21.868E-03,+16.736E-03
-48.568375E+00,+22.221E-03,+9.260E-03
-48.566975E+00,+22.239E-03,-7.476E-03
-48.565575E+00,+22.071E-03,-31.689E-03
-48.564175E+00,+21.754E-03,-20.305E-03
-48.562775E+00,+21.476E-03,+9.260E-03
-48.561375E+00,+21.402E-03,+0.0E+00
-48.559975E+00,+21.533E-03,+0.0E+00
-48.558575E+00,+22.110E-03,-7.476E-03
-48.557175E+00,+22.331E-03,-9.260E-03
-48.555775E+00,+22.146E-03,+7.476E-03
-48.554375E+00,+22.221E-03,-5.692E-03
-48.552975E+00,+22.388E-03,-25.997E-03
-48.551575E+00,+22.406E-03,-24.213E-03
-48.550175E+00,+22.239E-03,-18.520E-03
-48.548775E+00,+22.445E-03,+7.476E-03
-48.547375E+00,+22.591E-03,-5.692E-03
-48.545975E+00,+22.239E-03,-25.997E-03
-48.544575E+00,+21.847E-03,-9.260E-03
-48.543175E+00,+21.850E-03,-7.476E-03
-48.541775E+00,+22.463E-03,-16.736E-03
-48.540375E+00,+22.424E-03,-9.260E-03
-48.538975E+00,+21.847E-03,+14.952E-03
-48.537575E+00,+21.701E-03,+18.520E-03
-48.536175E+00,+21.979E-03,+14.952E-03
-48.534775E+00,+22.203E-03,+25.997E-03
-48.533375E+00,+22.406E-03,+1.784E-03
-48.531975E+00,+22.463E-03,-1.784E-03
-48.530575E+00,+22.573E-03,+9.260E-03
-48.529175E+00,+22.705E-03,+0.0E+00
-48.527775E+00,+22.609E-03,+7.476E-03
-48.526375E+00,+21.847E-03,+1.784E-03
-48.524975E+00,+21.626E-03,-9.260E-03
-48.523575E+00,+21.961E-03,-7.476E-03
-48.522175E+00,+21.398E-03,-9.260E-03
-48.520775E+00,+20.846E-03,+0.0E+00
-48.519375E+00,+22.131E-03,+7.476E-03
-48.517975E+00,+23.001E-03,+9.260E-03
-48.516575E+00,+22.666E-03,+0.0E+00
-48.515175E+00,+22.705E-03,-7.476E-03
-48.513775E+00,+22.609E-03,-16.736E-03
-48.512375E+00,+21.996E-03,-16.736E-03
-48.510975E+00,+21.961E-03,-16.736E-03
-48.509575E+00,+22.146E-03,-1.784E-03
-48.508175E+00,+22.146E-03,+31.689E-03
-48.506775E+00,+21.772E-03,+35.257E-03
-48.505375E+00,+21.982E-03,+9.260E-03
-48.503974E+00,+22.516E-03,+0.0E+00
-48.502574E+00,+22.146E-03,+0.0E+00
-48.501174E+00,+22.221E-03,-7.476E-03
-48.499774E+00,+21.790E-03,-9.260E-03
-48.498374E+00,+21.067E-03,-7.476E-03
-48.496974E+00,+21.348E-03,+5.692E-03
-48.495574E+00,+21.662E-03,+11.044E-03
-48.494174E+00,+21.327E-03,-9.260E-03
-48.492774E+00,+21.815E-03,+0.0E+00
-48.491374E+00,+22.498E-03,+7.476E-03
-48.489974E+00,+22.239E-03,+1.784E-03
-48.488574E+00,+22.146E-03,-9.260E-03
-48.487174E+00,+22.146E-03,-7.476E-03
-48.485774E+00,+22.295E-03,-9.260E-03
-48.484374E+00,+22.555E-03,-7.476E-03
-48.482974E+00,+22.648E-03,-9.260E-03
-48.481574E+00,+22.050E-03,+0.0E+00
-48.480174E+00,+21.683E-03,+0.0E+00
-48.478774E+00,+22.295E-03,-14.952E-03
-48.477374E+00,+21.883E-03,-3.568E-03
-48.475974E+00,+21.815E-03,+25.997E-03
-48.474574E+00,+22.424E-03,+1.784E-03
-48.473174E+00,+22.071E-03,-9.260E-03
-48.471774E+00,+22.427E-03,+22.429E-03
-48.470374E+00,+22.684E-03,+35.257E-03
-48.468974E+00,+22.014E-03,+1.784E-03
-48.467574E+00,+21.569E-03,+5.692E-03
-48.466174E+00,+22.000E-03,+11.044E-03
-48.464774E+00,+22.872E-03,-24.213E-03
-48.463374E+00,+22.702E-03,-18.520E-03
-48.461974E+00,+22.071E-03,+0.0E+00
-48.460574E+00,+22.128E-03,+0.0E+00
-48.459174E+00,+22.388E-03,-7.476E-03
-48.457774E+00,+21.957E-03,-9.260E-03
-48.456374E+00,+21.533E-03,+7.476E-03
-48.454974E+00,+21.886E-03,+9.260E-03
-48.453574E+00,+22.427E-03,+0.0E+00
-48.452174E+00,+22.609E-03,-14.952E-03
-48.450774E+00,+21.772E-03,-25.997E-03
-48.449374E+00,+21.832E-03,-1.784E-03
-48.447974E+00,+22.406E-03,+9.260E-03
-48.446574E+00,+22.388E-03,+7.476E-03
-48.445174E+00,+21.883E-03,+16.736E-03
-48.443774E+00,+21.441E-03,+9.260E-03
-48.442374E+00,+21.961E-03,+14.952E-03
-48.440974E+00,+22.295E-03,+25.997E-03
-48.439574E+00,+22.555E-03,+9.260E-03
-48.438174E+00,+22.498E-03,+0.0E+00
-48.436774E+00,+22.463E-03,+7.476E-03
-48.435374E+00,+22.498E-03,+9.260E-03
-48.433974E+00,+22.239E-03,-7.476E-03
-48.432574E+00,+21.922E-03,-1.784E-03
-48.431174E+00,+21.569E-03,+9.260E-03
-48.429774E+00,+21.701E-03,-14.952E-03
-48.428374E+00,+22.352E-03,-18.520E-03
-48.426974E+00,+22.442E-03,+0.0E+00
-48.425574E+00,+22.053E-03,+7.476E-03
-48.424174E+00,+21.996E-03,+16.736E-03
-48.422774E+00,+21.736E-03,+16.736E-03
-48.421374E+00,+22.167E-03,-5.692E-03
-48.419974E+00,+22.367E-03,-18.520E-03
-48.418574E+00,+22.035E-03,+0.0E+00
-48.417174E+00,+22.986E-03,-7.476E-03
-48.415774E+00,+23.072E-03,-1.784E-03
-48.414373E+00,+22.146E-03,+16.736E-03
-48.412973E+00,+21.772E-03,+1.784E-03
-48.411573E+00,+21.758E-03,-16.736E-03
-48.410173E+00,+21.939E-03,-16.736E-03
-48.408773E+00,+21.551E-03,+5.692E-03
-48.407373E+00,+22.018E-03,+25.997E-03
-48.405973E+00,+22.406E-03,+9.260E-03
-48.404573E+00,+22.089E-03,-7.476E-03
-48.403173E+00,+22.110E-03,-9.260E-03
-48.401773E+00,+22.256E-03,-14.952E-03
-48.400373E+00,+22.053E-03,-18.520E-03
-48.398973E+00,+22.295E-03,+0.0E+00
-48.397573E+00,+22.256E-03,+7.476E-03
-48.396173E+00,+22.203E-03,+9.260E-03
-48.394773E+00,+22.256E-03,+0.0E+00
-48.393373E+00,+22.203E-03,+14.952E-03
-48.391973E+00,+22.481E-03,+18.520E-03
-48.390573E+00,+22.331E-03,+0.0E+00
-48.389173E+00,+21.847E-03,-7.476E-03
-48.387773E+00,+21.701E-03,-16.736E-03
-48.386373E+00,+22.278E-03,-24.213E-03
-48.384973E+00,+22.648E-03,-11.044E-03
-48.383573E+00,+22.798E-03,+24.213E-03
-48.382173E+00,+22.459E-03,+25.997E-03
-48.380773E+00,+22.260E-03,+9.260E-03
-48.379373E+00,+22.292E-03,+0.0E+00
-48.377973E+00,+22.018E-03,+0.0E+00
-48.376573E+00,+22.555E-03,+0.0E+00
-48.375173E+00,+22.498E-03,+22.429E-03
-48.373773E+00,+22.388E-03,+35.257E-03
-48.372373E+00,+22.481E-03,+1.784E-03
-48.370973E+00,+22.705E-03,-1.784E-03
-48.369573E+00,+22.833E-03,+9.260E-03
-48.368173E+00,+22.648E-03,-7.476E-03
-48.366773E+00,+22.199E-03,+13.168E-03
-48.365373E+00,+21.494E-03,+20.305E-03
-48.363973E+00,+21.459E-03,-9.260E-03
-48.362573E+00,+22.092E-03,+7.476E-03
-48.361173E+00,+22.723E-03,+1.784E-03
-48.359773E+00,+22.666E-03,-16.736E-03
-48.358373E+00,+22.406E-03,-1.784E-03
-48.356973E+00,+22.313E-03,+1.784E-03
-48.355573E+00,+22.313E-03,-1.784E-03
-48.354173E+00,+22.612E-03,+9.260E-03
-48.352773E+00,+22.758E-03,-22.429E-03
-48.351373E+00,+22.780E-03,-27.781E-03
-48.349973E+00,+22.926E-03,+7.476E-03
-48.348573E+00,+22.424E-03,+16.736E-03
-48.347173E+00,+22.370E-03,+1.784E-03
-48.345773E+00,+22.274E-03,-9.260E-03
-48.344373E+00,+21.736E-03,-7.476E-03
-48.342973E+00,+21.868E-03,-1.784E-03
-48.341573E+00,+22.295E-03,+24.213E-03
-48.340173E+00,+22.331E-03,+25.997E-03
-48.338773E+00,+22.594E-03,+9.260E-03
-48.337373E+00,+22.178E-03,-7.476E-03
-48.335973E+00,+21.647E-03,-9.260E-03
-48.334573E+00,+22.406E-03,+0.0E+00
-48.333173E+00,+22.239E-03,+0.0E+00
-48.331773E+00,+21.847E-03,+7.476E-03
-48.330373E+00,+21.850E-03,+16.736E-03
-48.328973E+00,+22.388E-03,+1.784E-03
-48.327573E+00,+22.630E-03,-9.260E-03
-48.326173E+00,+22.367E-03,+0.0E+00
-48.324772E+00,+22.260E-03,+0.0E+00
-48.323372E+00,+22.516E-03,+14.952E-03
-48.321972E+00,+22.071E-03,+25.997E-03
-48.320572E+00,+22.053E-03,+16.736E-03
-48.319172E+00,+21.922E-03,+9.260E-03
-48.317772E+00,+21.868E-03,+0.0E+00
-48.316372E+00,+22.221E-03,+0.0E+00
-48.314972E+00,+22.014E-03,+7.476E-03
-48.313572E+00,+21.943E-03,+24.213E-03
-48.312172E+00,+22.388E-03,+3.568E-03
-48.310772E+00,+22.032E-03,-18.520E-03
-48.309372E+00,+21.327E-03,+7.476E-03
-48.307972E+00,+21.366E-03,+9.260E-03
-48.306572E+00,+21.868E-03,+7.476E-03
-48.305172E+00,+22.146E-03,+9.260E-03
-48.303772E+00,+22.146E-03,+0.0E+00
-48.302372E+00,+22.146E-03,+0.0E+00
-48.300972E+00,+22.071E-03,+7.476E-03
-48.299572E+00,+22.053E-03,+1.784E-03
-48.298172E+00,+22.594E-03,-16.736E-03
-48.296772E+00,+22.776E-03,-9.260E-03
-48.295372E+00,+21.939E-03,-7.476E-03
-48.293972E+00,+21.925E-03,-9.260E-03
-48.292572E+00,+22.630E-03,+0.0E+00
-48.291172E+00,+22.516E-03,+0.0E+00
-48.289772E+00,+22.295E-03,-14.952E-03
-48.288372E+00,+22.481E-03,-11.044E-03
-48.286972E+00,+22.481E-03,+9.260E-03
-48.285572E+00,+22.481E-03,+7.476E-03
-48.284172E+00,+22.182E-03,+9.260E-03
-48.282772E+00,+22.035E-03,-7.476E-03
-48.281372E+00,+22.388E-03,-9.260E-03
-48.279972E+00,+21.957E-03,+0.0E+00
-48.278572E+00,+21.384E-03,+7.476E-03
-48.277172E+00,+21.476E-03,+9.260E-03
-48.275772E+00,+21.551E-03,+7.476E-03
-48.274372E+00,+21.793E-03,+9.260E-03
-48.272972E+00,+22.278E-03,+0.0E+00
-48.271572E+00,+22.498E-03,+0.0E+00
-48.270172E+00,+22.089E-03,+7.476E-03
-48.268772E+00,+22.335E-03,+9.260E-03
-48.267372E+00,+22.385E-03,-7.476E-03
-48.265972E+00,+21.644E-03,-16.736E-03
-48.264572E+00,+21.793E-03,-1.784E-03
-48.263172E+00,+21.829E-03,+9.260E-03
-48.261772E+00,+21.793E-03,+7.476E-03
-48.260372E+00,+22.128E-03,+16.736E-03
-48.258972E+00,+22.164E-03,+9.260E-03
-48.257572E+00,+22.203E-03,-7.476E-03
-48.256172E+00,+22.481E-03,-24.213E-03
-48.254772E+00,+22.630E-03,-18.520E-03
-48.253372E+00,+22.516E-03,+14.952E-03
-48.251972E+00,+22.370E-03,+18.520E-03
-48.250572E+00,+22.199E-03,-7.476E-03
-48.249172E+00,+21.868E-03,-9.260E-03
-48.247772E+00,+22.146E-03,-7.476E-03
-48.246372E+00,+22.221E-03,-1.784E-03
-48.244972E+00,+22.089E-03,+16.736E-03
-48.243572E+00,+22.035E-03,+1.784E-03
-48.242172E+00,+22.388E-03,-9.260E-03
-48.240772E+00,+22.406E-03,-7.476E-03
-48.239372E+00,+22.463E-03,-1.784E-03
-48.237972E+00,+22.424E-03,+16.736E-03
-48.236572E+00,+21.996E-03,+9.260E-03
-48.235172E+00,+21.961E-03,+0.0E+00
-48.233771E+00,+22.370E-03,-7.476E-03
-48.232371E+00,+21.975E-03,-1.784E-03
-48.230971E+00,+21.216E-03,-5.692E-03
-48.229571E+00,+21.459E-03,-11.044E-03
-48.228171E+00,+21.644E-03,+16.736E-03
-48.226771E+00,+22.167E-03,-5.692E-03
-48.225371E+00,+22.367E-03,-25.997E-03
-48.223971E+00,+22.185E-03,-9.260E-03
-48.222571E+00,+22.498E-03,-7.476E-03
-48.221171E+00,+22.313E-03,+5.692E-03
-48.219771E+00,+22.463E-03,+11.044E-03
-48.218371E+00,+22.498E-03,-16.736E-03
-48.216971E+00,+22.164E-03,-9.260E-03
-48.215571E+00,+22.278E-03,+14.952E-03
-48.214171E+00,+22.648E-03,+18.520E-03
-48.212771E+00,+22.573E-03,+7.476E-03
-48.211371E+00,+22.406E-03,+1.784E-03
-48.209971E+00,+22.612E-03,-1.784E-03
-48.208571E+00,+22.385E-03,+16.736E-03
-48.207171E+00,+21.719E-03,+9.260E-03
-48.205771E+00,+22.035E-03,+0.0E+00
-48.204371E+00,+22.388E-03,+0.0E+00
-48.202971E+00,+22.032E-03,+7.476E-03
-48.201571E+00,+21.776E-03,+1.784E-03
-48.200171E+00,+21.996E-03,-1.784E-03
-48.198771E+00,+22.335E-03,+9.260E-03
-48.197371E+00,+22.160E-03,-7.476E-03
-48.195971E+00,+21.665E-03,-16.736E-03
-48.194571E+00,+22.089E-03,-16.736E-03
-48.193171E+00,+22.110E-03,-9.260E-03
-48.191771E+00,+22.406E-03,+0.0E+00
-48.190371E+00,+22.239E-03,+0.0E+00
-48.188971E+00,+22.146E-03,+0.0E+00
-48.187571E+00,+22.146E-03,-7.476E-03
-48.186171E+00,+22.146E-03,-1.784E-03
-48.184771E+00,+22.295E-03,+16.736E-03
-48.183371E+00,+22.481E-03,+1.784E-03
-48.181971E+00,+22.406E-03,+5.692E-03
-48.180571E+00,+22.612E-03,+18.520E-03
-48.179171E+00,+22.833E-03,-7.476E-03
-48.177771E+00,+22.573E-03,-1.784E-03
-48.176371E+00,+21.883E-03,+16.736E-03
-48.174971E+00,+21.516E-03,+1.784E-03
-48.173571E+00,+21.829E-03,-9.260E-03
-48.172171E+00,+21.868E-03,-7.476E-03
-48.170771E+00,+22.295E-03,+5.692E-03
-48.169371E+00,+22.705E-03,+3.568E-03
-48.167971E+00,+22.385E-03,-25.997E-03
-48.166571E+00,+22.018E-03,-9.260E-03
-48.165171E+00,+22.256E-03,+14.952E-03
-48.163771E+00,+22.203E-03,+18.520E-03
-48.162371E+00,+22.331E-03,+7.476E-03
-48.160971E+00,+21.847E-03,+16.736E-03
-48.159571E+00,+21.551E-03,-5.692E-03
-48.158171E+00,+22.018E-03,-18.520E-03
-48.156771E+00,+22.481E-03,+7.476E-03
-48.155371E+00,+22.481E-03,+9.260E-03
-48.153971E+00,+22.406E-03,-7.476E-03
-48.152571E+00,+22.164E-03,-16.736E-03
-48.151171E+00,+22.203E-03,-9.260E-03
-48.149771E+00,+22.256E-03,-7.476E-03
-48.148371E+00,+22.203E-03,-9.260E-03
-48.146971E+00,+22.182E-03,-7.476E-03
-48.145571E+00,+22.185E-03,-9.260E-03
-48.144170E+00,+22.498E-03,+0.0E+00
-48.142770E+00,+22.089E-03,+7.476E-03
-48.141370E+00,+21.961E-03,+24.213E-03
-48.139970E+00,+22.221E-03,+11.044E-03
-48.138570E+00,+22.089E-03,-16.736E-03
-48.137170E+00,+22.110E-03,-1.784E-03
-48.135770E+00,+22.107E-03,+16.736E-03
-48.134370E+00,+22.242E-03,+1.784E-03
-48.132970E+00,+22.459E-03,-9.260E-03
-48.131570E+00,+21.961E-03,+0.0E+00
-48.130170E+00,+22.221E-03,-7.476E-03
-48.128770E+00,+22.239E-03,-9.260E-03
-48.127370E+00,+22.146E-03,+7.476E-03
-48.125970E+00,+22.370E-03,+16.736E-03
-48.124570E+00,+22.199E-03,+1.784E-03
-48.123170E+00,+21.868E-03,-1.784E-03
-48.121770E+00,+22.221E-03,+1.784E-03
-48.120370E+00,+22.388E-03,-1.784E-03
-48.118970E+00,+22.630E-03,+9.260E-03
-48.117570E+00,+22.367E-03,+0.0E+00
-48.116170E+00,+21.662E-03,+14.952E-03
-48.114770E+00,+21.626E-03,+3.568E-03
-48.113370E+00,+21.961E-03,-18.520E-03
-48.111970E+00,+22.445E-03,+14.952E-03
-48.110570E+00,+22.516E-03,+11.044E-03
-48.109170E+00,+22.146E-03,-1.784E-03
-48.107770E+00,+22.221E-03,+9.260E-03
-48.106370E+00,+22.313E-03,+7.476E-03
-48.104970E+00,+22.313E-03,+9.260E-03
-48.103570E+00,+21.865E-03,+7.476E-03
-48.102170E+00,+21.758E-03,+24.213E-03
-48.100770E+00,+22.313E-03,+18.520E-03
-48.099370E+00,+22.089E-03,+14.952E-03
-48.097970E+00,+22.035E-03,+18.520E-03
-48.096570E+00,+22.089E-03,+0.0E+00
-48.095170E+00,+21.587E-03,-14.952E-03
-48.093770E+00,+21.832E-03,-18.520E-03
-48.092370E+00,+22.182E-03,-7.476E-03
-48.090970E+00,+21.886E-03,-16.736E-03
-48.089570E+00,+22.053E-03,-16.736E-03
-48.088170E+00,+21.847E-03,-31.689E-03
-48.086770E+00,+21.103E-03,-27.781E-03
-48.085370E+00,+21.238E-03,+7.476E-03
-48.083970E+00,+22.053E-03,+16.736E-03
-48.082570E+00,+21.772E-03,+1.784E-03
-48.081170E+00,+21.832E-03,-9.260E-03
-48.079770E+00,+22.331E-03,+7.476E-03
-48.078370E+00,+22.370E-03,+24.213E-03
-48.076970E+00,+22.798E-03,+33.473E-03
-48.075570E+00,+22.459E-03,+18.520E-03
-48.074170E+00,+21.662E-03,-7.476E-03
-48.072770E+00,+21.850E-03,-9.260E-03
-48.071370E+00,+22.014E-03,+0.0E+00
-48.069970E+00,+21.793E-03,+7.476E-03
-48.068570E+00,+22.128E-03,+1.784E-03
-48.067170E+00,+22.313E-03,-9.260E-03
-48.065770E+00,+22.239E-03,+0.0E+00
-48.064370E+00,+22.370E-03,-7.476E-03
-48.062970E+00,+22.349E-03,-9.260E-03
-48.061570E+00,+21.979E-03,+0.0E+00
-48.060170E+00,+21.979E-03,+0.0E+00
-48.058770E+00,+21.605E-03,+0.0E+00
-48.057370E+00,+21.665E-03,+0.0E+00
-48.055970E+00,+22.313E-03,+7.476E-03
-48.054569E+00,+22.239E-03,+16.736E-03
-48.053169E+00,+21.922E-03,+1.784E-03
-48.051769E+00,+21.943E-03,-16.736E-03
-48.050369E+00,+22.388E-03,-16.736E-03
-48.048969E+00,+22.331E-03,-9.260E-03
-48.047569E+00,+21.772E-03,-14.952E-03
-48.046169E+00,+21.982E-03,-25.997E-03
-48.044769E+00,+22.292E-03,-1.784E-03
-48.043369E+00,+22.018E-03,+16.736E-03
-48.041969E+00,+22.331E-03,+1.784E-03
-48.040569E+00,+21.922E-03,-9.260E-03
-48.039169E+00,+21.569E-03,+7.476E-03
-48.037769E+00,+22.000E-03,+9.260E-03
-48.036369E+00,+22.349E-03,+7.476E-03
-48.034969E+00,+22.053E-03,+9.260E-03
-48.033569E+00,+22.146E-03,+0.0E+00
-48.032169E+00,+22.221E-03,-7.476E-03
-48.030769E+00,+22.687E-03,-16.736E-03
-48.029369E+00,+22.776E-03,-9.260E-03
-48.027969E+00,+21.865E-03,+0.0E+00
-48.026569E+00,+21.309E-03,-7.476E-03
-48.025169E+00,+21.384E-03,-16.736E-03
-48.023769E+00,+21.551E-03,-24.213E-03
-48.022369E+00,+22.466E-03,-18.520E-03
-48.020969E+00,+23.036E-03,+0.0E+00
-48.019569E+00,+22.032E-03,+7.476E-03
-48.018169E+00,+21.776E-03,+9.260E-03
-48.016769E+00,+21.996E-03,+0.0E+00
-48.015369E+00,+22.260E-03,-7.476E-03
-48.013969E+00,+22.143E-03,-9.260E-03
-48.012569E+00,+21.459E-03,+0.0E+00
-48.011169E+00,+22.018E-03,+0.0E+00
-48.009769E+00,+22.481E-03,-7.476E-03
-48.008369E+00,+22.630E-03,-31.689E-03
-48.006969E+00,+22.367E-03,-27.781E-03
-48.005569E+00,+22.260E-03,+7.476E-03
-48.004169E+00,+22.516E-03,-5.692E-03
-48.002769E+00,+22.221E-03,-3.568E-03
-48.001369E+00,+22.313E-03,+11.044E-03
-47.999969E+00,+22.239E-03,-1.784E-03
-47.998569E+00,+22.221E-03,+9.260E-03
-47.997169E+00,+22.164E-03,-14.952E-03
-47.995769E+00,+22.203E-03,-11.044E-03
-47.994369E+00,+22.331E-03,+16.736E-03
-47.992969E+00,+21.847E-03,+16.736E-03
-47.991569E+00,+21.626E-03,-5.692E-03
-47.990169E+00,+21.512E-03,-18.520E-03
-47.988769E+00,+21.740E-03,+7.476E-03
-47.987369E+00,+22.406E-03,+24.213E-03
-47.985969E+00,+22.239E-03,+18.520E-03
-47.984569E+00,+22.445E-03,+0.0E+00
-47.983169E+00,+22.292E-03,-7.476E-03
-47.981769E+00,+21.719E-03,-16.736E-03
-47.980369E+00,+21.961E-03,-9.260E-03
-47.978969E+00,+21.996E-03,+0.0E+00
-47.977569E+00,+22.035E-03,+7.476E-03
-47.976169E+00,+22.538E-03,+16.736E-03
-47.974769E+00,+22.516E-03,+1.784E-03
-47.973369E+00,+21.772E-03,-24.213E-03
-47.971969E+00,+21.608E-03,-25.997E-03
-47.970569E+00,+21.829E-03,-16.736E-03
-47.969169E+00,+21.868E-03,-1.784E-03
-47.967769E+00,+22.071E-03,-5.692E-03
-47.966369E+00,+22.053E-03,-18.520E-03
-47.964968E+00,+21.922E-03,+0.0E+00
-47.963568E+00,+21.793E-03,+7.476E-03
-47.962168E+00,+22.128E-03,+24.213E-03
-47.960768E+00,+22.164E-03,+18.520E-03
-47.959368E+00,+22.128E-03,+7.476E-03
-47.957968E+00,+22.164E-03,+9.260E-03
-47.956568E+00,+21.754E-03,+0.0E+00
-47.955168E+00,+22.000E-03,+0.0E+00
-47.953768E+00,+21.975E-03,+7.476E-03
-47.952368E+00,+21.516E-03,+16.736E-03
-47.950968E+00,+22.352E-03,+16.736E-03
-47.949568E+00,+22.516E-03,+9.260E-03
-47.948168E+00,+22.221E-03,+7.476E-03
-47.946768E+00,+21.939E-03,+16.736E-03
-47.945368E+00,+21.925E-03,+9.260E-03
-47.943968E+00,+22.630E-03,-7.476E-03
-47.942568E+00,+22.143E-03,-16.736E-03
-47.941168E+00,+21.758E-03,-16.736E-03
-47.939768E+00,+22.089E-03,-1.784E-03
-47.938368E+00,+22.035E-03,+16.736E-03
-47.936968E+00,+22.164E-03,+9.260E-03
-47.935568E+00,+21.904E-03,+0.0E+00
-47.934168E+00,+22.035E-03,+0.0E+00
-47.932768E+00,+22.612E-03,+0.0E+00
-47.931368E+00,+22.235E-03,-7.476E-03
-47.929968E+00,+21.533E-03,-16.736E-03
-47.928568E+00,+21.961E-03,-9.260E-03
-47.927168E+00,+21.847E-03,+7.476E-03
-47.925768E+00,+21.476E-03,+1.784E-03
-47.924368E+00,+21.850E-03,-9.260E-03
-47.922968E+00,+22.538E-03,+7.476E-03
-47.921568E+00,+22.741E-03,+24.213E-03
-47.920168E+00,+22.424E-03,+11.044E-03
-47.918768E+00,+21.996E-03,-1.784E-03
-47.917368E+00,+22.110E-03,+1.784E-03
-47.915968E+00,+22.406E-03,-16.736E-03
-47.914568E+00,+22.014E-03,-16.736E-03
-47.913168E+00,+21.943E-03,-9.260E-03
-47.911768E+00,+22.089E-03,+7.476E-03
-47.910368E+00,+21.886E-03,+16.736E-03
-47.908968E+00,+21.904E-03,+16.736E-03
-47.907568E+00,+21.886E-03,+9.260E-03
-47.906168E+00,+22.352E-03,+0.0E+00
-47.904768E+00,+22.516E-03,+7.476E-03
-47.903368E+00,+22.520E-03,+9.260E-03
-47.901968E+00,+22.833E-03,-7.476E-03
-47.900568E+00,+22.648E-03,-24.213E-03
-47.899168E+00,+22.648E-03,-25.997E-03
-47.897768E+00,+22.424E-03,-9.260E-03
-47.896368E+00,+22.146E-03,-14.952E-03
-47.894968E+00,+21.996E-03,-18.520E-03
-47.893568E+00,+21.961E-03,-7.476E-03
-47.892168E+00,+21.996E-03,-1.784E-03
-47.890768E+00,+22.409E-03,+16.736E-03
-47.889368E+00,+22.627E-03,+1.784E-03
-47.887968E+00,+22.278E-03,-9.260E-03
-47.886568E+00,+22.349E-03,-7.476E-03
-47.885168E+00,+22.053E-03,-16.736E-03
-47.883768E+00,+22.520E-03,-9.260E-03
-47.882368E+00,+22.609E-03,+7.476E-03
-47.880968E+00,+22.445E-03,-5.692E-03
-47.879568E+00,+22.741E-03,-11.044E-03
-47.878168E+00,+22.274E-03,+16.736E-03
-47.876768E+00,+21.961E-03,+24.213E-03
-47.875368E+00,+22.295E-03,+25.997E-03
-47.873967E+00,+22.182E-03,+24.213E-03
-47.872567E+00,+22.035E-03,+11.044E-03
-47.871167E+00,+22.463E-03,+5.692E-03
-47.869767E+00,+22.050E-03,+18.520E-03
-47.868367E+00,+21.758E-03,-7.476E-03
-47.866967E+00,+21.640E-03,-24.213E-03
-47.865567E+00,+21.555E-03,-25.997E-03
-47.864167E+00,+22.331E-03,-24.213E-03
-47.862767E+00,+21.922E-03,-33.473E-03
-47.861367E+00,+21.494E-03,-3.568E-03
-47.859967E+00,+21.384E-03,+18.520E-03
-47.858567E+00,+22.149E-03,+0.0E+00
-47.857167E+00,+22.758E-03,+0.0E+00
-47.855767E+00,+22.406E-03,-7.476E-03
-47.854367E+00,+22.239E-03,-1.784E-03
-47.852967E+00,+21.922E-03,+24.213E-03
-47.851567E+00,+21.793E-03,-3.908E-03
-47.850167E+00,+21.829E-03,-27.781E-03
-47.848767E+00,+21.569E-03,+7.476E-03
-47.847367E+00,+21.701E-03,+1.784E-03
-47.845967E+00,+21.904E-03,-24.213E-03
-47.844567E+00,+21.736E-03,-11.044E-03
-47.843167E+00,+21.868E-03,+16.736E-03
-47.841767E+00,+22.146E-03,+9.260E-03
-47.840367E+00,+22.370E-03,-7.476E-03
-47.838967E+00,+22.573E-03,+5.692E-03
-47.837567E+00,+22.854E-03,+11.044E-03
-47.836167E+00,+22.869E-03,-16.736E-03
-47.834767E+00,+22.313E-03,-1.784E-03
-47.833367E+00,+22.239E-03,+9.260E-03
-47.831967E+00,+21.996E-03,+0.0E+00
-47.830567E+00,+21.811E-03,+7.476E-03
-47.829167E+00,+22.110E-03,-5.692E-03
-47.827767E+00,+22.256E-03,-3.568E-03
-47.826367E+00,+21.829E-03,+11.044E-03
-47.824967E+00,+21.943E-03,-24.213E-03
-47.823567E+00,+22.538E-03,-18.520E-03
-47.822167E+00,+22.442E-03,+0.0E+00
-47.820767E+00,+22.053E-03,-7.476E-03
-47.819367E+00,+22.071E-03,-1.784E-03
-47.817967E+00,+22.203E-03,+9.260E-03
-47.816567E+00,+22.555E-03,-7.476E-03
-47.815167E+00,+22.648E-03,-16.736E-03
-47.813767E+00,+22.424E-03,+5.692E-03
-47.812367E+00,+22.221E-03,+25.997E-03
-47.810967E+00,+21.865E-03,+16.736E-03
-47.809567E+00,+21.832E-03,+9.260E-03
-47.808167E+00,+22.032E-03,+0.0E+00
-47.806767E+00,+21.701E-03,+0.0E+00
-47.805367E+00,+21.829E-03,+29.905E-03
-47.803967E+00,+22.391E-03,+37.041E-03
-47.802567E+00,+22.495E-03,+0.0E+00
-47.801167E+00,+21.925E-03,+7.476E-03
-47.799767E+00,+22.630E-03,-5.692E-03
-47.798367E+00,+22.591E-03,-25.997E-03
-47.796967E+00,+22.164E-03,-16.736E-03
-47.795567E+00,+21.979E-03,-9.260E-03
-47.794167E+00,+21.904E-03,+7.476E-03
-47.792767E+00,+21.811E-03,+16.736E-03
-47.791367E+00,+21.736E-03,+24.213E-03
-47.789967E+00,+21.644E-03,+11.044E-03
-47.788567E+00,+21.719E-03,-1.784E-03
-47.787167E+00,+22.185E-03,+24.213E-03
-47.785767E+00,+22.573E-03,+25.997E-03
-47.784366E+00,+22.406E-03,+16.736E-03
-47.782966E+00,+22.239E-03,+9.260E-03
-47.781566E+00,+22.221E-03,+7.476E-03
-47.780166E+00,+22.014E-03,+1.784E-03
-47.778766E+00,+21.494E-03,-9.260E-03
-47.777366E+00,+21.832E-03,+14.952E-03
-47.775966E+00,+22.630E-03,+18.520E-03
-47.774566E+00,+22.367E-03,+0.0E+00
-47.773166E+00,+22.110E-03,-7.476E-03
-47.771766E+00,+22.555E-03,-9.260E-03
-47.770366E+00,+22.349E-03,+0.0E+00
-47.768966E+00,+21.904E-03,-7.476E-03
-47.767566E+00,+21.886E-03,-1.784E-03
-47.766166E+00,+21.680E-03,+9.260E-03
-47.764766E+00,+21.384E-03,+0.0E+00
-47.763366E+00,+21.776E-03,+0.0E+00
-47.761966E+00,+21.996E-03,+14.952E-03
-47.760566E+00,+22.035E-03,+33.473E-03
-47.759166E+00,+22.388E-03,+18.520E-03
-47.757766E+00,+22.481E-03,+14.952E-03
-47.756366E+00,+22.555E-03,+3.568E-03
-47.754966E+00,+22.573E-03,-18.520E-03
-47.753566E+00,+21.957E-03,+14.952E-03
-47.752166E+00,+21.758E-03,+11.044E-03
-47.750766E+00,+22.388E-03,-9.260E-03
-47.749366E+00,+22.705E-03,-22.429E-03
-47.747966E+00,+22.534E-03,-50.209E-03
-47.746566E+00,+22.053E-03,-27.781E-03
-47.745166E+00,+21.772E-03,-7.476E-03
-47.743766E+00,+21.533E-03,-1.784E-03
-47.742366E+00,+21.587E-03,+9.260E-03
-47.740966E+00,+21.533E-03,+7.476E-03
-47.739566E+00,+22.260E-03,+16.736E-03
-47.738166E+00,+22.442E-03,+1.784E-03
-47.736766E+00,+22.203E-03,+5.692E-03
-47.735366E+00,+22.256E-03,+11.044E-03
-47.733966E+00,+22.352E-03,-1.784E-03
-47.732566E+00,+22.143E-03,+1.784E-03
-47.731166E+00,+21.907E-03,-16.736E-03
-47.729766E+00,+22.349E-03,-9.260E-03
-47.728366E+00,+21.829E-03,+0.0E+00
-47.726966E+00,+22.092E-03,+7.476E-03
-47.725566E+00,+22.424E-03,+9.260E-03
-47.724166E+00,+22.221E-03,-7.476E-03
-47.722766E+00,+22.164E-03,-16.736E-03
-47.721366E+00,+21.754E-03,+5.692E-03
-47.719966E+00,+21.701E-03,+18.520E-03
-47.718566E+00,+22.128E-03,-7.476E-03
-47.717166E+00,+22.313E-03,-1.784E-03
-47.715766E+00,+22.239E-03,+9.260E-03
-47.714366E+00,+22.146E-03,+0.0E+00
-47.712966E+00,+21.847E-03,-7.476E-03
-47.711566E+00,+21.476E-03,-9.260E-03
-47.710166E+00,+22.000E-03,-7.476E-03
-47.708766E+00,+22.274E-03,+5.692E-03
-47.707366E+00,+21.512E-03,+11.044E-03
-47.705966E+00,+21.441E-03,-16.736E-03
-47.704566E+00,+22.409E-03,-9.260E-03
-47.703166E+00,+22.776E-03,+7.476E-03
-47.701766E+00,+22.687E-03,+9.260E-03
-47.700366E+00,+22.926E-03,+7.476E-03
-47.698966E+00,+22.349E-03,+1.784E-03
-47.697566E+00,+21.754E-03,+5.692E-03
-47.696166E+00,+21.551E-03,+11.044E-03
-47.694765E+00,+21.793E-03,-9.260E-03
-47.693365E+00,+22.203E-03,+0.0E+00
-47.691965E+00,+22.256E-03,+7.476E-03
-47.690565E+00,+22.278E-03,+9.260E-03
-47.689165E+00,+22.573E-03,-7.476E-03
-47.687765E+00,+22.854E-03,-16.736E-03
-47.686365E+00,+22.869E-03,+5.692E-03
-47.684965E+00,+22.164E-03,+11.044E-03
-47.683565E+00,+22.427E-03,-9.260E-03
-47.682165E+00,+23.058E-03,+7.476E-03
-47.680765E+00,+23.075E-03,+16.736E-03
-47.679365E+00,+22.833E-03,+16.736E-03
-47.677965E+00,+22.648E-03,+1.784E-03
-47.676565E+00,+22.274E-03,+5.692E-03
-47.675165E+00,+22.185E-03,+18.520E-03
-47.673765E+00,+22.349E-03,+14.952E-03
-47.672365E+00,+22.203E-03,+18.520E-03
-47.670965E+00,+22.331E-03,-7.476E-03
-47.669565E+00,+22.295E-03,-9.260E-03
-47.668165E+00,+22.630E-03,+0.0E+00
-47.666765E+00,+22.666E-03,+7.476E-03
-47.665365E+00,+22.107E-03,+9.260E-03
-47.663965E+00,+22.018E-03,-7.476E-03
-47.662565E+00,+22.331E-03,-9.260E-03
-47.661165E+00,+22.146E-03,-7.476E-03
-47.659765E+00,+22.221E-03,-16.736E-03
-47.658365E+00,+22.388E-03,-16.736E-03
-47.656965E+00,+22.331E-03,-1.784E-03
-47.655565E+00,+22.071E-03,+1.784E-03
-47.654165E+00,+21.979E-03,-1.784E-03
-47.652765E+00,+21.605E-03,+16.736E-03
-47.651365E+00,+21.665E-03,+1.784E-03
-47.649965E+00,+22.687E-03,-9.260E-03
-47.648565E+00,+22.328E-03,+0.0E+00
-47.647165E+00,+21.758E-03,-7.476E-03
-47.645765E+00,+22.313E-03,-9.260E-03
-47.644365E+00,+22.239E-03,+7.476E-03
-47.642965E+00,+22.221E-03,+9.260E-03
-47.641565E+00,+22.014E-03,-7.476E-03
-47.640165E+00,+21.868E-03,-9.260E-03
-47.638765E+00,+22.370E-03,+0.0E+00
-47.637365E+00,+22.498E-03,+7.476E-03
-47.635965E+00,+22.313E-03,+16.736E-03
-47.634565E+00,+22.239E-03,+16.736E-03
-47.633165E+00,+22.071E-03,+16.736E-03
-47.631765E+00,+22.203E-03,+9.260E-03
-47.630365E+00,+22.256E-03,+7.476E-03
-47.628965E+00,+22.053E-03,-5.692E-03
-47.627565E+00,+21.996E-03,-33.473E-03
-47.626165E+00,+22.110E-03,-11.044E-03
-47.624765E+00,+22.256E-03,+16.736E-03
-47.623365E+00,+22.352E-03,+9.260E-03
-47.621965E+00,+22.292E-03,-7.476E-03
-47.620565E+00,+21.943E-03,-1.784E-03
-47.619165E+00,+22.612E-03,+31.689E-03
-47.617765E+00,+22.609E-03,+35.257E-03
-47.616365E+00,+22.071E-03,+16.736E-03
-47.614965E+00,+22.053E-03,+9.260E-03
-47.613565E+00,+22.146E-03,+7.476E-03
-47.612165E+00,+21.922E-03,+1.784E-03
-47.610765E+00,+21.793E-03,-9.260E-03
-47.609365E+00,+21.829E-03,+0.0E+00
-47.607965E+00,+21.719E-03,+0.0E+00
-47.606565E+00,+22.185E-03,+0.0E+00
-47.605165E+00,+22.424E-03,+0.0E+00
-47.603764E+00,+22.146E-03,+0.0E+00
-47.602364E+00,+22.295E-03,+0.0E+00
-47.600964E+00,+22.406E-03,+0.0E+00
-47.599564E+00,+22.313E-03,+0.0E+00
-47.598164E+00,+22.388E-03,-7.476E-03
-47.596764E+00,+21.883E-03,-16.736E-03
-47.595364E+00,+21.516E-03,+5.692E-03
-47.593964E+00,+22.427E-03,+18.520E-03
-47.592564E+00,+22.310E-03,+22.429E-03
-47.591164E+00,+21.776E-03,+20.304E-03
-47.589764E+00,+21.996E-03,-16.736E-03
-47.588364E+00,+21.886E-03,-9.260E-03
-47.586964E+00,+22.053E-03,-7.476E-03
-47.585564E+00,+22.071E-03,-9.260E-03
-47.584164E+00,+21.979E-03,-7.476E-03
-47.582764E+00,+22.203E-03,+5.692E-03
-47.581364E+00,+22.481E-03,+18.520E-03
-47.579964E+00,+22.182E-03,-14.952E-03
-47.578564E+00,+21.886E-03,-25.997E-03
-47.577164E+00,+21.979E-03,-9.260E-03
-47.575764E+00,+21.979E-03,+0.0E+00
-47.574364E+00,+21.680E-03,+7.476E-03
-47.572964E+00,+21.683E-03,+9.260E-03
-47.571564E+00,+22.146E-03,+7.476E-03
-47.570164E+00,+22.370E-03,+9.260E-03
-47.568764E+00,+22.498E-03,+14.952E-03
-47.567364E+00,+22.538E-03,+25.997E-03
-47.565964E+00,+22.367E-03,+1.784E-03
-47.564564E+00,+22.185E-03,-9.260E-03
-47.563164E+00,+22.573E-03,-14.952E-03
-47.561764E+00,+22.256E-03,-18.520E-03
-47.560364E+00,+21.829E-03,+0.0E+00
-47.558964E+00,+21.719E-03,+7.476E-03
-47.557564E+00,+22.035E-03,+16.736E-03
-47.556164E+00,+22.089E-03,+9.260E-03
-47.554764E+00,+22.185E-03,-22.429E-03
-47.553364E+00,+22.424E-03,-12.828E-03
-47.551964E+00,+22.295E-03,+3.568E-03
-47.550564E+00,+22.107E-03,-18.520E-03
-47.549164E+00,+21.868E-03,+0.0E+00
-47.547764E+00,+21.623E-03,+0.0E+00
-47.546364E+00,+21.498E-03,-7.476E-03
-47.544964E+00,+22.221E-03,-9.260E-03
-47.543564E+00,+22.164E-03,-7.476E-03
-47.542164E+00,+22.203E-03,-1.784E-03
-47.540764E+00,+22.406E-03,+9.260E-03
-47.539364E+00,+21.865E-03,+7.476E-03
-47.537964E+00,+21.832E-03,+9.260E-03
-47.536564E+00,+22.331E-03,-14.952E-03
-47.535164E+00,+22.221E-03,-25.997E-03
-47.533764E+00,+22.014E-03,-24.213E-03
-47.532364E+00,+21.569E-03,-11.044E-03
-47.530964E+00,+21.701E-03,-5.692E-03
-47.529564E+00,+22.053E-03,-18.520E-03
-47.528164E+00,+21.772E-03,+7.476E-03
-47.526764E+00,+21.758E-03,+1.784E-03
-47.525364E+00,+22.239E-03,-1.784E-03
-47.523964E+00,+22.295E-03,+9.260E-03
-47.522564E+00,+22.481E-03,+7.476E-03
-47.521164E+00,+22.555E-03,+16.736E-03
-47.519764E+00,+22.424E-03,+9.260E-03
-47.518364E+00,+22.221E-03,-7.476E-03
-47.516964E+00,+21.790E-03,-16.736E-03
-47.515564E+00,+21.441E-03,+5.692E-03
-47.514163E+00,+21.512E-03,+25.997E-03
-47.512763E+00,+21.665E-03,+1.784E-03
-47.511363E+00,+22.388E-03,-9.260E-03
-47.509963E+00,+22.331E-03,+0.0E+00
-47.508563E+00,+22.146E-03,+14.952E-03
-47.507163E+00,+22.221E-03,+3.568E-03
-47.505763E+00,+21.790E-03,-3.568E-03
-47.504363E+00,+21.590E-03,+25.997E-03
-47.502963E+00,+21.772E-03,+24.213E-03
-47.501563E+00,+21.907E-03,+18.520E-03
-47.500163E+00,+22.573E-03,-14.952E-03
-47.498763E+00,+22.032E-03,-11.044E-03
-47.497363E+00,+21.551E-03,+9.260E-03
-47.495963E+00,+21.644E-03,+7.476E-03
-47.494563E+00,+21.719E-03,+24.213E-03
-47.493163E+00,+21.288E-03,+18.520E-03
-47.491763E+00,+21.312E-03,+7.476E-03
-47.490363E+00,+22.221E-03,-5.692E-03
-47.488963E+00,+22.164E-03,-11.044E-03
-47.487563E+00,+22.203E-03,+1.784E-03
-47.486163E+00,+22.182E-03,-16.736E-03
-47.484763E+00,+21.811E-03,-9.260E-03
-47.483363E+00,+21.886E-03,-14.952E-03
-47.481963E+00,+22.203E-03,+3.908E-03
-47.480563E+00,+21.957E-03,+12.828E-03
-47.479163E+00,+21.533E-03,-18.520E-03
-47.477763E+00,+21.961E-03,-7.476E-03
-47.476363E+00,+22.445E-03,-1.784E-03
-47.474963E+00,+22.068E-03,+16.736E-03
-47.473563E+00,+21.815E-03,+16.736E-03
-47.472163E+00,+22.349E-03,+9.260E-03
-47.470763E+00,+22.278E-03,+7.476E-03
-47.469363E+00,+22.199E-03,+9.260E-03
-47.467963E+00,+22.092E-03,+0.0E+00
-47.466563E+00,+22.798E-03,+14.952E-03
-47.465163E+00,+22.758E-03,+11.044E-03
-47.463763E+00,+22.481E-03,+20.644E-03
-47.462363E+00,+22.107E-03,+44.517E-03
-47.460963E+00,+21.644E-03,+1.784E-03
-47.459563E+00,+21.793E-03,-16.736E-03
-47.458163E+00,+22.128E-03,+5.692E-03
-47.456763E+00,+22.239E-03,+18.520E-03
-47.455363E+00,+22.370E-03,-7.476E-03
-47.453963E+00,+22.274E-03,-9.260E-03
-47.452563E+00,+22.185E-03,-7.476E-03
-47.451163E+00,+22.274E-03,-9.260E-03
-47.449763E+00,+21.736E-03,-7.476E-03
-47.448363E+00,+21.793E-03,-1.784E-03
-47.446963E+00,+22.203E-03,+16.736E-03
-47.445563E+00,+22.256E-03,+1.784E-03
-47.444163E+00,+22.053E-03,-16.736E-03
-47.442763E+00,+21.996E-03,-1.784E-03
-47.441363E+00,+22.260E-03,+16.736E-03
-47.439963E+00,+22.666E-03,+16.736E-03
-47.438563E+00,+22.555E-03,+16.736E-03
-47.437163E+00,+22.498E-03,+16.736E-03
-47.435763E+00,+22.164E-03,+16.736E-03
-47.434363E+00,+22.278E-03,+9.260E-03
-47.432963E+00,+22.274E-03,+14.952E-03
-47.431563E+00,+21.961E-03,+18.520E-03
-47.430163E+00,+22.146E-03,-7.476E-03
-47.428763E+00,+22.071E-03,+5.692E-03
-47.427363E+00,+21.829E-03,+18.520E-03
-47.425963E+00,+21.868E-03,-14.952E-03
-47.424562E+00,+21.847E-03,-3.568E-03
-47.423162E+00,+22.075E-03,+3.568E-03
-47.421762E+00,+22.367E-03,-18.520E-03
-47.420362E+00,+22.185E-03,-7.476E-03
-47.418962E+00,+22.498E-03,-16.736E-03
-47.417562E+00,+22.538E-03,-9.260E-03
-47.416162E+00,+22.442E-03,-7.476E-03
-47.414762E+00,+22.203E-03,-9.260E-03
-47.413362E+00,+22.331E-03,-7.476E-03
-47.411962E+00,+22.445E-03,-24.213E-03
-47.410562E+00,+22.367E-03,-3.568E-03
-47.409162E+00,+21.736E-03,+33.473E-03
-47.407762E+00,+22.242E-03,+18.520E-03
-47.406362E+00,+22.310E-03,-14.952E-03
-47.404962E+00,+21.850E-03,-11.044E-03
-47.403562E+00,+22.164E-03,+9.260E-03
-47.402162E+00,+22.352E-03,+0.0E+00
-47.400762E+00,+22.815E-03,+0.0E+00
-47.399362E+00,+22.591E-03,-7.476E-03
-47.397962E+00,+22.164E-03,-1.784E-03
-47.396562E+00,+21.979E-03,+1.784E-03
-47.395162E+00,+22.352E-03,-9.260E-03
-47.393762E+00,+22.591E-03,+0.0E+00
-47.392362E+00,+22.164E-03,+0.0E+00
-47.390962E+00,+21.754E-03,+14.952E-03
-47.389562E+00,+21.551E-03,+18.520E-03
-47.388162E+00,+21.943E-03,+14.952E-03
-47.386762E+00,+21.939E-03,+25.997E-03
-47.385362E+00,+21.776E-03,+9.260E-03
-47.383962E+00,+22.146E-03,+7.476E-03
-47.382562E+00,+22.146E-03,+9.260E-03
-47.381162E+00,+22.295E-03,-14.952E-03
-47.379762E+00,+22.256E-03,-25.997E-03
-47.378362E+00,+22.053E-03,-1.784E-03
-47.376962E+00,+21.996E-03,+16.736E-03
-47.375562E+00,+22.035E-03,+9.260E-03
-47.374162E+00,+22.014E-03,+0.0E+00
-47.372762E+00,+21.644E-03,-7.476E-03
-47.371362E+00,+22.018E-03,-24.213E-03
-47.369962E+00,+22.331E-03,-11.044E-03
-47.368562E+00,+21.996E-03,+9.260E-03
-47.367162E+00,+21.736E-03,+7.476E-03
-47.365762E+00,+21.719E-03,+9.260E-03
-47.364362E+00,+21.961E-03,+0.0E+00
-47.362962E+00,+22.295E-03,-7.476E-03
-47.361562E+00,+22.256E-03,-1.784E-03
-47.360162E+00,+22.278E-03,+1.784E-03
-47.358762E+00,+22.050E-03,-1.784E-03
-47.357362E+00,+21.533E-03,+9.260E-03
-47.355962E+00,+21.662E-03,+22.429E-03
-47.354562E+00,+21.701E-03,+35.257E-03
-47.353162E+00,+22.053E-03,+1.784E-03
-47.351762E+00,+22.146E-03,-9.260E-03
-47.350362E+00,+22.071E-03,-7.476E-03
-47.348962E+00,+22.352E-03,-16.736E-03
-47.347562E+00,+22.442E-03,-9.260E-03
-47.346162E+00,+21.979E-03,-7.476E-03
-47.344762E+00,+21.829E-03,+13.168E-03
-47.343362E+00,+21.719E-03,+20.304E-03
-47.341962E+00,+22.035E-03,-9.260E-03
-47.340562E+00,+22.239E-03,+7.476E-03
-47.339162E+00,+22.370E-03,+9.260E-03
-47.337762E+00,+22.349E-03,+7.476E-03
-47.336362E+00,+22.053E-03,-5.692E-03
-47.334961E+00,+22.370E-03,-33.473E-03
-47.333561E+00,+22.424E-03,-18.520E-03
-47.332161E+00,+22.370E-03,+0.0E+00
-47.330761E+00,+22.349E-03,+0.0E+00
-47.329361E+00,+22.128E-03,+7.476E-03
-47.327961E+00,+22.388E-03,+16.736E-03
-47.326561E+00,+22.481E-03,+1.784E-03
-47.325161E+00,+22.331E-03,-9.260E-03
-47.323761E+00,+22.295E-03,-14.952E-03
-47.322361E+00,+22.182E-03,-11.044E-03
-47.320961E+00,+21.736E-03,+9.260E-03
-47.319561E+00,+22.167E-03,+0.0E+00
-47.318161E+00,+22.292E-03,+0.0E+00
-47.316761E+00,+21.868E-03,+7.476E-03
-47.315361E+00,+21.922E-03,+16.736E-03
-47.313961E+00,+21.719E-03,+9.260E-03
-47.312561E+00,+21.886E-03,-7.476E-03
-47.311161E+00,+22.278E-03,-1.784E-03
-47.309761E+00,+22.424E-03,+9.260E-03
-47.308361E+00,+22.071E-03,+14.952E-03
-47.306961E+00,+22.278E-03,+18.520E-03
-47.305561E+00,+22.723E-03,+7.476E-03
-47.304161E+00,+22.591E-03,+9.260E-03
-47.302761E+00,+22.089E-03,-14.952E-03
-47.301361E+00,+21.886E-03,-25.997E-03
-47.299961E+00,+21.979E-03,-1.784E-03
-47.298561E+00,+21.829E-03,+1.784E-03
-47.297161E+00,+21.793E-03,+5.692E-03
-47.295761E+00,+21.680E-03,+11.044E-03
-47.294361E+00,+21.608E-03,-24.213E-03
-47.292961E+00,+22.128E-03,-33.473E-03
-47.291561E+00,+22.164E-03,-18.520E-03
-47.290161E+00,+21.680E-03,+0.0E+00
-47.288761E+00,+21.608E-03,-14.952E-03
-47.287361E+00,+22.053E-03,-18.520E-03
-47.285961E+00,+22.071E-03,+7.476E-03
-47.284561E+00,+22.053E-03,+1.784E-03
-47.283161E+00,+21.697E-03,-1.784E-03
-47.281761E+00,+21.590E-03,+1.784E-03
-47.280361E+00,+22.520E-03,+13.168E-03
-47.278961E+00,+22.459E-03,+27.781E-03
-47.277561E+00,+21.961E-03,-14.952E-03
-47.276161E+00,+21.847E-03,-18.520E-03
-47.274761E+00,+21.776E-03,+0.0E+00
-47.273361E+00,+22.071E-03,+14.952E-03
-47.271961E+00,+21.979E-03,+11.044E-03
-47.270561E+00,+22.352E-03,-16.736E-03
-47.269161E+00,+22.815E-03,-24.213E-03
-47.267761E+00,+22.591E-03,-18.520E-03
-47.266361E+00,+22.313E-03,+7.476E-03
-47.264961E+00,+22.164E-03,+9.260E-03
-47.263561E+00,+22.352E-03,+0.0E+00
-47.262161E+00,+22.442E-03,+0.0E+00
-47.260761E+00,+22.352E-03,+0.0E+00
-47.259361E+00,+22.591E-03,-7.476E-03
-47.257961E+00,+21.939E-03,-24.213E-03
-47.256561E+00,+21.776E-03,-18.520E-03
-47.255161E+00,+22.445E-03,+7.476E-03
-47.253761E+00,+22.516E-03,+24.213E-03
-47.252361E+00,+22.071E-03,+3.568E-03
-47.250961E+00,+22.128E-03,-18.520E-03
-47.249561E+00,+22.538E-03,+0.0E+00
-47.248161E+00,+22.143E-03,-22.429E-03
-47.246761E+00,+21.683E-03,-20.304E-03
-47.245361E+00,+22.221E-03,+9.260E-03
-47.243960E+00,+22.014E-03,+14.952E-03
-47.242560E+00,+21.644E-03,+18.520E-03
-47.241160E+00,+21.494E-03,+7.476E-03
-47.239760E+00,+21.683E-03,+16.736E-03
-47.238360E+00,+22.071E-03,+9.260E-03
-47.236960E+00,+22.427E-03,+0.0E+00
-47.235560E+00,+22.908E-03,+7.476E-03
-47.234160E+00,+22.292E-03,+9.260E-03
-47.232760E+00,+21.868E-03,+0.0E+00
-47.231360E+00,+22.071E-03,-7.476E-03
-47.229960E+00,+22.053E-03,-9.260E-03
-47.228560E+00,+21.772E-03,+0.0E+00
-47.227160E+00,+21.384E-03,+22.429E-03
-47.225760E+00,+21.850E-03,+27.781E-03
-47.224360E+00,+22.388E-03,-7.476E-03
-47.222960E+00,+22.182E-03,-16.736E-03
-47.221560E+00,+21.662E-03,-9.260E-03
-47.220160E+00,+21.850E-03,-7.476E-03
-47.218760E+00,+22.164E-03,-16.736E-03
-47.217360E+00,+21.904E-03,-1.784E-03
-47.215960E+00,+21.811E-03,+16.736E-03
-47.214560E+00,+22.110E-03,+9.260E-03
-47.213160E+00,+22.406E-03,-7.476E-03
-47.211760E+00,+21.939E-03,-1.784E-03
-47.210360E+00,+21.551E-03,+1.784E-03
-47.208960E+00,+21.868E-03,-9.260E-03
-47.207560E+00,+22.146E-03,+0.0E+00
-47.206160E+00,+22.146E-03,+0.0E+00
-47.204760E+00,+21.996E-03,+0.0E+00
-47.203360E+00,+21.961E-03,-7.476E-03
-47.201960E+00,+22.520E-03,-9.260E-03
-47.200560E+00,+22.534E-03,+7.476E-03
-47.199160E+00,+21.829E-03,+9.260E-03
-47.197760E+00,+21.494E-03,+0.0E+00
-47.196360E+00,+21.608E-03,+14.952E-03
-47.194960E+00,+22.203E-03,+25.997E-03
-47.193560E+00,+22.555E-03,+16.736E-03
-47.192160E+00,+22.199E-03,+16.736E-03
-47.190760E+00,+21.943E-03,+16.736E-03
-47.189360E+00,+22.014E-03,-5.692E-03
-47.187960E+00,+21.420E-03,-18.520E-03
-47.186560E+00,+21.740E-03,+14.952E-03
-47.185160E+00,+22.555E-03,+18.520E-03
-47.183760E+00,+22.498E-03,+7.476E-03
-47.182360E+00,+22.687E-03,+9.260E-03
-47.180960E+00,+22.702E-03,+14.952E-03
-47.179560E+00,+22.295E-03,+33.473E-03
-47.178160E+00,+22.182E-03,+33.473E-03
-47.176760E+00,+21.961E-03,+18.520E-03
-47.175360E+00,+22.146E-03,+7.476E-03
-47.173960E+00,+21.922E-03,+16.736E-03
-47.172560E+00,+22.018E-03,+16.736E-03
-47.171160E+00,+22.032E-03,+16.736E-03
-47.169760E+00,+21.925E-03,+9.260E-03
-47.168360E+00,+22.331E-03,+7.476E-03
-47.166960E+00,+22.146E-03,+9.260E-03
-47.165560E+00,+21.922E-03,+0.0E+00
-47.164160E+00,+21.644E-03,+0.0E+00
-47.162760E+00,+21.868E-03,+0.0E+00
-47.161360E+00,+22.295E-03,-7.476E-03
-47.159960E+00,+22.555E-03,-16.736E-03
-47.158560E+00,+22.274E-03,-9.260E-03
-47.157160E+00,+22.035E-03,+14.952E-03
-47.155760E+00,+22.014E-03,+18.520E-03
-47.154359E+00,+21.719E-03,-7.476E-03
-47.152959E+00,+21.587E-03,-16.736E-03
-47.151559E+00,+21.384E-03,-9.260E-03
-47.150159E+00,+22.299E-03,-7.476E-03
-47.148759E+00,+23.018E-03,-1.784E-03
-47.147359E+00,+22.424E-03,+24.213E-03
-47.145959E+00,+22.071E-03,+18.520E-03
-47.144559E+00,+21.829E-03,-7.476E-03
-47.143159E+00,+22.242E-03,-9.260E-03
-47.141759E+00,+22.385E-03,+0.0E+00
-47.140359E+00,+21.943E-03,+7.476E-03
-47.138959E+00,+21.865E-03,+9.260E-03
-47.137559E+00,+21.907E-03,-7.476E-03
-47.136159E+00,+22.424E-03,-9.260E-03
-47.134759E+00,+21.996E-03,-7.476E-03
-47.133359E+00,+21.961E-03,+5.692E-03
-47.131959E+00,+22.370E-03,+11.044E-03
-47.130559E+00,+22.424E-03,-1.784E-03
-47.129159E+00,+22.295E-03,+16.736E-03
-47.127759E+00,+22.331E-03,+9.260E-03
-47.126359E+00,+22.370E-03,+0.0E+00
-47.124959E+00,+22.573E-03,+0.0E+00
-47.123559E+00,+22.481E-03,+7.476E-03
-47.122159E+00,+21.808E-03,+16.736E-03
-47.120759E+00,+21.423E-03,+9.260E-03
-47.119359E+00,+22.128E-03,+0.0E+00
-47.117959E+00,+22.164E-03,-14.952E-03
-47.116559E+00,+22.352E-03,-18.520E-03
-47.115159E+00,+22.815E-03,+14.952E-03
-47.113759E+00,+22.442E-03,-3.908E-03
-47.112359E+00,+21.979E-03,-42.733E-03
-47.110959E+00,+21.605E-03,-33.473E-03
-47.109559E+00,+21.441E-03,-25.997E-03
-47.108159E+00,+22.110E-03,-9.260E-03
-47.106759E+00,+22.256E-03,+0.0E+00
-47.105359E+00,+22.203E-03,+0.0E+00
-47.103959E+00,+22.406E-03,+0.0E+00
-47.102559E+00,+22.164E-03,-22.429E-03
-47.101159E+00,+22.203E-03,-12.828E-03
-47.099759E+00,+22.780E-03,+11.044E-03
-47.098359E+00,+22.851E-03,-31.689E-03
-47.096959E+00,+22.555E-03,-12.828E-03
-47.095559E+00,+22.648E-03,+25.997E-03
-47.094159E+00,+22.349E-03,-5.692E-03
-47.092759E+00,+21.680E-03,-25.997E-03
-47.091359E+00,+21.533E-03,-31.689E-03
-47.089959E+00,+22.035E-03,-12.828E-03
-47.088559E+00,+22.313E-03,+11.044E-03
-47.087159E+00,+21.790E-03,-1.784E-03
-47.085759E+00,+21.590E-03,+24.213E-03
-47.084359E+00,+22.146E-03,+11.044E-03
-47.082959E+00,+21.922E-03,-9.260E-03
-47.081559E+00,+21.345E-03,+22.429E-03
-47.080159E+00,+21.797E-03,+27.781E-03
-47.078759E+00,+22.068E-03,+0.0E+00
-47.077359E+00,+21.441E-03,+14.952E-03
-47.075959E+00,+22.035E-03,+18.520E-03
-47.074559E+00,+22.313E-03,+0.0E+00
-47.073159E+00,+21.715E-03,+7.476E-03
-47.071759E+00,+21.273E-03,+9.260E-03
-47.070359E+00,+21.868E-03,+0.0E+00
-47.068959E+00,+22.071E-03,-7.476E-03
-47.067559E+00,+22.203E-03,-16.736E-03
-47.066159E+00,+22.182E-03,-1.784E-03
-47.064758E+00,+22.035E-03,+16.736E-03
-47.063358E+00,+22.463E-03,-5.692E-03
-47.061958E+00,+22.274E-03,-25.997E-03
-47.060558E+00,+21.886E-03,-1.784E-03
-47.059158E+00,+22.128E-03,+9.260E-03
-47.057758E+00,+22.164E-03,+14.952E-03
-47.056358E+00,+22.203E-03,+25.997E-03
-47.054958E+00,+22.107E-03,+1.784E-03
-47.053558E+00,+21.943E-03,-1.784E-03
-47.052158E+00,+22.089E-03,+1.784E-03
-47.050758E+00,+22.110E-03,-16.736E-03
-47.049358E+00,+22.406E-03,-24.213E-03
-47.047958E+00,+22.014E-03,-18.520E-03
-47.046558E+00,+22.092E-03,-7.476E-03
-47.045158E+00,+22.424E-03,-1.784E-03
-47.043758E+00,+22.071E-03,+24.213E-03
-47.042358E+00,+22.128E-03,+18.520E-03
-47.040958E+00,+22.239E-03,+0.0E+00
-47.039558E+00,+22.221E-03,+0.0E+00
-47.038158E+00,+21.790E-03,+7.476E-03
-47.036758E+00,+21.366E-03,+16.736E-03
-47.035358E+00,+21.793E-03,+1.784E-03
-47.033958E+00,+22.128E-03,-16.736E-03
-47.032558E+00,+22.014E-03,+5.692E-03
-47.031158E+00,+21.868E-03,+11.044E-03
-47.029758E+00,+21.996E-03,-9.260E-03
-47.028358E+00,+22.110E-03,+14.952E-03
-47.026958E+00,+22.032E-03,+11.044E-03
-47.025558E+00,+21.476E-03,-1.784E-03
-47.024158E+00,+21.850E-03,+16.736E-03
-47.022758E+00,+22.463E-03,+9.260E-03
-47.021358E+00,+22.050E-03,-7.476E-03
-47.019958E+00,+21.683E-03,-16.736E-03
-47.018558E+00,+21.922E-03,-24.213E-03
-47.017158E+00,+22.018E-03,-18.520E-03
-47.015758E+00,+22.107E-03,-7.476E-03
-47.014358E+00,+21.943E-03,-1.784E-03
-47.012958E+00,+22.239E-03,-5.692E-03
-47.011558E+00,+22.146E-03,-18.520E-03
-47.010158E+00,+22.221E-03,+7.476E-03
-47.008758E+00,+22.313E-03,+1.784E-03
-47.007358E+00,+22.014E-03,-16.736E-03
-47.005958E+00,+21.569E-03,-1.784E-03
-47.004558E+00,+21.402E-03,+1.784E-03
-47.003158E+00,+21.758E-03,-16.736E-03
-47.001758E+00,+21.865E-03,-16.736E-03
-47.000358E+00,+21.907E-03,-1.784E-03
-46.998958E+00,+22.125E-03,+16.736E-03
-46.997558E+00,+21.850E-03,+9.260E-03
-46.996158E+00,+22.762E-03,+7.476E-03
-46.994758E+00,+22.271E-03,+9.260E-03
-46.993358E+00,+21.199E-03,+14.952E-03
-46.991958E+00,+21.776E-03,+25.997E-03
-46.990558E+00,+22.295E-03,+16.736E-03
-46.989158E+00,+22.406E-03,+9.260E-03
-46.987758E+00,+22.164E-03,-7.476E-03
-46.986358E+00,+22.278E-03,-24.213E-03
-46.984958E+00,+22.424E-03,-11.044E-03
-46.983558E+00,+22.295E-03,+1.784E-03
-46.982158E+00,+22.182E-03,+5.692E-03
-46.980758E+00,+21.961E-03,+25.997E-03
-46.979358E+00,+21.922E-03,+16.736E-03
-46.977958E+00,+21.943E-03,+24.213E-03
-46.976558E+00,+22.164E-03,+18.520E-03
-46.975158E+00,+22.203E-03,-14.952E-03
-46.973757E+00,+22.406E-03,-3.568E-03
-46.972357E+00,+22.164E-03,+11.044E-03
-46.970957E+00,+22.128E-03,-16.736E-03
-46.969557E+00,+22.313E-03,-16.736E-03
-46.968157E+00,+22.164E-03,-16.736E-03
-46.966757E+00,+22.203E-03,-16.736E-03
-46.965357E+00,+21.883E-03,-1.784E-03
-46.963957E+00,+21.366E-03,+9.260E-03
-46.962557E+00,+21.494E-03,-7.476E-03
-46.961157E+00,+21.533E-03,-9.260E-03
-46.959757E+00,+21.886E-03,+14.952E-03
-46.958357E+00,+22.352E-03,+18.520E-03
-46.956957E+00,+22.442E-03,-7.476E-03
-46.955557E+00,+22.352E-03,-9.260E-03
-46.954157E+00,+23.040E-03,+0.0E+00
-46.952757E+00,+23.168E-03,+14.952E-03
-46.951357E+00,+22.684E-03,+25.997E-03
-46.949957E+00,+22.388E-03,+9.260E-03
-46.948557E+00,+22.705E-03,-7.476E-03
-46.947157E+00,+22.534E-03,-16.736E-03
-46.945757E+00,+22.203E-03,-1.784E-03
-46.944357E+00,+22.331E-03,+1.784E-03
-46.942957E+00,+21.996E-03,-1.784E-03
-46.941557E+00,+22.335E-03,+9.260E-03
-46.940157E+00,+22.160E-03,+7.476E-03
-46.938757E+00,+21.590E-03,-13.168E-03
-46.937357E+00,+22.071E-03,-27.781E-03
-46.935957E+00,+21.979E-03,+7.476E-03
-46.934557E+00,+22.053E-03,+1.784E-03
-46.933157E+00,+22.221E-03,-9.260E-03
-46.931757E+00,+22.388E-03,+7.476E-03
-46.930357E+00,+22.406E-03,+1.784E-03
-46.928957E+00,+22.089E-03,-9.260E-03
-46.927557E+00,+21.961E-03,+0.0E+00
-46.926157E+00,+22.295E-03,+7.476E-03
-46.924757E+00,+22.331E-03,+9.260E-03
-46.923357E+00,+22.370E-03,+7.476E-03
-46.921957E+00,+22.199E-03,+9.260E-03
-46.920557E+00,+21.943E-03,-14.952E-03
-46.919157E+00,+22.388E-03,+3.908E-03
-46.917757E+00,+22.406E-03,+27.781E-03
-46.916357E+00,+22.164E-03,-7.476E-03
-46.914957E+00,+21.904E-03,-16.736E-03
-46.913557E+00,+22.035E-03,-24.213E-03
-46.912157E+00,+22.164E-03,-18.520E-03
-46.910757E+00,+22.278E-03,+7.476E-03
-46.909357E+00,+22.498E-03,+9.260E-03
-46.907957E+00,+22.313E-03,+0.0E+00
-46.906557E+00,+22.463E-03,+7.476E-03
-46.905157E+00,+22.424E-03,+16.736E-03
-46.903757E+00,+22.445E-03,+1.784E-03
-46.902357E+00,+22.591E-03,-9.260E-03
-46.900957E+00,+22.239E-03,+0.0E+00
-46.899557E+00,+22.146E-03,+22.429E-03
-46.898157E+00,+22.071E-03,+35.257E-03
-46.896757E+00,+22.278E-03,+9.260E-03
-46.895357E+00,+22.798E-03,+0.0E+00
-46.893957E+00,+22.609E-03,+7.476E-03
-46.892557E+00,+22.370E-03,+9.260E-03
-46.891157E+00,+22.872E-03,+0.0E+00
-46.889757E+00,+22.851E-03,+0.0E+00
-46.888357E+00,+22.406E-03,-7.476E-03
-46.886957E+00,+22.538E-03,-16.736E-03
-46.885557E+00,+22.666E-03,-9.260E-03
-46.884156E+00,+22.630E-03,+0.0E+00
-46.882756E+00,+22.666E-03,-14.952E-03
-46.881356E+00,+22.705E-03,-18.520E-03
-46.879956E+00,+22.758E-03,+14.952E-03
-46.878556E+00,+22.256E-03,+3.568E-03
-46.877156E+00,+22.203E-03,-25.997E-03
-46.875756E+00,+22.182E-03,-9.260E-03
-46.874356E+00,+22.110E-03,-7.476E-03
-46.872956E+00,+22.481E-03,+5.692E-03
-46.871556E+00,+22.481E-03,+25.997E-03
-46.870156E+00,+22.406E-03,+24.213E-03
-46.868756E+00,+21.939E-03,+18.520E-03
-46.867356E+00,+21.476E-03,+0.0E+00
-46.865956E+00,+21.626E-03,+7.476E-03
-46.864556E+00,+21.961E-03,+1.784E-03
-46.863156E+00,+22.071E-03,-9.260E-03
-46.861756E+00,+22.053E-03,+22.429E-03
-46.860356E+00,+22.071E-03,+27.781E-03
-46.858956E+00,+21.979E-03,+7.476E-03
-46.857556E+00,+22.352E-03,+1.784E-03
-46.856156E+00,+22.666E-03,-1.784E-03
-46.854756E+00,+22.331E-03,+16.736E-03
-46.853356E+00,+22.370E-03,+9.260E-03
-46.851956E+00,+22.947E-03,+7.476E-03
-46.850556E+00,+22.794E-03,+16.736E-03
-46.849156E+00,+22.071E-03,+9.260E-03
-46.847756E+00,+22.278E-03,+7.476E-03
-46.846356E+00,+22.274E-03,+9.260E-03
-46.844956E+00,+22.110E-03,+7.476E-03
-46.843556E+00,+22.182E-03,+16.736E-03
-46.842156E+00,+21.662E-03,+24.213E-03
-46.840756E+00,+21.776E-03,+18.520E-03
-46.839356E+00,+22.146E-03,+7.476E-03
-46.837956E+00,+22.295E-03,+1.784E-03
-46.836556E+00,+22.182E-03,-9.260E-03
-46.835156E+00,+22.185E-03,+7.476E-03
-46.833756E+00,+22.648E-03,+1.784E-03
-46.832356E+00,+22.573E-03,-9.260E-03
-46.830956E+00,+22.406E-03,+14.952E-03
-46.829556E+00,+22.164E-03,+25.997E-03
-46.828156E+00,+21.829E-03,+16.736E-03
-46.826756E+00,+21.569E-03,+16.736E-03
-46.825356E+00,+21.551E-03,+9.260E-03
-46.823956E+00,+21.943E-03,-7.476E-03
-46.822556E+00,+22.313E-03,-1.784E-03
-46.821156E+00,+22.239E-03,+24.213E-03
-46.819756E+00,+22.295E-03,+25.997E-03
-46.818356E+00,+22.406E-03,+1.784E-03
-46.816956E+00,+22.313E-03,-9.260E-03
-46.815556E+00,+22.463E-03,+7.476E-03
-46.814156E+00,+22.349E-03,+9.260E-03
-46.812756E+00,+21.829E-03,+0.0E+00
-46.811356E+00,+22.092E-03,-7.476E-03
-46.809956E+00,+22.349E-03,-9.260E-03
-46.808556E+00,+21.904E-03,-7.476E-03
-46.807156E+00,+21.736E-03,-16.736E-03
-46.805756E+00,+21.644E-03,-24.213E-03
-46.804356E+00,+21.943E-03,-18.520E-03
-46.802956E+00,+22.164E-03,-14.952E-03
-46.801556E+00,+22.352E-03,-25.997E-03
-46.800156E+00,+22.516E-03,-16.736E-03
-46.798756E+00,+22.221E-03,-1.784E-03
-46.797356E+00,+22.239E-03,+1.784E-03
-46.795956E+00,+22.594E-03,-9.260E-03
-46.794555E+00,+23.150E-03,+0.0E+00
-46.793155E+00,+22.926E-03,+0.0E+00
-46.791755E+00,+22.573E-03,+14.952E-03
-46.790355E+00,+22.331E-03,+25.997E-03
-46.788955E+00,+22.146E-03,+16.736E-03
-46.787555E+00,+22.445E-03,+16.736E-03
-46.786155E+00,+23.040E-03,+16.736E-03
-46.784755E+00,+22.645E-03,+9.260E-03
-46.783355E+00,+22.260E-03,+0.0E+00
-46.781955E+00,+22.292E-03,+22.429E-03
-46.780555E+00,+21.943E-03,+27.781E-03
-46.779155E+00,+22.463E-03,+14.952E-03
-46.777755E+00,+22.498E-03,+25.997E-03
-46.776355E+00,+22.014E-03,+24.213E-03
-46.774955E+00,+21.719E-03,+25.997E-03
-46.773555E+00,+22.035E-03,+9.260E-03
-46.772155E+00,+22.538E-03,-7.476E-03
-46.770755E+00,+22.442E-03,-9.260E-03
-46.769355E+00,+22.128E-03,+0.0E+00
-46.767955E+00,+22.388E-03,-22.429E-03
-46.766555E+00,+22.182E-03,-27.781E-03
-46.765155E+00,+21.961E-03,-14.952E-03
-46.763755E+00,+22.445E-03,-18.520E-03
-46.762355E+00,+22.367E-03,+0.0E+00
-46.760955E+00,+22.185E-03,-7.476E-03
-46.759555E+00,+22.125E-03,-9.260E-03
-46.758155E+00,+21.551E-03,-7.476E-03
-46.756755E+00,+22.018E-03,+5.692E-03
-46.755355E+00,+22.331E-03,+18.520E-03
-46.753955E+00,+22.146E-03,-7.476E-03
-46.752555E+00,+21.922E-03,-9.260E-03
-46.751155E+00,+21.793E-03,-14.952E-03
-46.749755E+00,+21.904E-03,-18.520E-03
-46.748355E+00,+21.886E-03,+0.0E+00
-46.746955E+00,+21.829E-03,+0.0E+00
-46.745555E+00,+22.018E-03,+7.476E-03
-46.744155E+00,+21.658E-03,+16.736E-03
-46.742755E+00,+21.163E-03,+9.260E-03
-46.741355E+00,+21.811E-03,+0.0E+00
-46.739955E+00,+22.035E-03,-14.952E-03
-46.738555E+00,+21.939E-03,-33.473E-03
-46.737155E+00,+21.925E-03,-25.997E-03
-46.735755E+00,+22.256E-03,-1.784E-03
-46.734355E+00,+22.053E-03,+1.784E-03
-46.732955E+00,+22.146E-03,-16.736E-03
-46.731555E+00,+21.996E-03,-1.784E-03
-46.730155E+00,+21.811E-03,+16.736E-03
-46.728755E+00,+21.811E-03,+16.736E-03
-46.727355E+00,+21.662E-03,+16.736E-03
-46.725955E+00,+21.776E-03,+1.784E-03
-46.724555E+00,+22.370E-03,-9.260E-03
-46.723155E+00,+22.498E-03,-14.952E-03
-46.721755E+00,+21.939E-03,-3.568E-03
-46.720355E+00,+22.149E-03,+33.473E-03
-46.718955E+00,+22.609E-03,+25.997E-03
-46.717555E+00,+22.146E-03,+9.260E-03
-46.716155E+00,+22.146E-03,+22.429E-03
-46.714755E+00,+22.295E-03,+20.304E-03
-46.713355E+00,+22.481E-03,-9.260E-03
-46.711955E+00,+22.406E-03,+7.476E-03
-46.710555E+00,+22.014E-03,+16.736E-03
-46.709155E+00,+21.943E-03,+9.260E-03
-46.707755E+00,+22.164E-03,-7.476E-03
-46.706355E+00,+21.680E-03,+5.692E-03
-46.704954E+00,+21.982E-03,+25.997E-03
-46.703554E+00,+22.442E-03,+9.260E-03
-46.702154E+00,+21.829E-03,-7.476E-03
-46.700754E+00,+21.868E-03,-1.784E-03
-46.699354E+00,+22.221E-03,+9.260E-03
-46.697954E+00,+21.939E-03,+0.0E+00
-46.696554E+00,+21.776E-03,+7.476E-03
-46.695154E+00,+22.146E-03,+9.260E-03
-46.693754E+00,+22.221E-03,-7.476E-03
-46.692354E+00,+22.388E-03,-9.260E-03
-46.690954E+00,+22.331E-03,+0.0E+00
-46.689554E+00,+22.295E-03,+7.476E-03
