x-axis,1KHZ,3
second,Volt,Volt
-25.0000000E+00,+16.6938E-03,+50.2092E-03
-24.9992250E+00,+17.0286E-03,-33.4728E-03
-24.9984500E+00,+17.1959E-03,+0.0E+00
-24.9976750E+00,+16.5265E-03,-0.0E+00
-24.9969000E+00,+17.0286E-03,-33.4728E-03
-24.9961250E+00,+17.1959E-03,+33.4728E-03
-24.9953500E+00,+17.5306E-03,-33.4728E-03
-24.9945750E+00,+17.0286E-03,-16.7364E-03
-24.9938000E+00,+16.8612E-03,+0.0E+00
-24.9930250E+00,+16.8612E-03,+16.7364E-03
-24.9922500E+00,+16.8612E-03,+0.0E+00
-24.9914750E+00,+16.8612E-03,-0.0E+00
-24.9907000E+00,+16.3591E-03,-16.7364E-03
-24.9899250E+00,+16.8612E-03,-33.4728E-03
-24.9891500E+00,+16.0244E-03,+16.7364E-03
-24.9883750E+00,+17.0286E-03,-33.4728E-03
-24.9876000E+00,+17.0286E-03,-33.4728E-03
-24.9868250E+00,+16.6938E-03,-33.4728E-03
-24.9860500E+00,+16.3591E-03,-16.7364E-03
-24.9852750E+00,+17.1959E-03,+0.0E+00
-24.9845000E+00,+16.8612E-03,+16.7364E-03
-24.9837250E+00,+16.8612E-03,+0.0E+00
-24.9829500E+00,+16.0244E-03,+33.4728E-03
-24.9821750E+00,+16.5265E-03,+16.7364E-03
-24.9814000E+00,+16.5265E-03,+16.7364E-03
-24.9806250E+00,+16.5265E-03,+0.0E+00
-24.9798500E+00,+17.1959E-03,+16.7364E-03
-24.9790750E+00,+17.1959E-03,+33.4728E-03
-24.9783000E+00,+17.5306E-03,+16.7364E-03
-24.9775250E+00,+17.3633E-03,+0.0E+00
-24.9767500E+00,+16.1917E-03,+33.4728E-03
-24.9759750E+00,+17.3633E-03,+33.4728E-03
-24.9752000E+00,+17.3633E-03,-16.7364E-03
-24.9744249E+00,+16.5265E-03,+33.4728E-03
-24.9736499E+00,+17.6980E-03,+16.7364E-03
-24.9728749E+00,+17.5306E-03,+16.7364E-03
-24.9720999E+00,+17.0286E-03,+0.0E+00
-24.9713249E+00,+16.1917E-03,+0.0E+00
-24.9705499E+00,+17.3633E-03,+33.4728E-03
-24.9697749E+00,+16.8612E-03,+16.7364E-03
-24.9689999E+00,+16.8612E-03,-33.4728E-03
-24.9682249E+00,+16.8612E-03,-16.7364E-03
-24.9674499E+00,+16.0244E-03,+0.0E+00
-24.9666749E+00,+17.1959E-03,+16.7364E-03
-24.9658999E+00,+16.5265E-03,-33.4728E-03
-24.9651249E+00,+17.5306E-03,+16.7364E-03
-24.9643499E+00,+17.3633E-03,+33.4728E-03
-24.9635749E+00,+17.0286E-03,+0.0E+00
-24.9627999E+00,+16.8612E-03,+33.4728E-03
-24.9620249E+00,+16.6938E-03,+0.0E+00
-24.9612499E+00,+17.6980E-03,+0.0E+00
-24.9604749E+00,+17.1959E-03,+16.7364E-03
-24.9596999E+00,+16.8612E-03,-0.0E+00
-24.9589249E+00,+16.8612E-03,-16.7364E-03
-24.9581499E+00,+17.3633E-03,+16.7364E-03
-24.9573749E+00,+16.8612E-03,+0.0E+00
-24.9565999E+00,+16.8612E-03,+0.0E+00
-24.9558249E+00,+16.5265E-03,+33.4728E-03
-24.9550499E+00,+16.8612E-03,+0.0E+00
-24.9542749E+00,+16.6938E-03,+16.7364E-03
-24.9534999E+00,+16.6938E-03,+16.7364E-03
-24.9527249E+00,+16.8612E-03,-33.4728E-03
-24.9519499E+00,+17.3633E-03,-16.7364E-03
-24.9511749E+00,+16.3591E-03,+0.0E+00
-24.9503999E+00,+17.6980E-03,+50.2092E-03
-24.9496249E+00,+17.1959E-03,+16.7364E-03
-24.9488499E+00,+17.1959E-03,+16.7364E-03
-24.9480749E+00,+16.5265E-03,+16.7364E-03
-24.9472999E+00,+17.0286E-03,+16.7364E-03
-24.9465249E+00,+17.3633E-03,-16.7364E-03
-24.9457499E+00,+17.1959E-03,-16.7364E-03
-24.9449749E+00,+17.1959E-03,-16.7364E-03
-24.9441999E+00,+17.6980E-03,-16.7364E-03
-24.9434249E+00,+17.0286E-03,-0.0E+00
-24.9426499E+00,+16.3591E-03,-16.7364E-03
-24.9418749E+00,+17.1959E-03,+0.0E+00
-24.9410999E+00,+17.5306E-03,+16.7364E-03
-24.9403249E+00,+17.1959E-03,+16.7364E-03
-24.9395499E+00,+17.3633E-03,+50.2092E-03
-24.9387749E+00,+17.8654E-03,-50.2092E-03
-24.9379999E+00,+16.6938E-03,+16.7364E-03
-24.9372249E+00,+17.0286E-03,-0.0E+00
-24.9364499E+00,+17.3633E-03,-16.7364E-03
-24.9356749E+00,+17.1959E-03,-16.7364E-03
-24.9348999E+00,+16.6938E-03,-16.7364E-03
-24.9341249E+00,+17.1959E-03,-16.7364E-03
-24.9333499E+00,+16.3591E-03,+0.0E+00
-24.9325749E+00,+17.3633E-03,+16.7364E-03
-24.9317999E+00,+17.5306E-03,-16.7364E-03
-24.9310249E+00,+16.6938E-03,-16.7364E-03
-24.9302499E+00,+17.3633E-03,-0.0E+00
-24.9294749E+00,+17.0286E-03,-33.4728E-03
-24.9286999E+00,+17.3633E-03,+33.4728E-03
-24.9279249E+00,+18.2001E-03,-16.7364E-03
-24.9271499E+00,+17.1959E-03,-16.7364E-03
-24.9263749E+00,+17.5306E-03,+16.7364E-03
-24.9255999E+00,+17.1959E-03,-16.7364E-03
-24.9248248E+00,+17.0286E-03,+16.7364E-03
-24.9240498E+00,+16.6938E-03,-16.7364E-03
-24.9232748E+00,+17.0286E-03,+16.7364E-03
-24.9224998E+00,+18.0327E-03,-16.7364E-03
-24.9217248E+00,+16.6938E-03,-16.7364E-03
-24.9209498E+00,+16.6938E-03,+0.0E+00
-24.9201748E+00,+16.6938E-03,+0.0E+00
-24.9193998E+00,+16.8612E-03,+0.0E+00
-24.9186248E+00,+17.5306E-03,+0.0E+00
-24.9178498E+00,+16.8612E-03,+16.7364E-03
-24.9170748E+00,+17.1959E-03,-16.7364E-03
-24.9162998E+00,+17.5306E-03,+33.4728E-03
-24.9155248E+00,+17.1959E-03,+33.4728E-03
-24.9147498E+00,+17.1959E-03,-16.7364E-03
-24.9139748E+00,+17.3633E-03,-16.7364E-03
-24.9131998E+00,+17.1959E-03,+16.7364E-03
-24.9124248E+00,+17.0286E-03,-0.0E+00
-24.9116498E+00,+17.3633E-03,-16.7364E-03
-24.9108748E+00,+17.0286E-03,-16.7364E-03
-24.9100998E+00,+16.8612E-03,-0.0E+00
-24.9093248E+00,+16.8612E-03,-16.7364E-03
-24.9085498E+00,+17.6980E-03,+0.0E+00
-24.9077748E+00,+17.3633E-03,+33.4728E-03
-24.9069998E+00,+17.0286E-03,-33.4728E-03
-24.9062248E+00,+16.8612E-03,-0.0E+00
-24.9054498E+00,+17.3633E-03,-16.7364E-03
-24.9046748E+00,+17.6980E-03,+0.0E+00
-24.9038998E+00,+17.1959E-03,+33.4728E-03
-24.9031248E+00,+17.0286E-03,+33.4728E-03
-24.9023498E+00,+17.1959E-03,-16.7364E-03
-24.9015748E+00,+16.8612E-03,-0.0E+00
-24.9007998E+00,+16.3591E-03,-16.7364E-03
-24.9000248E+00,+16.1917E-03,+16.7364E-03
-24.8992498E+00,+17.5306E-03,-16.7364E-03
-24.8984748E+00,+16.8612E-03,+16.7364E-03
-24.8976998E+00,+16.6938E-03,+0.0E+00
-24.8969248E+00,+17.0286E-03,+0.0E+00
-24.8961498E+00,+16.8612E-03,+0.0E+00
-24.8953748E+00,+17.1959E-03,+16.7364E-03
-24.8945998E+00,+16.3591E-03,+33.4728E-03
-24.8938248E+00,+17.8654E-03,+16.7364E-03
-24.8930498E+00,+16.5265E-03,+16.7364E-03
-24.8922748E+00,+17.5306E-03,+16.7364E-03
-24.8914998E+00,+17.5306E-03,+0.0E+00
-24.8907248E+00,+17.1959E-03,+33.4728E-03
-24.8899498E+00,+16.8612E-03,-0.0E+00
-24.8891748E+00,+17.5306E-03,-16.7364E-03
-24.8883998E+00,+16.3591E-03,+0.0E+00
-24.8876248E+00,+17.6980E-03,-0.0E+00
-24.8868498E+00,+16.8612E-03,-33.4728E-03
-24.8860748E+00,+16.8612E-03,-16.7364E-03
-24.8852998E+00,+16.8612E-03,-33.4728E-03
-24.8845248E+00,+17.0286E-03,+0.0E+00
-24.8837498E+00,+17.3633E-03,+16.7364E-03
-24.8829748E+00,+17.5306E-03,-16.7364E-03
-24.8821998E+00,+16.3591E-03,+16.7364E-03
-24.8814248E+00,+17.1959E-03,+0.0E+00
-24.8806498E+00,+16.5265E-03,+16.7364E-03
-24.8798748E+00,+16.6938E-03,-0.0E+00
-24.8790998E+00,+16.3591E-03,-16.7364E-03
-24.8783248E+00,+16.5265E-03,+16.7364E-03
-24.8775498E+00,+17.5306E-03,+0.0E+00
-24.8767748E+00,+16.3591E-03,+33.4728E-03
-24.8759998E+00,+16.0244E-03,+16.7364E-03
-24.8752248E+00,+17.1959E-03,-16.7364E-03
-24.8744497E+00,+17.1959E-03,+16.7364E-03
-24.8736747E+00,+17.0286E-03,-16.7364E-03
-24.8728997E+00,+17.6980E-03,-16.7364E-03
-24.8721247E+00,+16.3591E-03,-0.0E+00
-24.8713497E+00,+17.1959E-03,-33.4728E-03
-24.8705747E+00,+17.0286E-03,+0.0E+00
-24.8697997E+00,+16.8612E-03,+33.4728E-03
-24.8690247E+00,+17.1959E-03,+16.7364E-03
-24.8682497E+00,+16.6938E-03,-33.4728E-03
-24.8674747E+00,+16.8612E-03,-16.7364E-03
-24.8666997E+00,+16.1917E-03,-16.7364E-03
-24.8659247E+00,+16.6938E-03,+33.4728E-03
-24.8651497E+00,+16.0244E-03,-0.0E+00
-24.8643747E+00,+16.8612E-03,-16.7364E-03
-24.8635997E+00,+16.6938E-03,+16.7364E-03
-24.8628247E+00,+17.3633E-03,-0.0E+00
-24.8620497E+00,+17.5306E-03,-33.4728E-03
-24.8612747E+00,+17.8654E-03,+0.0E+00
-24.8604997E+00,+16.8612E-03,+0.0E+00
-24.8597247E+00,+17.1959E-03,+16.7364E-03
-24.8589497E+00,+17.1959E-03,+16.7364E-03
-24.8581747E+00,+17.1959E-03,-16.7364E-03
-24.8573997E+00,+17.0286E-03,+16.7364E-03
-24.8566247E+00,+17.5306E-03,+16.7364E-03
-24.8558497E+00,+18.2001E-03,+0.0E+00
-24.8550747E+00,+17.1959E-03,+16.7364E-03
-24.8542997E+00,+17.6980E-03,-33.4728E-03
-24.8535247E+00,+18.0327E-03,+0.0E+00
-24.8527497E+00,+17.1959E-03,+0.0E+00
-24.8519747E+00,+16.1917E-03,+0.0E+00
-24.8511997E+00,+16.8612E-03,+16.7364E-03
-24.8504247E+00,+16.6938E-03,+16.7364E-03
-24.8496497E+00,+16.3591E-03,+0.0E+00
-24.8488747E+00,+17.0286E-03,-0.0E+00
-24.8480997E+00,+16.1917E-03,-16.7364E-03
-24.8473247E+00,+18.0327E-03,+0.0E+00
-24.8465497E+00,+17.0286E-03,+0.0E+00
-24.8457747E+00,+17.1959E-03,+16.7364E-03
-24.8449997E+00,+17.0286E-03,-0.0E+00
-24.8442247E+00,+17.1959E-03,-33.4728E-03
-24.8434497E+00,+16.8612E-03,+0.0E+00
-24.8426747E+00,+17.1959E-03,-0.0E+00
-24.8418997E+00,+17.5306E-03,-16.7364E-03
-24.8411247E+00,+17.5306E-03,+33.4728E-03
-24.8403497E+00,+17.0286E-03,-16.7364E-03
-24.8395747E+00,+17.0286E-03,+16.7364E-03
-24.8387997E+00,+17.1959E-03,+16.7364E-03
-24.8380247E+00,+16.3591E-03,+0.0E+00
-24.8372497E+00,+17.5306E-03,+50.2092E-03
-24.8364747E+00,+16.5265E-03,+0.0E+00
-24.8356997E+00,+17.6980E-03,+33.4728E-03
-24.8349247E+00,+16.3591E-03,+16.7364E-03
-24.8341497E+00,+17.5306E-03,-16.7364E-03
-24.8333747E+00,+17.1959E-03,+16.7364E-03
-24.8325997E+00,+16.8612E-03,+0.0E+00
-24.8318247E+00,+17.1959E-03,+0.0E+00
-24.8310497E+00,+16.3591E-03,+16.7364E-03
-24.8302747E+00,+16.8612E-03,+16.7364E-03
-24.8294997E+00,+17.3633E-03,-16.7364E-03
-24.8287247E+00,+18.0327E-03,+0.0E+00
-24.8279497E+00,+16.8612E-03,+0.0E+00
-24.8271747E+00,+16.6938E-03,+16.7364E-03
-24.8263997E+00,+17.5306E-03,+16.7364E-03
-24.8256247E+00,+17.5306E-03,+0.0E+00
-24.8248496E+00,+16.3591E-03,+33.4728E-03
-24.8240746E+00,+17.3633E-03,-0.0E+00
-24.8232996E+00,+17.3633E-03,-16.7364E-03
-24.8225246E+00,+17.1959E-03,-33.4728E-03
-24.8217496E+00,+17.0286E-03,-33.4728E-03
-24.8209746E+00,+16.3591E-03,+16.7364E-03
-24.8201996E+00,+17.1959E-03,+0.0E+00
-24.8194246E+00,+17.0286E-03,+33.4728E-03
-24.8186496E+00,+17.5306E-03,-16.7364E-03
-24.8178746E+00,+17.1959E-03,+0.0E+00
-24.8170996E+00,+17.0286E-03,+0.0E+00
-24.8163246E+00,+16.6938E-03,+16.7364E-03
-24.8155496E+00,+16.0244E-03,-16.7364E-03
-24.8147746E+00,+17.3633E-03,+0.0E+00
-24.8139996E+00,+16.6938E-03,+33.4728E-03
-24.8132246E+00,+17.6980E-03,+16.7364E-03
-24.8124496E+00,+17.5306E-03,+0.0E+00
-24.8116746E+00,+17.6980E-03,+50.2092E-03
-24.8108996E+00,+17.0286E-03,+16.7364E-03
-24.8101246E+00,+17.8654E-03,-16.7364E-03
-24.8093496E+00,+17.3633E-03,-0.0E+00
-24.8085746E+00,+16.5265E-03,-16.7364E-03
-24.8077996E+00,+17.8654E-03,-16.7364E-03
-24.8070246E+00,+16.3591E-03,-0.0E+00
-24.8062496E+00,+17.1959E-03,-16.7364E-03
-24.8054746E+00,+17.1959E-03,+33.4728E-03
-24.8046996E+00,+16.3591E-03,+0.0E+00
-24.8039246E+00,+16.1917E-03,+16.7364E-03
-24.8031496E+00,+17.0286E-03,-33.4728E-03
-24.8023746E+00,+16.6938E-03,+33.4728E-03
-24.8015996E+00,+17.8654E-03,-16.7364E-03
-24.8008246E+00,+16.8612E-03,-16.7364E-03
-24.8000496E+00,+17.1959E-03,+16.7364E-03
-24.7992746E+00,+17.3633E-03,-16.7364E-03
-24.7984996E+00,+16.8612E-03,+16.7364E-03
-24.7977246E+00,+17.1959E-03,+16.7364E-03
-24.7969496E+00,+17.5306E-03,-0.0E+00
-24.7961746E+00,+17.1959E-03,-33.4728E-03
-24.7953996E+00,+17.0286E-03,-33.4728E-03
-24.7946246E+00,+17.3633E-03,+0.0E+00
-24.7938496E+00,+17.1959E-03,+33.4728E-03
-24.7930746E+00,+17.3633E-03,+0.0E+00
-24.7922996E+00,+16.6938E-03,+0.0E+00
-24.7915246E+00,+17.0286E-03,+33.4728E-03
-24.7907496E+00,+16.5265E-03,+0.0E+00
-24.7899746E+00,+16.8612E-03,+0.0E+00
-24.7891996E+00,+16.8612E-03,+0.0E+00
-24.7884246E+00,+16.1917E-03,+0.0E+00
-24.7876496E+00,+16.6938E-03,+16.7364E-03
-24.7868746E+00,+17.3633E-03,-33.4728E-03
-24.7860996E+00,+17.1959E-03,+0.0E+00
-24.7853246E+00,+16.5265E-03,+16.7364E-03
-24.7845496E+00,+17.1959E-03,+33.4728E-03
-24.7837746E+00,+16.0244E-03,+33.4728E-03
-24.7829996E+00,+16.5265E-03,-16.7364E-03
-24.7822246E+00,+17.3633E-03,+16.7364E-03
-24.7814496E+00,+17.3633E-03,-16.7364E-03
-24.7806746E+00,+16.6938E-03,-33.4728E-03
-24.7798996E+00,+17.1959E-03,+0.0E+00
-24.7791246E+00,+17.0286E-03,+0.0E+00
-24.7783496E+00,+17.5306E-03,+0.0E+00
-24.7775746E+00,+17.1959E-03,-0.0E+00
-24.7767996E+00,+16.5265E-03,-16.7364E-03
-24.7760246E+00,+17.0286E-03,-16.7364E-03
-24.7752496E+00,+16.8612E-03,+0.0E+00
-24.7744745E+00,+17.5306E-03,-0.0E+00
-24.7736995E+00,+17.1959E-03,-16.7364E-03
-24.7729245E+00,+16.3591E-03,-33.4728E-03
-24.7721495E+00,+17.6980E-03,+16.7364E-03
-24.7713745E+00,+17.1959E-03,+16.7364E-03
-24.7705995E+00,+17.5306E-03,-0.0E+00
-24.7698245E+00,+17.1959E-03,-16.7364E-03
-24.7690495E+00,+17.3633E-03,+0.0E+00
-24.7682745E+00,+17.3633E-03,+16.7364E-03
-24.7674995E+00,+17.1959E-03,-0.0E+00
-24.7667245E+00,+17.1959E-03,-16.7364E-03
-24.7659495E+00,+16.0244E-03,-16.7364E-03
-24.7651745E+00,+17.1959E-03,-0.0E+00
-24.7643995E+00,+17.1959E-03,-16.7364E-03
-24.7636245E+00,+17.0286E-03,+16.7364E-03
-24.7628495E+00,+16.6938E-03,-16.7364E-03
-24.7620745E+00,+16.6938E-03,+0.0E+00
-24.7612995E+00,+17.1959E-03,+0.0E+00
-24.7605245E+00,+15.6896E-03,+50.2092E-03
-24.7597495E+00,+17.6980E-03,+33.4728E-03
-24.7589745E+00,+17.1959E-03,+16.7364E-03
-24.7581995E+00,+16.8612E-03,+0.0E+00
-24.7574245E+00,+16.8612E-03,+0.0E+00
-24.7566495E+00,+17.6980E-03,+0.0E+00
-24.7558745E+00,+17.1959E-03,+0.0E+00
-24.7550995E+00,+17.5306E-03,+0.0E+00
-24.7543245E+00,+17.5306E-03,+16.7364E-03
-24.7535495E+00,+16.8612E-03,-16.7364E-03
-24.7527745E+00,+17.5306E-03,-16.7364E-03
-24.7519995E+00,+17.5306E-03,+16.7364E-03
-24.7512245E+00,+16.3591E-03,-50.2092E-03
-24.7504495E+00,+17.1959E-03,+16.7364E-03
-24.7496745E+00,+16.8612E-03,+0.0E+00
-24.7488995E+00,+16.8612E-03,+33.4728E-03
-24.7481245E+00,+16.6938E-03,-16.7364E-03
-24.7473495E+00,+17.6980E-03,+33.4728E-03
-24.7465745E+00,+17.0286E-03,-0.0E+00
-24.7457995E+00,+17.3633E-03,-16.7364E-03
-24.7450245E+00,+16.6938E-03,+0.0E+00
-24.7442495E+00,+16.6938E-03,+0.0E+00
-24.7434745E+00,+16.3591E-03,+33.4728E-03
-24.7426995E+00,+16.5265E-03,+16.7364E-03
-24.7419245E+00,+16.6938E-03,+0.0E+00
-24.7411495E+00,+16.3591E-03,+0.0E+00
-24.7403745E+00,+16.5265E-03,+33.4728E-03
-24.7395995E+00,+16.1917E-03,+33.4728E-03
-24.7388245E+00,+16.6938E-03,-16.7364E-03
-24.7380495E+00,+16.5265E-03,-16.7364E-03
-24.7372745E+00,+17.0286E-03,+16.7364E-03
-24.7364995E+00,+17.1959E-03,+16.7364E-03
-24.7357245E+00,+16.5265E-03,+16.7364E-03
-24.7349495E+00,+17.1959E-03,-33.4728E-03
-24.7341745E+00,+16.8612E-03,+16.7364E-03
-24.7333995E+00,+16.6938E-03,+16.7364E-03
-24.7326245E+00,+17.1959E-03,+0.0E+00
-24.7318495E+00,+17.0286E-03,-0.0E+00
-24.7310745E+00,+16.8612E-03,-16.7364E-03
-24.7302995E+00,+16.8612E-03,-0.0E+00
-24.7295245E+00,+17.0286E-03,-16.7364E-03
-24.7287495E+00,+16.6938E-03,-0.0E+00
-24.7279745E+00,+16.8612E-03,-16.7364E-03
-24.7271995E+00,+16.6938E-03,-16.7364E-03
-24.7264245E+00,+16.8612E-03,+16.7364E-03
-24.7256495E+00,+17.0286E-03,-0.0E+00
-24.7248744E+00,+17.0286E-03,-16.7364E-03
-24.7240994E+00,+17.6980E-03,+16.7364E-03
-24.7233244E+00,+16.8612E-03,+50.2092E-03
-24.7225494E+00,+17.5306E-03,-33.4728E-03
-24.7217744E+00,+16.3591E-03,+0.0E+00
-24.7209994E+00,+16.3591E-03,+16.7364E-03
-24.7202244E+00,+18.8696E-03,+0.0E+00
-24.7194494E+00,+16.8612E-03,+16.7364E-03
-24.7186744E+00,+18.0327E-03,-16.7364E-03
-24.7178994E+00,+17.3633E-03,+50.2092E-03
-24.7171244E+00,+16.8612E-03,+16.7364E-03
-24.7163494E+00,+16.3591E-03,+33.4728E-03
-24.7155744E+00,+17.0286E-03,-33.4728E-03
-24.7147994E+00,+16.6938E-03,+33.4728E-03
-24.7140244E+00,+17.6980E-03,+0.0E+00
-24.7132494E+00,+16.1917E-03,-0.0E+00
-24.7124744E+00,+17.8654E-03,-16.7364E-03
-24.7116994E+00,+16.3591E-03,+0.0E+00
-24.7109244E+00,+16.5265E-03,+16.7364E-03
-24.7101494E+00,+17.5306E-03,+33.4728E-03
-24.7093744E+00,+17.0286E-03,-16.7364E-03
-24.7085994E+00,+16.8612E-03,+16.7364E-03
-24.7078244E+00,+17.3633E-03,-16.7364E-03
-24.7070494E+00,+17.3633E-03,+0.0E+00
-24.7062744E+00,+17.5306E-03,+0.0E+00
-24.7054994E+00,+17.0286E-03,+16.7364E-03
-24.7047244E+00,+17.8654E-03,+50.2092E-03
-24.7039494E+00,+16.8612E-03,+0.0E+00
-24.7031744E+00,+17.3633E-03,+50.2092E-03
-24.7023994E+00,+16.3591E-03,+0.0E+00
-24.7016244E+00,+17.6980E-03,+0.0E+00
-24.7008494E+00,+17.1959E-03,+16.7364E-03
-24.7000744E+00,+17.3633E-03,+33.4728E-03
-24.6992994E+00,+17.6980E-03,+0.0E+00
-24.6985244E+00,+17.3633E-03,+0.0E+00
-24.6977494E+00,+16.6938E-03,+16.7364E-03
-24.6969744E+00,+16.6938E-03,+33.4728E-03
-24.6961994E+00,+16.6938E-03,+33.4728E-03
-24.6954244E+00,+17.1959E-03,-0.0E+00
-24.6946494E+00,+17.1959E-03,-16.7364E-03
-24.6938744E+00,+17.0286E-03,+50.2092E-03
-24.6930994E+00,+16.3591E-03,-33.4728E-03
-24.6923244E+00,+16.5265E-03,-0.0E+00
-24.6915494E+00,+16.8612E-03,-16.7364E-03
-24.6907744E+00,+17.5306E-03,+0.0E+00
-24.6899994E+00,+16.3591E-03,-0.0E+00
-24.6892244E+00,+17.3633E-03,-16.7364E-03
-24.6884494E+00,+16.8612E-03,-16.7364E-03
-24.6876744E+00,+16.3591E-03,+0.0E+00
-24.6868994E+00,+16.6938E-03,+16.7364E-03
-24.6861244E+00,+16.8612E-03,+0.0E+00
-24.6853494E+00,+16.8612E-03,+33.4728E-03
-24.6845744E+00,+16.6938E-03,-16.7364E-03
-24.6837994E+00,+16.5265E-03,+0.0E+00
-24.6830244E+00,+16.8612E-03,+16.7364E-03
-24.6822494E+00,+17.0286E-03,+16.7364E-03
-24.6814744E+00,+17.1959E-03,-0.0E+00
-24.6806994E+00,+16.5265E-03,-16.7364E-03
-24.6799244E+00,+16.8612E-03,+16.7364E-03
-24.6791494E+00,+17.6980E-03,+33.4728E-03
-24.6783744E+00,+17.0286E-03,+33.4728E-03
-24.6775994E+00,+17.5306E-03,+16.7364E-03
-24.6768244E+00,+17.5306E-03,-0.0E+00
-24.6760494E+00,+17.1959E-03,-16.7364E-03
-24.6752744E+00,+17.3633E-03,-16.7364E-03
-24.6744993E+00,+16.5265E-03,+0.0E+00
-24.6737243E+00,+16.5265E-03,-0.0E+00
-24.6729493E+00,+17.0286E-03,-16.7364E-03
-24.6721743E+00,+16.1917E-03,-33.4728E-03
-24.6713993E+00,+16.8612E-03,+16.7364E-03
-24.6706243E+00,+17.0286E-03,-33.4728E-03
-24.6698493E+00,+16.6938E-03,+16.7364E-03
-24.6690743E+00,+17.0286E-03,+0.0E+00
-24.6682993E+00,+16.0244E-03,-0.0E+00
-24.6675243E+00,+17.8654E-03,-16.7364E-03
-24.6667493E+00,+17.1959E-03,+33.4728E-03
-24.6659743E+00,+17.3633E-03,+16.7364E-03
-24.6651993E+00,+16.5265E-03,+16.7364E-03
-24.6644243E+00,+16.8612E-03,+0.0E+00
-24.6636493E+00,+17.0286E-03,-0.0E+00
-24.6628743E+00,+17.1959E-03,-16.7364E-03
-24.6620993E+00,+15.5223E-03,+0.0E+00
-24.6613243E+00,+16.6938E-03,+0.0E+00
-24.6605493E+00,+16.8612E-03,+16.7364E-03
-24.6597743E+00,+16.6938E-03,-16.7364E-03
-24.6589993E+00,+17.0286E-03,-16.7364E-03
-24.6582243E+00,+17.3633E-03,+16.7364E-03
-24.6574493E+00,+16.8612E-03,-33.4728E-03
-24.6566743E+00,+17.0286E-03,+16.7364E-03
-24.6558993E+00,+17.1959E-03,-0.0E+00
-24.6551243E+00,+16.5265E-03,-16.7364E-03
-24.6543493E+00,+17.0286E-03,-0.0E+00
-24.6535743E+00,+16.0244E-03,-16.7364E-03
-24.6527993E+00,+17.5306E-03,+16.7364E-03
-24.6520243E+00,+16.8612E-03,+33.4728E-03
-24.6512493E+00,+16.8612E-03,+0.0E+00
-24.6504743E+00,+16.5265E-03,+33.4728E-03
-24.6496993E+00,+15.8570E-03,+0.0E+00
-24.6489243E+00,+16.5265E-03,+33.4728E-03
-24.6481493E+00,+17.1959E-03,+16.7364E-03
-24.6473743E+00,+17.0286E-03,+16.7364E-03
-24.6465993E+00,+16.5265E-03,+33.4728E-03
-24.6458243E+00,+17.1959E-03,+16.7364E-03
-24.6450493E+00,+18.0327E-03,+0.0E+00
-24.6442743E+00,+15.6896E-03,+16.7364E-03
-24.6434993E+00,+16.1917E-03,+16.7364E-03
-24.6427243E+00,+16.6938E-03,-16.7364E-03
-24.6419493E+00,+17.6980E-03,-16.7364E-03
-24.6411743E+00,+16.8612E-03,+16.7364E-03
-24.6403993E+00,+16.8612E-03,+16.7364E-03
-24.6396243E+00,+17.8654E-03,-16.7364E-03
-24.6388493E+00,+17.1959E-03,+0.0E+00
-24.6380743E+00,+17.1959E-03,+16.7364E-03
-24.6372993E+00,+16.6938E-03,+16.7364E-03
-24.6365243E+00,+17.5306E-03,+50.2092E-03
-24.6357493E+00,+17.5306E-03,+16.7364E-03
-24.6349743E+00,+17.3633E-03,-16.7364E-03
-24.6341993E+00,+16.3591E-03,-16.7364E-03
-24.6334243E+00,+17.5306E-03,-0.0E+00
-24.6326493E+00,+17.1959E-03,-16.7364E-03
-24.6318743E+00,+17.5306E-03,-33.4728E-03
-24.6310993E+00,+16.0244E-03,+16.7364E-03
-24.6303243E+00,+16.5265E-03,-0.0E+00
-24.6295493E+00,+16.3591E-03,-16.7364E-03
-24.6287743E+00,+17.0286E-03,+0.0E+00
-24.6279993E+00,+16.8612E-03,+16.7364E-03
-24.6272243E+00,+16.5265E-03,+16.7364E-03
-24.6264493E+00,+16.1917E-03,+16.7364E-03
-24.6256743E+00,+17.0286E-03,-16.7364E-03
-24.6248992E+00,+16.8612E-03,+16.7364E-03
-24.6241242E+00,+16.8612E-03,+33.4728E-03
-24.6233492E+00,+16.1917E-03,+0.0E+00
-24.6225742E+00,+17.0286E-03,+16.7364E-03
-24.6217992E+00,+16.3591E-03,-33.4728E-03
-24.6210242E+00,+16.3591E-03,-16.7364E-03
-24.6202492E+00,+17.0286E-03,+16.7364E-03
-24.6194742E+00,+16.8612E-03,+16.7364E-03
-24.6186992E+00,+16.8612E-03,-0.0E+00
-24.6179242E+00,+16.3591E-03,-16.7364E-03
-24.6171492E+00,+17.1959E-03,-0.0E+00
-24.6163742E+00,+16.6938E-03,-16.7364E-03
-24.6155992E+00,+16.3591E-03,+16.7364E-03
-24.6148242E+00,+16.3591E-03,-16.7364E-03
-24.6140492E+00,+17.0286E-03,+16.7364E-03
-24.6132742E+00,+17.1959E-03,+33.4728E-03
-24.6124992E+00,+17.1959E-03,-16.7364E-03
-24.6117242E+00,+16.8612E-03,+0.0E+00
-24.6109492E+00,+16.5265E-03,+0.0E+00
-24.6101742E+00,+17.5306E-03,+33.4728E-03
-24.6093992E+00,+17.1959E-03,+0.0E+00
-24.6086242E+00,+16.8612E-03,+16.7364E-03
-24.6078492E+00,+17.0286E-03,+0.0E+00
-24.6070742E+00,+17.3633E-03,+0.0E+00
-24.6062992E+00,+17.1959E-03,+0.0E+00
-24.6055242E+00,+16.8612E-03,+16.7364E-03
-24.6047492E+00,+16.3591E-03,+0.0E+00
-24.6039742E+00,+16.5265E-03,-0.0E+00
-24.6031992E+00,+16.6938E-03,-16.7364E-03
-24.6024242E+00,+16.8612E-03,+0.0E+00
-24.6016492E+00,+16.5265E-03,+16.7364E-03
-24.6008742E+00,+17.1959E-03,+16.7364E-03
-24.6000992E+00,+16.3591E-03,+0.0E+00
-24.5993242E+00,+17.6980E-03,+0.0E+00
-24.5985492E+00,+16.8612E-03,+33.4728E-03
-24.5977742E+00,+16.8612E-03,+16.7364E-03
-24.5969992E+00,+17.1959E-03,-0.0E+00
-24.5962242E+00,+17.5306E-03,-16.7364E-03
-24.5954492E+00,+17.1959E-03,-0.0E+00
-24.5946742E+00,+17.0286E-03,-33.4728E-03
-24.5938992E+00,+16.3591E-03,-0.0E+00
-24.5931242E+00,+16.8612E-03,-16.7364E-03
-24.5923492E+00,+16.6938E-03,-33.4728E-03
-24.5915742E+00,+17.0286E-03,+16.7364E-03
-24.5907992E+00,+17.3633E-03,-16.7364E-03
-24.5900242E+00,+16.3591E-03,+33.4728E-03
-24.5892492E+00,+16.5265E-03,+0.0E+00
-24.5884742E+00,+16.5265E-03,+0.0E+00
-24.5876992E+00,+17.0286E-03,+0.0E+00
-24.5869242E+00,+17.8654E-03,+16.7364E-03
-24.5861492E+00,+16.5265E-03,-16.7364E-03
-24.5853742E+00,+16.8612E-03,+16.7364E-03
-24.5845992E+00,+17.0286E-03,-16.7364E-03
-24.5838242E+00,+16.5265E-03,+16.7364E-03
-24.5830492E+00,+16.8612E-03,+0.0E+00
-24.5822742E+00,+17.5306E-03,+16.7364E-03
-24.5814992E+00,+16.6938E-03,+0.0E+00
-24.5807242E+00,+17.3633E-03,-0.0E+00
-24.5799492E+00,+16.1917E-03,-16.7364E-03
-24.5791742E+00,+17.0286E-03,-16.7364E-03
-24.5783992E+00,+16.6938E-03,+0.0E+00
-24.5776242E+00,+16.5265E-03,+33.4728E-03
-24.5768492E+00,+17.3633E-03,-16.7364E-03
-24.5760742E+00,+16.1917E-03,+33.4728E-03
-24.5752992E+00,+16.3591E-03,-16.7364E-03
-24.5745241E+00,+16.5265E-03,-16.7364E-03
-24.5737491E+00,+17.1959E-03,-16.7364E-03
-24.5729741E+00,+16.5265E-03,+16.7364E-03
-24.5721991E+00,+17.0286E-03,+0.0E+00
-24.5714241E+00,+16.5265E-03,+16.7364E-03
-24.5706491E+00,+16.6938E-03,-16.7364E-03
-24.5698741E+00,+17.3633E-03,-0.0E+00
-24.5690991E+00,+16.5265E-03,-33.4728E-03
-24.5683241E+00,+16.8612E-03,-16.7364E-03
-24.5675491E+00,+17.6980E-03,+50.2092E-03
-24.5667741E+00,+16.5265E-03,-33.4728E-03
-24.5659991E+00,+16.8612E-03,-0.0E+00
-24.5652241E+00,+16.8612E-03,-16.7364E-03
-24.5644491E+00,+16.8612E-03,+0.0E+00
-24.5636741E+00,+17.3633E-03,+33.4728E-03
-24.5628991E+00,+17.1959E-03,-16.7364E-03
-24.5621241E+00,+16.5265E-03,-33.4728E-03
-24.5613491E+00,+16.8612E-03,+0.0E+00
-24.5605741E+00,+16.1917E-03,+33.4728E-03
-24.5597991E+00,+16.6938E-03,-16.7364E-03
-24.5590241E+00,+17.3633E-03,+16.7364E-03
-24.5582491E+00,+17.5306E-03,-16.7364E-03
-24.5574741E+00,+16.3591E-03,+16.7364E-03
-24.5566991E+00,+17.0286E-03,+0.0E+00
-24.5559241E+00,+16.1917E-03,+16.7364E-03
-24.5551491E+00,+16.8612E-03,+0.0E+00
-24.5543741E+00,+16.5265E-03,+0.0E+00
-24.5535991E+00,+17.1959E-03,+0.0E+00
-24.5528241E+00,+17.0286E-03,+0.0E+00
-24.5520491E+00,+16.0244E-03,+0.0E+00
-24.5512741E+00,+17.3633E-03,+16.7364E-03
-24.5504991E+00,+16.8612E-03,+16.7364E-03
-24.5497241E+00,+16.3591E-03,+16.7364E-03
-24.5489491E+00,+16.3591E-03,+16.7364E-03
-24.5481741E+00,+16.8612E-03,+0.0E+00
-24.5473991E+00,+16.3591E-03,+16.7364E-03
-24.5466241E+00,+16.8612E-03,-33.4728E-03
-24.5458491E+00,+17.1959E-03,+16.7364E-03
-24.5450741E+00,+16.6938E-03,-33.4728E-03
-24.5442991E+00,+16.3591E-03,-16.7364E-03
-24.5435241E+00,+17.1959E-03,-33.4728E-03
-24.5427491E+00,+16.6938E-03,+0.0E+00
-24.5419741E+00,+17.6980E-03,+16.7364E-03
-24.5411991E+00,+16.3591E-03,+16.7364E-03
-24.5404241E+00,+16.3591E-03,-33.4728E-03
-24.5396491E+00,+16.5265E-03,-16.7364E-03
-24.5388741E+00,+17.1959E-03,+0.0E+00
-24.5380991E+00,+16.3591E-03,+50.2092E-03
-24.5373241E+00,+16.1917E-03,+16.7364E-03
-24.5365491E+00,+17.0286E-03,-16.7364E-03
-24.5357741E+00,+16.8612E-03,+0.0E+00
-24.5349991E+00,+16.3591E-03,+0.0E+00
-24.5342241E+00,+17.1959E-03,+0.0E+00
-24.5334491E+00,+16.1917E-03,+16.7364E-03
-24.5326741E+00,+17.0286E-03,+16.7364E-03
-24.5318991E+00,+16.8612E-03,+16.7364E-03
-24.5311241E+00,+17.5306E-03,+33.4728E-03
-24.5303491E+00,+17.5306E-03,-16.7364E-03
-24.5295741E+00,+17.6980E-03,-16.7364E-03
-24.5287991E+00,+16.6938E-03,+0.0E+00
-24.5280241E+00,+17.0286E-03,+0.0E+00
-24.5272491E+00,+16.0244E-03,+16.7364E-03
-24.5264741E+00,+16.5265E-03,+50.2092E-03
-24.5256991E+00,+17.3633E-03,+0.0E+00
-24.5249240E+00,+17.0286E-03,-0.0E+00
-24.5241490E+00,+17.6980E-03,-16.7364E-03
-24.5233740E+00,+17.1959E-03,-16.7364E-03
-24.5225990E+00,+16.6938E-03,-0.0E+00
-24.5218240E+00,+16.6938E-03,-33.4728E-03
-24.5210490E+00,+17.5306E-03,+0.0E+00
-24.5202740E+00,+16.5265E-03,+16.7364E-03
-24.5194990E+00,+16.5265E-03,-16.7364E-03
-24.5187240E+00,+16.3591E-03,-16.7364E-03
-24.5179490E+00,+16.5265E-03,-16.7364E-03
-24.5171740E+00,+17.1959E-03,+0.0E+00
-24.5163990E+00,+18.2001E-03,+16.7364E-03
-24.5156240E+00,+16.8612E-03,+16.7364E-03
-24.5148490E+00,+17.1959E-03,+16.7364E-03
-24.5140740E+00,+16.8612E-03,+0.0E+00
-24.5132990E+00,+17.1959E-03,+0.0E+00
-24.5125240E+00,+17.0286E-03,-0.0E+00
-24.5117490E+00,+16.5265E-03,-33.4728E-03
-24.5109740E+00,+16.1917E-03,+0.0E+00
-24.5101990E+00,+16.3591E-03,+0.0E+00
-24.5094240E+00,+17.6980E-03,+0.0E+00
-24.5086490E+00,+17.0286E-03,+16.7364E-03
-24.5078740E+00,+17.1959E-03,+16.7364E-03
-24.5070990E+00,+17.1959E-03,+0.0E+00
-24.5063240E+00,+17.5306E-03,+0.0E+00
-24.5055490E+00,+16.5265E-03,+16.7364E-03
-24.5047740E+00,+17.1959E-03,+0.0E+00
-24.5039990E+00,+16.6938E-03,+16.7364E-03
-24.5032240E+00,+16.1917E-03,-16.7364E-03
-24.5024490E+00,+16.6938E-03,+16.7364E-03
-24.5016740E+00,+16.6938E-03,+0.0E+00
-24.5008990E+00,+16.6938E-03,+0.0E+00
-24.5001240E+00,+16.6938E-03,+33.4728E-03
-24.4993490E+00,+16.5265E-03,-16.7364E-03
-24.4985740E+00,+17.5306E-03,+16.7364E-03
-24.4977990E+00,+17.1959E-03,+0.0E+00
-24.4970240E+00,+17.1959E-03,-0.0E+00
-24.4962490E+00,+17.1959E-03,-16.7364E-03
-24.4954740E+00,+17.5306E-03,+0.0E+00
-24.4946990E+00,+17.3633E-03,+16.7364E-03
-24.4939240E+00,+16.3591E-03,+0.0E+00
-24.4931490E+00,+17.0286E-03,+16.7364E-03
-24.4923740E+00,+16.8612E-03,+33.4728E-03
-24.4915990E+00,+17.1959E-03,+16.7364E-03
-24.4908240E+00,+16.6938E-03,+16.7364E-03
-24.4900490E+00,+16.3591E-03,-16.7364E-03
-24.4892740E+00,+16.5265E-03,+16.7364E-03
-24.4884990E+00,+16.5265E-03,-16.7364E-03
-24.4877240E+00,+16.6938E-03,+0.0E+00
-24.4869490E+00,+16.5265E-03,-0.0E+00
-24.4861740E+00,+17.1959E-03,-16.7364E-03
-24.4853990E+00,+17.1959E-03,-16.7364E-03
-24.4846240E+00,+17.3633E-03,+16.7364E-03
-24.4838490E+00,+16.1917E-03,+0.0E+00
-24.4830740E+00,+16.1917E-03,+0.0E+00
-24.4822990E+00,+17.0286E-03,+33.4728E-03
-24.4815240E+00,+16.8612E-03,-0.0E+00
-24.4807490E+00,+16.1917E-03,-33.4728E-03
-24.4799740E+00,+17.1959E-03,-16.7364E-03
-24.4791990E+00,+16.8612E-03,+0.0E+00
-24.4784240E+00,+17.3633E-03,+33.4728E-03
-24.4776490E+00,+17.1959E-03,+50.2092E-03
-24.4768740E+00,+16.1917E-03,-0.0E+00
-24.4760990E+00,+17.1959E-03,-33.4728E-03
-24.4753240E+00,+17.1959E-03,-16.7364E-03
-24.4745489E+00,+16.6938E-03,+16.7364E-03
-24.4737739E+00,+16.5265E-03,+16.7364E-03
-24.4729989E+00,+17.1959E-03,+16.7364E-03
-24.4722239E+00,+16.5265E-03,+0.0E+00
-24.4714489E+00,+17.1959E-03,+16.7364E-03
-24.4706739E+00,+17.1959E-03,+0.0E+00
-24.4698989E+00,+16.6938E-03,-0.0E+00
-24.4691239E+00,+15.8570E-03,-33.4728E-03
-24.4683489E+00,+16.3591E-03,-16.7364E-03
-24.4675739E+00,+17.0286E-03,-16.7364E-03
-24.4667989E+00,+16.8612E-03,-16.7364E-03
-24.4660239E+00,+16.8612E-03,+0.0E+00
-24.4652489E+00,+16.1917E-03,+16.7364E-03
-24.4644739E+00,+18.3675E-03,+16.7364E-03
-24.4636989E+00,+17.1959E-03,+16.7364E-03
-24.4629239E+00,+16.6938E-03,-16.7364E-03
-24.4621489E+00,+16.6938E-03,+33.4728E-03
-24.4613739E+00,+16.1917E-03,+50.2092E-03
-24.4605989E+00,+16.1917E-03,+0.0E+00
-24.4598239E+00,+17.0286E-03,+0.0E+00
-24.4590489E+00,+16.3591E-03,+16.7364E-03
-24.4582739E+00,+17.0286E-03,+16.7364E-03
-24.4574989E+00,+17.3633E-03,+33.4728E-03
-24.4567239E+00,+16.8612E-03,+16.7364E-03
-24.4559489E+00,+16.0244E-03,+16.7364E-03
-24.4551739E+00,+17.3633E-03,-16.7364E-03
-24.4543989E+00,+16.8612E-03,-16.7364E-03
-24.4536239E+00,+17.0286E-03,-16.7364E-03
-24.4528489E+00,+16.8612E-03,+0.0E+00
-24.4520739E+00,+16.8612E-03,+16.7364E-03
-24.4512989E+00,+16.3591E-03,+16.7364E-03
-24.4505239E+00,+16.3591E-03,-0.0E+00
-24.4497489E+00,+16.0244E-03,-16.7364E-03
-24.4489739E+00,+16.5265E-03,+16.7364E-03
-24.4481989E+00,+17.0286E-03,+33.4728E-03
-24.4474239E+00,+16.0244E-03,-33.4728E-03
-24.4466489E+00,+16.6938E-03,+0.0E+00
-24.4458739E+00,+17.0286E-03,+33.4728E-03
-24.4450989E+00,+17.0286E-03,-0.0E+00
-24.4443239E+00,+17.0286E-03,-33.4728E-03
-24.4435489E+00,+17.3633E-03,-16.7364E-03
-24.4427739E+00,+17.3633E-03,+0.0E+00
-24.4419989E+00,+16.6938E-03,+16.7364E-03
-24.4412239E+00,+16.3591E-03,+0.0E+00
-24.4404489E+00,+16.5265E-03,+16.7364E-03
-24.4396739E+00,+17.5306E-03,+16.7364E-03
-24.4388989E+00,+17.0286E-03,-16.7364E-03
-24.4381239E+00,+17.0286E-03,+16.7364E-03
-24.4373489E+00,+17.5306E-03,+16.7364E-03
-24.4365739E+00,+16.3591E-03,-16.7364E-03
-24.4357989E+00,+15.5223E-03,+16.7364E-03
-24.4350239E+00,+17.3633E-03,+16.7364E-03
-24.4342489E+00,+17.5306E-03,-16.7364E-03
-24.4334739E+00,+17.0286E-03,-0.0E+00
-24.4326989E+00,+16.6938E-03,-16.7364E-03
-24.4319239E+00,+17.1959E-03,-50.2092E-03
-24.4311489E+00,+17.0286E-03,-16.7364E-03
-24.4303739E+00,+16.5265E-03,+0.0E+00
-24.4295989E+00,+17.5306E-03,+0.0E+00
-24.4288239E+00,+16.8612E-03,-0.0E+00
-24.4280489E+00,+17.0286E-03,-16.7364E-03
-24.4272739E+00,+16.5265E-03,+16.7364E-03
-24.4264989E+00,+16.6938E-03,+50.2092E-03
-24.4257239E+00,+16.6938E-03,-16.7364E-03
-24.4249488E+00,+16.8612E-03,-16.7364E-03
-24.4241738E+00,+17.1959E-03,+0.0E+00
-24.4233988E+00,+17.1959E-03,+16.7364E-03
-24.4226238E+00,+16.5265E-03,-16.7364E-03
-24.4218488E+00,+17.5306E-03,+33.4728E-03
-24.4210738E+00,+17.0286E-03,-16.7364E-03
-24.4202988E+00,+17.3633E-03,-16.7364E-03
-24.4195238E+00,+16.3591E-03,+16.7364E-03
-24.4187488E+00,+17.3633E-03,-0.0E+00
-24.4179738E+00,+16.8612E-03,-16.7364E-03
-24.4171988E+00,+17.0286E-03,-0.0E+00
-24.4164238E+00,+17.0286E-03,-16.7364E-03
-24.4156488E+00,+16.3591E-03,+0.0E+00
-24.4148738E+00,+16.0244E-03,+0.0E+00
-24.4140988E+00,+16.8612E-03,+16.7364E-03
-24.4133238E+00,+16.3591E-03,+0.0E+00
-24.4125488E+00,+16.5265E-03,+16.7364E-03
-24.4117738E+00,+17.0286E-03,+33.4728E-03
-24.4109988E+00,+16.6938E-03,+16.7364E-03
-24.4102238E+00,+16.8612E-03,-16.7364E-03
-24.4094488E+00,+16.5265E-03,-0.0E+00
-24.4086738E+00,+15.8570E-03,-33.4728E-03
-24.4078988E+00,+16.6938E-03,+33.4728E-03
-24.4071238E+00,+16.1917E-03,-16.7364E-03
-24.4063488E+00,+17.0286E-03,+33.4728E-03
-24.4055738E+00,+17.0286E-03,-16.7364E-03
-24.4047988E+00,+16.6938E-03,+50.2092E-03
-24.4040238E+00,+16.6938E-03,+33.4728E-03
-24.4032488E+00,+16.0244E-03,+50.2092E-03
-24.4024738E+00,+16.6938E-03,+0.0E+00
-24.4016988E+00,+16.3591E-03,+0.0E+00
-24.4009238E+00,+17.1959E-03,+16.7364E-03
-24.4001488E+00,+16.8612E-03,+16.7364E-03
-24.3993738E+00,+16.5265E-03,-0.0E+00
-24.3985988E+00,+17.1959E-03,-33.4728E-03
-24.3978238E+00,+16.8612E-03,+16.7364E-03
-24.3970488E+00,+16.0244E-03,-16.7364E-03
-24.3962738E+00,+17.3633E-03,+0.0E+00
-24.3954988E+00,+17.1959E-03,+0.0E+00
-24.3947238E+00,+16.8612E-03,+50.2092E-03
-24.3939488E+00,+17.3633E-03,-16.7364E-03
-24.3931738E+00,+17.0286E-03,+0.0E+00
-24.3923988E+00,+16.5265E-03,+16.7364E-03
-24.3916238E+00,+16.6938E-03,+33.4728E-03
-24.3908488E+00,+16.5265E-03,+16.7364E-03
-24.3900738E+00,+16.6938E-03,+16.7364E-03
-24.3892988E+00,+15.8570E-03,+33.4728E-03
-24.3885238E+00,+16.6938E-03,+0.0E+00
-24.3877488E+00,+17.0286E-03,+16.7364E-03
-24.3869738E+00,+16.8612E-03,+16.7364E-03
-24.3861988E+00,+16.6938E-03,+0.0E+00
-24.3854238E+00,+17.8654E-03,+33.4728E-03
-24.3846488E+00,+17.3633E-03,-16.7364E-03
-24.3838738E+00,+17.1959E-03,-0.0E+00
-24.3830988E+00,+16.3591E-03,-16.7364E-03
-24.3823238E+00,+16.6938E-03,+16.7364E-03
-24.3815488E+00,+17.0286E-03,+16.7364E-03
-24.3807738E+00,+17.0286E-03,-16.7364E-03
-24.3799988E+00,+17.1959E-03,-33.4728E-03
-24.3792238E+00,+17.1959E-03,-50.2092E-03
-24.3784488E+00,+17.8654E-03,+16.7364E-03
-24.3776738E+00,+17.0286E-03,+33.4728E-03
-24.3768988E+00,+16.6938E-03,+0.0E+00
-24.3761238E+00,+16.6938E-03,+16.7364E-03
-24.3753488E+00,+16.6938E-03,-16.7364E-03
-24.3745737E+00,+16.6938E-03,+16.7364E-03
-24.3737987E+00,+17.0286E-03,-50.2092E-03
-24.3730237E+00,+16.1917E-03,-16.7364E-03
-24.3722487E+00,+17.0286E-03,-33.4728E-03
-24.3714737E+00,+16.5265E-03,+33.4728E-03
-24.3706987E+00,+16.6938E-03,+16.7364E-03
-24.3699237E+00,+16.3591E-03,-16.7364E-03
-24.3691487E+00,+17.3633E-03,+16.7364E-03
-24.3683737E+00,+16.8612E-03,-16.7364E-03
-24.3675987E+00,+16.1917E-03,+0.0E+00
-24.3668237E+00,+16.6938E-03,+33.4728E-03
-24.3660487E+00,+16.8612E-03,+16.7364E-03
-24.3652737E+00,+17.0286E-03,-16.7364E-03
-24.3644987E+00,+17.0286E-03,+0.0E+00
-24.3637237E+00,+17.1959E-03,+0.0E+00
-24.3629487E+00,+16.5265E-03,+50.2092E-03
-24.3621737E+00,+17.1959E-03,+16.7364E-03
-24.3613987E+00,+17.5306E-03,-16.7364E-03
-24.3606237E+00,+16.6938E-03,-0.0E+00
-24.3598487E+00,+16.8612E-03,-16.7364E-03
-24.3590737E+00,+16.3591E-03,+16.7364E-03
-24.3582987E+00,+17.3633E-03,+16.7364E-03
-24.3575237E+00,+16.5265E-03,-33.4728E-03
-24.3567487E+00,+16.5265E-03,+16.7364E-03
-24.3559737E+00,+16.1917E-03,+0.0E+00
-24.3551987E+00,+17.3633E-03,+50.2092E-03
-24.3544237E+00,+16.5265E-03,-16.7364E-03
-24.3536487E+00,+16.5265E-03,+0.0E+00
-24.3528737E+00,+16.8612E-03,+0.0E+00
-24.3520987E+00,+16.8612E-03,+16.7364E-03
-24.3513237E+00,+17.0286E-03,-0.0E+00
-24.3505487E+00,+17.3633E-03,-33.4728E-03
-24.3497737E+00,+16.8612E-03,+16.7364E-03
-24.3489987E+00,+17.3633E-03,+16.7364E-03
-24.3482237E+00,+17.0286E-03,-33.4728E-03
-24.3474487E+00,+16.3591E-03,+33.4728E-03
-24.3466737E+00,+17.3633E-03,+0.0E+00
-24.3458987E+00,+17.1959E-03,+0.0E+00
-24.3451237E+00,+17.1959E-03,+16.7364E-03
-24.3443487E+00,+16.5265E-03,+16.7364E-03
-24.3435737E+00,+17.0286E-03,+0.0E+00
-24.3427987E+00,+17.1959E-03,+0.0E+00
-24.3420237E+00,+16.1917E-03,+16.7364E-03
-24.3412487E+00,+17.1959E-03,-16.7364E-03
-24.3404737E+00,+16.3591E-03,+0.0E+00
-24.3396987E+00,+17.8654E-03,-0.0E+00
-24.3389237E+00,+16.1917E-03,-16.7364E-03
-24.3381487E+00,+16.8612E-03,+33.4728E-03
-24.3373737E+00,+16.5265E-03,+16.7364E-03
-24.3365987E+00,+17.1959E-03,-33.4728E-03
-24.3358237E+00,+17.3633E-03,+16.7364E-03
-24.3350487E+00,+16.6938E-03,+16.7364E-03
-24.3342737E+00,+16.6938E-03,+16.7364E-03
-24.3334987E+00,+16.6938E-03,+33.4728E-03
-24.3327237E+00,+16.5265E-03,+16.7364E-03
-24.3319487E+00,+16.5265E-03,+0.0E+00
-24.3311737E+00,+16.3591E-03,+16.7364E-03
-24.3303987E+00,+16.8612E-03,+16.7364E-03
-24.3296237E+00,+16.6938E-03,+0.0E+00
-24.3288487E+00,+16.1917E-03,+50.2092E-03
-24.3280737E+00,+17.3633E-03,-16.7364E-03
-24.3272987E+00,+17.1959E-03,-16.7364E-03
-24.3265237E+00,+16.6938E-03,-16.7364E-03
-24.3257487E+00,+16.8612E-03,+16.7364E-03
-24.3249736E+00,+16.1917E-03,+16.7364E-03
-24.3241986E+00,+16.8612E-03,-16.7364E-03
-24.3234236E+00,+17.0286E-03,+16.7364E-03
-24.3226486E+00,+17.5306E-03,+16.7364E-03
-24.3218736E+00,+16.5265E-03,+16.7364E-03
-24.3210986E+00,+17.0286E-03,+0.0E+00
-24.3203236E+00,+16.6938E-03,+0.0E+00
-24.3195486E+00,+16.0244E-03,+0.0E+00
-24.3187736E+00,+16.5265E-03,+16.7364E-03
-24.3179986E+00,+16.3591E-03,+0.0E+00
-24.3172236E+00,+16.3591E-03,+33.4728E-03
-24.3164486E+00,+17.1959E-03,+0.0E+00
-24.3156736E+00,+17.0286E-03,+16.7364E-03
-24.3148986E+00,+16.1917E-03,-16.7364E-03
-24.3141236E+00,+17.0286E-03,-33.4728E-03
-24.3133486E+00,+16.8612E-03,-16.7364E-03
-24.3125736E+00,+17.0286E-03,+0.0E+00
-24.3117986E+00,+17.0286E-03,+0.0E+00
-24.3110236E+00,+17.0286E-03,+33.4728E-03
-24.3102486E+00,+16.5265E-03,+16.7364E-03
-24.3094736E+00,+16.8612E-03,+33.4728E-03
-24.3086986E+00,+16.5265E-03,+0.0E+00
-24.3079236E+00,+17.0286E-03,+16.7364E-03
-24.3071486E+00,+16.5265E-03,+0.0E+00
-24.3063736E+00,+17.0286E-03,+33.4728E-03
-24.3055986E+00,+16.8612E-03,+16.7364E-03
-24.3048236E+00,+16.6938E-03,+33.4728E-03
-24.3040486E+00,+17.5306E-03,+16.7364E-03
-24.3032736E+00,+17.0286E-03,+0.0E+00
-24.3024986E+00,+16.0244E-03,-0.0E+00
-24.3017236E+00,+17.1959E-03,-16.7364E-03
-24.3009486E+00,+17.1959E-03,+0.0E+00
-24.3001736E+00,+16.8612E-03,+16.7364E-03
-24.2993986E+00,+16.3591E-03,-16.7364E-03
-24.2986236E+00,+16.3591E-03,+33.4728E-03
-24.2978486E+00,+16.1917E-03,+16.7364E-03
-24.2970736E+00,+17.0286E-03,-16.7364E-03
-24.2962986E+00,+17.0286E-03,+0.0E+00
-24.2955236E+00,+17.6980E-03,+16.7364E-03
-24.2947486E+00,+17.1959E-03,+16.7364E-03
-24.2939736E+00,+16.6938E-03,+16.7364E-03
-24.2931986E+00,+17.3633E-03,+0.0E+00
-24.2924236E+00,+17.1959E-03,-0.0E+00
-24.2916486E+00,+16.6938E-03,-16.7364E-03
-24.2908736E+00,+17.0286E-03,-16.7364E-03
-24.2900986E+00,+17.1959E-03,-16.7364E-03
-24.2893236E+00,+16.5265E-03,+16.7364E-03
-24.2885486E+00,+16.1917E-03,+50.2092E-03
-24.2877736E+00,+16.0244E-03,-0.0E+00
-24.2869986E+00,+16.5265E-03,-16.7364E-03
-24.2862236E+00,+16.8612E-03,+0.0E+00
-24.2854486E+00,+17.5306E-03,+0.0E+00
-24.2846736E+00,+17.1959E-03,+16.7364E-03
-24.2838986E+00,+17.0286E-03,+16.7364E-03
-24.2831236E+00,+17.1959E-03,-16.7364E-03
-24.2823486E+00,+16.6938E-03,+16.7364E-03
-24.2815736E+00,+16.6938E-03,-0.0E+00
-24.2807986E+00,+17.0286E-03,-16.7364E-03
-24.2800236E+00,+16.6938E-03,+0.0E+00
-24.2792486E+00,+16.8612E-03,-0.0E+00
-24.2784736E+00,+16.8612E-03,-16.7364E-03
-24.2776986E+00,+16.5265E-03,-0.0E+00
-24.2769236E+00,+16.6938E-03,-16.7364E-03
-24.2761486E+00,+16.5265E-03,+16.7364E-03
-24.2753736E+00,+16.8612E-03,-16.7364E-03
-24.2745985E+00,+16.1917E-03,-16.7364E-03
-24.2738235E+00,+17.1959E-03,+0.0E+00
-24.2730485E+00,+16.3591E-03,-0.0E+00
-24.2722735E+00,+17.1959E-03,-16.7364E-03
-24.2714985E+00,+16.3591E-03,+0.0E+00
-24.2707235E+00,+17.0286E-03,+33.4728E-03
-24.2699485E+00,+16.5265E-03,+16.7364E-03
-24.2691735E+00,+16.5265E-03,-16.7364E-03
-24.2683985E+00,+17.0286E-03,+16.7364E-03
-24.2676235E+00,+17.0286E-03,+16.7364E-03
-24.2668485E+00,+16.1917E-03,+0.0E+00
-24.2660735E+00,+15.5223E-03,+16.7364E-03
-24.2652985E+00,+16.3591E-03,+0.0E+00
-24.2645235E+00,+17.5306E-03,+16.7364E-03
-24.2637485E+00,+16.8612E-03,+0.0E+00
-24.2629735E+00,+16.3591E-03,+0.0E+00
-24.2621985E+00,+18.2001E-03,-0.0E+00
-24.2614235E+00,+16.8612E-03,-16.7364E-03
-24.2606485E+00,+17.5306E-03,+0.0E+00
-24.2598735E+00,+16.6938E-03,+16.7364E-03
-24.2590985E+00,+17.0286E-03,-16.7364E-03
-24.2583235E+00,+16.5265E-03,+0.0E+00
-24.2575485E+00,+18.0327E-03,+0.0E+00
-24.2567735E+00,+18.0327E-03,+33.4728E-03
-24.2559985E+00,+16.6938E-03,+16.7364E-03
-24.2552235E+00,+17.0286E-03,-16.7364E-03
-24.2544485E+00,+16.5265E-03,+16.7364E-03
-24.2536735E+00,+16.6938E-03,+16.7364E-03
-24.2528985E+00,+17.0286E-03,-16.7364E-03
-24.2521235E+00,+16.8612E-03,-0.0E+00
-24.2513485E+00,+17.1959E-03,-16.7364E-03
-24.2505735E+00,+17.1959E-03,-33.4728E-03
-24.2497985E+00,+16.3591E-03,+0.0E+00
-24.2490235E+00,+16.3591E-03,+0.0E+00
-24.2482485E+00,+16.1917E-03,+16.7364E-03
-24.2474735E+00,+17.5306E-03,+33.4728E-03
-24.2466985E+00,+17.0286E-03,-16.7364E-03
-24.2459235E+00,+16.8612E-03,+33.4728E-03
-24.2451485E+00,+16.8612E-03,-16.7364E-03
-24.2443735E+00,+17.0286E-03,+0.0E+00
-24.2435985E+00,+17.6980E-03,+16.7364E-03
-24.2428235E+00,+16.8612E-03,+16.7364E-03
-24.2420485E+00,+16.6938E-03,+0.0E+00
-24.2412735E+00,+17.1959E-03,-0.0E+00
-24.2404985E+00,+17.1959E-03,-33.4728E-03
-24.2397235E+00,+17.0286E-03,+16.7364E-03
-24.2389485E+00,+16.6938E-03,-16.7364E-03
-24.2381735E+00,+17.1959E-03,+16.7364E-03
-24.2373985E+00,+16.8612E-03,+33.4728E-03
-24.2366235E+00,+16.8612E-03,-16.7364E-03
-24.2358485E+00,+16.5265E-03,+16.7364E-03
-24.2350735E+00,+17.3633E-03,-33.4728E-03
-24.2342985E+00,+17.1959E-03,+0.0E+00
-24.2335235E+00,+17.1959E-03,-0.0E+00
-24.2327485E+00,+16.6938E-03,-33.4728E-03
-24.2319735E+00,+16.8612E-03,+0.0E+00
-24.2311985E+00,+16.8612E-03,+0.0E+00
-24.2304235E+00,+17.0286E-03,-0.0E+00
-24.2296485E+00,+16.3591E-03,-16.7364E-03
-24.2288735E+00,+17.0286E-03,+16.7364E-03
-24.2280985E+00,+16.6938E-03,-16.7364E-03
-24.2273235E+00,+16.5265E-03,+16.7364E-03
-24.2265485E+00,+17.0286E-03,-16.7364E-03
-24.2257735E+00,+16.8612E-03,+33.4728E-03
-24.2249984E+00,+17.3633E-03,-16.7364E-03
-24.2242234E+00,+16.6938E-03,+16.7364E-03
-24.2234484E+00,+16.6938E-03,-0.0E+00
-24.2226734E+00,+16.6938E-03,-16.7364E-03
-24.2218984E+00,+17.5306E-03,+0.0E+00
-24.2211234E+00,+16.1917E-03,+16.7364E-03
-24.2203484E+00,+16.3591E-03,+0.0E+00
-24.2195734E+00,+17.3633E-03,+16.7364E-03
-24.2187984E+00,+16.8612E-03,+0.0E+00
-24.2180234E+00,+16.5265E-03,+33.4728E-03
-24.2172484E+00,+16.8612E-03,+50.2092E-03
-24.2164734E+00,+16.5265E-03,+0.0E+00
-24.2156984E+00,+16.8612E-03,+0.0E+00
-24.2149234E+00,+16.5265E-03,+16.7364E-03
-24.2141484E+00,+16.8612E-03,-33.4728E-03
-24.2133734E+00,+17.0286E-03,+16.7364E-03
-24.2125984E+00,+17.3633E-03,-33.4728E-03
-24.2118234E+00,+16.6938E-03,-0.0E+00
-24.2110484E+00,+16.8612E-03,-16.7364E-03
-24.2102734E+00,+16.3591E-03,-50.2092E-03
-24.2094984E+00,+17.0286E-03,-0.0E+00
-24.2087234E+00,+17.6980E-03,-16.7364E-03
-24.2079484E+00,+16.8612E-03,+0.0E+00
-24.2071734E+00,+16.3591E-03,-0.0E+00
-24.2063984E+00,+16.3591E-03,-16.7364E-03
-24.2056234E+00,+17.0286E-03,+16.7364E-03
-24.2048484E+00,+17.0286E-03,-33.4728E-03
-24.2040734E+00,+16.5265E-03,+0.0E+00
-24.2032984E+00,+17.0286E-03,+16.7364E-03
-24.2025234E+00,+16.8612E-03,-16.7364E-03
-24.2017484E+00,+17.0286E-03,-16.7364E-03
-24.2009734E+00,+17.0286E-03,+0.0E+00
-24.2001984E+00,+16.5265E-03,+16.7364E-03
-24.1994234E+00,+16.5265E-03,+50.2092E-03
-24.1986484E+00,+16.3591E-03,-16.7364E-03
-24.1978734E+00,+16.1917E-03,+16.7364E-03
-24.1970984E+00,+17.3633E-03,-16.7364E-03
-24.1963234E+00,+16.8612E-03,+0.0E+00
-24.1955484E+00,+16.1917E-03,+50.2092E-03
-24.1947734E+00,+16.8612E-03,+0.0E+00
-24.1939984E+00,+17.8654E-03,+16.7364E-03
-24.1932234E+00,+16.3591E-03,+16.7364E-03
-24.1924484E+00,+16.0244E-03,+16.7364E-03
-24.1916734E+00,+17.3633E-03,-16.7364E-03
-24.1908984E+00,+17.0286E-03,-0.0E+00
-24.1901234E+00,+16.8612E-03,-33.4728E-03
-24.1893484E+00,+16.3591E-03,-16.7364E-03
-24.1885734E+00,+17.1959E-03,+0.0E+00
-24.1877984E+00,+15.6896E-03,-0.0E+00
-24.1870234E+00,+17.6980E-03,-16.7364E-03
-24.1862484E+00,+16.3591E-03,+0.0E+00
-24.1854734E+00,+16.6938E-03,+0.0E+00
-24.1846984E+00,+17.3633E-03,+16.7364E-03
-24.1839234E+00,+17.0286E-03,-33.4728E-03
-24.1831484E+00,+16.1917E-03,+0.0E+00
-24.1823734E+00,+16.5265E-03,+33.4728E-03
-24.1815984E+00,+16.5265E-03,+0.0E+00
-24.1808234E+00,+16.3591E-03,+16.7364E-03
-24.1800484E+00,+17.5306E-03,-16.7364E-03
-24.1792734E+00,+17.0286E-03,-0.0E+00
-24.1784984E+00,+17.1959E-03,-33.4728E-03
-24.1777234E+00,+17.3633E-03,+0.0E+00
-24.1769484E+00,+17.0286E-03,+16.7364E-03
-24.1761734E+00,+17.1959E-03,+16.7364E-03
-24.1753984E+00,+16.5265E-03,+16.7364E-03
-24.1746233E+00,+18.2001E-03,+0.0E+00
-24.1738483E+00,+16.5265E-03,+0.0E+00
-24.1730733E+00,+17.1959E-03,+33.4728E-03
-24.1722983E+00,+17.5306E-03,-16.7364E-03
-24.1715233E+00,+16.6938E-03,+16.7364E-03
-24.1707483E+00,+17.1959E-03,+33.4728E-03
-24.1699733E+00,+16.6938E-03,-16.7364E-03
-24.1691983E+00,+16.3591E-03,-33.4728E-03
-24.1684233E+00,+16.3591E-03,-16.7364E-03
-24.1676483E+00,+17.0286E-03,+0.0E+00
-24.1668733E+00,+17.1959E-03,+0.0E+00
-24.1660983E+00,+17.0286E-03,+16.7364E-03
-24.1653233E+00,+17.8654E-03,+0.0E+00
-24.1645483E+00,+16.5265E-03,+33.4728E-03
-24.1637733E+00,+17.5306E-03,+0.0E+00
-24.1629983E+00,+17.0286E-03,+33.4728E-03
-24.1622233E+00,+16.5265E-03,+33.4728E-03
-24.1614483E+00,+16.5265E-03,+0.0E+00
-24.1606733E+00,+17.5306E-03,+16.7364E-03
-24.1598983E+00,+16.3591E-03,+16.7364E-03
-24.1591233E+00,+16.8612E-03,-16.7364E-03
-24.1583483E+00,+16.5265E-03,+33.4728E-03
-24.1575733E+00,+17.6980E-03,+0.0E+00
-24.1567983E+00,+16.5265E-03,+50.2092E-03
-24.1560233E+00,+15.6896E-03,+16.7364E-03
-24.1552483E+00,+16.0244E-03,+16.7364E-03
-24.1544733E+00,+16.5265E-03,+16.7364E-03
-24.1536983E+00,+17.1959E-03,+50.2092E-03
-24.1529233E+00,+16.6938E-03,+16.7364E-03
-24.1521483E+00,+16.8612E-03,-0.0E+00
-24.1513733E+00,+16.8612E-03,-16.7364E-03
-24.1505983E+00,+16.3591E-03,-16.7364E-03
-24.1498233E+00,+16.3591E-03,-16.7364E-03
-24.1490483E+00,+16.5265E-03,-33.4728E-03
-24.1482733E+00,+17.3633E-03,-33.4728E-03
-24.1474983E+00,+17.3633E-03,+0.0E+00
-24.1467233E+00,+16.3591E-03,+0.0E+00
-24.1459483E+00,+17.1959E-03,+33.4728E-03
-24.1451733E+00,+16.5265E-03,+16.7364E-03
-24.1443983E+00,+17.1959E-03,-16.7364E-03
-24.1436233E+00,+15.8570E-03,+0.0E+00
-24.1428483E+00,+16.8612E-03,+16.7364E-03
-24.1420733E+00,+16.1917E-03,-50.2092E-03
-24.1412983E+00,+17.5306E-03,-0.0E+00
-24.1405233E+00,+16.3591E-03,-33.4728E-03
-24.1397483E+00,+17.1959E-03,+16.7364E-03
-24.1389733E+00,+16.3591E-03,+16.7364E-03
-24.1381983E+00,+16.3591E-03,-0.0E+00
-24.1374233E+00,+17.3633E-03,-16.7364E-03
-24.1366483E+00,+17.5306E-03,-33.4728E-03
-24.1358733E+00,+16.6938E-03,+0.0E+00
-24.1350983E+00,+18.0327E-03,+16.7364E-03
-24.1343233E+00,+16.5265E-03,+0.0E+00
-24.1335483E+00,+16.5265E-03,+16.7364E-03
-24.1327733E+00,+17.3633E-03,+16.7364E-03
-24.1319983E+00,+16.6938E-03,-16.7364E-03
-24.1312233E+00,+17.3633E-03,+16.7364E-03
-24.1304483E+00,+16.1917E-03,+16.7364E-03
-24.1296733E+00,+16.0244E-03,+16.7364E-03
-24.1288983E+00,+17.6980E-03,-0.0E+00
-24.1281233E+00,+17.0286E-03,-16.7364E-03
-24.1273483E+00,+16.3591E-03,+33.4728E-03
-24.1265733E+00,+16.8612E-03,+16.7364E-03
-24.1257983E+00,+17.0286E-03,-16.7364E-03
-24.1250233E+00,+16.8612E-03,+16.7364E-03
-24.1242482E+00,+16.3591E-03,-0.0E+00
-24.1234732E+00,+17.5306E-03,-33.4728E-03
-24.1226982E+00,+17.5306E-03,+66.9456E-03
-24.1219232E+00,+16.8612E-03,+16.7364E-03
-24.1211482E+00,+16.5265E-03,-16.7364E-03
-24.1203732E+00,+16.6938E-03,+16.7364E-03
-24.1195982E+00,+16.3591E-03,-0.0E+00
-24.1188232E+00,+17.1959E-03,-16.7364E-03
-24.1180482E+00,+17.1959E-03,+16.7364E-03
-24.1172732E+00,+16.3591E-03,+16.7364E-03
-24.1164982E+00,+17.1959E-03,+16.7364E-03
-24.1157232E+00,+16.8612E-03,-16.7364E-03
-24.1149482E+00,+16.3591E-03,+33.4728E-03
-24.1141732E+00,+17.3633E-03,+16.7364E-03
-24.1133982E+00,+17.1959E-03,-16.7364E-03
-24.1126232E+00,+17.0286E-03,+16.7364E-03
-24.1118482E+00,+16.3591E-03,-16.7364E-03
-24.1110732E+00,+16.8612E-03,+0.0E+00
-24.1102982E+00,+18.0327E-03,+0.0E+00
-24.1095232E+00,+17.3633E-03,+16.7364E-03
-24.1087482E+00,+17.5306E-03,+16.7364E-03
-24.1079732E+00,+16.1917E-03,+0.0E+00
-24.1071982E+00,+17.3633E-03,+0.0E+00
-24.1064232E+00,+17.0286E-03,+16.7364E-03
-24.1056482E+00,+17.0286E-03,-16.7364E-03
-24.1048732E+00,+16.8612E-03,+16.7364E-03
-24.1040982E+00,+17.5306E-03,-16.7364E-03
-24.1033232E+00,+17.5306E-03,+0.0E+00
-24.1025482E+00,+16.1917E-03,+33.4728E-03
-24.1017732E+00,+16.6938E-03,+0.0E+00
-24.1009982E+00,+16.0244E-03,+0.0E+00
-24.1002232E+00,+16.6938E-03,+16.7364E-03
-24.0994482E+00,+16.8612E-03,+0.0E+00
-24.0986732E+00,+17.5306E-03,+0.0E+00
-24.0978982E+00,+16.6938E-03,-0.0E+00
-24.0971232E+00,+16.3591E-03,-16.7364E-03
-24.0963482E+00,+17.6980E-03,-0.0E+00
-24.0955732E+00,+17.3633E-03,-16.7364E-03
-24.0947982E+00,+17.0286E-03,-16.7364E-03
-24.0940232E+00,+16.5265E-03,-16.7364E-03
-24.0932482E+00,+17.1959E-03,+0.0E+00
-24.0924732E+00,+17.0286E-03,+0.0E+00
-24.0916982E+00,+17.0286E-03,+33.4728E-03
-24.0909232E+00,+17.6980E-03,-0.0E+00
-24.0901482E+00,+17.0286E-03,-16.7364E-03
-24.0893732E+00,+16.3591E-03,+0.0E+00
-24.0885982E+00,+16.8612E-03,+16.7364E-03
-24.0878232E+00,+16.1917E-03,+16.7364E-03
-24.0870482E+00,+16.1917E-03,-16.7364E-03
-24.0862732E+00,+17.5306E-03,-33.4728E-03
-24.0854982E+00,+17.1959E-03,-16.7364E-03
-24.0847232E+00,+17.0286E-03,+16.7364E-03
-24.0839482E+00,+16.6938E-03,+0.0E+00
-24.0831732E+00,+17.3633E-03,+33.4728E-03
-24.0823982E+00,+17.3633E-03,-16.7364E-03
-24.0816232E+00,+16.8612E-03,-33.4728E-03
-24.0808482E+00,+17.5306E-03,-33.4728E-03
-24.0800732E+00,+16.8612E-03,+0.0E+00
-24.0792982E+00,+16.6938E-03,-0.0E+00
-24.0785232E+00,+17.5306E-03,-16.7364E-03
-24.0777482E+00,+16.8612E-03,+16.7364E-03
-24.0769732E+00,+16.8612E-03,+0.0E+00
-24.0761982E+00,+17.3633E-03,+16.7364E-03
-24.0754232E+00,+17.0286E-03,+16.7364E-03
-24.0746481E+00,+16.1917E-03,+0.0E+00
-24.0738731E+00,+16.6938E-03,+0.0E+00
-24.0730981E+00,+17.3633E-03,+16.7364E-03
-24.0723231E+00,+16.6938E-03,-0.0E+00
-24.0715481E+00,+16.8612E-03,-33.4728E-03
-24.0707731E+00,+17.1959E-03,+16.7364E-03
-24.0699981E+00,+16.3591E-03,+0.0E+00
-24.0692231E+00,+16.8612E-03,+0.0E+00
-24.0684481E+00,+17.1959E-03,+0.0E+00
-24.0676731E+00,+17.0286E-03,+33.4728E-03
-24.0668981E+00,+17.8654E-03,+0.0E+00
-24.0661231E+00,+16.0244E-03,+33.4728E-03
-24.0653481E+00,+16.6938E-03,-0.0E+00
-24.0645731E+00,+17.1959E-03,-16.7364E-03
-24.0637981E+00,+17.3633E-03,-16.7364E-03
-24.0630231E+00,+16.6938E-03,+0.0E+00
-24.0622481E+00,+16.5265E-03,+0.0E+00
-24.0614731E+00,+17.1959E-03,+16.7364E-03
-24.0606981E+00,+17.8654E-03,+16.7364E-03
-24.0599231E+00,+17.1959E-03,+16.7364E-03
-24.0591481E+00,+17.1959E-03,-16.7364E-03
-24.0583731E+00,+17.1959E-03,-16.7364E-03
-24.0575981E+00,+17.0286E-03,-33.4728E-03
-24.0568231E+00,+17.0286E-03,-16.7364E-03
-24.0560481E+00,+17.5306E-03,+0.0E+00
-24.0552731E+00,+17.0286E-03,+0.0E+00
-24.0544981E+00,+16.6938E-03,+0.0E+00
-24.0537231E+00,+16.6938E-03,-0.0E+00
-24.0529481E+00,+16.5265E-03,-16.7364E-03
-24.0521731E+00,+16.6938E-03,-0.0E+00
-24.0513981E+00,+16.3591E-03,-16.7364E-03
-24.0506231E+00,+16.3591E-03,-16.7364E-03
-24.0498481E+00,+16.8612E-03,-0.0E+00
-24.0490731E+00,+16.5265E-03,-16.7364E-03
-24.0482981E+00,+16.8612E-03,-33.4728E-03
-24.0475231E+00,+16.8612E-03,+16.7364E-03
-24.0467481E+00,+17.0286E-03,+33.4728E-03
-24.0459731E+00,+16.8612E-03,+16.7364E-03
-24.0451981E+00,+16.6938E-03,+16.7364E-03
-24.0444231E+00,+17.5306E-03,+16.7364E-03
-24.0436481E+00,+16.5265E-03,-33.4728E-03
-24.0428731E+00,+17.5306E-03,+16.7364E-03
-24.0420981E+00,+17.3633E-03,+33.4728E-03
-24.0413231E+00,+17.0286E-03,+0.0E+00
-24.0405481E+00,+16.8612E-03,+0.0E+00
-24.0397731E+00,+17.5306E-03,+16.7364E-03
-24.0389981E+00,+17.5306E-03,-16.7364E-03
-24.0382231E+00,+17.1959E-03,+16.7364E-03
-24.0374481E+00,+16.1917E-03,-33.4728E-03
-24.0366731E+00,+17.0286E-03,+16.7364E-03
-24.0358981E+00,+17.0286E-03,+16.7364E-03
-24.0351231E+00,+16.5265E-03,+0.0E+00
-24.0343481E+00,+17.3633E-03,+16.7364E-03
-24.0335731E+00,+16.5265E-03,-16.7364E-03
-24.0327981E+00,+17.1959E-03,-16.7364E-03
-24.0320231E+00,+16.3591E-03,+33.4728E-03
-24.0312481E+00,+17.3633E-03,+0.0E+00
-24.0304731E+00,+16.6938E-03,+16.7364E-03
-24.0296981E+00,+16.1917E-03,-33.4728E-03
-24.0289231E+00,+17.1959E-03,+50.2092E-03
-24.0281481E+00,+16.8612E-03,+0.0E+00
-24.0273731E+00,+16.3591E-03,+0.0E+00
-24.0265981E+00,+18.0327E-03,+16.7364E-03
-24.0258231E+00,+16.3591E-03,+16.7364E-03
-24.0250481E+00,+17.6980E-03,+16.7364E-03
-24.0242730E+00,+16.8612E-03,+16.7364E-03
-24.0234980E+00,+16.6938E-03,-0.0E+00
-24.0227230E+00,+16.6938E-03,-50.2092E-03
-24.0219480E+00,+17.0286E-03,-16.7364E-03
-24.0211730E+00,+17.3633E-03,-16.7364E-03
-24.0203980E+00,+16.1917E-03,+0.0E+00
-24.0196230E+00,+16.6938E-03,+0.0E+00
-24.0188480E+00,+16.1917E-03,+16.7364E-03
-24.0180730E+00,+16.5265E-03,+0.0E+00
-24.0172980E+00,+17.0286E-03,+16.7364E-03
-24.0165230E+00,+16.6938E-03,-0.0E+00
-24.0157480E+00,+17.0286E-03,-16.7364E-03
-24.0149730E+00,+16.3591E-03,+16.7364E-03
-24.0141980E+00,+17.1959E-03,-0.0E+00
-24.0134230E+00,+17.3633E-03,-16.7364E-03
-24.0126480E+00,+17.0286E-03,-16.7364E-03
-24.0118730E+00,+16.6938E-03,+33.4728E-03
-24.0110980E+00,+16.8612E-03,+16.7364E-03
-24.0103230E+00,+17.3633E-03,+0.0E+00
-24.0095480E+00,+16.6938E-03,-0.0E+00
-24.0087730E+00,+18.3675E-03,-16.7364E-03
-24.0079980E+00,+17.1959E-03,+33.4728E-03
-24.0072230E+00,+16.8612E-03,-16.7364E-03
-24.0064480E+00,+16.8612E-03,-0.0E+00
-24.0056730E+00,+16.3591E-03,-16.7364E-03
-24.0048980E+00,+17.0286E-03,+16.7364E-03
-24.0041230E+00,+17.3633E-03,-16.7364E-03
-24.0033480E+00,+17.1959E-03,+16.7364E-03
-24.0025730E+00,+17.1959E-03,-0.0E+00
-24.0017980E+00,+16.5265E-03,-33.4728E-03
-24.0010230E+00,+16.8612E-03,-33.4728E-03
-24.0002480E+00,+17.1959E-03,-16.7364E-03
-23.9994730E+00,+16.6938E-03,+33.4728E-03
-23.9986980E+00,+17.1959E-03,+0.0E+00
-23.9979230E+00,+17.3633E-03,+50.2092E-03
-23.9971480E+00,+16.3591E-03,-33.4728E-03
-23.9963730E+00,+16.3591E-03,+0.0E+00
-23.9955980E+00,+16.1917E-03,+16.7364E-03
-23.9948230E+00,+17.0286E-03,-0.0E+00
-23.9940480E+00,+17.1959E-03,-16.7364E-03
-23.9932730E+00,+16.3591E-03,-0.0E+00
-23.9924980E+00,+15.8570E-03,-16.7364E-03
-23.9917230E+00,+15.8570E-03,+16.7364E-03
-23.9909480E+00,+16.3591E-03,+0.0E+00
-23.9901730E+00,+17.5306E-03,-0.0E+00
-23.9893980E+00,+17.0286E-03,-33.4728E-03
-23.9886230E+00,+17.6980E-03,+0.0E+00
-23.9878480E+00,+16.5265E-03,+16.7364E-03
-23.9870730E+00,+17.5306E-03,+33.4728E-03
-23.9862980E+00,+16.6938E-03,-33.4728E-03
-23.9855230E+00,+16.8612E-03,-16.7364E-03
-23.9847480E+00,+16.1917E-03,+0.0E+00
-23.9839730E+00,+16.3591E-03,+0.0E+00
-23.9831980E+00,+17.1959E-03,+33.4728E-03
-23.9824230E+00,+16.3591E-03,-16.7364E-03
-23.9816480E+00,+16.6938E-03,+16.7364E-03
-23.9808730E+00,+16.3591E-03,-0.0E+00
-23.9800980E+00,+17.0286E-03,-33.4728E-03
-23.9793230E+00,+16.3591E-03,-16.7364E-03
-23.9785480E+00,+16.3591E-03,-33.4728E-03
-23.9777730E+00,+17.0286E-03,+16.7364E-03
-23.9769980E+00,+17.1959E-03,-0.0E+00
-23.9762230E+00,+17.3633E-03,-16.7364E-03
-23.9754480E+00,+16.6938E-03,-16.7364E-03
-23.9746729E+00,+17.0286E-03,+33.4728E-03
-23.9738979E+00,+16.6938E-03,+0.0E+00
-23.9731229E+00,+17.8654E-03,+16.7364E-03
-23.9723479E+00,+17.0286E-03,-50.2092E-03
-23.9715729E+00,+17.5306E-03,-16.7364E-03
-23.9707979E+00,+17.0286E-03,-16.7364E-03
-23.9700229E+00,+17.1959E-03,+16.7364E-03
-23.9692479E+00,+16.3591E-03,-33.4728E-03
-23.9684729E+00,+16.5265E-03,-0.0E+00
-23.9676979E+00,+17.1959E-03,-16.7364E-03
-23.9669229E+00,+16.3591E-03,-16.7364E-03
-23.9661479E+00,+16.6938E-03,-33.4728E-03
-23.9653729E+00,+16.1917E-03,-16.7364E-03
-23.9645979E+00,+16.3591E-03,-0.0E+00
-23.9638229E+00,+17.6980E-03,-16.7364E-03
-23.9630479E+00,+17.5306E-03,-33.4728E-03
-23.9622729E+00,+17.0286E-03,+16.7364E-03
-23.9614979E+00,+16.6938E-03,+16.7364E-03
-23.9607229E+00,+16.5265E-03,-16.7364E-03
-23.9599479E+00,+16.5265E-03,+16.7364E-03
-23.9591729E+00,+15.6896E-03,+16.7364E-03
-23.9583979E+00,+16.3591E-03,+16.7364E-03
-23.9576229E+00,+17.0286E-03,+0.0E+00
-23.9568479E+00,+16.8612E-03,-0.0E+00
-23.9560729E+00,+17.3633E-03,-16.7364E-03
-23.9552979E+00,+17.1959E-03,-33.4728E-03
-23.9545229E+00,+17.6980E-03,+33.4728E-03
-23.9537479E+00,+17.3633E-03,+33.4728E-03
-23.9529729E+00,+17.8654E-03,-16.7364E-03
-23.9521979E+00,+16.6938E-03,+33.4728E-03
-23.9514229E+00,+17.0286E-03,+0.0E+00
-23.9506479E+00,+17.0286E-03,-0.0E+00
-23.9498729E+00,+16.5265E-03,-16.7364E-03
-23.9490979E+00,+16.5265E-03,-16.7364E-03
-23.9483229E+00,+16.3591E-03,+0.0E+00
-23.9475479E+00,+17.3633E-03,+0.0E+00
-23.9467729E+00,+16.6938E-03,-0.0E+00
-23.9459979E+00,+16.8612E-03,-16.7364E-03
-23.9452229E+00,+17.1959E-03,+16.7364E-03
-23.9444479E+00,+17.3633E-03,+0.0E+00
-23.9436729E+00,+17.3633E-03,+16.7364E-03
-23.9428979E+00,+17.6980E-03,+33.4728E-03
-23.9421229E+00,+17.5306E-03,+0.0E+00
-23.9413479E+00,+16.5265E-03,+0.0E+00
-23.9405729E+00,+16.5265E-03,-0.0E+00
-23.9397979E+00,+17.6980E-03,-16.7364E-03
-23.9390229E+00,+17.0286E-03,+16.7364E-03
-23.9382479E+00,+16.5265E-03,+0.0E+00
-23.9374729E+00,+16.6938E-03,+0.0E+00
-23.9366979E+00,+16.6938E-03,+16.7364E-03
-23.9359229E+00,+16.8612E-03,+0.0E+00
-23.9351479E+00,+16.8612E-03,+16.7364E-03
-23.9343729E+00,+16.6938E-03,-0.0E+00
-23.9335979E+00,+17.3633E-03,-16.7364E-03
-23.9328229E+00,+17.6980E-03,+16.7364E-03
-23.9320479E+00,+16.1917E-03,-0.0E+00
-23.9312729E+00,+17.1959E-03,-33.4728E-03
-23.9304979E+00,+18.0327E-03,+16.7364E-03
-23.9297229E+00,+17.3633E-03,-0.0E+00
-23.9289479E+00,+17.3633E-03,-16.7364E-03
-23.9281729E+00,+17.1959E-03,+16.7364E-03
-23.9273979E+00,+16.6938E-03,+50.2092E-03
-23.9266229E+00,+17.0286E-03,+0.0E+00
-23.9258479E+00,+16.6938E-03,+33.4728E-03
-23.9250729E+00,+17.1959E-03,-33.4728E-03
-23.9242978E+00,+16.5265E-03,-16.7364E-03
-23.9235228E+00,+17.5306E-03,+0.0E+00
-23.9227478E+00,+16.5265E-03,+0.0E+00
-23.9219728E+00,+17.0286E-03,+0.0E+00
-23.9211978E+00,+16.6938E-03,+0.0E+00
-23.9204228E+00,+16.6938E-03,-0.0E+00
-23.9196478E+00,+16.5265E-03,-16.7364E-03
-23.9188728E+00,+17.6980E-03,-0.0E+00
-23.9180978E+00,+16.5265E-03,-16.7364E-03
-23.9173228E+00,+17.5306E-03,+33.4728E-03
-23.9165478E+00,+17.5306E-03,-33.4728E-03
-23.9157728E+00,+17.6980E-03,+0.0E+00
-23.9149978E+00,+16.6938E-03,+16.7364E-03
-23.9142228E+00,+16.1917E-03,+0.0E+00
-23.9134478E+00,+16.3591E-03,+0.0E+00
-23.9126728E+00,+17.5306E-03,+33.4728E-03
-23.9118978E+00,+17.3633E-03,+0.0E+00
-23.9111228E+00,+16.5265E-03,+0.0E+00
-23.9103478E+00,+16.8612E-03,-0.0E+00
-23.9095728E+00,+17.1959E-03,-50.2092E-03
-23.9087978E+00,+17.1959E-03,+33.4728E-03
-23.9080228E+00,+16.6938E-03,+0.0E+00
-23.9072478E+00,+16.3591E-03,+16.7364E-03
-23.9064728E+00,+17.5306E-03,-16.7364E-03
-23.9056978E+00,+17.0286E-03,+33.4728E-03
-23.9049228E+00,+16.8612E-03,+16.7364E-03
-23.9041478E+00,+16.3591E-03,-0.0E+00
-23.9033728E+00,+17.6980E-03,-33.4728E-03
-23.9025978E+00,+16.1917E-03,+50.2092E-03
-23.9018228E+00,+17.0286E-03,+16.7364E-03
-23.9010478E+00,+17.0286E-03,-0.0E+00
-23.9002728E+00,+16.6938E-03,-16.7364E-03
-23.8994978E+00,+17.1959E-03,-33.4728E-03
-23.8987228E+00,+17.1959E-03,-16.7364E-03
-23.8979478E+00,+17.5306E-03,-16.7364E-03
-23.8971728E+00,+16.6938E-03,+0.0E+00
-23.8963978E+00,+16.6938E-03,+0.0E+00
-23.8956228E+00,+17.0286E-03,+0.0E+00
-23.8948478E+00,+17.3633E-03,+33.4728E-03
-23.8940728E+00,+16.5265E-03,+0.0E+00
-23.8932978E+00,+17.1959E-03,+16.7364E-03
-23.8925228E+00,+16.3591E-03,-16.7364E-03
-23.8917478E+00,+17.1959E-03,-16.7364E-03
-23.8909728E+00,+16.3591E-03,-0.0E+00
-23.8901978E+00,+16.5265E-03,-16.7364E-03
-23.8894228E+00,+16.6938E-03,-16.7364E-03
-23.8886478E+00,+17.1959E-03,+0.0E+00
-23.8878728E+00,+17.6980E-03,+16.7364E-03
-23.8870978E+00,+16.6938E-03,+33.4728E-03
-23.8863228E+00,+16.6938E-03,+16.7364E-03
-23.8855478E+00,+17.0286E-03,+0.0E+00
-23.8847728E+00,+17.0286E-03,+16.7364E-03
-23.8839978E+00,+17.1959E-03,+16.7364E-03
-23.8832228E+00,+17.0286E-03,+16.7364E-03
-23.8824478E+00,+16.1917E-03,+0.0E+00
-23.8816728E+00,+16.1917E-03,+0.0E+00
-23.8808978E+00,+16.3591E-03,+16.7364E-03
-23.8801228E+00,+16.5265E-03,+33.4728E-03
-23.8793478E+00,+17.1959E-03,+0.0E+00
-23.8785728E+00,+16.3591E-03,+50.2092E-03
-23.8777978E+00,+17.3633E-03,+0.0E+00
-23.8770228E+00,+16.3591E-03,+0.0E+00
-23.8762478E+00,+17.0286E-03,+16.7364E-03
-23.8754728E+00,+17.6980E-03,+33.4728E-03
-23.8746977E+00,+17.8654E-03,-16.7364E-03
-23.8739227E+00,+17.1959E-03,+16.7364E-03
-23.8731477E+00,+16.5265E-03,+33.4728E-03
-23.8723727E+00,+17.0286E-03,-16.7364E-03
-23.8715977E+00,+17.1959E-03,+16.7364E-03
-23.8708227E+00,+16.6938E-03,+0.0E+00
-23.8700477E+00,+17.3633E-03,-0.0E+00
-23.8692727E+00,+15.8570E-03,-16.7364E-03
-23.8684977E+00,+16.6938E-03,+16.7364E-03
-23.8677227E+00,+16.6938E-03,+33.4728E-03
-23.8669477E+00,+17.0286E-03,+0.0E+00
-23.8661727E+00,+16.6938E-03,+33.4728E-03
-23.8653977E+00,+17.3633E-03,-33.4728E-03
-23.8646227E+00,+17.5306E-03,+16.7364E-03
-23.8638477E+00,+17.3633E-03,-0.0E+00
-23.8630727E+00,+17.8654E-03,-33.4728E-03
-23.8622977E+00,+16.8612E-03,+16.7364E-03
-23.8615227E+00,+16.6938E-03,+16.7364E-03
-23.8607477E+00,+17.0286E-03,+16.7364E-03
-23.8599727E+00,+17.5306E-03,-16.7364E-03
-23.8591977E+00,+17.3633E-03,+33.4728E-03
-23.8584227E+00,+16.6938E-03,+0.0E+00
-23.8576477E+00,+16.8612E-03,+16.7364E-03
-23.8568727E+00,+17.1959E-03,+0.0E+00
-23.8560977E+00,+17.0286E-03,-0.0E+00
-23.8553227E+00,+16.3591E-03,-16.7364E-03
-23.8545477E+00,+17.0286E-03,+16.7364E-03
-23.8537727E+00,+17.1959E-03,+16.7364E-03
-23.8529977E+00,+17.1959E-03,+33.4728E-03
-23.8522227E+00,+17.5306E-03,-0.0E+00
-23.8514477E+00,+17.1959E-03,-16.7364E-03
-23.8506727E+00,+16.6938E-03,-16.7364E-03
-23.8498977E+00,+16.3591E-03,+16.7364E-03
-23.8491227E+00,+17.0286E-03,-16.7364E-03
-23.8483477E+00,+17.5306E-03,-0.0E+00
-23.8475727E+00,+16.3591E-03,-33.4728E-03
-23.8467977E+00,+16.3591E-03,-0.0E+00
-23.8460227E+00,+16.3591E-03,-16.7364E-03
-23.8452477E+00,+16.5265E-03,+0.0E+00
-23.8444727E+00,+17.8654E-03,+16.7364E-03
-23.8436977E+00,+16.5265E-03,+16.7364E-03
-23.8429227E+00,+16.1917E-03,+33.4728E-03
-23.8421477E+00,+17.0286E-03,-0.0E+00
-23.8413727E+00,+16.3591E-03,-33.4728E-03
-23.8405977E+00,+17.1959E-03,+33.4728E-03
-23.8398227E+00,+16.8612E-03,-33.4728E-03
-23.8390477E+00,+16.6938E-03,-16.7364E-03
-23.8382727E+00,+17.3633E-03,-16.7364E-03
-23.8374977E+00,+17.3633E-03,+0.0E+00
-23.8367227E+00,+16.6938E-03,+0.0E+00
-23.8359477E+00,+17.0286E-03,+33.4728E-03
-23.8351727E+00,+16.5265E-03,+50.2092E-03
-23.8343977E+00,+17.1959E-03,+0.0E+00
-23.8336227E+00,+16.3591E-03,+0.0E+00
-23.8328477E+00,+17.1959E-03,-0.0E+00
-23.8320727E+00,+16.6938E-03,-16.7364E-03
-23.8312977E+00,+17.1959E-03,+0.0E+00
-23.8305227E+00,+16.8612E-03,+0.0E+00
-23.8297477E+00,+17.0286E-03,+16.7364E-03
-23.8289727E+00,+17.0286E-03,+0.0E+00
-23.8281977E+00,+17.5306E-03,+16.7364E-03
-23.8274227E+00,+16.5265E-03,+16.7364E-03
-23.8266477E+00,+16.8612E-03,-0.0E+00
-23.8258727E+00,+16.6938E-03,-16.7364E-03
-23.8250977E+00,+17.0286E-03,+0.0E+00
-23.8243226E+00,+16.6938E-03,+33.4728E-03
-23.8235476E+00,+16.5265E-03,+33.4728E-03
-23.8227726E+00,+16.8612E-03,+0.0E+00
-23.8219976E+00,+16.1917E-03,+16.7364E-03
-23.8212226E+00,+17.6980E-03,-0.0E+00
-23.8204476E+00,+17.1959E-03,-16.7364E-03
-23.8196726E+00,+16.3591E-03,+0.0E+00
-23.8188976E+00,+17.3633E-03,+0.0E+00
-23.8181226E+00,+17.1959E-03,+0.0E+00
-23.8173476E+00,+16.8612E-03,+16.7364E-03
-23.8165726E+00,+16.8612E-03,-16.7364E-03
-23.8157976E+00,+16.8612E-03,+16.7364E-03
-23.8150226E+00,+16.8612E-03,+0.0E+00
-23.8142476E+00,+17.1959E-03,-0.0E+00
-23.8134726E+00,+16.6938E-03,-16.7364E-03
-23.8126976E+00,+16.8612E-03,+16.7364E-03
-23.8119226E+00,+16.6938E-03,+0.0E+00
-23.8111476E+00,+17.3633E-03,+16.7364E-03
-23.8103726E+00,+17.3633E-03,+0.0E+00
-23.8095976E+00,+16.3591E-03,+0.0E+00
-23.8088226E+00,+17.8654E-03,+0.0E+00
-23.8080476E+00,+17.0286E-03,+0.0E+00
-23.8072726E+00,+17.6980E-03,+0.0E+00
-23.8064976E+00,+17.1959E-03,+33.4728E-03
-23.8057226E+00,+17.0286E-03,+0.0E+00
-23.8049476E+00,+17.1959E-03,-0.0E+00
-23.8041726E+00,+16.8612E-03,-16.7364E-03
-23.8033976E+00,+17.0286E-03,+16.7364E-03
-23.8026226E+00,+16.3591E-03,+0.0E+00
-23.8018476E+00,+17.3633E-03,+33.4728E-03
-23.8010726E+00,+17.1959E-03,-33.4728E-03
-23.8002976E+00,+17.1959E-03,-16.7364E-03
-23.7995226E+00,+16.6938E-03,-16.7364E-03
-23.7987476E+00,+16.6938E-03,+16.7364E-03
-23.7979726E+00,+16.5265E-03,+0.0E+00
-23.7971976E+00,+17.0286E-03,+16.7364E-03
-23.7964226E+00,+17.1959E-03,-0.0E+00
-23.7956476E+00,+17.3633E-03,-16.7364E-03
-23.7948726E+00,+17.5306E-03,+0.0E+00
-23.7940976E+00,+17.6980E-03,+0.0E+00
-23.7933226E+00,+16.8612E-03,+16.7364E-03
-23.7925476E+00,+17.1959E-03,-16.7364E-03
-23.7917726E+00,+16.8612E-03,+16.7364E-03
-23.7909976E+00,+16.5265E-03,-33.4728E-03
-23.7902226E+00,+16.6938E-03,+33.4728E-03
-23.7894476E+00,+17.5306E-03,-0.0E+00
-23.7886726E+00,+17.3633E-03,-16.7364E-03
-23.7878976E+00,+16.8612E-03,+16.7364E-03
-23.7871226E+00,+17.0286E-03,+16.7364E-03
-23.7863476E+00,+16.6938E-03,-0.0E+00
-23.7855726E+00,+16.3591E-03,-33.4728E-03
-23.7847976E+00,+16.8612E-03,+16.7364E-03
-23.7840226E+00,+16.8612E-03,+0.0E+00
-23.7832476E+00,+16.5265E-03,+16.7364E-03
-23.7824726E+00,+17.1959E-03,-16.7364E-03
-23.7816976E+00,+17.3633E-03,+0.0E+00
-23.7809226E+00,+17.1959E-03,-0.0E+00
-23.7801476E+00,+16.6938E-03,-33.4728E-03
-23.7793726E+00,+17.0286E-03,+16.7364E-03
-23.7785976E+00,+17.5306E-03,+0.0E+00
-23.7778226E+00,+16.3591E-03,+0.0E+00
-23.7770476E+00,+17.0286E-03,+0.0E+00
-23.7762726E+00,+17.1959E-03,-0.0E+00
-23.7754976E+00,+17.0286E-03,-16.7364E-03
-23.7747225E+00,+17.0286E-03,+0.0E+00
-23.7739475E+00,+17.1959E-03,-0.0E+00
-23.7731725E+00,+17.3633E-03,-16.7364E-03
-23.7723975E+00,+16.5265E-03,+0.0E+00
-23.7716225E+00,+16.8612E-03,-0.0E+00
-23.7708475E+00,+16.8612E-03,-16.7364E-03
-23.7700725E+00,+16.8612E-03,+0.0E+00
-23.7692975E+00,+16.8612E-03,+16.7364E-03
-23.7685225E+00,+17.0286E-03,-0.0E+00
-23.7677475E+00,+16.6938E-03,-16.7364E-03
-23.7669725E+00,+16.6938E-03,-16.7364E-03
-23.7661975E+00,+17.1959E-03,-0.0E+00
-23.7654225E+00,+16.1917E-03,-16.7364E-03
-23.7646475E+00,+16.3591E-03,+16.7364E-03
-23.7638725E+00,+17.6980E-03,+0.0E+00
-23.7630975E+00,+17.1959E-03,-0.0E+00
-23.7623225E+00,+16.5265E-03,-16.7364E-03
-23.7615475E+00,+16.0244E-03,+16.7364E-03
-23.7607725E+00,+16.5265E-03,-0.0E+00
-23.7599975E+00,+16.6938E-03,-16.7364E-03
-23.7592225E+00,+16.6938E-03,-33.4728E-03
-23.7584475E+00,+17.0286E-03,-33.4728E-03
-23.7576725E+00,+16.5265E-03,+0.0E+00
-23.7568975E+00,+17.1959E-03,+33.4728E-03
-23.7561225E+00,+16.6938E-03,+0.0E+00
-23.7553475E+00,+16.5265E-03,+0.0E+00
-23.7545725E+00,+17.3633E-03,+0.0E+00
-23.7537975E+00,+17.3633E-03,+0.0E+00
-23.7530225E+00,+17.0286E-03,-0.0E+00
-23.7522475E+00,+17.1959E-03,-16.7364E-03
-23.7514725E+00,+16.6938E-03,+0.0E+00
-23.7506975E+00,+16.5265E-03,+0.0E+00
-23.7499225E+00,+17.0286E-03,+0.0E+00
-23.7491475E+00,+17.0286E-03,+0.0E+00
-23.7483725E+00,+17.1959E-03,+33.4728E-03
-23.7475975E+00,+17.1959E-03,+16.7364E-03
-23.7468225E+00,+16.3591E-03,+0.0E+00
-23.7460475E+00,+16.6938E-03,+16.7364E-03
-23.7452725E+00,+17.0286E-03,+16.7364E-03
-23.7444975E+00,+17.0286E-03,+0.0E+00
-23.7437225E+00,+17.3633E-03,+16.7364E-03
-23.7429475E+00,+16.8612E-03,+0.0E+00
-23.7421725E+00,+16.6938E-03,+0.0E+00
-23.7413975E+00,+16.6938E-03,+16.7364E-03
-23.7406225E+00,+16.6938E-03,+16.7364E-03
-23.7398475E+00,+16.5265E-03,-16.7364E-03
-23.7390725E+00,+16.8612E-03,-16.7364E-03
-23.7382975E+00,+16.6938E-03,+0.0E+00
-23.7375225E+00,+17.0286E-03,+33.4728E-03
-23.7367475E+00,+17.3633E-03,+16.7364E-03
-23.7359725E+00,+17.5306E-03,+33.4728E-03
-23.7351975E+00,+16.8612E-03,+33.4728E-03
-23.7344225E+00,+16.1917E-03,-33.4728E-03
-23.7336475E+00,+17.6980E-03,+0.0E+00
-23.7328725E+00,+16.0244E-03,+33.4728E-03
-23.7320975E+00,+17.0286E-03,+16.7364E-03
-23.7313225E+00,+15.8570E-03,+16.7364E-03
-23.7305475E+00,+18.2001E-03,+0.0E+00
-23.7297725E+00,+17.3633E-03,+0.0E+00
-23.7289975E+00,+17.3633E-03,+16.7364E-03
-23.7282225E+00,+17.5306E-03,-0.0E+00
-23.7274475E+00,+17.0286E-03,-16.7364E-03
-23.7266725E+00,+17.0286E-03,+16.7364E-03
-23.7258975E+00,+17.3633E-03,+0.0E+00
-23.7251225E+00,+17.3633E-03,+33.4728E-03
-23.7243474E+00,+17.1959E-03,+33.4728E-03
-23.7235724E+00,+17.5306E-03,+0.0E+00
-23.7227974E+00,+17.0286E-03,-0.0E+00
-23.7220224E+00,+16.8612E-03,-16.7364E-03
-23.7212474E+00,+16.3591E-03,+33.4728E-03
-23.7204724E+00,+17.1959E-03,-16.7364E-03
-23.7196974E+00,+16.5265E-03,-0.0E+00
-23.7189224E+00,+17.0286E-03,-16.7364E-03
-23.7181474E+00,+17.5306E-03,+0.0E+00
-23.7173724E+00,+16.0244E-03,+16.7364E-03
-23.7165974E+00,+17.1959E-03,+33.4728E-03
-23.7158224E+00,+16.6938E-03,+16.7364E-03
-23.7150474E+00,+17.6980E-03,-16.7364E-03
-23.7142724E+00,+16.8612E-03,+0.0E+00
-23.7134974E+00,+16.6938E-03,+0.0E+00
-23.7127224E+00,+17.5306E-03,+0.0E+00
-23.7119474E+00,+17.3633E-03,+0.0E+00
-23.7111724E+00,+16.5265E-03,+0.0E+00
-23.7103974E+00,+17.1959E-03,+16.7364E-03
-23.7096224E+00,+16.6938E-03,+16.7364E-03
-23.7088474E+00,+17.3633E-03,-0.0E+00
-23.7080724E+00,+16.8612E-03,-16.7364E-03
-23.7072974E+00,+17.1959E-03,+33.4728E-03
-23.7065224E+00,+17.8654E-03,+16.7364E-03
-23.7057474E+00,+18.0327E-03,+0.0E+00
-23.7049724E+00,+17.5306E-03,+16.7364E-03
-23.7041974E+00,+17.8654E-03,+0.0E+00
-23.7034224E+00,+16.8612E-03,+16.7364E-03
-23.7026474E+00,+17.3633E-03,+0.0E+00
-23.7018724E+00,+15.8570E-03,+16.7364E-03
-23.7010974E+00,+16.8612E-03,-16.7364E-03
-23.7003224E+00,+16.8612E-03,-16.7364E-03
-23.6995474E+00,+16.6938E-03,-33.4728E-03
-23.6987724E+00,+16.8612E-03,-33.4728E-03
-23.6979974E+00,+16.5265E-03,+16.7364E-03
-23.6972224E+00,+17.6980E-03,-0.0E+00
-23.6964474E+00,+17.0286E-03,-33.4728E-03
-23.6956724E+00,+17.0286E-03,-0.0E+00
-23.6948974E+00,+17.3633E-03,-16.7364E-03
-23.6941224E+00,+16.5265E-03,-16.7364E-03
-23.6933474E+00,+16.8612E-03,+16.7364E-03
-23.6925724E+00,+17.5306E-03,+16.7364E-03
-23.6917974E+00,+16.8612E-03,+0.0E+00
-23.6910224E+00,+16.8612E-03,-0.0E+00
-23.6902474E+00,+16.8612E-03,-16.7364E-03
-23.6894724E+00,+17.0286E-03,+16.7364E-03
-23.6886974E+00,+17.0286E-03,-16.7364E-03
-23.6879224E+00,+16.5265E-03,-33.4728E-03
-23.6871474E+00,+16.5265E-03,+33.4728E-03
-23.6863724E+00,+17.3633E-03,-0.0E+00
-23.6855974E+00,+16.3591E-03,-16.7364E-03
-23.6848224E+00,+16.3591E-03,+16.7364E-03
-23.6840474E+00,+17.1959E-03,-16.7364E-03
-23.6832724E+00,+17.6980E-03,+33.4728E-03
-23.6824974E+00,+16.8612E-03,+0.0E+00
-23.6817224E+00,+17.8654E-03,+0.0E+00
-23.6809474E+00,+17.1959E-03,+16.7364E-03
-23.6801724E+00,+17.5306E-03,+33.4728E-03
-23.6793974E+00,+16.6938E-03,+0.0E+00
-23.6786224E+00,+17.1959E-03,+16.7364E-03
-23.6778474E+00,+17.1959E-03,-16.7364E-03
-23.6770724E+00,+16.6938E-03,-16.7364E-03
-23.6762974E+00,+17.1959E-03,+16.7364E-03
-23.6755224E+00,+16.1917E-03,+16.7364E-03
-23.6747473E+00,+17.3633E-03,+33.4728E-03
-23.6739723E+00,+17.0286E-03,+16.7364E-03
-23.6731973E+00,+16.6938E-03,+16.7364E-03
-23.6724223E+00,+17.3633E-03,+33.4728E-03
-23.6716473E+00,+16.5265E-03,-16.7364E-03
-23.6708723E+00,+17.3633E-03,-16.7364E-03
-23.6700973E+00,+16.3591E-03,+33.4728E-03
-23.6693223E+00,+16.5265E-03,-16.7364E-03
-23.6685473E+00,+16.5265E-03,+0.0E+00
-23.6677723E+00,+17.6980E-03,+16.7364E-03
-23.6669973E+00,+17.3633E-03,-16.7364E-03
-23.6662223E+00,+16.5265E-03,-0.0E+00
-23.6654473E+00,+16.8612E-03,-16.7364E-03
-23.6646723E+00,+16.8612E-03,-16.7364E-03
-23.6638973E+00,+16.8612E-03,+50.2092E-03
-23.6631223E+00,+17.3633E-03,-16.7364E-03
-23.6623473E+00,+16.0244E-03,-0.0E+00
-23.6615723E+00,+16.8612E-03,-16.7364E-03
-23.6607973E+00,+16.6938E-03,+33.4728E-03
-23.6600223E+00,+17.5306E-03,+0.0E+00
-23.6592473E+00,+17.1959E-03,+0.0E+00
-23.6584723E+00,+17.6980E-03,+16.7364E-03
-23.6576973E+00,+17.3633E-03,-16.7364E-03
-23.6569223E+00,+17.8654E-03,-16.7364E-03
-23.6561473E+00,+16.5265E-03,+16.7364E-03
-23.6553723E+00,+16.8612E-03,+0.0E+00
-23.6545973E+00,+17.5306E-03,-0.0E+00
-23.6538223E+00,+17.1959E-03,-16.7364E-03
-23.6530473E+00,+17.8654E-03,+0.0E+00
-23.6522723E+00,+17.1959E-03,+16.7364E-03
-23.6514973E+00,+17.0286E-03,+16.7364E-03
-23.6507223E+00,+16.8612E-03,-16.7364E-03
-23.6499473E+00,+16.8612E-03,-0.0E+00
-23.6491723E+00,+16.5265E-03,-33.4728E-03
-23.6483973E+00,+17.0286E-03,+0.0E+00
-23.6476223E+00,+17.3633E-03,+0.0E+00
-23.6468473E+00,+16.1917E-03,+16.7364E-03
-23.6460723E+00,+17.1959E-03,+33.4728E-03
-23.6452973E+00,+17.0286E-03,+0.0E+00
-23.6445223E+00,+17.1959E-03,+16.7364E-03
-23.6437473E+00,+17.1959E-03,+50.2092E-03
-23.6429723E+00,+17.5306E-03,+0.0E+00
-23.6421973E+00,+17.3633E-03,+16.7364E-03
-23.6414223E+00,+16.6938E-03,-16.7364E-03
-23.6406473E+00,+17.0286E-03,+50.2092E-03
-23.6398723E+00,+17.5306E-03,+16.7364E-03
-23.6390973E+00,+17.8654E-03,+16.7364E-03
-23.6383223E+00,+17.5306E-03,+16.7364E-03
-23.6375473E+00,+17.1959E-03,+16.7364E-03
-23.6367723E+00,+17.3633E-03,-16.7364E-03
-23.6359973E+00,+17.1959E-03,-16.7364E-03
-23.6352223E+00,+17.1959E-03,+16.7364E-03
-23.6344473E+00,+17.3633E-03,-0.0E+00
-23.6336723E+00,+16.5265E-03,-16.7364E-03
-23.6328973E+00,+17.5306E-03,-0.0E+00
-23.6321223E+00,+17.5306E-03,-16.7364E-03
-23.6313473E+00,+17.1959E-03,+16.7364E-03
-23.6305723E+00,+16.8612E-03,+16.7364E-03
-23.6297973E+00,+17.3633E-03,+33.4728E-03
-23.6290223E+00,+16.8612E-03,-33.4728E-03
-23.6282473E+00,+17.0286E-03,+16.7364E-03
-23.6274723E+00,+17.1959E-03,+33.4728E-03
-23.6266973E+00,+16.6938E-03,+16.7364E-03
-23.6259223E+00,+16.6938E-03,+0.0E+00
-23.6251473E+00,+17.6980E-03,+16.7364E-03
-23.6243722E+00,+17.3633E-03,-33.4728E-03
-23.6235972E+00,+16.6938E-03,+16.7364E-03
-23.6228222E+00,+17.0286E-03,+16.7364E-03
-23.6220472E+00,+17.3633E-03,+16.7364E-03
-23.6212722E+00,+16.5265E-03,+16.7364E-03
-23.6204972E+00,+17.3633E-03,+0.0E+00
-23.6197222E+00,+17.1959E-03,+0.0E+00
-23.6189472E+00,+16.8612E-03,+16.7364E-03
-23.6181722E+00,+16.8612E-03,+16.7364E-03
-23.6173972E+00,+16.1917E-03,-0.0E+00
-23.6166222E+00,+17.5306E-03,-33.4728E-03
-23.6158472E+00,+17.3633E-03,+0.0E+00
-23.6150722E+00,+17.5306E-03,+0.0E+00
-23.6142972E+00,+17.1959E-03,+16.7364E-03
-23.6135222E+00,+17.3633E-03,+0.0E+00
-23.6127472E+00,+16.6938E-03,+16.7364E-03
-23.6119722E+00,+17.3633E-03,-33.4728E-03
-23.6111972E+00,+16.5265E-03,-0.0E+00
-23.6104222E+00,+17.1959E-03,-33.4728E-03
-23.6096472E+00,+16.8612E-03,-0.0E+00
-23.6088722E+00,+17.1959E-03,-16.7364E-03
-23.6080972E+00,+16.6938E-03,+16.7364E-03
-23.6073222E+00,+16.3591E-03,+0.0E+00
-23.6065472E+00,+17.3633E-03,+0.0E+00
-23.6057722E+00,+17.3633E-03,-0.0E+00
-23.6049972E+00,+17.0286E-03,-16.7364E-03
-23.6042222E+00,+17.5306E-03,+0.0E+00
-23.6034472E+00,+16.8612E-03,+0.0E+00
-23.6026722E+00,+16.5265E-03,+16.7364E-03
-23.6018972E+00,+17.1959E-03,+0.0E+00
-23.6011222E+00,+16.3591E-03,+0.0E+00
-23.6003472E+00,+16.5265E-03,+33.4728E-03
-23.5995722E+00,+17.1959E-03,+0.0E+00
-23.5987972E+00,+16.6938E-03,+0.0E+00
-23.5980222E+00,+16.8612E-03,-0.0E+00
-23.5972472E+00,+16.6938E-03,-16.7364E-03
-23.5964722E+00,+17.5306E-03,-16.7364E-03
-23.5956972E+00,+17.0286E-03,+0.0E+00
-23.5949222E+00,+17.6980E-03,+0.0E+00
-23.5941472E+00,+16.6938E-03,+16.7364E-03
-23.5933722E+00,+16.5265E-03,-16.7364E-03
-23.5925972E+00,+17.1959E-03,-33.4728E-03
-23.5918222E+00,+17.0286E-03,-16.7364E-03
-23.5910472E+00,+17.0286E-03,+0.0E+00
-23.5902722E+00,+17.0286E-03,+16.7364E-03
-23.5894972E+00,+17.0286E-03,-0.0E+00
-23.5887222E+00,+16.8612E-03,-16.7364E-03
-23.5879472E+00,+16.6938E-03,-0.0E+00
-23.5871722E+00,+17.8654E-03,-16.7364E-03
-23.5863972E+00,+17.1959E-03,+33.4728E-03
-23.5856222E+00,+17.5306E-03,-16.7364E-03
-23.5848472E+00,+16.8612E-03,+0.0E+00
-23.5840722E+00,+17.0286E-03,+33.4728E-03
-23.5832972E+00,+17.1959E-03,+33.4728E-03
-23.5825222E+00,+16.6938E-03,-33.4728E-03
-23.5817472E+00,+17.3633E-03,+16.7364E-03
-23.5809722E+00,+16.5265E-03,+16.7364E-03
-23.5801972E+00,+16.8612E-03,-33.4728E-03
-23.5794222E+00,+16.3591E-03,-33.4728E-03
-23.5786472E+00,+16.1917E-03,+0.0E+00
-23.5778722E+00,+18.0327E-03,-0.0E+00
-23.5770972E+00,+16.1917E-03,-33.4728E-03
-23.5763222E+00,+16.3591E-03,+33.4728E-03
-23.5755472E+00,+17.0286E-03,+16.7364E-03
-23.5747721E+00,+17.3633E-03,-0.0E+00
-23.5739971E+00,+17.5306E-03,-16.7364E-03
-23.5732221E+00,+16.8612E-03,+0.0E+00
-23.5724471E+00,+17.1959E-03,+16.7364E-03
-23.5716721E+00,+17.1959E-03,+16.7364E-03
-23.5708971E+00,+17.0286E-03,+33.4728E-03
-23.5701221E+00,+17.6980E-03,+0.0E+00
-23.5693471E+00,+17.0286E-03,+33.4728E-03
-23.5685721E+00,+17.5306E-03,+16.7364E-03
-23.5677971E+00,+17.5306E-03,+0.0E+00
-23.5670221E+00,+17.3633E-03,+0.0E+00
-23.5662471E+00,+17.1959E-03,-0.0E+00
-23.5654721E+00,+17.6980E-03,-16.7364E-03
-23.5646971E+00,+17.6980E-03,+0.0E+00
-23.5639221E+00,+17.1959E-03,+50.2092E-03
-23.5631471E+00,+17.0286E-03,+0.0E+00
-23.5623721E+00,+17.0286E-03,+0.0E+00
-23.5615971E+00,+16.6938E-03,-0.0E+00
-23.5608221E+00,+17.0286E-03,-16.7364E-03
-23.5600471E+00,+16.1917E-03,+0.0E+00
-23.5592721E+00,+16.6938E-03,+16.7364E-03
-23.5584971E+00,+17.1959E-03,+16.7364E-03
-23.5577221E+00,+17.1959E-03,+16.7364E-03
-23.5569471E+00,+17.5306E-03,+16.7364E-03
-23.5561721E+00,+16.8612E-03,+0.0E+00
-23.5553971E+00,+17.5306E-03,+0.0E+00
-23.5546221E+00,+16.5265E-03,+16.7364E-03
-23.5538471E+00,+16.8612E-03,-0.0E+00
-23.5530721E+00,+17.8654E-03,-16.7364E-03
-23.5522971E+00,+17.1959E-03,+50.2092E-03
-23.5515221E+00,+17.3633E-03,+16.7364E-03
-23.5507471E+00,+16.8612E-03,-0.0E+00
-23.5499721E+00,+16.8612E-03,-16.7364E-03
-23.5491971E+00,+17.3633E-03,-16.7364E-03
-23.5484221E+00,+17.1959E-03,-0.0E+00
-23.5476471E+00,+16.6938E-03,-16.7364E-03
-23.5468721E+00,+17.1959E-03,-0.0E+00
-23.5460971E+00,+16.5265E-03,-33.4728E-03
-23.5453221E+00,+17.1959E-03,-0.0E+00
-23.5445471E+00,+17.3633E-03,-16.7364E-03
-23.5437721E+00,+17.1959E-03,+0.0E+00
-23.5429971E+00,+17.8654E-03,+0.0E+00
-23.5422221E+00,+16.8612E-03,+16.7364E-03
-23.5414471E+00,+17.5306E-03,+0.0E+00
-23.5406721E+00,+16.6938E-03,+16.7364E-03
-23.5398971E+00,+16.8612E-03,+0.0E+00
-23.5391221E+00,+17.6980E-03,+0.0E+00
-23.5383471E+00,+17.1959E-03,+16.7364E-03
-23.5375721E+00,+16.8612E-03,+16.7364E-03
-23.5367971E+00,+16.6938E-03,+33.4728E-03
-23.5360221E+00,+16.3591E-03,-33.4728E-03
-23.5352471E+00,+17.0286E-03,+16.7364E-03
-23.5344721E+00,+17.3633E-03,+0.0E+00
-23.5336971E+00,+17.5306E-03,-0.0E+00
-23.5329221E+00,+16.6938E-03,-16.7364E-03
-23.5321471E+00,+17.6980E-03,-33.4728E-03
-23.5313721E+00,+17.3633E-03,+16.7364E-03
-23.5305971E+00,+17.0286E-03,+33.4728E-03
-23.5298221E+00,+17.5306E-03,+0.0E+00
-23.5290471E+00,+16.8612E-03,+33.4728E-03
-23.5282721E+00,+16.5265E-03,+16.7364E-03
-23.5274971E+00,+17.1959E-03,-0.0E+00
-23.5267221E+00,+17.3633E-03,-16.7364E-03
-23.5259471E+00,+16.8612E-03,+16.7364E-03
-23.5251721E+00,+16.8612E-03,+0.0E+00
-23.5243970E+00,+17.5306E-03,+0.0E+00
-23.5236220E+00,+17.5306E-03,+33.4728E-03
-23.5228470E+00,+17.1959E-03,-16.7364E-03
-23.5220720E+00,+17.3633E-03,-0.0E+00
-23.5212970E+00,+16.6938E-03,-16.7364E-03
-23.5205220E+00,+16.1917E-03,-16.7364E-03
-23.5197470E+00,+17.0286E-03,+0.0E+00
-23.5189720E+00,+16.8612E-03,+0.0E+00
-23.5181970E+00,+16.0244E-03,+33.4728E-03
-23.5174220E+00,+17.0286E-03,+16.7364E-03
-23.5166470E+00,+17.1959E-03,+16.7364E-03
-23.5158720E+00,+17.1959E-03,+16.7364E-03
-23.5150970E+00,+16.5265E-03,-16.7364E-03
-23.5143220E+00,+17.0286E-03,-33.4728E-03
-23.5135470E+00,+16.3591E-03,+0.0E+00
-23.5127720E+00,+17.6980E-03,+0.0E+00
-23.5119970E+00,+16.5265E-03,+16.7364E-03
-23.5112220E+00,+17.6980E-03,+16.7364E-03
-23.5104470E+00,+18.0327E-03,+50.2092E-03
-23.5096720E+00,+17.8654E-03,+33.4728E-03
-23.5088970E+00,+16.6938E-03,+0.0E+00
-23.5081220E+00,+17.5306E-03,+16.7364E-03
-23.5073470E+00,+16.6938E-03,-16.7364E-03
-23.5065720E+00,+17.1959E-03,+16.7364E-03
-23.5057970E+00,+16.8612E-03,-33.4728E-03
-23.5050220E+00,+16.3591E-03,-16.7364E-03
-23.5042470E+00,+16.6938E-03,+16.7364E-03
-23.5034720E+00,+16.8612E-03,-16.7364E-03
-23.5026970E+00,+16.0244E-03,-16.7364E-03
-23.5019220E+00,+17.0286E-03,+16.7364E-03
-23.5011470E+00,+16.5265E-03,+33.4728E-03
-23.5003720E+00,+17.0286E-03,+0.0E+00
-23.4995970E+00,+16.8612E-03,+33.4728E-03
-23.4988220E+00,+16.8612E-03,+33.4728E-03
-23.4980470E+00,+17.0286E-03,+16.7364E-03
-23.4972720E+00,+17.3633E-03,-16.7364E-03
-23.4964970E+00,+17.1959E-03,+16.7364E-03
-23.4957220E+00,+16.8612E-03,-33.4728E-03
-23.4949470E+00,+16.1917E-03,+0.0E+00
-23.4941720E+00,+16.8612E-03,+16.7364E-03
-23.4933970E+00,+16.8612E-03,-16.7364E-03
-23.4926220E+00,+17.0286E-03,-16.7364E-03
-23.4918470E+00,+16.5265E-03,+16.7364E-03
-23.4910720E+00,+17.6980E-03,+16.7364E-03
-23.4902970E+00,+17.0286E-03,-0.0E+00
-23.4895220E+00,+17.1959E-03,-16.7364E-03
-23.4887470E+00,+16.8612E-03,+33.4728E-03
-23.4879720E+00,+16.6938E-03,-16.7364E-03
-23.4871970E+00,+17.3633E-03,+0.0E+00
-23.4864220E+00,+16.6938E-03,+16.7364E-03
-23.4856470E+00,+16.8612E-03,+16.7364E-03
-23.4848720E+00,+17.1959E-03,+0.0E+00
-23.4840970E+00,+16.8612E-03,+16.7364E-03
-23.4833220E+00,+17.5306E-03,+16.7364E-03
-23.4825470E+00,+16.6938E-03,+0.0E+00
-23.4817720E+00,+17.1959E-03,+50.2092E-03
-23.4809970E+00,+17.8654E-03,+0.0E+00
-23.4802220E+00,+17.1959E-03,+0.0E+00
-23.4794470E+00,+16.8612E-03,+16.7364E-03
-23.4786720E+00,+17.5306E-03,+0.0E+00
-23.4778970E+00,+17.5306E-03,+50.2092E-03
-23.4771220E+00,+17.3633E-03,-0.0E+00
-23.4763470E+00,+17.1959E-03,-16.7364E-03
-23.4755720E+00,+16.6938E-03,-0.0E+00
-23.4747969E+00,+17.0286E-03,-16.7364E-03
-23.4740219E+00,+17.0286E-03,+33.4728E-03
-23.4732469E+00,+17.3633E-03,-16.7364E-03
-23.4724719E+00,+16.8612E-03,+0.0E+00
-23.4716969E+00,+16.6938E-03,+0.0E+00
-23.4709219E+00,+16.3591E-03,+16.7364E-03
-23.4701469E+00,+17.6980E-03,+0.0E+00
-23.4693719E+00,+16.8612E-03,+33.4728E-03
-23.4685969E+00,+17.5306E-03,-16.7364E-03
-23.4678219E+00,+16.5265E-03,+16.7364E-03
-23.4670469E+00,+17.0286E-03,-0.0E+00
-23.4662719E+00,+16.3591E-03,-16.7364E-03
-23.4654969E+00,+16.6938E-03,+16.7364E-03
-23.4647219E+00,+17.1959E-03,+16.7364E-03
-23.4639469E+00,+16.6938E-03,-16.7364E-03
-23.4631719E+00,+17.5306E-03,-16.7364E-03
-23.4623969E+00,+16.3591E-03,-0.0E+00
-23.4616219E+00,+16.5265E-03,-16.7364E-03
-23.4608469E+00,+16.8612E-03,-16.7364E-03
-23.4600719E+00,+16.8612E-03,+16.7364E-03
-23.4592969E+00,+17.0286E-03,+33.4728E-03
-23.4585219E+00,+16.1917E-03,+16.7364E-03
-23.4577469E+00,+17.0286E-03,+16.7364E-03
-23.4569719E+00,+17.5306E-03,+16.7364E-03
-23.4561969E+00,+16.6938E-03,+16.7364E-03
-23.4554219E+00,+18.0327E-03,-0.0E+00
-23.4546469E+00,+16.8612E-03,-33.4728E-03
-23.4538719E+00,+17.1959E-03,+16.7364E-03
-23.4530969E+00,+16.8612E-03,+0.0E+00
-23.4523219E+00,+17.5306E-03,+33.4728E-03
-23.4515469E+00,+16.8612E-03,+0.0E+00
-23.4507719E+00,+16.6938E-03,+0.0E+00
-23.4499969E+00,+16.5265E-03,+16.7364E-03
-23.4492219E+00,+17.1959E-03,-16.7364E-03
-23.4484469E+00,+17.6980E-03,-16.7364E-03
-23.4476719E+00,+17.3633E-03,+16.7364E-03
-23.4468969E+00,+16.5265E-03,+0.0E+00
-23.4461219E+00,+16.6938E-03,+16.7364E-03
-23.4453469E+00,+17.8654E-03,+16.7364E-03
-23.4445719E+00,+17.1959E-03,-16.7364E-03
-23.4437969E+00,+17.6980E-03,-16.7364E-03
-23.4430219E+00,+18.2001E-03,+0.0E+00
-23.4422469E+00,+17.8654E-03,-0.0E+00
-23.4414719E+00,+16.5265E-03,-16.7364E-03
-23.4406969E+00,+17.6980E-03,+16.7364E-03
-23.4399219E+00,+16.6938E-03,+0.0E+00
-23.4391469E+00,+16.8612E-03,-0.0E+00
-23.4383719E+00,+17.0286E-03,-16.7364E-03
-23.4375969E+00,+17.1959E-03,+0.0E+00
-23.4368219E+00,+17.0286E-03,-0.0E+00
-23.4360469E+00,+15.6896E-03,-16.7364E-03
-23.4352719E+00,+16.5265E-03,-0.0E+00
-23.4344969E+00,+17.1959E-03,-33.4728E-03
-23.4337219E+00,+17.5306E-03,-16.7364E-03
-23.4329469E+00,+16.5265E-03,+16.7364E-03
-23.4321719E+00,+16.5265E-03,-16.7364E-03
-23.4313969E+00,+16.1917E-03,+16.7364E-03
-23.4306219E+00,+16.8612E-03,+16.7364E-03
-23.4298469E+00,+16.5265E-03,+0.0E+00
-23.4290719E+00,+16.8612E-03,+16.7364E-03
-23.4282969E+00,+17.0286E-03,-16.7364E-03
-23.4275219E+00,+17.1959E-03,-0.0E+00
-23.4267469E+00,+16.5265E-03,-16.7364E-03
-23.4259719E+00,+16.5265E-03,+0.0E+00
-23.4251969E+00,+16.1917E-03,+0.0E+00
-23.4244218E+00,+17.3633E-03,+0.0E+00
-23.4236468E+00,+16.8612E-03,+16.7364E-03
-23.4228718E+00,+17.8654E-03,+16.7364E-03
-23.4220968E+00,+16.6938E-03,-16.7364E-03
-23.4213218E+00,+17.0286E-03,-0.0E+00
-23.4205468E+00,+16.6938E-03,-50.2092E-03
-23.4197718E+00,+17.3633E-03,-16.7364E-03
-23.4189968E+00,+17.3633E-03,+0.0E+00
-23.4182218E+00,+17.3633E-03,+33.4728E-03
-23.4174468E+00,+17.1959E-03,+16.7364E-03
-23.4166718E+00,+16.8612E-03,+0.0E+00
-23.4158968E+00,+16.8612E-03,+0.0E+00
-23.4151218E+00,+17.0286E-03,+0.0E+00
-23.4143468E+00,+17.5306E-03,+16.7364E-03
-23.4135718E+00,+16.6938E-03,-16.7364E-03
-23.4127968E+00,+17.1959E-03,-33.4728E-03
-23.4120218E+00,+17.1959E-03,+16.7364E-03
-23.4112468E+00,+16.5265E-03,+16.7364E-03
-23.4104718E+00,+17.1959E-03,+16.7364E-03
-23.4096968E+00,+17.6980E-03,+16.7364E-03
-23.4089218E+00,+16.0244E-03,+16.7364E-03
-23.4081468E+00,+16.6938E-03,+16.7364E-03
-23.4073718E+00,+16.3591E-03,-0.0E+00
-23.4065968E+00,+16.1917E-03,-16.7364E-03
-23.4058218E+00,+17.8654E-03,+50.2092E-03
-23.4050468E+00,+16.8612E-03,+0.0E+00
-23.4042718E+00,+17.6980E-03,+0.0E+00
-23.4034968E+00,+17.3633E-03,+16.7364E-03
-23.4027218E+00,+16.8612E-03,+0.0E+00
-23.4019468E+00,+16.6938E-03,+16.7364E-03
-23.4011718E+00,+17.8654E-03,-16.7364E-03
-23.4003968E+00,+18.0327E-03,-16.7364E-03
-23.3996218E+00,+17.0286E-03,-33.4728E-03
-23.3988468E+00,+16.8612E-03,+0.0E+00
-23.3980718E+00,+16.6938E-03,-0.0E+00
-23.3972968E+00,+17.6980E-03,-16.7364E-03
-23.3965218E+00,+17.0286E-03,-33.4728E-03
-23.3957468E+00,+17.1959E-03,-16.7364E-03
-23.3949718E+00,+17.1959E-03,+33.4728E-03
-23.3941968E+00,+16.6938E-03,+0.0E+00
-23.3934218E+00,+16.8612E-03,+16.7364E-03
-23.3926468E+00,+16.6938E-03,+33.4728E-03
-23.3918718E+00,+16.8612E-03,+0.0E+00
-23.3910968E+00,+17.3633E-03,+0.0E+00
-23.3903218E+00,+16.8612E-03,-0.0E+00
-23.3895468E+00,+16.6938E-03,-33.4728E-03
-23.3887718E+00,+16.6938E-03,-16.7364E-03
-23.3879968E+00,+16.6938E-03,-16.7364E-03
-23.3872218E+00,+16.5265E-03,-0.0E+00
-23.3864468E+00,+17.1959E-03,-33.4728E-03
-23.3856718E+00,+17.6980E-03,+0.0E+00
-23.3848968E+00,+16.8612E-03,+16.7364E-03
-23.3841218E+00,+16.6938E-03,+33.4728E-03
-23.3833468E+00,+16.6938E-03,-16.7364E-03
-23.3825718E+00,+17.1959E-03,-16.7364E-03
-23.3817968E+00,+16.8612E-03,+0.0E+00
-23.3810218E+00,+17.0286E-03,+16.7364E-03
-23.3802468E+00,+16.0244E-03,+16.7364E-03
-23.3794718E+00,+17.3633E-03,+0.0E+00
-23.3786968E+00,+16.8612E-03,+16.7364E-03
-23.3779218E+00,+17.5306E-03,-33.4728E-03
-23.3771468E+00,+17.3633E-03,+16.7364E-03
-23.3763718E+00,+16.8612E-03,+16.7364E-03
-23.3755968E+00,+17.3633E-03,+0.0E+00
-23.3748217E+00,+17.8654E-03,-0.0E+00
-23.3740467E+00,+17.5306E-03,-16.7364E-03
-23.3732717E+00,+16.5265E-03,+33.4728E-03
-23.3724967E+00,+17.0286E-03,-16.7364E-03
-23.3717217E+00,+16.5265E-03,+16.7364E-03
-23.3709467E+00,+16.6938E-03,+0.0E+00
-23.3701717E+00,+16.8612E-03,+0.0E+00
-23.3693967E+00,+16.6938E-03,+50.2092E-03
-23.3686217E+00,+17.0286E-03,-0.0E+00
-23.3678467E+00,+17.1959E-03,-16.7364E-03
-23.3670717E+00,+16.8612E-03,+33.4728E-03
-23.3662967E+00,+16.8612E-03,+0.0E+00
-23.3655217E+00,+16.6938E-03,-0.0E+00
-23.3647467E+00,+17.0286E-03,-33.4728E-03
-23.3639717E+00,+17.1959E-03,+16.7364E-03
-23.3631967E+00,+17.5306E-03,+16.7364E-03
-23.3624217E+00,+16.6938E-03,+0.0E+00
-23.3616467E+00,+16.8612E-03,+16.7364E-03
-23.3608717E+00,+16.8612E-03,+16.7364E-03
-23.3600967E+00,+16.8612E-03,+16.7364E-03
-23.3593217E+00,+16.3591E-03,+0.0E+00
-23.3585467E+00,+17.0286E-03,-0.0E+00
-23.3577717E+00,+17.1959E-03,-16.7364E-03
-23.3569967E+00,+17.1959E-03,-16.7364E-03
-23.3562217E+00,+16.5265E-03,+0.0E+00
-23.3554467E+00,+16.1917E-03,+50.2092E-03
-23.3546717E+00,+17.3633E-03,+0.0E+00
-23.3538967E+00,+16.8612E-03,+33.4728E-03
-23.3531217E+00,+16.6938E-03,-16.7364E-03
-23.3523467E+00,+17.3633E-03,+16.7364E-03
-23.3515717E+00,+16.5265E-03,-0.0E+00
-23.3507967E+00,+16.8612E-03,-16.7364E-03
-23.3500217E+00,+16.3591E-03,-50.2092E-03
-23.3492467E+00,+16.5265E-03,+16.7364E-03
-23.3484717E+00,+16.6938E-03,+0.0E+00
-23.3476967E+00,+16.3591E-03,+0.0E+00
-23.3469217E+00,+17.3633E-03,+16.7364E-03
-23.3461467E+00,+17.0286E-03,+33.4728E-03
-23.3453717E+00,+17.6980E-03,+33.4728E-03
-23.3445967E+00,+16.8612E-03,+0.0E+00
-23.3438217E+00,+17.6980E-03,+0.0E+00
-23.3430467E+00,+17.1959E-03,+16.7364E-03
-23.3422717E+00,+16.6938E-03,+0.0E+00
-23.3414967E+00,+17.5306E-03,+0.0E+00
-23.3407217E+00,+18.5348E-03,+16.7364E-03
-23.3399467E+00,+17.0286E-03,+16.7364E-03
-23.3391717E+00,+17.0286E-03,-16.7364E-03
-23.3383967E+00,+17.1959E-03,+33.4728E-03
-23.3376217E+00,+16.3591E-03,-16.7364E-03
-23.3368467E+00,+17.1959E-03,-16.7364E-03
-23.3360717E+00,+16.6938E-03,-0.0E+00
-23.3352967E+00,+15.8570E-03,-16.7364E-03
-23.3345217E+00,+16.6938E-03,-33.4728E-03
-23.3337467E+00,+17.1959E-03,+16.7364E-03
-23.3329717E+00,+17.3633E-03,+0.0E+00
-23.3321967E+00,+17.0286E-03,-0.0E+00
-23.3314217E+00,+18.0327E-03,-16.7364E-03
-23.3306467E+00,+16.8612E-03,+16.7364E-03
-23.3298717E+00,+17.3633E-03,+0.0E+00
-23.3290967E+00,+16.8612E-03,+33.4728E-03
-23.3283217E+00,+16.8612E-03,+0.0E+00
-23.3275467E+00,+16.5265E-03,+16.7364E-03
-23.3267717E+00,+17.0286E-03,+16.7364E-03
-23.3259967E+00,+17.0286E-03,-16.7364E-03
-23.3252217E+00,+16.5265E-03,+16.7364E-03
-23.3244466E+00,+17.0286E-03,+0.0E+00
-23.3236716E+00,+16.5265E-03,+16.7364E-03
-23.3228966E+00,+16.8612E-03,-16.7364E-03
-23.3221216E+00,+16.8612E-03,-0.0E+00
-23.3213466E+00,+17.6980E-03,-16.7364E-03
-23.3205716E+00,+17.3633E-03,+16.7364E-03
-23.3197966E+00,+17.0286E-03,+0.0E+00
-23.3190216E+00,+17.3633E-03,-0.0E+00
-23.3182466E+00,+17.0286E-03,-16.7364E-03
-23.3174716E+00,+16.6938E-03,+33.4728E-03
-23.3166966E+00,+17.3633E-03,-0.0E+00
-23.3159216E+00,+16.8612E-03,-16.7364E-03
-23.3151466E+00,+16.3591E-03,+0.0E+00
-23.3143716E+00,+16.6938E-03,+33.4728E-03
-23.3135966E+00,+16.5265E-03,+33.4728E-03
-23.3128216E+00,+16.6938E-03,-16.7364E-03
-23.3120466E+00,+16.6938E-03,-0.0E+00
-23.3112716E+00,+17.3633E-03,-16.7364E-03
-23.3104966E+00,+17.8654E-03,+16.7364E-03
-23.3097216E+00,+16.6938E-03,-33.4728E-03
-23.3089466E+00,+17.1959E-03,-16.7364E-03
-23.3081716E+00,+17.1959E-03,+16.7364E-03
-23.3073966E+00,+16.1917E-03,+33.4728E-03
-23.3066216E+00,+17.5306E-03,+0.0E+00
-23.3058466E+00,+17.6980E-03,-0.0E+00
-23.3050716E+00,+17.1959E-03,-16.7364E-03
-23.3042966E+00,+16.8612E-03,+0.0E+00
-23.3035216E+00,+17.0286E-03,+16.7364E-03
-23.3027466E+00,+17.0286E-03,-16.7364E-03
-23.3019716E+00,+16.5265E-03,+16.7364E-03
-23.3011966E+00,+16.8612E-03,+0.0E+00
-23.3004216E+00,+16.1917E-03,+16.7364E-03
-23.2996466E+00,+17.6980E-03,+16.7364E-03
-23.2988716E+00,+17.0286E-03,+50.2092E-03
-23.2980966E+00,+16.3591E-03,+16.7364E-03
-23.2973216E+00,+17.0286E-03,+16.7364E-03
-23.2965466E+00,+17.6980E-03,+16.7364E-03
-23.2957716E+00,+17.1959E-03,-16.7364E-03
-23.2949966E+00,+17.3633E-03,-16.7364E-03
-23.2942216E+00,+16.5265E-03,+16.7364E-03
-23.2934466E+00,+16.8612E-03,+16.7364E-03
-23.2926716E+00,+17.1959E-03,+16.7364E-03
-23.2918966E+00,+16.5265E-03,-16.7364E-03
-23.2911216E+00,+17.6980E-03,-16.7364E-03
-23.2903466E+00,+17.3633E-03,+33.4728E-03
-23.2895716E+00,+16.6938E-03,-16.7364E-03
-23.2887966E+00,+16.8612E-03,+16.7364E-03
-23.2880216E+00,+16.3591E-03,+50.2092E-03
-23.2872466E+00,+17.0286E-03,+0.0E+00
-23.2864716E+00,+17.8654E-03,+16.7364E-03
-23.2856966E+00,+16.5265E-03,+16.7364E-03
-23.2849216E+00,+17.1959E-03,+0.0E+00
-23.2841466E+00,+16.0244E-03,+16.7364E-03
-23.2833716E+00,+16.5265E-03,+0.0E+00
-23.2825966E+00,+16.8612E-03,+33.4728E-03
-23.2818216E+00,+16.8612E-03,+0.0E+00
-23.2810466E+00,+17.5306E-03,+33.4728E-03
-23.2802716E+00,+16.5265E-03,+0.0E+00
-23.2794966E+00,+16.5265E-03,+16.7364E-03
-23.2787216E+00,+15.8570E-03,-16.7364E-03
-23.2779466E+00,+17.1959E-03,+33.4728E-03
-23.2771716E+00,+17.5306E-03,-0.0E+00
-23.2763966E+00,+17.8654E-03,-16.7364E-03
-23.2756216E+00,+16.6938E-03,+0.0E+00
-23.2748465E+00,+17.1959E-03,+33.4728E-03
-23.2740715E+00,+17.3633E-03,+0.0E+00
-23.2732965E+00,+17.5306E-03,+33.4728E-03
-23.2725215E+00,+17.1959E-03,+16.7364E-03
-23.2717465E+00,+17.3633E-03,-33.4728E-03
-23.2709715E+00,+17.6980E-03,+0.0E+00
-23.2701965E+00,+16.8612E-03,+16.7364E-03
-23.2694215E+00,+16.1917E-03,-16.7364E-03
-23.2686465E+00,+17.0286E-03,+0.0E+00
-23.2678715E+00,+16.3591E-03,+16.7364E-03
-23.2670965E+00,+16.0244E-03,+33.4728E-03
-23.2663215E+00,+16.5265E-03,+0.0E+00
-23.2655465E+00,+17.1959E-03,+16.7364E-03
-23.2647715E+00,+15.8570E-03,+0.0E+00
-23.2639965E+00,+16.5265E-03,+16.7364E-03
-23.2632215E+00,+16.5265E-03,+0.0E+00
-23.2624465E+00,+16.3591E-03,+0.0E+00
-23.2616715E+00,+17.1959E-03,-0.0E+00
-23.2608965E+00,+17.1959E-03,-16.7364E-03
-23.2601215E+00,+16.5265E-03,+0.0E+00
-23.2593465E+00,+17.5306E-03,+0.0E+00
-23.2585715E+00,+17.3633E-03,+33.4728E-03
-23.2577965E+00,+17.0286E-03,+0.0E+00
-23.2570215E+00,+16.3591E-03,+0.0E+00
-23.2562465E+00,+17.3633E-03,+0.0E+00
-23.2554715E+00,+17.0286E-03,+33.4728E-03
-23.2546965E+00,+17.3633E-03,-16.7364E-03
-23.2539215E+00,+16.6938E-03,+16.7364E-03
-23.2531465E+00,+16.5265E-03,-16.7364E-03
-23.2523715E+00,+17.0286E-03,+16.7364E-03
-23.2515965E+00,+17.3633E-03,+0.0E+00
-23.2508215E+00,+15.6896E-03,+0.0E+00
-23.2500465E+00,+16.8612E-03,+16.7364E-03
-23.2492715E+00,+16.5265E-03,-16.7364E-03
-23.2484965E+00,+17.0286E-03,+33.4728E-03
-23.2477215E+00,+16.0244E-03,-16.7364E-03
-23.2469465E+00,+16.6938E-03,+0.0E+00
-23.2461715E+00,+15.8570E-03,-0.0E+00
-23.2453965E+00,+16.1917E-03,-16.7364E-03
-23.2446215E+00,+16.6938E-03,+16.7364E-03
-23.2438465E+00,+17.0286E-03,+16.7364E-03
-23.2430715E+00,+17.1959E-03,+16.7364E-03
-23.2422965E+00,+17.1959E-03,+16.7364E-03
-23.2415215E+00,+16.8612E-03,+0.0E+00
-23.2407465E+00,+17.0286E-03,+0.0E+00
-23.2399715E+00,+17.1959E-03,+16.7364E-03
-23.2391965E+00,+17.0286E-03,-16.7364E-03
-23.2384215E+00,+17.1959E-03,-16.7364E-03
-23.2376465E+00,+17.0286E-03,-0.0E+00
-23.2368715E+00,+16.6938E-03,-16.7364E-03
-23.2360965E+00,+17.0286E-03,+0.0E+00
-23.2353215E+00,+16.6938E-03,+0.0E+00
-23.2345465E+00,+16.1917E-03,+0.0E+00
-23.2337715E+00,+17.3633E-03,+16.7364E-03
-23.2329965E+00,+16.5265E-03,-0.0E+00
-23.2322215E+00,+16.3591E-03,-16.7364E-03
-23.2314465E+00,+17.0286E-03,+0.0E+00
-23.2306715E+00,+16.1917E-03,+16.7364E-03
-23.2298965E+00,+16.6938E-03,-16.7364E-03
-23.2291215E+00,+17.3633E-03,+16.7364E-03
-23.2283465E+00,+17.1959E-03,+16.7364E-03
-23.2275715E+00,+16.5265E-03,+33.4728E-03
-23.2267965E+00,+16.0244E-03,-33.4728E-03
-23.2260215E+00,+16.1917E-03,+0.0E+00
-23.2252465E+00,+16.6938E-03,+0.0E+00
-23.2244714E+00,+16.6938E-03,+16.7364E-03
-23.2236964E+00,+17.1959E-03,-16.7364E-03
-23.2229214E+00,+16.8612E-03,-50.2092E-03
-23.2221464E+00,+16.5265E-03,+0.0E+00
-23.2213714E+00,+16.6938E-03,+0.0E+00
-23.2205964E+00,+16.8612E-03,+0.0E+00
-23.2198214E+00,+16.6938E-03,+0.0E+00
-23.2190464E+00,+16.8612E-03,+0.0E+00
-23.2182714E+00,+16.1917E-03,+33.4728E-03
-23.2174964E+00,+17.0286E-03,+0.0E+00
-23.2167214E+00,+16.0244E-03,+16.7364E-03
-23.2159464E+00,+17.5306E-03,+33.4728E-03
-23.2151714E+00,+16.8612E-03,-16.7364E-03
-23.2143964E+00,+16.5265E-03,+16.7364E-03
-23.2136214E+00,+17.0286E-03,-16.7364E-03
-23.2128464E+00,+16.8612E-03,-16.7364E-03
-23.2120714E+00,+16.3591E-03,-16.7364E-03
-23.2112964E+00,+17.1959E-03,+16.7364E-03
-23.2105214E+00,+17.0286E-03,+16.7364E-03
-23.2097464E+00,+17.3633E-03,+16.7364E-03
-23.2089714E+00,+16.8612E-03,+0.0E+00
-23.2081964E+00,+16.5265E-03,+16.7364E-03
-23.2074214E+00,+17.0286E-03,+0.0E+00
-23.2066464E+00,+17.5306E-03,+16.7364E-03
-23.2058714E+00,+17.6980E-03,+16.7364E-03
-23.2050964E+00,+17.6980E-03,+16.7364E-03
-23.2043214E+00,+17.0286E-03,-16.7364E-03
-23.2035464E+00,+16.6938E-03,+0.0E+00
-23.2027714E+00,+17.8654E-03,+16.7364E-03
-23.2019964E+00,+17.1959E-03,-16.7364E-03
-23.2012214E+00,+16.8612E-03,+33.4728E-03
-23.2004464E+00,+16.1917E-03,+16.7364E-03
-23.1996714E+00,+16.3591E-03,-16.7364E-03
-23.1988964E+00,+17.1959E-03,+0.0E+00
-23.1981214E+00,+17.1959E-03,-0.0E+00
-23.1973464E+00,+16.8612E-03,-16.7364E-03
-23.1965714E+00,+17.5306E-03,+0.0E+00
-23.1957964E+00,+16.8612E-03,+33.4728E-03
-23.1950214E+00,+17.8654E-03,+0.0E+00
-23.1942464E+00,+17.0286E-03,+16.7364E-03
-23.1934714E+00,+16.8612E-03,-16.7364E-03
-23.1926964E+00,+17.1959E-03,+0.0E+00
-23.1919214E+00,+17.1959E-03,+16.7364E-03
-23.1911464E+00,+16.0244E-03,+33.4728E-03
-23.1903714E+00,+17.5306E-03,+16.7364E-03
-23.1895964E+00,+16.8612E-03,+0.0E+00
-23.1888214E+00,+17.6980E-03,-0.0E+00
-23.1880464E+00,+16.6938E-03,-16.7364E-03
-23.1872714E+00,+17.0286E-03,-0.0E+00
-23.1864964E+00,+17.1959E-03,-16.7364E-03
-23.1857214E+00,+17.3633E-03,+33.4728E-03
-23.1849464E+00,+17.1959E-03,+16.7364E-03
-23.1841714E+00,+17.0286E-03,+0.0E+00
-23.1833964E+00,+16.3591E-03,+16.7364E-03
-23.1826214E+00,+17.5306E-03,-0.0E+00
-23.1818464E+00,+17.0286E-03,-33.4728E-03
-23.1810714E+00,+17.1959E-03,+0.0E+00
-23.1802964E+00,+17.0286E-03,+0.0E+00
-23.1795214E+00,+17.1959E-03,-0.0E+00
-23.1787464E+00,+17.5306E-03,-16.7364E-03
-23.1779714E+00,+16.8612E-03,-0.0E+00
-23.1771964E+00,+17.5306E-03,-16.7364E-03
-23.1764214E+00,+16.5265E-03,-0.0E+00
-23.1756464E+00,+18.0327E-03,-33.4728E-03
-23.1748713E+00,+16.8612E-03,+33.4728E-03
-23.1740963E+00,+17.5306E-03,+16.7364E-03
-23.1733213E+00,+17.0286E-03,+0.0E+00
-23.1725463E+00,+16.5265E-03,+33.4728E-03
-23.1717713E+00,+16.8612E-03,-16.7364E-03
-23.1709963E+00,+17.5306E-03,+33.4728E-03
-23.1702213E+00,+16.6938E-03,+16.7364E-03
-23.1694463E+00,+17.1959E-03,+16.7364E-03
-23.1686713E+00,+17.1959E-03,+16.7364E-03
-23.1678963E+00,+17.6980E-03,+16.7364E-03
-23.1671213E+00,+17.1959E-03,+0.0E+00
-23.1663463E+00,+17.1959E-03,+16.7364E-03
-23.1655713E+00,+17.1959E-03,-16.7364E-03
-23.1647963E+00,+17.3633E-03,-16.7364E-03
-23.1640213E+00,+17.1959E-03,-0.0E+00
-23.1632463E+00,+17.1959E-03,-16.7364E-03
-23.1624713E+00,+16.5265E-03,+0.0E+00
-23.1616963E+00,+16.5265E-03,+16.7364E-03
-23.1609213E+00,+17.5306E-03,+0.0E+00
-23.1601463E+00,+17.0286E-03,+0.0E+00
-23.1593713E+00,+17.0286E-03,+16.7364E-03
-23.1585963E+00,+17.1959E-03,-50.2092E-03
-23.1578213E+00,+17.1959E-03,-16.7364E-03
-23.1570463E+00,+16.8612E-03,-33.4728E-03
-23.1562713E+00,+16.6938E-03,+0.0E+00
-23.1554963E+00,+17.3633E-03,-0.0E+00
-23.1547213E+00,+16.1917E-03,-16.7364E-03
-23.1539463E+00,+17.3633E-03,+16.7364E-03
-23.1531713E+00,+16.5265E-03,-16.7364E-03
-23.1523963E+00,+16.8612E-03,+16.7364E-03
-23.1516213E+00,+17.5306E-03,-16.7364E-03
-23.1508463E+00,+16.3591E-03,+16.7364E-03
-23.1500713E+00,+17.1959E-03,+0.0E+00
-23.1492963E+00,+16.8612E-03,+33.4728E-03
-23.1485213E+00,+17.0286E-03,+0.0E+00
-23.1477463E+00,+17.1959E-03,+16.7364E-03
-23.1469713E+00,+16.3591E-03,+0.0E+00
-23.1461963E+00,+17.8654E-03,+33.4728E-03
-23.1454213E+00,+16.5265E-03,+16.7364E-03
-23.1446463E+00,+17.5306E-03,+16.7364E-03
-23.1438713E+00,+16.8612E-03,-16.7364E-03
-23.1430963E+00,+17.3633E-03,+33.4728E-03
-23.1423213E+00,+16.6938E-03,+0.0E+00
-23.1415463E+00,+17.1959E-03,+0.0E+00
-23.1407713E+00,+16.6938E-03,+16.7364E-03
-23.1399963E+00,+16.5265E-03,+16.7364E-03
-23.1392213E+00,+16.5265E-03,+50.2092E-03
-23.1384463E+00,+17.3633E-03,-16.7364E-03
-23.1376713E+00,+16.8612E-03,+16.7364E-03
-23.1368963E+00,+16.8612E-03,-33.4728E-03
-23.1361213E+00,+17.3633E-03,-33.4728E-03
-23.1353463E+00,+17.6980E-03,-16.7364E-03
-23.1345713E+00,+17.0286E-03,-33.4728E-03
-23.1337963E+00,+16.3591E-03,-0.0E+00
-23.1330213E+00,+16.6938E-03,-16.7364E-03
-23.1322463E+00,+16.3591E-03,-33.4728E-03
-23.1314713E+00,+17.1959E-03,-16.7364E-03
-23.1306963E+00,+16.8612E-03,-16.7364E-03
-23.1299213E+00,+16.6938E-03,-0.0E+00
-23.1291463E+00,+15.6896E-03,-16.7364E-03
-23.1283713E+00,+17.1959E-03,+16.7364E-03
-23.1275963E+00,+17.5306E-03,+16.7364E-03
-23.1268213E+00,+16.8612E-03,+16.7364E-03
-23.1260463E+00,+17.5306E-03,+16.7364E-03
-23.1252713E+00,+17.0286E-03,+16.7364E-03
-23.1244962E+00,+16.3591E-03,+50.2092E-03
-23.1237212E+00,+16.3591E-03,+16.7364E-03
-23.1229462E+00,+18.2001E-03,+50.2092E-03
-23.1221712E+00,+17.6980E-03,+33.4728E-03
-23.1213962E+00,+17.1959E-03,+0.0E+00
-23.1206212E+00,+16.6938E-03,+0.0E+00
-23.1198462E+00,+16.3591E-03,+0.0E+00
-23.1190712E+00,+16.3591E-03,+0.0E+00
-23.1182962E+00,+16.3591E-03,-0.0E+00
-23.1175212E+00,+17.3633E-03,-16.7364E-03
-23.1167462E+00,+17.0286E-03,+0.0E+00
-23.1159712E+00,+16.0244E-03,+0.0E+00
-23.1151962E+00,+16.6938E-03,+16.7364E-03
-23.1144212E+00,+16.8612E-03,+50.2092E-03
-23.1136462E+00,+17.6980E-03,+16.7364E-03
-23.1128712E+00,+17.0286E-03,+0.0E+00
-23.1120962E+00,+17.3633E-03,+16.7364E-03
-23.1113212E+00,+16.5265E-03,-16.7364E-03
-23.1105462E+00,+17.0286E-03,-16.7364E-03
-23.1097712E+00,+16.6938E-03,+16.7364E-03
-23.1089962E+00,+16.5265E-03,+0.0E+00
-23.1082212E+00,+16.3591E-03,+50.2092E-03
-23.1074462E+00,+16.0244E-03,-16.7364E-03
-23.1066712E+00,+17.1959E-03,-16.7364E-03
-23.1058962E+00,+17.1959E-03,+0.0E+00
-23.1051212E+00,+16.5265E-03,+0.0E+00
-23.1043462E+00,+17.6980E-03,+0.0E+00
-23.1035712E+00,+16.1917E-03,+16.7364E-03
-23.1027962E+00,+16.6938E-03,+16.7364E-03
-23.1020212E+00,+17.3633E-03,+33.4728E-03
-23.1012462E+00,+17.3633E-03,-16.7364E-03
-23.1004712E+00,+17.0286E-03,-16.7364E-03
-23.0996962E+00,+17.1959E-03,-16.7364E-03
-23.0989212E+00,+16.6938E-03,+16.7364E-03
-23.0981462E+00,+16.5265E-03,+33.4728E-03
-23.0973712E+00,+17.3633E-03,+0.0E+00
-23.0965962E+00,+17.8654E-03,-0.0E+00
-23.0958212E+00,+16.6938E-03,-16.7364E-03
