x-axis,1KHZ,3
second,Volt,Volt
-45.000000E+00,+8.995E-03,+33.473E-03
-44.998600E+00,+8.995E-03,+33.473E-03
-44.997200E+00,+9.162E-03,-0.0E+00
-44.995800E+00,+8.660E-03,-16.736E-03
-44.994400E+00,+9.665E-03,+33.473E-03
-44.993000E+00,+8.660E-03,+0.0E+00
-44.991600E+00,+9.330E-03,+33.473E-03
-44.990200E+00,+8.995E-03,+16.736E-03
-44.988800E+00,+9.162E-03,+33.473E-03
-44.987400E+00,+9.999E-03,+33.473E-03
-44.986000E+00,+8.158E-03,+16.736E-03
-44.984600E+00,+9.330E-03,+16.736E-03
-44.983200E+00,+8.828E-03,-16.736E-03
-44.981800E+00,+8.828E-03,-16.736E-03
-44.980400E+00,+9.162E-03,-16.736E-03
-44.979000E+00,+9.330E-03,+33.473E-03
-44.977600E+00,+8.995E-03,+0.0E+00
-44.976200E+00,+9.497E-03,+16.736E-03
-44.974800E+00,+8.493E-03,+0.0E+00
-44.973400E+00,+8.995E-03,+0.0E+00
-44.972000E+00,+8.995E-03,+0.0E+00
-44.970600E+00,+8.995E-03,+16.736E-03
-44.969200E+00,+8.995E-03,+33.473E-03
-44.967800E+00,+9.330E-03,+0.0E+00
-44.966400E+00,+7.824E-03,+16.736E-03
-44.965000E+00,+9.162E-03,-16.736E-03
-44.963600E+00,+8.493E-03,+16.736E-03
-44.962200E+00,+9.497E-03,+16.736E-03
-44.960800E+00,+9.999E-03,-16.736E-03
-44.959400E+00,+8.995E-03,-16.736E-03
-44.958000E+00,+9.162E-03,+0.0E+00
-44.956600E+00,+8.493E-03,+16.736E-03
-44.955200E+00,+9.497E-03,+0.0E+00
-44.953799E+00,+8.828E-03,+16.736E-03
-44.952399E+00,+8.995E-03,+33.473E-03
-44.950999E+00,+8.493E-03,+0.0E+00
-44.949599E+00,+9.162E-03,+0.0E+00
-44.948199E+00,+8.660E-03,+16.736E-03
-44.946799E+00,+8.660E-03,+16.736E-03
-44.945399E+00,+8.995E-03,-16.736E-03
-44.943999E+00,+8.995E-03,+16.736E-03
-44.942599E+00,+9.497E-03,+0.0E+00
-44.941199E+00,+9.832E-03,+33.473E-03
-44.939799E+00,+8.326E-03,+33.473E-03
-44.938399E+00,+9.330E-03,-16.736E-03
-44.936999E+00,+9.330E-03,-16.736E-03
-44.935599E+00,+9.162E-03,+16.736E-03
-44.934199E+00,+8.995E-03,-16.736E-03
-44.932799E+00,+9.330E-03,-16.736E-03
-44.931399E+00,+8.828E-03,-16.736E-03
-44.929999E+00,+10.334E-03,-16.736E-03
-44.928599E+00,+9.497E-03,+16.736E-03
-44.927199E+00,+9.330E-03,+16.736E-03
-44.925799E+00,+8.995E-03,-16.736E-03
-44.924399E+00,+8.660E-03,+0.0E+00
-44.922999E+00,+9.330E-03,-0.0E+00
-44.921599E+00,+9.162E-03,-33.473E-03
-44.920199E+00,+9.665E-03,-0.0E+00
-44.918799E+00,+8.995E-03,-16.736E-03
-44.917399E+00,+8.158E-03,-33.473E-03
-44.915999E+00,+9.330E-03,+16.736E-03
-44.914599E+00,+9.162E-03,+16.736E-03
-44.913199E+00,+8.995E-03,+33.473E-03
-44.911799E+00,+8.995E-03,-0.0E+00
-44.910399E+00,+8.995E-03,-16.736E-03
-44.908999E+00,+9.162E-03,+33.473E-03
-44.907599E+00,+9.330E-03,+0.0E+00
-44.906199E+00,+8.828E-03,-0.0E+00
-44.904799E+00,+9.497E-03,-16.736E-03
-44.903399E+00,+8.326E-03,+0.0E+00
-44.901999E+00,+9.162E-03,+0.0E+00
-44.900599E+00,+9.497E-03,+16.736E-03
-44.899199E+00,+8.493E-03,+16.736E-03
-44.897799E+00,+8.660E-03,-16.736E-03
-44.896399E+00,+8.828E-03,-50.209E-03
-44.894999E+00,+9.665E-03,-16.736E-03
-44.893599E+00,+8.660E-03,-0.0E+00
-44.892199E+00,+8.660E-03,-33.473E-03
-44.890799E+00,+9.497E-03,-33.473E-03
-44.889399E+00,+8.660E-03,+16.736E-03
-44.887999E+00,+9.162E-03,+16.736E-03
-44.886599E+00,+8.995E-03,+16.736E-03
-44.885199E+00,+9.665E-03,-16.736E-03
-44.883799E+00,+9.330E-03,+16.736E-03
-44.882399E+00,+9.665E-03,+16.736E-03
-44.880999E+00,+8.828E-03,-0.0E+00
-44.879599E+00,+8.660E-03,-33.473E-03
-44.878199E+00,+8.828E-03,+16.736E-03
-44.876799E+00,+9.497E-03,-0.0E+00
-44.875399E+00,+9.832E-03,-33.473E-03
-44.873999E+00,+9.330E-03,+16.736E-03
-44.872599E+00,+8.660E-03,+16.736E-03
-44.871199E+00,+8.828E-03,-16.736E-03
-44.869799E+00,+8.493E-03,-33.473E-03
-44.868399E+00,+8.493E-03,+16.736E-03
-44.866999E+00,+9.330E-03,+16.736E-03
-44.865599E+00,+9.665E-03,+16.736E-03
-44.864198E+00,+9.162E-03,+0.0E+00
-44.862798E+00,+8.995E-03,+16.736E-03
-44.861398E+00,+8.158E-03,+0.0E+00
-44.859998E+00,+9.162E-03,+16.736E-03
-44.858598E+00,+8.995E-03,+0.0E+00
-44.857198E+00,+9.162E-03,+16.736E-03
-44.855798E+00,+9.497E-03,-0.0E+00
-44.854398E+00,+9.832E-03,-16.736E-03
-44.852998E+00,+8.660E-03,+16.736E-03
-44.851598E+00,+8.660E-03,-16.736E-03
-44.850198E+00,+8.995E-03,+16.736E-03
-44.848798E+00,+8.326E-03,+33.473E-03
-44.847398E+00,+8.493E-03,-16.736E-03
-44.845998E+00,+8.326E-03,-33.473E-03
-44.844598E+00,+8.995E-03,-16.736E-03
-44.843198E+00,+9.162E-03,+16.736E-03
-44.841798E+00,+8.660E-03,-0.0E+00
-44.840398E+00,+9.162E-03,-33.473E-03
-44.838998E+00,+9.330E-03,-33.473E-03
-44.837598E+00,+8.158E-03,+0.0E+00
-44.836198E+00,+9.162E-03,-0.0E+00
-44.834798E+00,+9.330E-03,-16.736E-03
-44.833398E+00,+8.828E-03,-0.0E+00
-44.831998E+00,+8.995E-03,-16.736E-03
-44.830598E+00,+8.326E-03,-16.736E-03
-44.829198E+00,+9.832E-03,+0.0E+00
-44.827798E+00,+8.493E-03,+0.0E+00
-44.826398E+00,+8.828E-03,+0.0E+00
-44.824998E+00,+8.493E-03,+0.0E+00
-44.823598E+00,+9.497E-03,+16.736E-03
-44.822198E+00,+8.493E-03,+16.736E-03
-44.820798E+00,+9.330E-03,+0.0E+00
-44.819398E+00,+9.497E-03,+16.736E-03
-44.817998E+00,+8.995E-03,+0.0E+00
-44.816598E+00,+9.330E-03,+33.473E-03
-44.815198E+00,+8.326E-03,-16.736E-03
-44.813798E+00,+8.995E-03,+16.736E-03
-44.812398E+00,+9.832E-03,-0.0E+00
-44.810998E+00,+8.828E-03,-16.736E-03
-44.809598E+00,+8.995E-03,+0.0E+00
-44.808198E+00,+8.828E-03,+16.736E-03
-44.806798E+00,+9.497E-03,+16.736E-03
-44.805398E+00,+9.162E-03,+16.736E-03
-44.803998E+00,+8.828E-03,+16.736E-03
-44.802598E+00,+9.162E-03,+0.0E+00
-44.801198E+00,+8.995E-03,-0.0E+00
-44.799798E+00,+9.162E-03,-16.736E-03
-44.798398E+00,+9.162E-03,-0.0E+00
-44.796998E+00,+8.828E-03,-33.473E-03
-44.795598E+00,+9.162E-03,+33.473E-03
-44.794198E+00,+8.828E-03,+16.736E-03
-44.792798E+00,+8.828E-03,-0.0E+00
-44.791398E+00,+8.660E-03,-16.736E-03
-44.789998E+00,+9.162E-03,-16.736E-03
-44.788598E+00,+8.995E-03,+33.473E-03
-44.787198E+00,+9.330E-03,+0.0E+00
-44.785798E+00,+8.995E-03,+16.736E-03
-44.784398E+00,+9.497E-03,-33.473E-03
-44.782998E+00,+8.660E-03,+0.0E+00
-44.781598E+00,+9.162E-03,+16.736E-03
-44.780198E+00,+8.995E-03,-16.736E-03
-44.778798E+00,+9.665E-03,-0.0E+00
-44.777398E+00,+9.497E-03,-16.736E-03
-44.775998E+00,+8.995E-03,-0.0E+00
-44.774597E+00,+8.828E-03,-16.736E-03
-44.773197E+00,+9.330E-03,-16.736E-03
-44.771797E+00,+9.330E-03,+0.0E+00
-44.770397E+00,+9.497E-03,+0.0E+00
-44.768997E+00,+9.162E-03,+0.0E+00
-44.767597E+00,+9.497E-03,+16.736E-03
-44.766197E+00,+8.995E-03,-0.0E+00
-44.764797E+00,+9.162E-03,-16.736E-03
-44.763397E+00,+9.497E-03,-0.0E+00
-44.761997E+00,+8.995E-03,-50.209E-03
-44.760597E+00,+8.828E-03,+16.736E-03
-44.759197E+00,+8.995E-03,+0.0E+00
-44.757797E+00,+9.162E-03,+16.736E-03
-44.756397E+00,+8.660E-03,+16.736E-03
-44.754997E+00,+8.995E-03,-16.736E-03
-44.753597E+00,+8.493E-03,+0.0E+00
-44.752197E+00,+8.158E-03,+16.736E-03
-44.750797E+00,+9.497E-03,+16.736E-03
-44.749397E+00,+8.828E-03,+0.0E+00
-44.747997E+00,+9.330E-03,+16.736E-03
-44.746597E+00,+8.828E-03,+0.0E+00
-44.745197E+00,+9.162E-03,+16.736E-03
-44.743797E+00,+8.493E-03,-16.736E-03
-44.742397E+00,+8.995E-03,+16.736E-03
-44.740997E+00,+9.999E-03,-33.473E-03
-44.739597E+00,+9.330E-03,+16.736E-03
-44.738197E+00,+8.828E-03,+0.0E+00
-44.736797E+00,+8.326E-03,+16.736E-03
-44.735397E+00,+9.330E-03,+0.0E+00
-44.733997E+00,+9.330E-03,+0.0E+00
-44.732597E+00,+8.660E-03,+0.0E+00
-44.731197E+00,+9.162E-03,+16.736E-03
-44.729797E+00,+8.660E-03,-16.736E-03
-44.728397E+00,+9.497E-03,-16.736E-03
-44.726997E+00,+8.995E-03,+16.736E-03
-44.725597E+00,+8.660E-03,-0.0E+00
-44.724197E+00,+9.999E-03,-16.736E-03
-44.722797E+00,+8.995E-03,+16.736E-03
-44.721397E+00,+9.999E-03,+0.0E+00
-44.719997E+00,+8.660E-03,+0.0E+00
-44.718597E+00,+8.995E-03,+16.736E-03
-44.717197E+00,+9.162E-03,-16.736E-03
-44.715797E+00,+8.828E-03,+0.0E+00
-44.714397E+00,+9.162E-03,+16.736E-03
-44.712997E+00,+7.321E-03,+33.473E-03
-44.711597E+00,+8.326E-03,+16.736E-03
-44.710197E+00,+8.995E-03,-16.736E-03
-44.708797E+00,+8.326E-03,-16.736E-03
-44.707397E+00,+9.330E-03,+16.736E-03
-44.705997E+00,+8.995E-03,+0.0E+00
-44.704597E+00,+8.828E-03,+0.0E+00
-44.703197E+00,+8.828E-03,+16.736E-03
-44.701797E+00,+9.162E-03,-16.736E-03
-44.700397E+00,+9.330E-03,-16.736E-03
-44.698997E+00,+9.330E-03,-16.736E-03
-44.697597E+00,+9.162E-03,+16.736E-03
-44.696197E+00,+9.162E-03,-16.736E-03
-44.694797E+00,+8.995E-03,+16.736E-03
-44.693397E+00,+9.330E-03,+0.0E+00
-44.691997E+00,+9.330E-03,+16.736E-03
-44.690597E+00,+8.995E-03,-16.736E-03
-44.689197E+00,+9.330E-03,+33.473E-03
-44.687797E+00,+9.162E-03,+16.736E-03
-44.686397E+00,+9.330E-03,-33.473E-03
-44.684996E+00,+9.162E-03,+16.736E-03
-44.683596E+00,+8.660E-03,-16.736E-03
-44.682196E+00,+8.828E-03,+0.0E+00
-44.680796E+00,+8.660E-03,+16.736E-03
-44.679396E+00,+8.493E-03,-16.736E-03
-44.677996E+00,+7.991E-03,+16.736E-03
-44.676596E+00,+9.330E-03,-16.736E-03
-44.675196E+00,+8.493E-03,+0.0E+00
-44.673796E+00,+9.330E-03,+16.736E-03
-44.672396E+00,+8.828E-03,+16.736E-03
-44.670996E+00,+8.493E-03,+0.0E+00
-44.669596E+00,+8.326E-03,+16.736E-03
-44.668196E+00,+8.660E-03,+16.736E-03
-44.666796E+00,+9.665E-03,+0.0E+00
-44.665396E+00,+9.497E-03,+33.473E-03
-44.663996E+00,+7.991E-03,+16.736E-03
-44.662596E+00,+9.497E-03,-0.0E+00
-44.661196E+00,+8.995E-03,-16.736E-03
-44.659796E+00,+8.995E-03,+16.736E-03
-44.658396E+00,+8.995E-03,-0.0E+00
-44.656996E+00,+9.330E-03,-16.736E-03
-44.655596E+00,+9.999E-03,+0.0E+00
-44.654196E+00,+9.162E-03,-0.0E+00
-44.652796E+00,+8.158E-03,-33.473E-03
-44.651396E+00,+8.326E-03,-0.0E+00
-44.649996E+00,+9.832E-03,-16.736E-03
-44.648596E+00,+9.162E-03,+16.736E-03
-44.647196E+00,+8.493E-03,-50.209E-03
-44.645796E+00,+9.162E-03,-0.0E+00
-44.644396E+00,+8.828E-03,-16.736E-03
-44.642996E+00,+8.995E-03,-16.736E-03
-44.641596E+00,+8.828E-03,+33.473E-03
-44.640196E+00,+9.665E-03,+16.736E-03
-44.638796E+00,+8.326E-03,-16.736E-03
-44.637396E+00,+8.828E-03,-33.473E-03
-44.635996E+00,+8.326E-03,+0.0E+00
-44.634596E+00,+8.493E-03,+16.736E-03
-44.633196E+00,+8.828E-03,+0.0E+00
-44.631796E+00,+9.497E-03,+33.473E-03
-44.630396E+00,+8.660E-03,+16.736E-03
-44.628996E+00,+9.497E-03,+0.0E+00
-44.627596E+00,+8.660E-03,+0.0E+00
-44.626196E+00,+9.330E-03,+16.736E-03
-44.624796E+00,+9.665E-03,+16.736E-03
-44.623396E+00,+8.660E-03,+0.0E+00
-44.621996E+00,+8.995E-03,+33.473E-03
-44.620596E+00,+8.660E-03,+16.736E-03
-44.619196E+00,+9.330E-03,-16.736E-03
-44.617796E+00,+9.162E-03,+0.0E+00
-44.616396E+00,+9.162E-03,-0.0E+00
-44.614996E+00,+8.995E-03,-16.736E-03
-44.613596E+00,+8.995E-03,+33.473E-03
-44.612196E+00,+8.995E-03,-16.736E-03
-44.610796E+00,+8.828E-03,-16.736E-03
-44.609396E+00,+9.330E-03,+0.0E+00
-44.607996E+00,+9.330E-03,+16.736E-03
-44.606596E+00,+9.832E-03,-33.473E-03
-44.605196E+00,+8.995E-03,-33.473E-03
-44.603796E+00,+9.497E-03,+16.736E-03
-44.602396E+00,+8.828E-03,-0.0E+00
-44.600996E+00,+8.995E-03,-33.473E-03
-44.599596E+00,+8.995E-03,-0.0E+00
-44.598196E+00,+9.330E-03,-16.736E-03
-44.596796E+00,+8.660E-03,-16.736E-03
-44.595396E+00,+9.330E-03,+33.473E-03
-44.593995E+00,+8.660E-03,+33.473E-03
-44.592595E+00,+9.330E-03,+16.736E-03
-44.591195E+00,+9.162E-03,+16.736E-03
-44.589795E+00,+9.162E-03,+0.0E+00
-44.588395E+00,+9.497E-03,+0.0E+00
-44.586995E+00,+9.162E-03,+0.0E+00
-44.585595E+00,+8.326E-03,+16.736E-03
-44.584195E+00,+8.660E-03,-50.209E-03
-44.582795E+00,+8.995E-03,+16.736E-03
-44.581395E+00,+8.995E-03,-0.0E+00
-44.579995E+00,+9.497E-03,-16.736E-03
-44.578595E+00,+9.330E-03,+16.736E-03
-44.577195E+00,+9.162E-03,+16.736E-03
-44.575795E+00,+9.162E-03,+16.736E-03
-44.574395E+00,+9.162E-03,-33.473E-03
-44.572995E+00,+9.162E-03,-33.473E-03
-44.571595E+00,+9.162E-03,+33.473E-03
-44.570195E+00,+9.162E-03,+33.473E-03
-44.568795E+00,+8.660E-03,-33.473E-03
-44.567395E+00,+9.497E-03,+33.473E-03
-44.565995E+00,+9.497E-03,+0.0E+00
-44.564595E+00,+8.995E-03,+33.473E-03
-44.563195E+00,+9.162E-03,+16.736E-03
-44.561795E+00,+9.162E-03,+0.0E+00
-44.560395E+00,+8.828E-03,+0.0E+00
-44.558995E+00,+8.326E-03,+16.736E-03
-44.557595E+00,+9.832E-03,+16.736E-03
-44.556195E+00,+8.828E-03,+16.736E-03
-44.554795E+00,+8.660E-03,-33.473E-03
-44.553395E+00,+8.828E-03,-33.473E-03
-44.551995E+00,+8.660E-03,+16.736E-03
-44.550595E+00,+9.665E-03,+0.0E+00
-44.549195E+00,+8.995E-03,+0.0E+00
-44.547795E+00,+8.493E-03,-0.0E+00
-44.546395E+00,+8.828E-03,-16.736E-03
-44.544995E+00,+9.162E-03,+16.736E-03
-44.543595E+00,+9.162E-03,+16.736E-03
-44.542195E+00,+9.330E-03,+16.736E-03
-44.540795E+00,+8.828E-03,-16.736E-03
-44.539395E+00,+8.660E-03,-16.736E-03
-44.537995E+00,+9.162E-03,-33.473E-03
-44.536595E+00,+9.330E-03,-16.736E-03
-44.535195E+00,+8.660E-03,+16.736E-03
-44.533795E+00,+8.828E-03,-16.736E-03
-44.532395E+00,+8.995E-03,+16.736E-03
-44.530995E+00,+8.828E-03,+33.473E-03
-44.529595E+00,+8.660E-03,+33.473E-03
-44.528195E+00,+8.995E-03,+16.736E-03
-44.526795E+00,+10.167E-03,+0.0E+00
-44.525395E+00,+9.665E-03,+16.736E-03
-44.523995E+00,+7.991E-03,-16.736E-03
-44.522595E+00,+9.162E-03,-0.0E+00
-44.521195E+00,+8.828E-03,-33.473E-03
-44.519795E+00,+9.497E-03,+0.0E+00
-44.518395E+00,+9.665E-03,+33.473E-03
-44.516995E+00,+9.330E-03,+16.736E-03
-44.515595E+00,+7.824E-03,+16.736E-03
-44.514195E+00,+9.162E-03,+0.0E+00
-44.512795E+00,+8.995E-03,+16.736E-03
-44.511395E+00,+8.828E-03,+16.736E-03
-44.509995E+00,+9.497E-03,+50.209E-03
-44.508595E+00,+8.995E-03,+16.736E-03
-44.507195E+00,+9.497E-03,-16.736E-03
-44.505795E+00,+9.162E-03,-0.0E+00
-44.504394E+00,+8.660E-03,-16.736E-03
-44.502994E+00,+8.660E-03,+16.736E-03
-44.501594E+00,+8.828E-03,-0.0E+00
-44.500194E+00,+8.828E-03,-16.736E-03
-44.498794E+00,+9.665E-03,-16.736E-03
-44.497394E+00,+8.660E-03,-16.736E-03
-44.495994E+00,+8.828E-03,+16.736E-03
-44.494594E+00,+8.828E-03,+0.0E+00
-44.493194E+00,+8.828E-03,+0.0E+00
-44.491794E+00,+8.828E-03,+16.736E-03
-44.490394E+00,+8.493E-03,+16.736E-03
-44.488994E+00,+8.660E-03,+16.736E-03
-44.487594E+00,+8.995E-03,+33.473E-03
-44.486194E+00,+8.828E-03,+16.736E-03
-44.484794E+00,+9.999E-03,-33.473E-03
-44.483394E+00,+8.828E-03,+0.0E+00
-44.481994E+00,+8.493E-03,+16.736E-03
-44.480594E+00,+7.824E-03,-0.0E+00
-44.479194E+00,+9.162E-03,-33.473E-03
-44.477794E+00,+10.334E-03,-16.736E-03
-44.476394E+00,+8.828E-03,+33.473E-03
-44.474994E+00,+9.497E-03,+0.0E+00
-44.473594E+00,+8.995E-03,+16.736E-03
-44.472194E+00,+9.665E-03,+33.473E-03
-44.470794E+00,+9.665E-03,+16.736E-03
-44.469394E+00,+8.828E-03,+50.209E-03
-44.467994E+00,+9.162E-03,+0.0E+00
-44.466594E+00,+9.162E-03,-0.0E+00
-44.465194E+00,+8.995E-03,-33.473E-03
-44.463794E+00,+9.330E-03,+0.0E+00
-44.462394E+00,+9.162E-03,+0.0E+00
-44.460994E+00,+9.162E-03,+0.0E+00
-44.459594E+00,+8.995E-03,+0.0E+00
-44.458194E+00,+8.828E-03,+16.736E-03
-44.456794E+00,+8.828E-03,+0.0E+00
-44.455394E+00,+8.660E-03,+16.736E-03
-44.453994E+00,+9.497E-03,-16.736E-03
-44.452594E+00,+9.162E-03,-16.736E-03
-44.451194E+00,+8.995E-03,-16.736E-03
-44.449794E+00,+10.167E-03,+16.736E-03
-44.448394E+00,+9.665E-03,+16.736E-03
-44.446994E+00,+8.660E-03,-0.0E+00
-44.445594E+00,+8.828E-03,-16.736E-03
-44.444194E+00,+8.660E-03,+16.736E-03
-44.442794E+00,+9.162E-03,+0.0E+00
-44.441394E+00,+9.497E-03,+0.0E+00
-44.439994E+00,+9.162E-03,+16.736E-03
-44.438594E+00,+8.828E-03,-16.736E-03
-44.437194E+00,+9.330E-03,-16.736E-03
-44.435794E+00,+8.995E-03,+16.736E-03
-44.434394E+00,+8.995E-03,+16.736E-03
-44.432994E+00,+9.497E-03,-16.736E-03
-44.431594E+00,+8.995E-03,-16.736E-03
-44.430194E+00,+8.660E-03,-16.736E-03
-44.428794E+00,+8.660E-03,-16.736E-03
-44.427394E+00,+8.995E-03,+33.473E-03
-44.425994E+00,+9.497E-03,-33.473E-03
-44.424594E+00,+8.493E-03,+0.0E+00
-44.423194E+00,+8.660E-03,-0.0E+00
-44.421794E+00,+9.162E-03,-16.736E-03
-44.420394E+00,+8.660E-03,+0.0E+00
-44.418994E+00,+9.330E-03,+0.0E+00
-44.417594E+00,+8.660E-03,+0.0E+00
-44.416194E+00,+8.660E-03,+33.473E-03
-44.414793E+00,+8.828E-03,-16.736E-03
-44.413393E+00,+8.493E-03,+50.209E-03
-44.411993E+00,+8.326E-03,-16.736E-03
-44.410593E+00,+8.660E-03,-0.0E+00
-44.409193E+00,+7.991E-03,-16.736E-03
-44.407793E+00,+8.326E-03,-0.0E+00
-44.406393E+00,+9.162E-03,-16.736E-03
-44.404993E+00,+9.665E-03,+16.736E-03
-44.403593E+00,+8.995E-03,+16.736E-03
-44.402193E+00,+8.995E-03,+16.736E-03
-44.400793E+00,+8.995E-03,-16.736E-03
-44.399393E+00,+7.824E-03,+33.473E-03
-44.397993E+00,+8.660E-03,-16.736E-03
-44.396593E+00,+8.828E-03,+16.736E-03
-44.395193E+00,+9.330E-03,-16.736E-03
-44.393793E+00,+9.162E-03,+0.0E+00
-44.392393E+00,+8.828E-03,+16.736E-03
-44.390993E+00,+8.493E-03,-16.736E-03
-44.389593E+00,+8.660E-03,+33.473E-03
-44.388193E+00,+8.828E-03,+33.473E-03
-44.386793E+00,+8.660E-03,+0.0E+00
-44.385393E+00,+9.665E-03,+16.736E-03
-44.383993E+00,+9.330E-03,+16.736E-03
-44.382593E+00,+9.330E-03,+16.736E-03
-44.381193E+00,+8.326E-03,+33.473E-03
-44.379793E+00,+9.162E-03,+16.736E-03
-44.378393E+00,+8.493E-03,+16.736E-03
-44.376993E+00,+9.330E-03,+16.736E-03
-44.375593E+00,+9.497E-03,+16.736E-03
-44.374193E+00,+9.665E-03,+0.0E+00
-44.372793E+00,+8.326E-03,+33.473E-03
-44.371393E+00,+10.167E-03,+16.736E-03
-44.369993E+00,+8.660E-03,-16.736E-03
-44.368593E+00,+8.493E-03,+16.736E-03
-44.367193E+00,+9.162E-03,+16.736E-03
-44.365793E+00,+8.828E-03,-16.736E-03
-44.364393E+00,+9.162E-03,-16.736E-03
-44.362993E+00,+8.995E-03,-50.209E-03
-44.361593E+00,+9.330E-03,-16.736E-03
-44.360193E+00,+8.660E-03,+16.736E-03
-44.358793E+00,+9.665E-03,-50.209E-03
-44.357393E+00,+8.660E-03,-16.736E-03
-44.355993E+00,+9.162E-03,-16.736E-03
-44.354593E+00,+9.665E-03,-16.736E-03
-44.353193E+00,+8.995E-03,-16.736E-03
-44.351793E+00,+9.665E-03,+16.736E-03
-44.350393E+00,+9.330E-03,+0.0E+00
-44.348993E+00,+8.660E-03,+0.0E+00
-44.347593E+00,+9.832E-03,+0.0E+00
-44.346193E+00,+9.330E-03,+0.0E+00
-44.344793E+00,+8.660E-03,+33.473E-03
-44.343393E+00,+9.832E-03,+33.473E-03
-44.341993E+00,+8.660E-03,-0.0E+00
-44.340593E+00,+8.493E-03,-16.736E-03
-44.339193E+00,+8.995E-03,-16.736E-03
-44.337793E+00,+8.995E-03,-16.736E-03
-44.336393E+00,+9.330E-03,+16.736E-03
-44.334993E+00,+8.493E-03,-33.473E-03
-44.333593E+00,+8.158E-03,+0.0E+00
-44.332193E+00,+9.497E-03,+0.0E+00
-44.330793E+00,+8.828E-03,+0.0E+00
-44.329393E+00,+8.493E-03,+16.736E-03
-44.327993E+00,+9.497E-03,+16.736E-03
-44.326593E+00,+9.330E-03,-16.736E-03
-44.325193E+00,+8.158E-03,+0.0E+00
-44.323792E+00,+8.828E-03,+16.736E-03
-44.322392E+00,+8.995E-03,+16.736E-03
-44.320992E+00,+9.999E-03,-16.736E-03
-44.319592E+00,+8.158E-03,+0.0E+00
-44.318192E+00,+8.158E-03,+33.473E-03
-44.316792E+00,+8.660E-03,+0.0E+00
-44.315392E+00,+8.326E-03,+0.0E+00
-44.313992E+00,+8.828E-03,+16.736E-03
-44.312592E+00,+8.660E-03,-0.0E+00
-44.311192E+00,+8.660E-03,-50.209E-03
-44.309792E+00,+8.660E-03,+16.736E-03
-44.308392E+00,+9.330E-03,-16.736E-03
-44.306992E+00,+9.162E-03,+16.736E-03
-44.305592E+00,+8.828E-03,+16.736E-03
-44.304192E+00,+8.995E-03,+0.0E+00
-44.302792E+00,+8.158E-03,-0.0E+00
-44.301392E+00,+9.162E-03,-33.473E-03
-44.299992E+00,+8.828E-03,+16.736E-03
-44.298592E+00,+8.493E-03,+16.736E-03
-44.297192E+00,+9.162E-03,-33.473E-03
-44.295792E+00,+8.995E-03,-16.736E-03
-44.294392E+00,+9.330E-03,+16.736E-03
-44.292992E+00,+8.995E-03,-0.0E+00
-44.291592E+00,+9.162E-03,-16.736E-03
-44.290192E+00,+9.497E-03,-16.736E-03
-44.288792E+00,+9.162E-03,+16.736E-03
-44.287392E+00,+8.326E-03,-0.0E+00
-44.285992E+00,+9.665E-03,-16.736E-03
-44.284592E+00,+9.162E-03,+0.0E+00
-44.283192E+00,+9.162E-03,-0.0E+00
-44.281792E+00,+9.999E-03,-16.736E-03
-44.280392E+00,+8.493E-03,+0.0E+00
-44.278992E+00,+8.828E-03,+16.736E-03
-44.277592E+00,+9.330E-03,-16.736E-03
-44.276192E+00,+9.497E-03,-16.736E-03
-44.274792E+00,+8.493E-03,+0.0E+00
-44.273392E+00,+9.162E-03,+0.0E+00
-44.271992E+00,+9.162E-03,+0.0E+00
-44.270592E+00,+9.665E-03,+16.736E-03
-44.269192E+00,+9.330E-03,+16.736E-03
-44.267792E+00,+8.660E-03,+0.0E+00
-44.266392E+00,+8.995E-03,+0.0E+00
-44.264992E+00,+9.162E-03,+0.0E+00
-44.263592E+00,+9.665E-03,+0.0E+00
-44.262192E+00,+8.660E-03,+16.736E-03
-44.260792E+00,+9.497E-03,+16.736E-03
-44.259392E+00,+8.158E-03,+0.0E+00
-44.257992E+00,+8.828E-03,-0.0E+00
-44.256592E+00,+9.162E-03,-16.736E-03
-44.255192E+00,+9.665E-03,+16.736E-03
-44.253792E+00,+8.828E-03,-0.0E+00
-44.252392E+00,+8.660E-03,-16.736E-03
-44.250992E+00,+9.162E-03,+16.736E-03
-44.249592E+00,+8.995E-03,-16.736E-03
-44.248192E+00,+8.660E-03,-16.736E-03
-44.246792E+00,+9.330E-03,+16.736E-03
-44.245392E+00,+8.995E-03,+50.209E-03
-44.243992E+00,+8.828E-03,+0.0E+00
-44.242592E+00,+8.828E-03,-0.0E+00
-44.241192E+00,+9.497E-03,-16.736E-03
-44.239792E+00,+8.828E-03,-16.736E-03
-44.238392E+00,+8.660E-03,-16.736E-03
-44.236992E+00,+9.665E-03,-16.736E-03
-44.235592E+00,+9.330E-03,-16.736E-03
-44.234191E+00,+8.828E-03,+16.736E-03
-44.232791E+00,+8.995E-03,+0.0E+00
-44.231391E+00,+8.660E-03,+0.0E+00
-44.229991E+00,+9.162E-03,+16.736E-03
-44.228591E+00,+9.162E-03,+16.736E-03
-44.227191E+00,+9.162E-03,-0.0E+00
-44.225791E+00,+9.665E-03,-33.473E-03
-44.224391E+00,+8.995E-03,+0.0E+00
-44.222991E+00,+8.660E-03,+16.736E-03
-44.221591E+00,+8.660E-03,-33.473E-03
-44.220191E+00,+9.999E-03,-16.736E-03
-44.218791E+00,+8.828E-03,+16.736E-03
-44.217391E+00,+8.828E-03,-16.736E-03
-44.215991E+00,+8.326E-03,-16.736E-03
-44.214591E+00,+9.330E-03,+0.0E+00
-44.213191E+00,+8.660E-03,+0.0E+00
-44.211791E+00,+8.828E-03,+33.473E-03
-44.210391E+00,+8.828E-03,+16.736E-03
-44.208991E+00,+9.330E-03,+16.736E-03
-44.207591E+00,+8.326E-03,+16.736E-03
-44.206191E+00,+8.326E-03,-16.736E-03
-44.204791E+00,+8.493E-03,+33.473E-03
-44.203391E+00,+8.660E-03,+33.473E-03
-44.201991E+00,+9.497E-03,-16.736E-03
-44.200591E+00,+9.999E-03,+16.736E-03
-44.199191E+00,+9.162E-03,+16.736E-03
-44.197791E+00,+8.995E-03,+16.736E-03
-44.196391E+00,+9.665E-03,+0.0E+00
-44.194991E+00,+9.665E-03,+0.0E+00
-44.193591E+00,+8.326E-03,+33.473E-03
-44.192191E+00,+9.162E-03,+16.736E-03
-44.190791E+00,+8.995E-03,-33.473E-03
-44.189391E+00,+8.828E-03,+0.0E+00
-44.187991E+00,+8.660E-03,+0.0E+00
-44.186591E+00,+9.162E-03,+0.0E+00
-44.185191E+00,+8.828E-03,+16.736E-03
-44.183791E+00,+9.162E-03,+16.736E-03
-44.182391E+00,+10.167E-03,+0.0E+00
-44.180991E+00,+9.162E-03,+16.736E-03
-44.179591E+00,+8.828E-03,-0.0E+00
-44.178191E+00,+8.828E-03,-33.473E-03
-44.176791E+00,+8.660E-03,-16.736E-03
-44.175391E+00,+9.665E-03,+16.736E-03
-44.173991E+00,+8.995E-03,+16.736E-03
-44.172591E+00,+8.493E-03,-33.473E-03
-44.171191E+00,+9.330E-03,-33.473E-03
-44.169791E+00,+9.832E-03,+33.473E-03
-44.168391E+00,+8.828E-03,+16.736E-03
-44.166991E+00,+8.995E-03,+16.736E-03
-44.165591E+00,+8.995E-03,+0.0E+00
-44.164191E+00,+9.330E-03,+16.736E-03
-44.162791E+00,+9.497E-03,+16.736E-03
-44.161391E+00,+9.330E-03,+0.0E+00
-44.159991E+00,+9.162E-03,+16.736E-03
-44.158591E+00,+9.330E-03,-0.0E+00
-44.157191E+00,+8.828E-03,-16.736E-03
-44.155791E+00,+8.995E-03,-16.736E-03
-44.154391E+00,+8.995E-03,+33.473E-03
-44.152991E+00,+8.995E-03,+0.0E+00
-44.151591E+00,+9.162E-03,+16.736E-03
-44.150191E+00,+8.660E-03,+33.473E-03
-44.148791E+00,+9.162E-03,+16.736E-03
-44.147391E+00,+9.330E-03,-0.0E+00
-44.145991E+00,+8.995E-03,-16.736E-03
-44.144590E+00,+8.660E-03,-16.736E-03
-44.143190E+00,+9.497E-03,+16.736E-03
-44.141790E+00,+9.330E-03,+16.736E-03
-44.140390E+00,+8.828E-03,+0.0E+00
-44.138990E+00,+8.326E-03,-0.0E+00
-44.137590E+00,+8.995E-03,-16.736E-03
-44.136190E+00,+9.162E-03,-33.473E-03
-44.134790E+00,+9.497E-03,-16.736E-03
-44.133390E+00,+9.832E-03,+0.0E+00
-44.131990E+00,+8.995E-03,+0.0E+00
-44.130590E+00,+9.330E-03,+0.0E+00
-44.129190E+00,+8.158E-03,+16.736E-03
-44.127790E+00,+9.497E-03,+33.473E-03
-44.126390E+00,+8.158E-03,-16.736E-03
-44.124990E+00,+8.828E-03,+16.736E-03
-44.123590E+00,+8.660E-03,-16.736E-03
-44.122190E+00,+8.493E-03,+50.209E-03
-44.120790E+00,+9.497E-03,-16.736E-03
-44.119390E+00,+9.162E-03,-16.736E-03
-44.117990E+00,+8.828E-03,+16.736E-03
-44.116590E+00,+8.326E-03,+16.736E-03
-44.115190E+00,+8.493E-03,-0.0E+00
-44.113790E+00,+8.828E-03,-16.736E-03
-44.112390E+00,+7.991E-03,+0.0E+00
-44.110990E+00,+8.828E-03,+33.473E-03
-44.109590E+00,+8.660E-03,+16.736E-03
-44.108190E+00,+8.995E-03,+0.0E+00
-44.106790E+00,+9.665E-03,+0.0E+00
-44.105390E+00,+8.995E-03,-0.0E+00
-44.103990E+00,+8.660E-03,-16.736E-03
-44.102590E+00,+9.162E-03,-16.736E-03
-44.101190E+00,+8.995E-03,-16.736E-03
-44.099790E+00,+9.162E-03,+0.0E+00
-44.098390E+00,+9.497E-03,+0.0E+00
-44.096990E+00,+8.493E-03,+0.0E+00
-44.095590E+00,+8.660E-03,+0.0E+00
-44.094190E+00,+9.330E-03,+16.736E-03
-44.092790E+00,+9.162E-03,-16.736E-03
-44.091390E+00,+9.162E-03,+16.736E-03
-44.089990E+00,+8.995E-03,-0.0E+00
-44.088590E+00,+8.660E-03,-16.736E-03
-44.087190E+00,+8.995E-03,+0.0E+00
-44.085790E+00,+9.162E-03,+16.736E-03
-44.084390E+00,+8.660E-03,+33.473E-03
-44.082990E+00,+8.326E-03,-0.0E+00
-44.081590E+00,+8.828E-03,-16.736E-03
-44.080190E+00,+8.660E-03,+0.0E+00
-44.078790E+00,+8.660E-03,+33.473E-03
-44.077390E+00,+8.995E-03,-16.736E-03
-44.075990E+00,+9.162E-03,+0.0E+00
-44.074590E+00,+8.995E-03,+50.209E-03
-44.073190E+00,+8.995E-03,+16.736E-03
-44.071790E+00,+8.326E-03,-16.736E-03
-44.070390E+00,+9.497E-03,-16.736E-03
-44.068990E+00,+8.995E-03,+0.0E+00
-44.067590E+00,+8.828E-03,+33.473E-03
-44.066190E+00,+8.828E-03,+50.209E-03
-44.064790E+00,+8.995E-03,-50.209E-03
-44.063390E+00,+9.162E-03,+0.0E+00
-44.061990E+00,+8.660E-03,+33.473E-03
-44.060590E+00,+8.828E-03,+16.736E-03
-44.059190E+00,+9.162E-03,-16.736E-03
-44.057790E+00,+8.660E-03,-16.736E-03
-44.056390E+00,+7.991E-03,-0.0E+00
-44.054989E+00,+9.162E-03,-16.736E-03
-44.053589E+00,+8.326E-03,+0.0E+00
-44.052189E+00,+9.162E-03,+16.736E-03
-44.050789E+00,+8.995E-03,+0.0E+00
-44.049389E+00,+8.828E-03,+0.0E+00
-44.047989E+00,+8.326E-03,+33.473E-03
-44.046589E+00,+8.995E-03,-16.736E-03
-44.045189E+00,+9.330E-03,+0.0E+00
-44.043789E+00,+9.665E-03,-0.0E+00
-44.042389E+00,+9.497E-03,-33.473E-03
-44.040989E+00,+8.493E-03,-16.736E-03
-44.039589E+00,+8.828E-03,+16.736E-03
-44.038189E+00,+9.330E-03,+33.473E-03
-44.036789E+00,+9.497E-03,+0.0E+00
-44.035389E+00,+8.326E-03,+16.736E-03
-44.033989E+00,+9.162E-03,+33.473E-03
-44.032589E+00,+8.660E-03,+16.736E-03
-44.031189E+00,+9.330E-03,-0.0E+00
-44.029789E+00,+8.660E-03,-16.736E-03
-44.028389E+00,+8.493E-03,+0.0E+00
-44.026989E+00,+8.828E-03,+16.736E-03
-44.025589E+00,+8.326E-03,-16.736E-03
-44.024189E+00,+8.158E-03,+16.736E-03
-44.022789E+00,+8.995E-03,+16.736E-03
-44.021389E+00,+9.330E-03,+33.473E-03
-44.019989E+00,+8.660E-03,+33.473E-03
-44.018589E+00,+9.162E-03,+16.736E-03
-44.017189E+00,+8.995E-03,-16.736E-03
-44.015789E+00,+7.489E-03,+33.473E-03
-44.014389E+00,+9.162E-03,-16.736E-03
-44.012989E+00,+8.660E-03,-16.736E-03
-44.011589E+00,+8.828E-03,+0.0E+00
-44.010189E+00,+8.660E-03,+0.0E+00
-44.008789E+00,+8.828E-03,+0.0E+00
-44.007389E+00,+8.828E-03,+16.736E-03
-44.005989E+00,+8.660E-03,+0.0E+00
-44.004589E+00,+8.995E-03,+16.736E-03
-44.003189E+00,+8.326E-03,+16.736E-03
-44.001789E+00,+8.326E-03,+0.0E+00
-44.000389E+00,+9.162E-03,+0.0E+00
-43.998989E+00,+7.991E-03,-0.0E+00
-43.997589E+00,+9.665E-03,-16.736E-03
-43.996189E+00,+9.497E-03,+16.736E-03
-43.994789E+00,+9.665E-03,+0.0E+00
-43.993389E+00,+8.828E-03,+0.0E+00
-43.991989E+00,+9.330E-03,+16.736E-03
-43.990589E+00,+9.665E-03,-33.473E-03
-43.989189E+00,+9.497E-03,+0.0E+00
-43.987789E+00,+8.660E-03,-0.0E+00
-43.986389E+00,+8.828E-03,-16.736E-03
-43.984989E+00,+9.330E-03,+33.473E-03
-43.983589E+00,+8.326E-03,+0.0E+00
-43.982189E+00,+8.660E-03,+16.736E-03
-43.980789E+00,+8.995E-03,+16.736E-03
-43.979389E+00,+8.326E-03,-16.736E-03
-43.977989E+00,+8.660E-03,-0.0E+00
-43.976589E+00,+9.665E-03,-16.736E-03
-43.975189E+00,+9.497E-03,-16.736E-03
-43.973789E+00,+9.162E-03,-16.736E-03
-43.972389E+00,+9.497E-03,-0.0E+00
-43.970989E+00,+8.326E-03,-16.736E-03
-43.969589E+00,+9.162E-03,+0.0E+00
-43.968189E+00,+9.330E-03,+16.736E-03
-43.966789E+00,+9.162E-03,-16.736E-03
-43.965389E+00,+8.326E-03,-16.736E-03
-43.963988E+00,+8.995E-03,+16.736E-03
-43.962588E+00,+8.995E-03,-50.209E-03
-43.961188E+00,+8.660E-03,+0.0E+00
-43.959788E+00,+8.995E-03,-0.0E+00
-43.958388E+00,+8.828E-03,-33.473E-03
-43.956988E+00,+9.162E-03,-16.736E-03
-43.955588E+00,+8.326E-03,-16.736E-03
-43.954188E+00,+9.162E-03,+16.736E-03
-43.952788E+00,+8.828E-03,-0.0E+00
-43.951388E+00,+9.330E-03,-16.736E-03
-43.949988E+00,+8.828E-03,+0.0E+00
-43.948588E+00,+8.158E-03,+50.209E-03
-43.947188E+00,+8.828E-03,+16.736E-03
-43.945788E+00,+9.330E-03,+16.736E-03
-43.944388E+00,+8.660E-03,+16.736E-03
-43.942988E+00,+8.828E-03,+0.0E+00
-43.941588E+00,+8.493E-03,+16.736E-03
-43.940188E+00,+9.497E-03,+33.473E-03
-43.938788E+00,+8.995E-03,+16.736E-03
-43.937388E+00,+8.995E-03,+16.736E-03
-43.935988E+00,+8.995E-03,+16.736E-03
-43.934588E+00,+8.828E-03,+16.736E-03
-43.933188E+00,+8.828E-03,+0.0E+00
-43.931788E+00,+8.995E-03,+16.736E-03
-43.930388E+00,+9.162E-03,-16.736E-03
-43.928988E+00,+9.330E-03,+50.209E-03
-43.927588E+00,+8.326E-03,+16.736E-03
-43.926188E+00,+8.493E-03,+16.736E-03
-43.924788E+00,+9.330E-03,+16.736E-03
-43.923388E+00,+8.828E-03,+16.736E-03
-43.921988E+00,+8.158E-03,-33.473E-03
-43.920588E+00,+8.326E-03,-16.736E-03
-43.919188E+00,+9.330E-03,+0.0E+00
-43.917788E+00,+8.995E-03,+0.0E+00
-43.916388E+00,+9.162E-03,+0.0E+00
-43.914988E+00,+8.828E-03,-0.0E+00
-43.913588E+00,+9.330E-03,-16.736E-03
-43.912188E+00,+8.660E-03,+16.736E-03
-43.910788E+00,+8.660E-03,+0.0E+00
-43.909388E+00,+8.326E-03,+33.473E-03
-43.907988E+00,+8.995E-03,+0.0E+00
-43.906588E+00,+8.660E-03,+16.736E-03
-43.905188E+00,+8.828E-03,-16.736E-03
-43.903788E+00,+9.330E-03,+0.0E+00
-43.902388E+00,+9.162E-03,-0.0E+00
-43.900988E+00,+9.330E-03,-16.736E-03
-43.899588E+00,+8.326E-03,+16.736E-03
-43.898188E+00,+8.660E-03,+0.0E+00
-43.896788E+00,+9.665E-03,+16.736E-03
-43.895388E+00,+9.162E-03,+0.0E+00
-43.893988E+00,+9.162E-03,+16.736E-03
-43.892588E+00,+8.828E-03,+0.0E+00
-43.891188E+00,+8.660E-03,+0.0E+00
-43.889788E+00,+8.660E-03,+33.473E-03
-43.888388E+00,+8.493E-03,+33.473E-03
-43.886988E+00,+9.665E-03,+0.0E+00
-43.885588E+00,+10.167E-03,+0.0E+00
-43.884188E+00,+8.660E-03,+0.0E+00
-43.882788E+00,+9.162E-03,+16.736E-03
-43.881388E+00,+8.660E-03,-16.736E-03
-43.879988E+00,+9.330E-03,+0.0E+00
-43.878588E+00,+8.828E-03,-0.0E+00
-43.877188E+00,+8.660E-03,-16.736E-03
-43.875788E+00,+8.660E-03,+0.0E+00
-43.874387E+00,+9.330E-03,+33.473E-03
-43.872987E+00,+8.660E-03,+50.209E-03
-43.871587E+00,+8.995E-03,-0.0E+00
-43.870187E+00,+9.162E-03,-16.736E-03
-43.868787E+00,+9.330E-03,+0.0E+00
-43.867387E+00,+8.660E-03,+0.0E+00
-43.865987E+00,+8.995E-03,+0.0E+00
-43.864587E+00,+8.660E-03,+16.736E-03
-43.863187E+00,+8.828E-03,-16.736E-03
-43.861787E+00,+9.162E-03,-16.736E-03
-43.860387E+00,+9.330E-03,+16.736E-03
-43.858987E+00,+8.493E-03,+0.0E+00
-43.857587E+00,+8.660E-03,-0.0E+00
-43.856187E+00,+8.493E-03,-16.736E-03
-43.854787E+00,+8.660E-03,+0.0E+00
-43.853387E+00,+9.162E-03,+16.736E-03
-43.851987E+00,+8.326E-03,-16.736E-03
-43.850587E+00,+8.493E-03,+33.473E-03
-43.849187E+00,+7.656E-03,+16.736E-03
-43.847787E+00,+9.162E-03,-16.736E-03
-43.846387E+00,+9.162E-03,+0.0E+00
-43.844987E+00,+9.832E-03,+16.736E-03
-43.843587E+00,+9.162E-03,+16.736E-03
-43.842187E+00,+8.995E-03,-0.0E+00
-43.840787E+00,+8.493E-03,-16.736E-03
-43.839387E+00,+8.995E-03,+16.736E-03
-43.837987E+00,+9.162E-03,-0.0E+00
-43.836587E+00,+9.162E-03,-16.736E-03
-43.835187E+00,+9.162E-03,-0.0E+00
-43.833787E+00,+9.162E-03,-16.736E-03
-43.832387E+00,+9.162E-03,+50.209E-03
-43.830987E+00,+8.493E-03,+16.736E-03
-43.829587E+00,+9.162E-03,+16.736E-03
-43.828187E+00,+8.828E-03,-16.736E-03
-43.826787E+00,+7.991E-03,+0.0E+00
-43.825387E+00,+9.330E-03,+0.0E+00
-43.823987E+00,+8.828E-03,+16.736E-03
-43.822587E+00,+8.995E-03,+0.0E+00
-43.821187E+00,+9.497E-03,-0.0E+00
-43.819787E+00,+8.828E-03,-16.736E-03
-43.818387E+00,+8.660E-03,+16.736E-03
-43.816987E+00,+8.828E-03,-16.736E-03
-43.815587E+00,+8.326E-03,-0.0E+00
-43.814187E+00,+8.828E-03,-16.736E-03
-43.812787E+00,+8.660E-03,-16.736E-03
-43.811387E+00,+8.995E-03,+16.736E-03
-43.809987E+00,+9.832E-03,-16.736E-03
-43.808587E+00,+8.493E-03,+16.736E-03
-43.807187E+00,+8.828E-03,-16.736E-03
-43.805787E+00,+8.158E-03,+16.736E-03
-43.804387E+00,+9.330E-03,+16.736E-03
-43.802987E+00,+7.991E-03,+50.209E-03
-43.801587E+00,+9.162E-03,+0.0E+00
-43.800187E+00,+9.497E-03,+16.736E-03
-43.798787E+00,+9.162E-03,+16.736E-03
-43.797387E+00,+8.995E-03,+0.0E+00
-43.795987E+00,+9.665E-03,+0.0E+00
-43.794587E+00,+8.995E-03,+33.473E-03
-43.793187E+00,+8.493E-03,-16.736E-03
-43.791787E+00,+9.665E-03,+0.0E+00
-43.790387E+00,+8.158E-03,+16.736E-03
-43.788987E+00,+8.828E-03,+0.0E+00
-43.787587E+00,+8.828E-03,+16.736E-03
-43.786187E+00,+9.330E-03,-0.0E+00
-43.784786E+00,+9.162E-03,-33.473E-03
-43.783386E+00,+8.660E-03,+16.736E-03
-43.781986E+00,+8.995E-03,-0.0E+00
-43.780586E+00,+8.660E-03,-16.736E-03
-43.779186E+00,+9.162E-03,+0.0E+00
-43.777786E+00,+8.828E-03,+16.736E-03
-43.776386E+00,+9.330E-03,+16.736E-03
-43.774986E+00,+9.330E-03,-16.736E-03
-43.773586E+00,+8.995E-03,+0.0E+00
-43.772186E+00,+8.828E-03,+0.0E+00
-43.770786E+00,+9.330E-03,+33.473E-03
-43.769386E+00,+8.493E-03,-0.0E+00
-43.767986E+00,+8.828E-03,-16.736E-03
-43.766586E+00,+8.158E-03,+16.736E-03
-43.765186E+00,+8.995E-03,+0.0E+00
-43.763786E+00,+9.162E-03,+0.0E+00
-43.762386E+00,+8.995E-03,-0.0E+00
-43.760986E+00,+8.828E-03,-16.736E-03
-43.759586E+00,+9.162E-03,-0.0E+00
-43.758186E+00,+9.162E-03,-16.736E-03
-43.756786E+00,+9.162E-03,-16.736E-03
-43.755386E+00,+8.828E-03,-16.736E-03
-43.753986E+00,+8.493E-03,-16.736E-03
-43.752586E+00,+8.326E-03,-16.736E-03
-43.751186E+00,+9.162E-03,+16.736E-03
-43.749786E+00,+8.493E-03,-0.0E+00
-43.748386E+00,+7.656E-03,-16.736E-03
-43.746986E+00,+8.158E-03,-16.736E-03
-43.745586E+00,+8.493E-03,+33.473E-03
-43.744186E+00,+8.326E-03,+16.736E-03
-43.742786E+00,+9.497E-03,-0.0E+00
-43.741386E+00,+9.330E-03,-16.736E-03
-43.739986E+00,+9.497E-03,+0.0E+00
-43.738586E+00,+9.162E-03,+16.736E-03
-43.737186E+00,+8.493E-03,-16.736E-03
-43.735786E+00,+10.167E-03,-16.736E-03
-43.734386E+00,+8.326E-03,+16.736E-03
-43.732986E+00,+8.828E-03,-33.473E-03
-43.731586E+00,+9.497E-03,-0.0E+00
-43.730186E+00,+8.828E-03,-16.736E-03
-43.728786E+00,+9.330E-03,+0.0E+00
-43.727386E+00,+8.660E-03,+33.473E-03
-43.725986E+00,+7.991E-03,+0.0E+00
-43.724586E+00,+8.828E-03,+33.473E-03
-43.723186E+00,+8.660E-03,+16.736E-03
-43.721786E+00,+8.828E-03,-16.736E-03
-43.720386E+00,+9.497E-03,-16.736E-03
-43.718986E+00,+8.828E-03,+16.736E-03
-43.717586E+00,+8.995E-03,+16.736E-03
-43.716186E+00,+8.995E-03,-16.736E-03
-43.714786E+00,+8.828E-03,+0.0E+00
-43.713386E+00,+7.991E-03,+16.736E-03
-43.711986E+00,+9.162E-03,-16.736E-03
-43.710586E+00,+8.660E-03,+0.0E+00
-43.709186E+00,+8.828E-03,+0.0E+00
-43.707786E+00,+8.493E-03,+33.473E-03
-43.706386E+00,+8.995E-03,-33.473E-03
-43.704986E+00,+8.660E-03,+0.0E+00
-43.703586E+00,+8.828E-03,+16.736E-03
-43.702186E+00,+8.995E-03,-16.736E-03
-43.700786E+00,+9.832E-03,-0.0E+00
-43.699386E+00,+8.326E-03,-16.736E-03
-43.697986E+00,+9.330E-03,+16.736E-03
-43.696586E+00,+9.330E-03,+0.0E+00
-43.695186E+00,+9.330E-03,+0.0E+00
-43.693785E+00,+9.497E-03,+16.736E-03
-43.692385E+00,+9.665E-03,+16.736E-03
-43.690985E+00,+9.162E-03,-16.736E-03
-43.689585E+00,+8.995E-03,+50.209E-03
-43.688185E+00,+8.995E-03,-33.473E-03
-43.686785E+00,+8.660E-03,+16.736E-03
-43.685385E+00,+8.493E-03,-16.736E-03
-43.683985E+00,+8.493E-03,+16.736E-03
-43.682585E+00,+8.995E-03,+0.0E+00
-43.681185E+00,+9.330E-03,+0.0E+00
-43.679785E+00,+8.660E-03,+16.736E-03
-43.678385E+00,+9.832E-03,-16.736E-03
-43.676985E+00,+8.828E-03,+16.736E-03
-43.675585E+00,+9.832E-03,-0.0E+00
-43.674185E+00,+8.660E-03,-16.736E-03
-43.672785E+00,+9.665E-03,-0.0E+00
-43.671385E+00,+9.330E-03,-16.736E-03
-43.669985E+00,+8.828E-03,-0.0E+00
-43.668585E+00,+8.828E-03,-16.736E-03
-43.667185E+00,+8.828E-03,-0.0E+00
-43.665785E+00,+9.162E-03,-16.736E-03
-43.664385E+00,+8.995E-03,+0.0E+00
-43.662985E+00,+8.158E-03,+0.0E+00
-43.661585E+00,+7.991E-03,-0.0E+00
-43.660185E+00,+8.493E-03,-16.736E-03
-43.658785E+00,+8.660E-03,-0.0E+00
-43.657385E+00,+8.995E-03,-16.736E-03
-43.655985E+00,+9.162E-03,+16.736E-03
-43.654585E+00,+9.497E-03,+0.0E+00
-43.653185E+00,+8.660E-03,+0.0E+00
-43.651785E+00,+8.158E-03,+16.736E-03
-43.650385E+00,+8.828E-03,-33.473E-03
-43.648985E+00,+8.828E-03,-0.0E+00
-43.647585E+00,+8.995E-03,-16.736E-03
-43.646185E+00,+8.493E-03,+0.0E+00
-43.644785E+00,+8.326E-03,+0.0E+00
-43.643385E+00,+8.158E-03,-0.0E+00
-43.641985E+00,+8.828E-03,-16.736E-03
-43.640585E+00,+9.162E-03,-33.473E-03
-43.639185E+00,+8.493E-03,+16.736E-03
-43.637785E+00,+8.660E-03,-16.736E-03
-43.636385E+00,+8.660E-03,-33.473E-03
-43.634985E+00,+9.832E-03,+16.736E-03
-43.633585E+00,+8.828E-03,+33.473E-03
-43.632185E+00,+9.162E-03,+16.736E-03
-43.630785E+00,+8.660E-03,+0.0E+00
-43.629385E+00,+9.162E-03,+33.473E-03
-43.627985E+00,+8.493E-03,+16.736E-03
-43.626585E+00,+8.828E-03,+0.0E+00
-43.625185E+00,+8.828E-03,-0.0E+00
-43.623785E+00,+9.330E-03,-50.209E-03
-43.622385E+00,+9.832E-03,-16.736E-03
-43.620985E+00,+9.832E-03,+16.736E-03
-43.619585E+00,+9.330E-03,+0.0E+00
-43.618185E+00,+8.995E-03,+16.736E-03
-43.616785E+00,+9.665E-03,+0.0E+00
-43.615385E+00,+8.995E-03,+33.473E-03
-43.613985E+00,+8.828E-03,-16.736E-03
-43.612585E+00,+9.162E-03,+16.736E-03
-43.611185E+00,+8.660E-03,+0.0E+00
-43.609785E+00,+8.828E-03,+33.473E-03
-43.608385E+00,+9.832E-03,-16.736E-03
-43.606985E+00,+8.326E-03,+16.736E-03
-43.605585E+00,+9.330E-03,+0.0E+00
-43.604184E+00,+8.828E-03,+16.736E-03
-43.602784E+00,+9.162E-03,-16.736E-03
-43.601384E+00,+8.493E-03,+16.736E-03
-43.599984E+00,+8.660E-03,+0.0E+00
-43.598584E+00,+8.326E-03,+16.736E-03
-43.597184E+00,+8.828E-03,+0.0E+00
-43.595784E+00,+8.995E-03,+50.209E-03
-43.594384E+00,+9.162E-03,+0.0E+00
-43.592984E+00,+9.832E-03,+16.736E-03
-43.591584E+00,+9.665E-03,+16.736E-03
-43.590184E+00,+9.330E-03,+0.0E+00
-43.588784E+00,+8.995E-03,+0.0E+00
-43.587384E+00,+9.832E-03,+0.0E+00
-43.585984E+00,+9.330E-03,+33.473E-03
-43.584584E+00,+8.995E-03,+0.0E+00
-43.583184E+00,+8.493E-03,+0.0E+00
-43.581784E+00,+9.330E-03,+16.736E-03
-43.580384E+00,+8.995E-03,+0.0E+00
-43.578984E+00,+9.162E-03,-0.0E+00
-43.577584E+00,+9.162E-03,-16.736E-03
-43.576184E+00,+8.995E-03,+16.736E-03
-43.574784E+00,+8.828E-03,+0.0E+00
-43.573384E+00,+8.660E-03,+16.736E-03
-43.571984E+00,+9.330E-03,-16.736E-03
-43.570584E+00,+8.995E-03,+33.473E-03
-43.569184E+00,+8.828E-03,+0.0E+00
-43.567784E+00,+8.660E-03,-0.0E+00
-43.566384E+00,+8.660E-03,-16.736E-03
-43.564984E+00,+8.828E-03,+33.473E-03
-43.563584E+00,+8.493E-03,+50.209E-03
-43.562184E+00,+7.991E-03,-33.473E-03
-43.560784E+00,+8.660E-03,+16.736E-03
-43.559384E+00,+8.995E-03,+0.0E+00
-43.557984E+00,+8.660E-03,+16.736E-03
-43.556584E+00,+9.665E-03,+16.736E-03
-43.555184E+00,+8.660E-03,+0.0E+00
-43.553784E+00,+8.995E-03,+16.736E-03
-43.552384E+00,+8.660E-03,+0.0E+00
-43.550984E+00,+8.660E-03,+16.736E-03
-43.549584E+00,+9.330E-03,+33.473E-03
-43.548184E+00,+8.828E-03,+0.0E+00
-43.546784E+00,+9.330E-03,+16.736E-03
-43.545384E+00,+9.162E-03,+16.736E-03
-43.543984E+00,+8.995E-03,+16.736E-03
-43.542584E+00,+9.162E-03,-16.736E-03
-43.541184E+00,+8.995E-03,+33.473E-03
-43.539784E+00,+9.162E-03,-0.0E+00
-43.538384E+00,+9.330E-03,-33.473E-03
-43.536984E+00,+8.828E-03,+0.0E+00
-43.535584E+00,+7.824E-03,+16.736E-03
-43.534184E+00,+9.162E-03,+0.0E+00
-43.532784E+00,+8.493E-03,-0.0E+00
-43.531384E+00,+9.330E-03,-16.736E-03
-43.529984E+00,+9.665E-03,-16.736E-03
-43.528584E+00,+8.828E-03,-16.736E-03
-43.527184E+00,+9.665E-03,-16.736E-03
-43.525784E+00,+8.326E-03,+0.0E+00
-43.524384E+00,+8.493E-03,+0.0E+00
-43.522984E+00,+9.162E-03,+0.0E+00
-43.521584E+00,+9.665E-03,-0.0E+00
-43.520184E+00,+8.660E-03,-16.736E-03
-43.518784E+00,+8.660E-03,+16.736E-03
-43.517384E+00,+8.995E-03,+0.0E+00
-43.515984E+00,+9.665E-03,-0.0E+00
-43.514583E+00,+8.493E-03,-16.736E-03
-43.513183E+00,+8.995E-03,+16.736E-03
-43.511783E+00,+8.828E-03,+16.736E-03
-43.510383E+00,+8.828E-03,+33.473E-03
-43.508983E+00,+8.660E-03,-16.736E-03
-43.507583E+00,+10.167E-03,-16.736E-03
-43.506183E+00,+8.493E-03,-16.736E-03
-43.504783E+00,+8.493E-03,+0.0E+00
-43.503383E+00,+9.330E-03,+0.0E+00
-43.501983E+00,+8.493E-03,+16.736E-03
-43.500583E+00,+8.995E-03,+16.736E-03
-43.499183E+00,+9.497E-03,+16.736E-03
-43.497783E+00,+8.326E-03,+33.473E-03
-43.496383E+00,+8.660E-03,+16.736E-03
-43.494983E+00,+8.828E-03,-16.736E-03
-43.493583E+00,+9.330E-03,+0.0E+00
-43.492183E+00,+8.828E-03,+0.0E+00
-43.490783E+00,+8.493E-03,-0.0E+00
-43.489383E+00,+8.493E-03,-16.736E-03
-43.487983E+00,+8.660E-03,+0.0E+00
-43.486583E+00,+8.995E-03,+0.0E+00
-43.485183E+00,+7.991E-03,-0.0E+00
-43.483783E+00,+8.493E-03,-16.736E-03
-43.482383E+00,+8.828E-03,+16.736E-03
-43.480983E+00,+8.660E-03,+16.736E-03
-43.479583E+00,+9.832E-03,+33.473E-03
-43.478183E+00,+8.995E-03,-16.736E-03
-43.476783E+00,+8.493E-03,+33.473E-03
-43.475383E+00,+8.995E-03,+0.0E+00
-43.473983E+00,+9.497E-03,+16.736E-03
-43.472583E+00,+8.995E-03,-0.0E+00
-43.471183E+00,+8.828E-03,-33.473E-03
-43.469783E+00,+8.660E-03,+16.736E-03
-43.468383E+00,+8.660E-03,+0.0E+00
-43.466983E+00,+8.660E-03,+0.0E+00
-43.465583E+00,+7.991E-03,+16.736E-03
-43.464183E+00,+9.330E-03,-16.736E-03
-43.462783E+00,+8.828E-03,-33.473E-03
-43.461383E+00,+8.995E-03,+0.0E+00
-43.459983E+00,+9.999E-03,+33.473E-03
-43.458583E+00,+8.828E-03,+16.736E-03
-43.457183E+00,+9.330E-03,-33.473E-03
-43.455783E+00,+8.828E-03,+0.0E+00
-43.454383E+00,+8.158E-03,+0.0E+00
-43.452983E+00,+8.493E-03,+16.736E-03
-43.451583E+00,+8.493E-03,-16.736E-03
-43.450183E+00,+9.330E-03,-0.0E+00
-43.448783E+00,+8.995E-03,-16.736E-03
-43.447383E+00,+9.162E-03,+0.0E+00
-43.445983E+00,+8.995E-03,+0.0E+00
-43.444583E+00,+9.330E-03,-0.0E+00
-43.443183E+00,+9.162E-03,-33.473E-03
-43.441783E+00,+8.995E-03,-16.736E-03
-43.440383E+00,+8.326E-03,+0.0E+00
-43.438983E+00,+9.330E-03,-0.0E+00
-43.437583E+00,+8.995E-03,-16.736E-03
-43.436183E+00,+8.995E-03,+0.0E+00
-43.434783E+00,+8.660E-03,-0.0E+00
-43.433383E+00,+8.493E-03,-16.736E-03
-43.431983E+00,+8.326E-03,+0.0E+00
-43.430583E+00,+9.162E-03,+0.0E+00
-43.429183E+00,+8.995E-03,+0.0E+00
-43.427783E+00,+8.326E-03,+0.0E+00
-43.426383E+00,+8.493E-03,+33.473E-03
-43.424982E+00,+9.162E-03,-16.736E-03
-43.423582E+00,+8.660E-03,-16.736E-03
-43.422182E+00,+8.493E-03,+33.473E-03
-43.420782E+00,+8.660E-03,+33.473E-03
-43.419382E+00,+9.999E-03,+0.0E+00
-43.417982E+00,+8.828E-03,+16.736E-03
-43.416582E+00,+8.828E-03,+16.736E-03
-43.415182E+00,+7.991E-03,-16.736E-03
-43.413782E+00,+8.326E-03,+0.0E+00
-43.412382E+00,+9.330E-03,+16.736E-03
-43.410982E+00,+8.995E-03,+0.0E+00
-43.409582E+00,+8.828E-03,+16.736E-03
-43.408182E+00,+9.162E-03,-16.736E-03
-43.406782E+00,+8.995E-03,-33.473E-03
-43.405382E+00,+9.497E-03,+0.0E+00
-43.403982E+00,+10.167E-03,+0.0E+00
-43.402582E+00,+9.497E-03,+33.473E-03
-43.401182E+00,+9.330E-03,-0.0E+00
-43.399782E+00,+9.832E-03,-66.946E-03
-43.398382E+00,+8.326E-03,-16.736E-03
-43.396982E+00,+9.330E-03,-0.0E+00
-43.395582E+00,+8.828E-03,-16.736E-03
-43.394182E+00,+9.330E-03,-0.0E+00
-43.392782E+00,+8.995E-03,-16.736E-03
-43.391382E+00,+8.995E-03,-16.736E-03
-43.389982E+00,+9.330E-03,-0.0E+00
-43.388582E+00,+9.497E-03,-16.736E-03
-43.387182E+00,+9.497E-03,+0.0E+00
-43.385782E+00,+9.497E-03,+0.0E+00
-43.384382E+00,+8.493E-03,+0.0E+00
-43.382982E+00,+8.660E-03,-0.0E+00
-43.381582E+00,+8.995E-03,-16.736E-03
-43.380182E+00,+9.330E-03,+0.0E+00
-43.378782E+00,+8.828E-03,+16.736E-03
-43.377382E+00,+9.330E-03,+16.736E-03
-43.375982E+00,+8.995E-03,-16.736E-03
-43.374582E+00,+9.665E-03,+33.473E-03
-43.373182E+00,+8.995E-03,-16.736E-03
-43.371782E+00,+8.660E-03,+16.736E-03
-43.370382E+00,+8.493E-03,+0.0E+00
-43.368982E+00,+9.330E-03,+16.736E-03
-43.367582E+00,+9.162E-03,+0.0E+00
-43.366182E+00,+8.995E-03,+16.736E-03
-43.364782E+00,+9.162E-03,+50.209E-03
-43.363382E+00,+9.497E-03,+0.0E+00
-43.361982E+00,+9.162E-03,+0.0E+00
-43.360582E+00,+9.497E-03,+0.0E+00
-43.359182E+00,+9.330E-03,+0.0E+00
-43.357782E+00,+9.330E-03,-0.0E+00
-43.356382E+00,+9.330E-03,-16.736E-03
-43.354982E+00,+9.330E-03,+16.736E-03
-43.353582E+00,+8.660E-03,+0.0E+00
-43.352182E+00,+9.330E-03,+16.736E-03
-43.350782E+00,+9.162E-03,+0.0E+00
-43.349382E+00,+8.995E-03,+0.0E+00
-43.347982E+00,+9.162E-03,-0.0E+00
-43.346582E+00,+8.493E-03,-16.736E-03
-43.345182E+00,+8.660E-03,+16.736E-03
-43.343782E+00,+9.832E-03,+16.736E-03
-43.342382E+00,+9.162E-03,+0.0E+00
-43.340982E+00,+9.330E-03,+16.736E-03
-43.339582E+00,+8.828E-03,+16.736E-03
-43.338182E+00,+9.162E-03,+16.736E-03
-43.336782E+00,+9.497E-03,+16.736E-03
-43.335382E+00,+9.162E-03,-16.736E-03
-43.333981E+00,+9.330E-03,-16.736E-03
-43.332581E+00,+9.497E-03,-16.736E-03
-43.331181E+00,+9.330E-03,+0.0E+00
-43.329781E+00,+8.828E-03,+16.736E-03
-43.328381E+00,+9.162E-03,-16.736E-03
-43.326981E+00,+8.828E-03,+16.736E-03
-43.325581E+00,+9.162E-03,+33.473E-03
-43.324181E+00,+9.330E-03,+0.0E+00
-43.322781E+00,+9.665E-03,+16.736E-03
-43.321381E+00,+8.828E-03,-16.736E-03
-43.319981E+00,+9.162E-03,+0.0E+00
-43.318581E+00,+8.995E-03,+33.473E-03
-43.317181E+00,+8.995E-03,+0.0E+00
-43.315781E+00,+9.497E-03,+16.736E-03
-43.314381E+00,+9.497E-03,+0.0E+00
-43.312981E+00,+9.832E-03,+16.736E-03
-43.311581E+00,+8.828E-03,+16.736E-03
-43.310181E+00,+8.828E-03,+0.0E+00
-43.308781E+00,+8.493E-03,+0.0E+00
-43.307381E+00,+7.824E-03,+0.0E+00
-43.305981E+00,+9.162E-03,-0.0E+00
-43.304581E+00,+8.995E-03,-16.736E-03
-43.303181E+00,+8.828E-03,-16.736E-03
-43.301781E+00,+8.158E-03,+0.0E+00
-43.300381E+00,+8.828E-03,+16.736E-03
-43.298981E+00,+8.828E-03,+33.473E-03
-43.297581E+00,+9.162E-03,+16.736E-03
-43.296181E+00,+8.660E-03,-16.736E-03
-43.294781E+00,+8.828E-03,-16.736E-03
-43.293381E+00,+9.330E-03,+0.0E+00
-43.291981E+00,+8.660E-03,+16.736E-03
-43.290581E+00,+8.493E-03,+50.209E-03
-43.289181E+00,+8.660E-03,-16.736E-03
-43.287781E+00,+9.330E-03,+0.0E+00
-43.286381E+00,+7.991E-03,+33.473E-03
-43.284981E+00,+8.828E-03,+0.0E+00
-43.283581E+00,+8.326E-03,+0.0E+00
-43.282181E+00,+8.828E-03,+16.736E-03
-43.280781E+00,+8.326E-03,+16.736E-03
-43.279381E+00,+9.497E-03,+16.736E-03
-43.277981E+00,+9.162E-03,+16.736E-03
-43.276581E+00,+8.493E-03,+16.736E-03
-43.275181E+00,+8.995E-03,+16.736E-03
-43.273781E+00,+8.995E-03,+33.473E-03
-43.272381E+00,+8.828E-03,+33.473E-03
-43.270981E+00,+8.995E-03,-0.0E+00
-43.269581E+00,+8.995E-03,-33.473E-03
-43.268181E+00,+8.660E-03,+0.0E+00
-43.266781E+00,+8.493E-03,+0.0E+00
-43.265381E+00,+8.660E-03,-0.0E+00
-43.263981E+00,+10.167E-03,-16.736E-03
-43.262581E+00,+8.828E-03,+16.736E-03
-43.261181E+00,+8.493E-03,+0.0E+00
-43.259781E+00,+8.995E-03,+16.736E-03
-43.258381E+00,+8.493E-03,+0.0E+00
-43.256981E+00,+8.828E-03,+33.473E-03
-43.255581E+00,+9.330E-03,+0.0E+00
-43.254181E+00,+9.832E-03,+16.736E-03
-43.252781E+00,+8.660E-03,+50.209E-03
-43.251381E+00,+8.995E-03,+33.473E-03
-43.249981E+00,+9.162E-03,-16.736E-03
-43.248581E+00,+9.162E-03,+0.0E+00
-43.247181E+00,+8.660E-03,+0.0E+00
-43.245781E+00,+8.995E-03,+16.736E-03
-43.244380E+00,+8.660E-03,+16.736E-03
-43.242980E+00,+8.995E-03,+33.473E-03
-43.241580E+00,+8.995E-03,+16.736E-03
-43.240180E+00,+8.828E-03,+0.0E+00
-43.238780E+00,+8.493E-03,+16.736E-03
-43.237380E+00,+9.665E-03,+16.736E-03
-43.235980E+00,+8.660E-03,+16.736E-03
-43.234580E+00,+8.493E-03,+0.0E+00
-43.233180E+00,+8.995E-03,+16.736E-03
-43.231780E+00,+9.330E-03,-16.736E-03
-43.230380E+00,+8.660E-03,-0.0E+00
-43.228980E+00,+8.493E-03,-16.736E-03
-43.227580E+00,+9.162E-03,+33.473E-03
-43.226180E+00,+8.493E-03,-16.736E-03
-43.224780E+00,+9.330E-03,+0.0E+00
-43.223380E+00,+9.162E-03,+0.0E+00
-43.221980E+00,+9.162E-03,+16.736E-03
-43.220580E+00,+8.828E-03,-16.736E-03
-43.219180E+00,+8.660E-03,+0.0E+00
-43.217780E+00,+8.660E-03,+0.0E+00
-43.216380E+00,+8.660E-03,+16.736E-03
-43.214980E+00,+8.995E-03,+33.473E-03
-43.213580E+00,+8.828E-03,-16.736E-03
-43.212180E+00,+9.162E-03,+33.473E-03
-43.210780E+00,+9.497E-03,+33.473E-03
-43.209380E+00,+8.995E-03,+0.0E+00
-43.207980E+00,+8.995E-03,+0.0E+00
-43.206580E+00,+8.660E-03,+16.736E-03
-43.205180E+00,+8.995E-03,-0.0E+00
-43.203780E+00,+9.330E-03,-16.736E-03
-43.202380E+00,+8.493E-03,+16.736E-03
-43.200980E+00,+8.828E-03,+0.0E+00
-43.199580E+00,+9.162E-03,+0.0E+00
-43.198180E+00,+9.162E-03,+0.0E+00
-43.196780E+00,+8.660E-03,+0.0E+00
-43.195380E+00,+7.824E-03,+16.736E-03
-43.193980E+00,+8.326E-03,+0.0E+00
-43.192580E+00,+9.330E-03,+33.473E-03
-43.191180E+00,+8.660E-03,+0.0E+00
-43.189780E+00,+8.158E-03,+0.0E+00
-43.188380E+00,+9.832E-03,+0.0E+00
-43.186980E+00,+9.162E-03,+0.0E+00
-43.185580E+00,+8.995E-03,+33.473E-03
-43.184180E+00,+8.995E-03,+0.0E+00
-43.182780E+00,+9.162E-03,-0.0E+00
-43.181380E+00,+9.162E-03,-16.736E-03
-43.179980E+00,+8.660E-03,+33.473E-03
-43.178580E+00,+9.330E-03,+33.473E-03
-43.177180E+00,+8.995E-03,+0.0E+00
-43.175780E+00,+9.330E-03,+33.473E-03
-43.174380E+00,+8.660E-03,+16.736E-03
-43.172980E+00,+8.995E-03,-0.0E+00
-43.171580E+00,+8.493E-03,-16.736E-03
-43.170180E+00,+9.665E-03,+16.736E-03
-43.168780E+00,+8.828E-03,-0.0E+00
-43.167380E+00,+9.665E-03,-16.736E-03
-43.165980E+00,+8.995E-03,+0.0E+00
-43.164580E+00,+8.660E-03,+33.473E-03
-43.163180E+00,+8.493E-03,-16.736E-03
-43.161780E+00,+9.330E-03,+0.0E+00
-43.160380E+00,+8.493E-03,-0.0E+00
-43.158980E+00,+9.162E-03,-33.473E-03
-43.157580E+00,+9.497E-03,+16.736E-03
-43.156180E+00,+9.162E-03,+0.0E+00
-43.154779E+00,+8.660E-03,+16.736E-03
-43.153379E+00,+8.995E-03,-33.473E-03
-43.151979E+00,+8.995E-03,+16.736E-03
-43.150579E+00,+8.660E-03,+0.0E+00
-43.149179E+00,+9.665E-03,+0.0E+00
-43.147779E+00,+8.660E-03,+16.736E-03
-43.146379E+00,+9.162E-03,+16.736E-03
-43.144979E+00,+9.330E-03,+16.736E-03
-43.143579E+00,+8.660E-03,+16.736E-03
-43.142179E+00,+8.326E-03,+16.736E-03
-43.140779E+00,+9.330E-03,-16.736E-03
-43.139379E+00,+8.660E-03,-0.0E+00
-43.137979E+00,+9.162E-03,-16.736E-03
-43.136579E+00,+8.828E-03,-16.736E-03
-43.135179E+00,+8.995E-03,+16.736E-03
-43.133779E+00,+9.162E-03,-16.736E-03
-43.132379E+00,+9.497E-03,+0.0E+00
-43.130979E+00,+8.995E-03,+16.736E-03
-43.129579E+00,+8.660E-03,+16.736E-03
-43.128179E+00,+8.995E-03,+33.473E-03
-43.126779E+00,+9.330E-03,+16.736E-03
-43.125379E+00,+9.497E-03,-16.736E-03
-43.123979E+00,+8.995E-03,-33.473E-03
-43.122579E+00,+8.995E-03,+33.473E-03
-43.121179E+00,+8.828E-03,+33.473E-03
-43.119779E+00,+8.660E-03,+0.0E+00
-43.118379E+00,+8.828E-03,+0.0E+00
-43.116979E+00,+7.991E-03,+16.736E-03
-43.115579E+00,+8.828E-03,-16.736E-03
-43.114179E+00,+8.995E-03,-33.473E-03
-43.112779E+00,+8.995E-03,+16.736E-03
-43.111379E+00,+8.660E-03,-16.736E-03
-43.109979E+00,+7.991E-03,+16.736E-03
-43.108579E+00,+8.828E-03,+0.0E+00
-43.107179E+00,+9.162E-03,+16.736E-03
-43.105779E+00,+8.828E-03,+16.736E-03
-43.104379E+00,+8.995E-03,-16.736E-03
-43.102979E+00,+8.995E-03,+0.0E+00
-43.101579E+00,+9.665E-03,-0.0E+00
-43.100179E+00,+9.330E-03,-16.736E-03
-43.098779E+00,+9.330E-03,-16.736E-03
-43.097379E+00,+8.828E-03,-16.736E-03
-43.095979E+00,+8.828E-03,-0.0E+00
-43.094579E+00,+9.330E-03,-16.736E-03
-43.093179E+00,+9.330E-03,-0.0E+00
-43.091779E+00,+9.330E-03,-33.473E-03
-43.090379E+00,+8.493E-03,+0.0E+00
-43.088979E+00,+9.832E-03,+16.736E-03
-43.087579E+00,+9.665E-03,+0.0E+00
-43.086179E+00,+9.330E-03,+50.209E-03
-43.084779E+00,+8.995E-03,+16.736E-03
-43.083379E+00,+8.995E-03,+16.736E-03
-43.081979E+00,+8.995E-03,+16.736E-03
-43.080579E+00,+8.995E-03,+16.736E-03
-43.079179E+00,+9.330E-03,+16.736E-03
-43.077779E+00,+9.162E-03,+16.736E-03
-43.076379E+00,+9.330E-03,+16.736E-03
-43.074979E+00,+8.660E-03,+0.0E+00
-43.073579E+00,+8.326E-03,+16.736E-03
-43.072179E+00,+8.995E-03,-33.473E-03
-43.070779E+00,+8.828E-03,-16.736E-03
-43.069379E+00,+8.493E-03,+33.473E-03
-43.067979E+00,+9.162E-03,+0.0E+00
-43.066579E+00,+8.493E-03,+16.736E-03
-43.065179E+00,+9.330E-03,+0.0E+00
-43.063778E+00,+8.660E-03,+0.0E+00
-43.062378E+00,+9.497E-03,+33.473E-03
-43.060978E+00,+8.995E-03,-16.736E-03
-43.059578E+00,+9.162E-03,-50.209E-03
-43.058178E+00,+9.162E-03,+16.736E-03
-43.056778E+00,+9.162E-03,+0.0E+00
-43.055378E+00,+9.497E-03,+16.736E-03
-43.053978E+00,+9.665E-03,-33.473E-03
-43.052578E+00,+8.995E-03,+16.736E-03
-43.051178E+00,+9.999E-03,+0.0E+00
-43.049778E+00,+8.828E-03,+0.0E+00
-43.048378E+00,+8.995E-03,+50.209E-03
-43.046978E+00,+9.162E-03,+16.736E-03
-43.045578E+00,+9.832E-03,+16.736E-03
-43.044178E+00,+8.493E-03,+0.0E+00
-43.042778E+00,+9.330E-03,+16.736E-03
-43.041378E+00,+10.334E-03,+16.736E-03
-43.039978E+00,+8.995E-03,+0.0E+00
-43.038578E+00,+9.497E-03,+16.736E-03
-43.037178E+00,+8.660E-03,+16.736E-03
-43.035778E+00,+8.493E-03,-16.736E-03
-43.034378E+00,+9.162E-03,+0.0E+00
-43.032978E+00,+8.660E-03,+0.0E+00
-43.031578E+00,+9.330E-03,+0.0E+00
-43.030178E+00,+9.162E-03,+16.736E-03
-43.028778E+00,+9.330E-03,+0.0E+00
-43.027378E+00,+9.162E-03,+16.736E-03
-43.025978E+00,+8.828E-03,+16.736E-03
-43.024578E+00,+9.832E-03,-33.473E-03
-43.023178E+00,+9.162E-03,-16.736E-03
-43.021778E+00,+10.167E-03,+0.0E+00
-43.020378E+00,+9.330E-03,+16.736E-03
-43.018978E+00,+9.665E-03,-0.0E+00
-43.017578E+00,+8.828E-03,-16.736E-03
-43.016178E+00,+8.995E-03,+0.0E+00
-43.014778E+00,+8.660E-03,+16.736E-03
-43.013378E+00,+8.828E-03,+0.0E+00
-43.011978E+00,+9.497E-03,-0.0E+00
-43.010578E+00,+8.828E-03,-16.736E-03
-43.009178E+00,+8.493E-03,-16.736E-03
-43.007778E+00,+8.828E-03,-16.736E-03
-43.006378E+00,+9.162E-03,+33.473E-03
-43.004978E+00,+9.832E-03,-33.473E-03
-43.003578E+00,+8.660E-03,+0.0E+00
-43.002178E+00,+8.828E-03,+33.473E-03
-43.000778E+00,+9.832E-03,+16.736E-03
-42.999378E+00,+8.660E-03,+16.736E-03
-42.997978E+00,+8.828E-03,+0.0E+00
-42.996578E+00,+9.832E-03,+16.736E-03
-42.995178E+00,+9.665E-03,+0.0E+00
-42.993778E+00,+9.162E-03,+16.736E-03
-42.992378E+00,+8.995E-03,+16.736E-03
-42.990978E+00,+9.497E-03,+0.0E+00
-42.989578E+00,+8.995E-03,+0.0E+00
-42.988178E+00,+9.162E-03,+0.0E+00
-42.986778E+00,+9.162E-03,+16.736E-03
-42.985378E+00,+8.828E-03,-16.736E-03
-42.983978E+00,+9.832E-03,-0.0E+00
-42.982578E+00,+8.828E-03,-33.473E-03
-42.981178E+00,+8.995E-03,-0.0E+00
-42.979778E+00,+8.995E-03,-16.736E-03
-42.978378E+00,+8.326E-03,+33.473E-03
-42.976978E+00,+8.828E-03,+16.736E-03
-42.975578E+00,+9.162E-03,+0.0E+00
-42.974177E+00,+9.162E-03,+33.473E-03
-42.972777E+00,+9.162E-03,+16.736E-03
-42.971377E+00,+9.330E-03,+16.736E-03
-42.969977E+00,+8.828E-03,-16.736E-03
-42.968577E+00,+8.660E-03,+16.736E-03
-42.967177E+00,+8.660E-03,+16.736E-03
-42.965777E+00,+8.660E-03,+16.736E-03
-42.964377E+00,+9.162E-03,+0.0E+00
-42.962977E+00,+8.995E-03,+0.0E+00
-42.961577E+00,+8.660E-03,+16.736E-03
-42.960177E+00,+8.660E-03,+0.0E+00
-42.958777E+00,+9.497E-03,+0.0E+00
-42.957377E+00,+9.162E-03,+0.0E+00
-42.955977E+00,+8.158E-03,+16.736E-03
-42.954577E+00,+9.665E-03,-16.736E-03
-42.953177E+00,+9.665E-03,+0.0E+00
-42.951777E+00,+8.660E-03,+0.0E+00
-42.950377E+00,+9.497E-03,-0.0E+00
-42.948977E+00,+8.660E-03,-16.736E-03
-42.947577E+00,+8.493E-03,-16.736E-03
-42.946177E+00,+9.497E-03,+0.0E+00
-42.944777E+00,+8.326E-03,+16.736E-03
-42.943377E+00,+9.497E-03,-0.0E+00
-42.941977E+00,+8.493E-03,-16.736E-03
-42.940577E+00,+8.995E-03,-0.0E+00
-42.939177E+00,+8.828E-03,-16.736E-03
-42.937777E+00,+8.660E-03,-0.0E+00
-42.936377E+00,+9.330E-03,-16.736E-03
-42.934977E+00,+8.158E-03,-0.0E+00
-42.933577E+00,+8.326E-03,-16.736E-03
-42.932177E+00,+9.162E-03,+0.0E+00
-42.930777E+00,+9.497E-03,+16.736E-03
-42.929377E+00,+9.162E-03,+16.736E-03
-42.927977E+00,+9.330E-03,+0.0E+00
-42.926577E+00,+9.162E-03,-0.0E+00
-42.925177E+00,+9.330E-03,-16.736E-03
-42.923777E+00,+9.162E-03,+0.0E+00
-42.922377E+00,+8.995E-03,+0.0E+00
-42.920977E+00,+8.326E-03,+0.0E+00
-42.919577E+00,+8.995E-03,+0.0E+00
-42.918177E+00,+9.162E-03,-0.0E+00
-42.916777E+00,+9.162E-03,-16.736E-03
-42.915377E+00,+8.828E-03,-33.473E-03
-42.913977E+00,+8.828E-03,-16.736E-03
-42.912577E+00,+9.330E-03,-33.473E-03
-42.911177E+00,+9.497E-03,-0.0E+00
-42.909777E+00,+8.995E-03,-33.473E-03
-42.908377E+00,+8.828E-03,-16.736E-03
-42.906977E+00,+9.497E-03,+16.736E-03
-42.905577E+00,+8.660E-03,-0.0E+00
-42.904177E+00,+8.326E-03,-33.473E-03
-42.902777E+00,+9.162E-03,+16.736E-03
-42.901377E+00,+8.828E-03,+0.0E+00
-42.899977E+00,+9.665E-03,+33.473E-03
-42.898577E+00,+8.995E-03,+0.0E+00
-42.897177E+00,+9.162E-03,+33.473E-03
-42.895777E+00,+8.828E-03,+0.0E+00
-42.894377E+00,+8.828E-03,+0.0E+00
-42.892977E+00,+9.497E-03,+16.736E-03
-42.891577E+00,+9.162E-03,+16.736E-03
-42.890177E+00,+8.660E-03,-16.736E-03
-42.888777E+00,+9.665E-03,+16.736E-03
-42.887377E+00,+9.162E-03,+16.736E-03
-42.885977E+00,+8.995E-03,+16.736E-03
-42.884576E+00,+10.167E-03,+0.0E+00
-42.883176E+00,+9.665E-03,+33.473E-03
-42.881776E+00,+9.832E-03,+0.0E+00
-42.880376E+00,+8.660E-03,+16.736E-03
-42.878976E+00,+9.330E-03,+0.0E+00
-42.877576E+00,+8.828E-03,+0.0E+00
-42.876176E+00,+9.162E-03,+0.0E+00
-42.874776E+00,+9.832E-03,+16.736E-03
-42.873376E+00,+9.497E-03,-33.473E-03
-42.871976E+00,+8.660E-03,+16.736E-03
-42.870576E+00,+9.162E-03,+16.736E-03
-42.869176E+00,+8.995E-03,-16.736E-03
-42.867776E+00,+8.660E-03,+16.736E-03
-42.866376E+00,+8.326E-03,+16.736E-03
-42.864976E+00,+8.828E-03,-0.0E+00
-42.863576E+00,+9.330E-03,-16.736E-03
-42.862176E+00,+9.497E-03,+33.473E-03
-42.860776E+00,+9.162E-03,+16.736E-03
-42.859376E+00,+7.991E-03,+0.0E+00
-42.857976E+00,+8.828E-03,+0.0E+00
-42.856576E+00,+8.660E-03,+33.473E-03
-42.855176E+00,+8.326E-03,-33.473E-03
-42.853776E+00,+9.330E-03,+16.736E-03
-42.852376E+00,+9.999E-03,+33.473E-03
-42.850976E+00,+8.995E-03,+33.473E-03
-42.849576E+00,+8.660E-03,-16.736E-03
-42.848176E+00,+8.995E-03,+16.736E-03
-42.846776E+00,+9.162E-03,+16.736E-03
-42.845376E+00,+8.326E-03,-16.736E-03
-42.843976E+00,+9.330E-03,-16.736E-03
-42.842576E+00,+8.660E-03,+16.736E-03
-42.841176E+00,+8.660E-03,-16.736E-03
-42.839776E+00,+9.497E-03,-16.736E-03
-42.838376E+00,+9.330E-03,+16.736E-03
-42.836976E+00,+9.330E-03,+0.0E+00
-42.835576E+00,+7.991E-03,+0.0E+00
-42.834176E+00,+7.991E-03,+16.736E-03
-42.832776E+00,+9.162E-03,+16.736E-03
-42.831376E+00,+8.493E-03,+16.736E-03
-42.829976E+00,+8.660E-03,+0.0E+00
-42.828576E+00,+8.660E-03,+0.0E+00
-42.827176E+00,+9.162E-03,+50.209E-03
-42.825776E+00,+9.162E-03,+0.0E+00
-42.824376E+00,+8.660E-03,+0.0E+00
-42.822976E+00,+8.828E-03,+0.0E+00
-42.821576E+00,+9.162E-03,-0.0E+00
-42.820176E+00,+9.162E-03,-33.473E-03
-42.818776E+00,+8.493E-03,+16.736E-03
-42.817376E+00,+8.995E-03,+16.736E-03
-42.815976E+00,+9.162E-03,+0.0E+00
-42.814576E+00,+8.828E-03,-0.0E+00
-42.813176E+00,+9.665E-03,-33.473E-03
-42.811776E+00,+9.497E-03,-33.473E-03
-42.810376E+00,+8.660E-03,+16.736E-03
-42.808976E+00,+9.497E-03,-33.473E-03
-42.807576E+00,+9.665E-03,-0.0E+00
-42.806176E+00,+8.660E-03,-33.473E-03
-42.804776E+00,+8.828E-03,-16.736E-03
-42.803376E+00,+8.326E-03,+50.209E-03
-42.801976E+00,+8.995E-03,+0.0E+00
-42.800576E+00,+8.995E-03,-0.0E+00
-42.799176E+00,+8.326E-03,-16.736E-03
-42.797776E+00,+8.995E-03,+50.209E-03
-42.796376E+00,+9.162E-03,-0.0E+00
-42.794975E+00,+8.493E-03,-16.736E-03
-42.793575E+00,+8.493E-03,-0.0E+00
-42.792175E+00,+9.162E-03,-33.473E-03
-42.790775E+00,+8.828E-03,-0.0E+00
-42.789375E+00,+9.497E-03,-16.736E-03
-42.787975E+00,+9.330E-03,-0.0E+00
-42.786575E+00,+8.828E-03,-16.736E-03
-42.785175E+00,+8.828E-03,+0.0E+00
-42.783775E+00,+8.995E-03,+16.736E-03
-42.782375E+00,+9.330E-03,+16.736E-03
-42.780975E+00,+8.828E-03,+0.0E+00
-42.779575E+00,+7.656E-03,+33.473E-03
-42.778175E+00,+8.995E-03,+0.0E+00
-42.776775E+00,+8.828E-03,+0.0E+00
-42.775375E+00,+9.162E-03,-0.0E+00
-42.773975E+00,+8.995E-03,-16.736E-03
-42.772575E+00,+9.497E-03,+16.736E-03
-42.771175E+00,+8.995E-03,+16.736E-03
-42.769775E+00,+8.995E-03,+16.736E-03
-42.768375E+00,+9.162E-03,+16.736E-03
-42.766975E+00,+8.660E-03,+0.0E+00
-42.765575E+00,+7.656E-03,+0.0E+00
-42.764175E+00,+8.828E-03,+16.736E-03
-42.762775E+00,+8.828E-03,-33.473E-03
-42.761375E+00,+8.995E-03,-33.473E-03
-42.759975E+00,+9.330E-03,+0.0E+00
-42.758575E+00,+8.995E-03,+33.473E-03
-42.757175E+00,+8.995E-03,+16.736E-03
-42.755775E+00,+9.330E-03,-16.736E-03
-42.754375E+00,+8.995E-03,+16.736E-03
-42.752975E+00,+9.832E-03,+16.736E-03
-42.751575E+00,+8.995E-03,-0.0E+00
-42.750175E+00,+8.828E-03,-16.736E-03
-42.748775E+00,+9.330E-03,+16.736E-03
-42.747375E+00,+9.832E-03,+0.0E+00
-42.745975E+00,+8.158E-03,-0.0E+00
-42.744575E+00,+8.493E-03,-16.736E-03
-42.743175E+00,+9.832E-03,+16.736E-03
-42.741775E+00,+8.493E-03,-16.736E-03
-42.740375E+00,+9.497E-03,+16.736E-03
-42.738975E+00,+9.162E-03,+16.736E-03
-42.737575E+00,+8.660E-03,-16.736E-03
-42.736175E+00,+9.330E-03,-16.736E-03
-42.734775E+00,+8.828E-03,+16.736E-03
-42.733375E+00,+9.497E-03,+33.473E-03
-42.731975E+00,+8.493E-03,+16.736E-03
-42.730575E+00,+8.828E-03,-16.736E-03
-42.729175E+00,+8.326E-03,-16.736E-03
-42.727775E+00,+9.162E-03,-0.0E+00
-42.726375E+00,+9.162E-03,-16.736E-03
-42.724975E+00,+9.162E-03,-16.736E-03
-42.723575E+00,+8.995E-03,-16.736E-03
-42.722175E+00,+8.326E-03,+0.0E+00
-42.720775E+00,+8.828E-03,+16.736E-03
-42.719375E+00,+9.330E-03,+0.0E+00
-42.717975E+00,+9.330E-03,+16.736E-03
-42.716575E+00,+9.330E-03,+0.0E+00
-42.715175E+00,+9.162E-03,+33.473E-03
-42.713775E+00,+8.828E-03,+16.736E-03
-42.712375E+00,+8.995E-03,-16.736E-03
-42.710975E+00,+9.665E-03,+0.0E+00
-42.709575E+00,+9.162E-03,+16.736E-03
-42.708175E+00,+8.493E-03,-0.0E+00
-42.706775E+00,+8.828E-03,-16.736E-03
-42.705375E+00,+8.493E-03,-33.473E-03
-42.703974E+00,+8.995E-03,-33.473E-03
-42.702574E+00,+9.665E-03,-16.736E-03
-42.701174E+00,+8.660E-03,+0.0E+00
-42.699774E+00,+9.162E-03,+0.0E+00
-42.698374E+00,+9.162E-03,+0.0E+00
-42.696974E+00,+8.660E-03,-0.0E+00
-42.695574E+00,+8.995E-03,-16.736E-03
-42.694174E+00,+8.493E-03,-0.0E+00
-42.692774E+00,+9.162E-03,-33.473E-03
-42.691374E+00,+9.330E-03,+33.473E-03
-42.689974E+00,+9.330E-03,+0.0E+00
-42.688574E+00,+9.162E-03,+0.0E+00
-42.687174E+00,+8.326E-03,+33.473E-03
-42.685774E+00,+8.828E-03,+33.473E-03
-42.684374E+00,+8.158E-03,-16.736E-03
-42.682974E+00,+8.660E-03,-0.0E+00
-42.681574E+00,+8.828E-03,-16.736E-03
-42.680174E+00,+9.330E-03,+0.0E+00
-42.678774E+00,+8.660E-03,-0.0E+00
-42.677374E+00,+9.832E-03,-16.736E-03
-42.675974E+00,+8.828E-03,-16.736E-03
-42.674574E+00,+8.326E-03,-16.736E-03
-42.673174E+00,+8.493E-03,-16.736E-03
-42.671774E+00,+8.995E-03,-16.736E-03
-42.670374E+00,+8.995E-03,-0.0E+00
-42.668974E+00,+8.995E-03,-33.473E-03
-42.667574E+00,+9.832E-03,+33.473E-03
-42.666174E+00,+8.995E-03,-16.736E-03
-42.664774E+00,+8.660E-03,+16.736E-03
-42.663374E+00,+8.660E-03,-16.736E-03
-42.661974E+00,+8.995E-03,+0.0E+00
-42.660574E+00,+8.660E-03,+33.473E-03
-42.659174E+00,+8.660E-03,+0.0E+00
-42.657774E+00,+9.162E-03,+0.0E+00
-42.656374E+00,+8.995E-03,+50.209E-03
-42.654974E+00,+8.493E-03,-16.736E-03
-42.653574E+00,+8.828E-03,+33.473E-03
-42.652174E+00,+8.660E-03,-16.736E-03
-42.650774E+00,+8.660E-03,-16.736E-03
-42.649374E+00,+8.158E-03,+16.736E-03
-42.647974E+00,+8.158E-03,+16.736E-03
-42.646574E+00,+8.828E-03,+16.736E-03
-42.645174E+00,+9.330E-03,-0.0E+00
-42.643774E+00,+8.995E-03,-16.736E-03
-42.642374E+00,+8.660E-03,-16.736E-03
-42.640974E+00,+9.497E-03,+0.0E+00
-42.639574E+00,+9.665E-03,+0.0E+00
-42.638174E+00,+8.660E-03,-0.0E+00
-42.636774E+00,+8.995E-03,-16.736E-03
-42.635374E+00,+9.665E-03,-16.736E-03
-42.633974E+00,+9.497E-03,-33.473E-03
-42.632574E+00,+9.330E-03,+16.736E-03
-42.631174E+00,+9.999E-03,+16.736E-03
-42.629774E+00,+8.828E-03,-0.0E+00
-42.628374E+00,+8.995E-03,-16.736E-03
-42.626974E+00,+8.493E-03,-16.736E-03
-42.625574E+00,+8.828E-03,+0.0E+00
-42.624174E+00,+9.330E-03,-0.0E+00
-42.622774E+00,+8.660E-03,-16.736E-03
-42.621374E+00,+8.995E-03,-16.736E-03
-42.619974E+00,+9.330E-03,-0.0E+00
-42.618574E+00,+8.493E-03,-16.736E-03
-42.617174E+00,+9.162E-03,+33.473E-03
-42.615774E+00,+9.330E-03,+0.0E+00
-42.614373E+00,+9.162E-03,+33.473E-03
-42.612973E+00,+8.660E-03,+0.0E+00
-42.611573E+00,+8.326E-03,+16.736E-03
-42.610173E+00,+9.497E-03,-33.473E-03
-42.608773E+00,+8.995E-03,-0.0E+00
-42.607373E+00,+8.995E-03,-50.209E-03
-42.605973E+00,+8.828E-03,+33.473E-03
-42.604573E+00,+8.660E-03,-16.736E-03
-42.603173E+00,+9.497E-03,+0.0E+00
-42.601773E+00,+8.660E-03,+16.736E-03
-42.600373E+00,+8.828E-03,+16.736E-03
-42.598973E+00,+10.167E-03,+66.946E-03
-42.597573E+00,+8.828E-03,-16.736E-03
-42.596173E+00,+8.326E-03,-0.0E+00
-42.594773E+00,+9.330E-03,-16.736E-03
-42.593373E+00,+9.497E-03,-0.0E+00
-42.591973E+00,+9.162E-03,-33.473E-03
-42.590573E+00,+9.162E-03,+0.0E+00
-42.589173E+00,+8.995E-03,+16.736E-03
-42.587773E+00,+8.995E-03,-16.736E-03
-42.586373E+00,+8.995E-03,+16.736E-03
-42.584973E+00,+9.162E-03,-0.0E+00
-42.583573E+00,+9.665E-03,-16.736E-03
-42.582173E+00,+8.493E-03,+16.736E-03
-42.580773E+00,+9.162E-03,+0.0E+00
-42.579373E+00,+9.497E-03,+0.0E+00
-42.577973E+00,+8.828E-03,+33.473E-03
-42.576573E+00,+8.660E-03,-33.473E-03
-42.575173E+00,+9.497E-03,-0.0E+00
-42.573773E+00,+9.665E-03,-16.736E-03
-42.572373E+00,+8.828E-03,+16.736E-03
-42.570973E+00,+9.497E-03,-50.209E-03
-42.569573E+00,+10.167E-03,+33.473E-03
-42.568173E+00,+8.660E-03,-0.0E+00
-42.566773E+00,+8.995E-03,-33.473E-03
-42.565373E+00,+9.162E-03,+0.0E+00
-42.563973E+00,+8.660E-03,+16.736E-03
-42.562573E+00,+9.162E-03,+16.736E-03
-42.561173E+00,+9.162E-03,+0.0E+00
-42.559773E+00,+8.828E-03,+0.0E+00
-42.558373E+00,+8.995E-03,+0.0E+00
-42.556973E+00,+8.995E-03,+0.0E+00
-42.555573E+00,+8.493E-03,+33.473E-03
-42.554173E+00,+9.162E-03,+16.736E-03
-42.552773E+00,+8.828E-03,+16.736E-03
-42.551373E+00,+9.832E-03,+16.736E-03
-42.549973E+00,+8.995E-03,+16.736E-03
-42.548573E+00,+9.665E-03,-16.736E-03
-42.547173E+00,+8.660E-03,+33.473E-03
-42.545773E+00,+9.330E-03,+0.0E+00
-42.544373E+00,+8.995E-03,+33.473E-03
-42.542973E+00,+8.828E-03,+16.736E-03
-42.541573E+00,+9.665E-03,+33.473E-03
-42.540173E+00,+8.326E-03,+16.736E-03
-42.538773E+00,+8.995E-03,-16.736E-03
-42.537373E+00,+9.832E-03,+0.0E+00
-42.535973E+00,+8.995E-03,+16.736E-03
-42.534573E+00,+8.828E-03,+16.736E-03
-42.533173E+00,+9.162E-03,-0.0E+00
-42.531773E+00,+9.497E-03,-16.736E-03
-42.530373E+00,+9.162E-03,+0.0E+00
-42.528973E+00,+8.660E-03,+0.0E+00
-42.527573E+00,+8.158E-03,+0.0E+00
-42.526173E+00,+9.330E-03,+0.0E+00
-42.524772E+00,+8.995E-03,+16.736E-03
-42.523372E+00,+8.828E-03,-33.473E-03
-42.521972E+00,+8.828E-03,-16.736E-03
-42.520572E+00,+8.660E-03,+16.736E-03
-42.519172E+00,+8.828E-03,+0.0E+00
-42.517772E+00,+8.828E-03,+0.0E+00
-42.516372E+00,+8.493E-03,+0.0E+00
-42.514972E+00,+8.660E-03,+16.736E-03
-42.513572E+00,+9.497E-03,-16.736E-03
-42.512172E+00,+9.162E-03,-0.0E+00
-42.510772E+00,+9.330E-03,-33.473E-03
-42.509372E+00,+9.330E-03,+0.0E+00
-42.507972E+00,+9.162E-03,-0.0E+00
-42.506572E+00,+9.330E-03,-16.736E-03
-42.505172E+00,+9.162E-03,+16.736E-03
-42.503772E+00,+8.326E-03,-16.736E-03
-42.502372E+00,+9.162E-03,+16.736E-03
-42.500972E+00,+9.330E-03,-0.0E+00
-42.499572E+00,+8.660E-03,-16.736E-03
-42.498172E+00,+9.665E-03,-33.473E-03
-42.496772E+00,+8.995E-03,-0.0E+00
-42.495372E+00,+8.660E-03,-16.736E-03
-42.493972E+00,+9.330E-03,-0.0E+00
-42.492572E+00,+7.991E-03,-33.473E-03
-42.491172E+00,+8.326E-03,-0.0E+00
-42.489772E+00,+8.995E-03,-16.736E-03
-42.488372E+00,+9.330E-03,+0.0E+00
-42.486972E+00,+8.995E-03,+16.736E-03
-42.485572E+00,+8.326E-03,+16.736E-03
-42.484172E+00,+9.162E-03,+0.0E+00
-42.482772E+00,+8.660E-03,+0.0E+00
-42.481372E+00,+8.828E-03,+16.736E-03
-42.479972E+00,+8.995E-03,+0.0E+00
-42.478572E+00,+8.660E-03,+0.0E+00
-42.477172E+00,+8.995E-03,+16.736E-03
-42.475772E+00,+8.660E-03,+33.473E-03
-42.474372E+00,+8.828E-03,+33.473E-03
-42.472972E+00,+8.995E-03,-16.736E-03
-42.471572E+00,+8.995E-03,-0.0E+00
-42.470172E+00,+8.995E-03,-33.473E-03
-42.468772E+00,+8.828E-03,-16.736E-03
-42.467372E+00,+9.162E-03,+16.736E-03
-42.465972E+00,+9.330E-03,+16.736E-03
-42.464572E+00,+8.493E-03,-16.736E-03
-42.463172E+00,+9.330E-03,+0.0E+00
-42.461772E+00,+8.995E-03,+33.473E-03
-42.460372E+00,+8.493E-03,+16.736E-03
-42.458972E+00,+8.828E-03,+16.736E-03
-42.457572E+00,+8.828E-03,+0.0E+00
-42.456172E+00,+8.995E-03,+16.736E-03
-42.454772E+00,+9.162E-03,-0.0E+00
-42.453372E+00,+9.665E-03,-16.736E-03
-42.451972E+00,+9.162E-03,-0.0E+00
-42.450572E+00,+9.162E-03,-16.736E-03
-42.449172E+00,+9.999E-03,-16.736E-03
-42.447772E+00,+8.995E-03,+33.473E-03
-42.446372E+00,+8.995E-03,+0.0E+00
-42.444972E+00,+8.995E-03,+0.0E+00
-42.443572E+00,+9.330E-03,+0.0E+00
-42.442172E+00,+8.660E-03,+16.736E-03
-42.440772E+00,+9.665E-03,-0.0E+00
-42.439372E+00,+8.995E-03,-33.473E-03
-42.437972E+00,+8.660E-03,-0.0E+00
-42.436572E+00,+9.497E-03,-16.736E-03
-42.435172E+00,+9.665E-03,+0.0E+00
-42.433771E+00,+8.326E-03,+16.736E-03
-42.432371E+00,+8.828E-03,-33.473E-03
-42.430971E+00,+9.162E-03,+16.736E-03
-42.429571E+00,+9.162E-03,-16.736E-03
-42.428171E+00,+8.828E-03,+33.473E-03
-42.426771E+00,+9.832E-03,-0.0E+00
-42.425371E+00,+8.828E-03,-33.473E-03
-42.423971E+00,+7.991E-03,-16.736E-03
-42.422571E+00,+8.828E-03,+0.0E+00
-42.421171E+00,+9.162E-03,-0.0E+00
-42.419771E+00,+8.158E-03,-50.209E-03
-42.418371E+00,+8.995E-03,+16.736E-03
-42.416971E+00,+8.828E-03,+0.0E+00
-42.415571E+00,+9.497E-03,+0.0E+00
-42.414171E+00,+10.167E-03,+16.736E-03
-42.412771E+00,+8.828E-03,+0.0E+00
-42.411371E+00,+9.162E-03,+0.0E+00
-42.409971E+00,+9.162E-03,+0.0E+00
-42.408571E+00,+8.828E-03,+0.0E+00
-42.407171E+00,+9.162E-03,+33.473E-03
-42.405771E+00,+8.660E-03,+0.0E+00
-42.404371E+00,+8.660E-03,+0.0E+00
-42.402971E+00,+8.828E-03,+16.736E-03
-42.401571E+00,+8.995E-03,-0.0E+00
-42.400171E+00,+8.828E-03,-16.736E-03
-42.398771E+00,+9.832E-03,-33.473E-03
-42.397371E+00,+9.162E-03,-0.0E+00
-42.395971E+00,+8.493E-03,-33.473E-03
-42.394571E+00,+8.660E-03,+0.0E+00
-42.393171E+00,+8.158E-03,+0.0E+00
-42.391771E+00,+8.326E-03,+16.736E-03
-42.390371E+00,+8.828E-03,+16.736E-03
-42.388971E+00,+8.995E-03,+33.473E-03
-42.387571E+00,+8.660E-03,-16.736E-03
-42.386171E+00,+8.158E-03,+0.0E+00
-42.384771E+00,+9.162E-03,+16.736E-03
-42.383371E+00,+9.665E-03,-16.736E-03
-42.381971E+00,+9.665E-03,-0.0E+00
-42.380571E+00,+9.832E-03,-16.736E-03
-42.379171E+00,+9.330E-03,+0.0E+00
-42.377771E+00,+8.493E-03,+33.473E-03
-42.376371E+00,+8.828E-03,+0.0E+00
-42.374971E+00,+8.660E-03,-0.0E+00
-42.373571E+00,+8.995E-03,-16.736E-03
-42.372171E+00,+8.995E-03,+0.0E+00
-42.370771E+00,+9.497E-03,+16.736E-03
-42.369371E+00,+8.995E-03,+0.0E+00
-42.367971E+00,+9.330E-03,+0.0E+00
-42.366571E+00,+9.162E-03,+16.736E-03
-42.365171E+00,+9.162E-03,+33.473E-03
-42.363771E+00,+8.828E-03,+33.473E-03
-42.362371E+00,+9.162E-03,+0.0E+00
-42.360971E+00,+8.828E-03,+16.736E-03
-42.359571E+00,+8.828E-03,-0.0E+00
-42.358171E+00,+8.493E-03,-16.736E-03
-42.356771E+00,+9.330E-03,-0.0E+00
-42.355371E+00,+8.493E-03,-16.736E-03
-42.353971E+00,+9.330E-03,+0.0E+00
-42.352571E+00,+9.330E-03,+0.0E+00
-42.351171E+00,+8.326E-03,+33.473E-03
-42.349771E+00,+9.497E-03,-16.736E-03
-42.348371E+00,+9.665E-03,+0.0E+00
-42.346971E+00,+8.660E-03,+16.736E-03
-42.345571E+00,+8.995E-03,+33.473E-03
-42.344170E+00,+8.828E-03,-16.736E-03
-42.342770E+00,+9.497E-03,+0.0E+00
-42.341370E+00,+8.493E-03,+16.736E-03
-42.339970E+00,+8.326E-03,+16.736E-03
-42.338570E+00,+9.162E-03,+16.736E-03
-42.337170E+00,+8.660E-03,-0.0E+00
-42.335770E+00,+9.330E-03,-16.736E-03
-42.334370E+00,+9.999E-03,-16.736E-03
-42.332970E+00,+8.660E-03,+0.0E+00
-42.331570E+00,+8.660E-03,+0.0E+00
-42.330170E+00,+9.330E-03,+0.0E+00
-42.328770E+00,+8.828E-03,+0.0E+00
-42.327370E+00,+8.995E-03,+16.736E-03
-42.325970E+00,+9.497E-03,+0.0E+00
-42.324570E+00,+8.660E-03,-0.0E+00
-42.323170E+00,+8.158E-03,-16.736E-03
-42.321770E+00,+8.660E-03,-33.473E-03
-42.320370E+00,+8.326E-03,+0.0E+00
-42.318970E+00,+9.330E-03,+33.473E-03
-42.317570E+00,+8.326E-03,+50.209E-03
-42.316170E+00,+8.660E-03,+16.736E-03
-42.314770E+00,+9.162E-03,+33.473E-03
-42.313370E+00,+9.497E-03,-0.0E+00
-42.311970E+00,+8.995E-03,-16.736E-03
-42.310570E+00,+8.828E-03,-16.736E-03
-42.309170E+00,+9.162E-03,+16.736E-03
-42.307770E+00,+8.828E-03,+0.0E+00
-42.306370E+00,+9.330E-03,+0.0E+00
-42.304970E+00,+9.330E-03,+16.736E-03
-42.303570E+00,+8.828E-03,-16.736E-03
-42.302170E+00,+8.828E-03,+0.0E+00
-42.300770E+00,+7.991E-03,+0.0E+00
-42.299370E+00,+9.330E-03,+0.0E+00
-42.297970E+00,+9.832E-03,+16.736E-03
-42.296570E+00,+8.660E-03,+0.0E+00
-42.295170E+00,+8.660E-03,+16.736E-03
-42.293770E+00,+9.162E-03,+16.736E-03
-42.292370E+00,+7.824E-03,+16.736E-03
-42.290970E+00,+8.326E-03,+0.0E+00
-42.289570E+00,+8.493E-03,+16.736E-03
-42.288170E+00,+8.828E-03,+16.736E-03
-42.286770E+00,+10.167E-03,+16.736E-03
-42.285370E+00,+9.497E-03,+0.0E+00
-42.283970E+00,+8.660E-03,+0.0E+00
-42.282570E+00,+9.497E-03,+33.473E-03
-42.281170E+00,+8.995E-03,-33.473E-03
-42.279770E+00,+9.162E-03,+16.736E-03
-42.278370E+00,+8.828E-03,+33.473E-03
-42.276970E+00,+8.660E-03,-16.736E-03
-42.275570E+00,+8.995E-03,-0.0E+00
-42.274170E+00,+8.660E-03,-16.736E-03
-42.272770E+00,+8.828E-03,-33.473E-03
-42.271370E+00,+8.493E-03,+50.209E-03
-42.269970E+00,+8.828E-03,+0.0E+00
-42.268570E+00,+8.660E-03,+16.736E-03
-42.267170E+00,+9.665E-03,-16.736E-03
-42.265770E+00,+8.995E-03,-16.736E-03
-42.264370E+00,+8.995E-03,-16.736E-03
-42.262970E+00,+8.660E-03,-16.736E-03
-42.261570E+00,+9.162E-03,-16.736E-03
-42.260170E+00,+7.991E-03,+0.0E+00
-42.258770E+00,+8.493E-03,+16.736E-03
-42.257370E+00,+9.162E-03,+0.0E+00
-42.255970E+00,+8.660E-03,-0.0E+00
-42.254569E+00,+8.995E-03,-16.736E-03
-42.253169E+00,+9.162E-03,+16.736E-03
-42.251769E+00,+8.828E-03,+16.736E-03
-42.250369E+00,+8.828E-03,-33.473E-03
-42.248969E+00,+8.995E-03,+0.0E+00
-42.247569E+00,+8.995E-03,+33.473E-03
-42.246169E+00,+8.660E-03,-16.736E-03
-42.244769E+00,+8.660E-03,-16.736E-03
-42.243369E+00,+8.660E-03,+33.473E-03
-42.241969E+00,+8.660E-03,+16.736E-03
-42.240569E+00,+9.162E-03,+16.736E-03
-42.239169E+00,+8.326E-03,+50.209E-03
-42.237769E+00,+9.162E-03,+0.0E+00
-42.236369E+00,+9.162E-03,+16.736E-03
-42.234969E+00,+8.995E-03,+0.0E+00
-42.233569E+00,+8.828E-03,+16.736E-03
-42.232169E+00,+9.665E-03,+0.0E+00
-42.230769E+00,+9.162E-03,+0.0E+00
-42.229369E+00,+8.828E-03,+16.736E-03
-42.227969E+00,+8.828E-03,+16.736E-03
-42.226569E+00,+9.162E-03,+33.473E-03
-42.225169E+00,+9.497E-03,+0.0E+00
-42.223769E+00,+8.828E-03,+16.736E-03
-42.222369E+00,+8.660E-03,+0.0E+00
-42.220969E+00,+8.493E-03,+33.473E-03
-42.219569E+00,+8.660E-03,-0.0E+00
-42.218169E+00,+9.832E-03,-16.736E-03
-42.216769E+00,+9.999E-03,+0.0E+00
-42.215369E+00,+8.660E-03,+0.0E+00
-42.213969E+00,+8.660E-03,+16.736E-03
-42.212569E+00,+8.493E-03,-16.736E-03
-42.211169E+00,+7.991E-03,+0.0E+00
-42.209769E+00,+9.162E-03,+33.473E-03
-42.208369E+00,+8.660E-03,+0.0E+00
-42.206969E+00,+9.665E-03,-0.0E+00
-42.205569E+00,+8.660E-03,-16.736E-03
-42.204169E+00,+8.660E-03,+16.736E-03
-42.202769E+00,+9.665E-03,+0.0E+00
-42.201369E+00,+8.995E-03,+16.736E-03
-42.199969E+00,+8.493E-03,+16.736E-03
-42.198569E+00,+8.326E-03,+0.0E+00
-42.197169E+00,+9.330E-03,+16.736E-03
-42.195769E+00,+9.665E-03,-16.736E-03
-42.194369E+00,+8.828E-03,+33.473E-03
-42.192969E+00,+8.326E-03,-16.736E-03
-42.191569E+00,+8.828E-03,+0.0E+00
-42.190169E+00,+8.828E-03,+0.0E+00
-42.188769E+00,+9.497E-03,+0.0E+00
-42.187369E+00,+8.828E-03,+33.473E-03
-42.185969E+00,+9.330E-03,+16.736E-03
-42.184569E+00,+9.497E-03,-16.736E-03
-42.183169E+00,+9.497E-03,+16.736E-03
-42.181769E+00,+9.162E-03,-16.736E-03
-42.180369E+00,+9.665E-03,+0.0E+00
-42.178969E+00,+9.665E-03,+0.0E+00
-42.177569E+00,+8.828E-03,+16.736E-03
-42.176169E+00,+8.995E-03,+0.0E+00
-42.174769E+00,+9.330E-03,-0.0E+00
-42.173369E+00,+9.162E-03,-16.736E-03
-42.171969E+00,+9.330E-03,-0.0E+00
-42.170569E+00,+8.995E-03,-16.736E-03
-42.169169E+00,+9.162E-03,-0.0E+00
-42.167769E+00,+9.330E-03,-16.736E-03
-42.166369E+00,+9.832E-03,+0.0E+00
-42.164968E+00,+8.493E-03,+16.736E-03
-42.163568E+00,+8.660E-03,-16.736E-03
-42.162168E+00,+8.995E-03,-16.736E-03
-42.160768E+00,+9.162E-03,-16.736E-03
-42.159368E+00,+9.497E-03,-0.0E+00
-42.157968E+00,+9.330E-03,-33.473E-03
-42.156568E+00,+8.660E-03,+0.0E+00
-42.155168E+00,+7.991E-03,+0.0E+00
-42.153768E+00,+9.162E-03,+33.473E-03
-42.152368E+00,+8.828E-03,+0.0E+00
-42.150968E+00,+8.995E-03,+16.736E-03
-42.149568E+00,+8.995E-03,+16.736E-03
-42.148168E+00,+9.162E-03,-0.0E+00
-42.146768E+00,+8.828E-03,-16.736E-03
-42.145368E+00,+10.167E-03,+16.736E-03
-42.143968E+00,+9.330E-03,-16.736E-03
-42.142568E+00,+9.162E-03,+0.0E+00
-42.141168E+00,+9.162E-03,+0.0E+00
-42.139768E+00,+9.497E-03,+16.736E-03
-42.138368E+00,+8.828E-03,-33.473E-03
-42.136968E+00,+8.493E-03,-16.736E-03
-42.135568E+00,+8.828E-03,+0.0E+00
-42.134168E+00,+8.995E-03,+0.0E+00
-42.132768E+00,+8.326E-03,+16.736E-03
-42.131368E+00,+9.162E-03,-16.736E-03
-42.129968E+00,+8.828E-03,+16.736E-03
-42.128568E+00,+8.828E-03,+16.736E-03
-42.127168E+00,+8.828E-03,+16.736E-03
-42.125768E+00,+8.326E-03,-0.0E+00
-42.124368E+00,+8.828E-03,-16.736E-03
-42.122968E+00,+9.665E-03,-0.0E+00
-42.121568E+00,+7.991E-03,-16.736E-03
-42.120168E+00,+8.660E-03,+16.736E-03
-42.118768E+00,+9.497E-03,+16.736E-03
-42.117368E+00,+8.828E-03,+50.209E-03
-42.115968E+00,+8.660E-03,+33.473E-03
-42.114568E+00,+9.162E-03,+33.473E-03
-42.113168E+00,+8.493E-03,+0.0E+00
-42.111768E+00,+9.497E-03,+0.0E+00
-42.110368E+00,+8.660E-03,-0.0E+00
-42.108968E+00,+9.330E-03,-33.473E-03
-42.107568E+00,+8.660E-03,+16.736E-03
-42.106168E+00,+8.995E-03,-0.0E+00
-42.104768E+00,+8.995E-03,-33.473E-03
-42.103368E+00,+8.995E-03,+0.0E+00
-42.101968E+00,+9.330E-03,+16.736E-03
-42.100568E+00,+8.326E-03,+0.0E+00
-42.099168E+00,+8.493E-03,+0.0E+00
-42.097768E+00,+8.828E-03,-0.0E+00
-42.096368E+00,+8.660E-03,-16.736E-03
-42.094968E+00,+8.660E-03,-16.736E-03
-42.093568E+00,+9.665E-03,-33.473E-03
-42.092168E+00,+8.995E-03,+0.0E+00
-42.090768E+00,+8.995E-03,+33.473E-03
-42.089368E+00,+9.330E-03,-16.736E-03
-42.087968E+00,+8.995E-03,+0.0E+00
-42.086568E+00,+8.493E-03,+0.0E+00
-42.085168E+00,+8.158E-03,+0.0E+00
-42.083768E+00,+8.660E-03,+0.0E+00
-42.082368E+00,+8.995E-03,+0.0E+00
-42.080968E+00,+9.497E-03,+0.0E+00
-42.079568E+00,+9.330E-03,-0.0E+00
-42.078168E+00,+9.330E-03,-16.736E-03
-42.076768E+00,+8.995E-03,+0.0E+00
-42.075368E+00,+8.995E-03,+16.736E-03
-42.073967E+00,+8.158E-03,-16.736E-03
-42.072567E+00,+8.828E-03,-16.736E-03
-42.071167E+00,+8.995E-03,-33.473E-03
-42.069767E+00,+8.660E-03,+0.0E+00
-42.068367E+00,+9.330E-03,+16.736E-03
-42.066967E+00,+8.828E-03,+16.736E-03
-42.065567E+00,+8.828E-03,-16.736E-03
-42.064167E+00,+9.162E-03,+16.736E-03
-42.062767E+00,+9.665E-03,+16.736E-03
-42.061367E+00,+8.660E-03,-0.0E+00
-42.059967E+00,+8.660E-03,-33.473E-03
-42.058567E+00,+9.162E-03,-16.736E-03
-42.057167E+00,+9.497E-03,+16.736E-03
-42.055767E+00,+8.326E-03,-16.736E-03
-42.054367E+00,+7.991E-03,+0.0E+00
-42.052967E+00,+8.660E-03,+16.736E-03
-42.051567E+00,+8.995E-03,+50.209E-03
-42.050167E+00,+9.330E-03,+0.0E+00
-42.048767E+00,+9.162E-03,-0.0E+00
-42.047367E+00,+9.497E-03,-16.736E-03
-42.045967E+00,+8.995E-03,-0.0E+00
-42.044567E+00,+8.660E-03,-16.736E-03
-42.043167E+00,+9.162E-03,+33.473E-03
-42.041767E+00,+9.497E-03,+33.473E-03
-42.040367E+00,+8.493E-03,+16.736E-03
-42.038967E+00,+8.660E-03,-0.0E+00
-42.037567E+00,+9.497E-03,-16.736E-03
-42.036167E+00,+9.162E-03,-0.0E+00
-42.034767E+00,+9.999E-03,-16.736E-03
-42.033367E+00,+9.162E-03,+0.0E+00
-42.031967E+00,+8.828E-03,+16.736E-03
-42.030567E+00,+7.991E-03,+16.736E-03
-42.029167E+00,+8.828E-03,+50.209E-03
-42.027767E+00,+9.665E-03,+50.209E-03
-42.026367E+00,+8.828E-03,+0.0E+00
-42.024967E+00,+8.326E-03,+16.736E-03
-42.023567E+00,+9.330E-03,-0.0E+00
-42.022167E+00,+8.493E-03,-16.736E-03
-42.020767E+00,+8.828E-03,+16.736E-03
-42.019367E+00,+9.330E-03,+16.736E-03
-42.017967E+00,+8.995E-03,+16.736E-03
-42.016567E+00,+8.995E-03,+16.736E-03
-42.015167E+00,+8.660E-03,-0.0E+00
-42.013767E+00,+8.828E-03,-16.736E-03
-42.012367E+00,+8.995E-03,-16.736E-03
-42.010967E+00,+8.493E-03,+16.736E-03
-42.009567E+00,+8.828E-03,-16.736E-03
-42.008167E+00,+9.330E-03,+16.736E-03
-42.006767E+00,+9.162E-03,-33.473E-03
-42.005367E+00,+8.995E-03,+16.736E-03
-42.003967E+00,+8.828E-03,+0.0E+00
-42.002567E+00,+9.497E-03,+16.736E-03
-42.001167E+00,+8.828E-03,-16.736E-03
-41.999767E+00,+8.995E-03,+0.0E+00
-41.998367E+00,+8.828E-03,+0.0E+00
-41.996967E+00,+9.162E-03,+33.473E-03
-41.995567E+00,+9.162E-03,+16.736E-03
-41.994167E+00,+8.493E-03,-16.736E-03
-41.992767E+00,+8.995E-03,+0.0E+00
-41.991367E+00,+8.660E-03,+0.0E+00
-41.989967E+00,+9.162E-03,+0.0E+00
-41.988567E+00,+9.162E-03,+16.736E-03
-41.987167E+00,+9.330E-03,+0.0E+00
-41.985767E+00,+9.832E-03,+0.0E+00
-41.984366E+00,+9.330E-03,-0.0E+00
-41.982966E+00,+9.162E-03,-16.736E-03
-41.981566E+00,+8.828E-03,+0.0E+00
-41.980166E+00,+8.493E-03,+33.473E-03
-41.978766E+00,+9.665E-03,+16.736E-03
-41.977366E+00,+8.660E-03,-16.736E-03
-41.975966E+00,+8.995E-03,-16.736E-03
-41.974566E+00,+7.991E-03,+0.0E+00
-41.973166E+00,+8.995E-03,+33.473E-03
-41.971766E+00,+9.832E-03,-33.473E-03
-41.970366E+00,+9.497E-03,-0.0E+00
-41.968966E+00,+8.660E-03,-16.736E-03
-41.967566E+00,+8.828E-03,-0.0E+00
-41.966166E+00,+9.497E-03,-16.736E-03
-41.964766E+00,+8.828E-03,+50.209E-03
-41.963366E+00,+8.828E-03,-0.0E+00
-41.961966E+00,+9.162E-03,-16.736E-03
-41.960566E+00,+8.660E-03,+16.736E-03
-41.959166E+00,+9.162E-03,+0.0E+00
-41.957766E+00,+8.828E-03,+0.0E+00
-41.956366E+00,+7.991E-03,+0.0E+00
-41.954966E+00,+9.162E-03,+33.473E-03
-41.953566E+00,+9.162E-03,+16.736E-03
-41.952166E+00,+9.162E-03,+16.736E-03
-41.950766E+00,+7.991E-03,-16.736E-03
-41.949366E+00,+8.158E-03,+16.736E-03
-41.947966E+00,+8.660E-03,+0.0E+00
-41.946566E+00,+8.660E-03,+0.0E+00
-41.945166E+00,+8.995E-03,-0.0E+00
-41.943766E+00,+9.497E-03,-16.736E-03
-41.942366E+00,+9.832E-03,+16.736E-03
-41.940966E+00,+8.326E-03,-16.736E-03
-41.939566E+00,+9.162E-03,-16.736E-03
-41.938166E+00,+8.660E-03,-16.736E-03
-41.936766E+00,+9.330E-03,-16.736E-03
-41.935366E+00,+9.162E-03,-16.736E-03
-41.933966E+00,+9.162E-03,+0.0E+00
-41.932566E+00,+9.832E-03,+0.0E+00
-41.931166E+00,+9.832E-03,+0.0E+00
-41.929766E+00,+8.493E-03,+0.0E+00
-41.928366E+00,+8.995E-03,+16.736E-03
-41.926966E+00,+8.995E-03,+0.0E+00
-41.925566E+00,+8.995E-03,+0.0E+00
-41.924166E+00,+8.660E-03,+0.0E+00
-41.922766E+00,+9.330E-03,+16.736E-03
-41.921366E+00,+8.828E-03,+0.0E+00
-41.919966E+00,+8.995E-03,+33.473E-03
-41.918566E+00,+8.660E-03,-0.0E+00
-41.917166E+00,+8.660E-03,-16.736E-03
-41.915766E+00,+9.665E-03,+16.736E-03
-41.914366E+00,+8.326E-03,-16.736E-03
-41.912966E+00,+8.828E-03,-0.0E+00
-41.911566E+00,+7.991E-03,-16.736E-03
-41.910166E+00,+8.828E-03,+0.0E+00
-41.908766E+00,+10.334E-03,+0.0E+00
-41.907366E+00,+8.995E-03,+0.0E+00
-41.905966E+00,+8.493E-03,+16.736E-03
-41.904566E+00,+9.665E-03,+16.736E-03
-41.903166E+00,+8.660E-03,+16.736E-03
-41.901766E+00,+8.660E-03,-16.736E-03
-41.900366E+00,+8.995E-03,+16.736E-03
-41.898966E+00,+8.995E-03,-16.736E-03
-41.897566E+00,+8.660E-03,+16.736E-03
-41.896166E+00,+8.828E-03,+0.0E+00
-41.894765E+00,+9.497E-03,+16.736E-03
-41.893365E+00,+8.828E-03,+0.0E+00
-41.891965E+00,+9.665E-03,+16.736E-03
-41.890565E+00,+9.162E-03,+0.0E+00
-41.889165E+00,+8.828E-03,+33.473E-03
-41.887765E+00,+8.995E-03,-0.0E+00
-41.886365E+00,+8.995E-03,-33.473E-03
-41.884965E+00,+9.832E-03,+16.736E-03
-41.883565E+00,+9.665E-03,+16.736E-03
-41.882165E+00,+9.330E-03,-0.0E+00
-41.880765E+00,+8.158E-03,-16.736E-03
-41.879365E+00,+8.995E-03,-0.0E+00
-41.877965E+00,+9.162E-03,-16.736E-03
-41.876565E+00,+8.995E-03,+0.0E+00
-41.875165E+00,+8.828E-03,+0.0E+00
-41.873765E+00,+9.497E-03,+16.736E-03
-41.872365E+00,+9.497E-03,+0.0E+00
-41.870965E+00,+9.162E-03,+16.736E-03
-41.869565E+00,+9.330E-03,+0.0E+00
-41.868165E+00,+9.162E-03,+0.0E+00
-41.866765E+00,+8.995E-03,+16.736E-03
-41.865365E+00,+8.660E-03,+16.736E-03
-41.863965E+00,+9.999E-03,+0.0E+00
-41.862565E+00,+8.493E-03,-0.0E+00
-41.861165E+00,+8.828E-03,-16.736E-03
-41.859765E+00,+8.660E-03,+33.473E-03
-41.858365E+00,+8.493E-03,+16.736E-03
-41.856965E+00,+8.995E-03,-0.0E+00
-41.855565E+00,+9.330E-03,-16.736E-03
-41.854165E+00,+9.162E-03,-0.0E+00
-41.852765E+00,+9.497E-03,-33.473E-03
-41.851365E+00,+8.995E-03,-16.736E-03
-41.849965E+00,+8.995E-03,+33.473E-03
-41.848565E+00,+7.991E-03,+16.736E-03
-41.847165E+00,+8.660E-03,+16.736E-03
-41.845765E+00,+9.497E-03,+0.0E+00
-41.844365E+00,+9.999E-03,-0.0E+00
-41.842965E+00,+8.828E-03,-16.736E-03
-41.841565E+00,+9.162E-03,+16.736E-03
-41.840165E+00,+9.497E-03,-16.736E-03
-41.838765E+00,+8.493E-03,-0.0E+00
-41.837365E+00,+9.162E-03,-33.473E-03
-41.835965E+00,+9.330E-03,+0.0E+00
-41.834565E+00,+9.330E-03,+16.736E-03
-41.833165E+00,+9.162E-03,+16.736E-03
-41.831765E+00,+9.162E-03,+16.736E-03
-41.830365E+00,+9.162E-03,+16.736E-03
-41.828965E+00,+8.493E-03,-0.0E+00
-41.827565E+00,+9.162E-03,-16.736E-03
-41.826165E+00,+9.665E-03,+0.0E+00
-41.824765E+00,+9.162E-03,+16.736E-03
-41.823365E+00,+9.665E-03,+16.736E-03
-41.821965E+00,+8.828E-03,+16.736E-03
-41.820565E+00,+8.660E-03,-16.736E-03
-41.819165E+00,+9.832E-03,+33.473E-03
-41.817765E+00,+9.665E-03,+16.736E-03
-41.816365E+00,+8.660E-03,-16.736E-03
-41.814965E+00,+9.162E-03,-16.736E-03
-41.813565E+00,+9.162E-03,-33.473E-03
-41.812165E+00,+9.162E-03,+16.736E-03
-41.810765E+00,+8.995E-03,-16.736E-03
-41.809365E+00,+8.828E-03,-16.736E-03
-41.807965E+00,+9.665E-03,-0.0E+00
-41.806565E+00,+8.995E-03,-16.736E-03
-41.805165E+00,+8.828E-03,-16.736E-03
-41.803764E+00,+8.828E-03,+0.0E+00
-41.802364E+00,+9.999E-03,+33.473E-03
-41.800964E+00,+9.497E-03,+16.736E-03
-41.799564E+00,+9.330E-03,+0.0E+00
-41.798164E+00,+9.665E-03,+16.736E-03
-41.796764E+00,+9.330E-03,+16.736E-03
-41.795364E+00,+9.665E-03,-16.736E-03
-41.793964E+00,+8.326E-03,+0.0E+00
-41.792564E+00,+9.330E-03,+0.0E+00
-41.791164E+00,+7.991E-03,+16.736E-03
-41.789764E+00,+9.162E-03,-16.736E-03
-41.788364E+00,+8.995E-03,+16.736E-03
-41.786964E+00,+8.828E-03,+16.736E-03
-41.785564E+00,+9.162E-03,+33.473E-03
-41.784164E+00,+8.828E-03,-16.736E-03
-41.782764E+00,+9.497E-03,+0.0E+00
-41.781364E+00,+9.162E-03,+16.736E-03
-41.779964E+00,+8.828E-03,-0.0E+00
-41.778564E+00,+8.995E-03,-33.473E-03
-41.777164E+00,+9.162E-03,-33.473E-03
-41.775764E+00,+8.158E-03,-0.0E+00
-41.774364E+00,+8.158E-03,-16.736E-03
-41.772964E+00,+9.330E-03,-16.736E-03
-41.771564E+00,+9.330E-03,+16.736E-03
-41.770164E+00,+9.497E-03,-16.736E-03
-41.768764E+00,+8.828E-03,+0.0E+00
-41.767364E+00,+9.330E-03,+0.0E+00
-41.765964E+00,+9.497E-03,-0.0E+00
-41.764564E+00,+8.158E-03,-16.736E-03
-41.763164E+00,+8.158E-03,-0.0E+00
-41.761764E+00,+8.828E-03,-33.473E-03
-41.760364E+00,+8.660E-03,+0.0E+00
-41.758964E+00,+9.162E-03,-0.0E+00
-41.757564E+00,+9.162E-03,-16.736E-03
-41.756164E+00,+9.330E-03,+16.736E-03
-41.754764E+00,+9.330E-03,+16.736E-03
-41.753364E+00,+9.832E-03,-0.0E+00
-41.751964E+00,+8.493E-03,-16.736E-03
-41.750564E+00,+9.832E-03,-33.473E-03
-41.749164E+00,+8.660E-03,+16.736E-03
-41.747764E+00,+8.493E-03,-33.473E-03
-41.746364E+00,+8.493E-03,+0.0E+00
-41.744964E+00,+9.497E-03,+33.473E-03
-41.743564E+00,+9.162E-03,+16.736E-03
-41.742164E+00,+9.162E-03,+0.0E+00
-41.740764E+00,+9.162E-03,+0.0E+00
-41.739364E+00,+9.330E-03,+16.736E-03
-41.737964E+00,+9.665E-03,-0.0E+00
-41.736564E+00,+9.497E-03,-33.473E-03
-41.735164E+00,+9.497E-03,-0.0E+00
-41.733764E+00,+8.158E-03,-16.736E-03
-41.732364E+00,+8.995E-03,+33.473E-03
-41.730964E+00,+9.162E-03,+33.473E-03
-41.729564E+00,+8.828E-03,+16.736E-03
-41.728164E+00,+8.995E-03,+33.473E-03
-41.726764E+00,+9.665E-03,+16.736E-03
-41.725364E+00,+8.828E-03,-0.0E+00
-41.723964E+00,+8.660E-03,-16.736E-03
-41.722564E+00,+9.497E-03,-16.736E-03
-41.721164E+00,+9.162E-03,-33.473E-03
-41.719764E+00,+8.493E-03,-0.0E+00
-41.718364E+00,+9.162E-03,-16.736E-03
-41.716964E+00,+9.162E-03,+0.0E+00
-41.715564E+00,+8.995E-03,+0.0E+00
-41.714163E+00,+8.995E-03,+16.736E-03
-41.712763E+00,+8.995E-03,+16.736E-03
-41.711363E+00,+9.162E-03,+16.736E-03
-41.709963E+00,+9.330E-03,+16.736E-03
-41.708563E+00,+8.828E-03,+0.0E+00
-41.707163E+00,+9.832E-03,-0.0E+00
-41.705763E+00,+8.660E-03,-16.736E-03
-41.704363E+00,+9.162E-03,+16.736E-03
-41.702963E+00,+9.162E-03,+33.473E-03
-41.701563E+00,+8.493E-03,-16.736E-03
-41.700163E+00,+8.828E-03,+33.473E-03
-41.698763E+00,+8.158E-03,-33.473E-03
-41.697363E+00,+9.330E-03,-16.736E-03
-41.695963E+00,+8.828E-03,+0.0E+00
-41.694563E+00,+8.828E-03,+0.0E+00
-41.693163E+00,+8.493E-03,+33.473E-03
-41.691763E+00,+8.995E-03,-0.0E+00
-41.690363E+00,+9.665E-03,-16.736E-03
-41.688963E+00,+9.330E-03,-0.0E+00
-41.687563E+00,+8.995E-03,-16.736E-03
-41.686163E+00,+8.493E-03,-16.736E-03
-41.684763E+00,+8.995E-03,-0.0E+00
-41.683363E+00,+8.995E-03,-16.736E-03
-41.681963E+00,+9.330E-03,+0.0E+00
-41.680563E+00,+7.991E-03,-0.0E+00
-41.679163E+00,+8.828E-03,-16.736E-03
-41.677763E+00,+8.828E-03,-33.473E-03
-41.676363E+00,+8.828E-03,-33.473E-03
-41.674963E+00,+8.828E-03,-16.736E-03
-41.673563E+00,+8.828E-03,-16.736E-03
-41.672163E+00,+9.162E-03,+16.736E-03
-41.670763E+00,+8.828E-03,+33.473E-03
-41.669363E+00,+9.665E-03,+16.736E-03
-41.667963E+00,+9.162E-03,-16.736E-03
-41.666563E+00,+8.995E-03,+33.473E-03
-41.665163E+00,+9.497E-03,+0.0E+00
-41.663763E+00,+9.665E-03,+33.473E-03
-41.662363E+00,+8.660E-03,+16.736E-03
-41.660963E+00,+8.828E-03,+0.0E+00
-41.659563E+00,+9.330E-03,+16.736E-03
-41.658163E+00,+8.660E-03,-16.736E-03
-41.656763E+00,+8.828E-03,-16.736E-03
-41.655363E+00,+8.660E-03,+0.0E+00
-41.653963E+00,+9.330E-03,+16.736E-03
-41.652563E+00,+8.995E-03,+33.473E-03
-41.651163E+00,+8.828E-03,-16.736E-03
-41.649763E+00,+8.326E-03,+0.0E+00
-41.648363E+00,+8.995E-03,+33.473E-03
-41.646963E+00,+8.995E-03,+0.0E+00
-41.645563E+00,+8.493E-03,+16.736E-03
-41.644163E+00,+9.330E-03,+33.473E-03
-41.642763E+00,+8.158E-03,-16.736E-03
-41.641363E+00,+8.828E-03,+50.209E-03
-41.639963E+00,+8.660E-03,-0.0E+00
-41.638563E+00,+8.995E-03,-33.473E-03
-41.637163E+00,+8.493E-03,-16.736E-03
-41.635763E+00,+8.995E-03,-16.736E-03
-41.634363E+00,+8.828E-03,-16.736E-03
-41.632963E+00,+9.497E-03,+16.736E-03
-41.631563E+00,+9.497E-03,-16.736E-03
-41.630163E+00,+8.326E-03,-16.736E-03
-41.628763E+00,+8.660E-03,-16.736E-03
-41.627363E+00,+8.660E-03,+0.0E+00
-41.625963E+00,+9.330E-03,-0.0E+00
-41.624562E+00,+8.326E-03,-50.209E-03
-41.623162E+00,+9.665E-03,+16.736E-03
-41.621762E+00,+8.326E-03,+0.0E+00
-41.620362E+00,+8.828E-03,+16.736E-03
-41.618962E+00,+8.493E-03,-0.0E+00
-41.617562E+00,+9.162E-03,-16.736E-03
-41.616162E+00,+8.660E-03,+0.0E+00
-41.614762E+00,+8.995E-03,-0.0E+00
-41.613362E+00,+9.497E-03,-16.736E-03
-41.611962E+00,+8.995E-03,+0.0E+00
-41.610562E+00,+8.660E-03,+0.0E+00
-41.609162E+00,+8.326E-03,-0.0E+00
-41.607762E+00,+8.493E-03,-16.736E-03
-41.606362E+00,+9.162E-03,+0.0E+00
-41.604962E+00,+9.497E-03,+16.736E-03
-41.603562E+00,+9.162E-03,-16.736E-03
-41.602162E+00,+8.493E-03,-16.736E-03
-41.600762E+00,+8.158E-03,+16.736E-03
-41.599362E+00,+9.162E-03,+0.0E+00
-41.597962E+00,+8.995E-03,+0.0E+00
-41.596562E+00,+9.665E-03,-0.0E+00
-41.595162E+00,+7.991E-03,-16.736E-03
-41.593762E+00,+9.162E-03,-0.0E+00
-41.592362E+00,+8.660E-03,-16.736E-03
-41.590962E+00,+9.162E-03,-0.0E+00
-41.589562E+00,+8.995E-03,-16.736E-03
-41.588162E+00,+8.326E-03,+16.736E-03
-41.586762E+00,+9.162E-03,+16.736E-03
-41.585362E+00,+9.330E-03,+16.736E-03
-41.583962E+00,+9.497E-03,+0.0E+00
-41.582562E+00,+8.995E-03,+16.736E-03
-41.581162E+00,+10.167E-03,-16.736E-03
-41.579762E+00,+8.828E-03,-33.473E-03
-41.578362E+00,+9.330E-03,+0.0E+00
-41.576962E+00,+9.330E-03,+0.0E+00
-41.575562E+00,+9.497E-03,+0.0E+00
-41.574162E+00,+8.493E-03,-0.0E+00
-41.572762E+00,+9.162E-03,-16.736E-03
-41.571362E+00,+8.995E-03,+50.209E-03
-41.569962E+00,+9.497E-03,-16.736E-03
-41.568562E+00,+9.162E-03,-0.0E+00
-41.567162E+00,+8.828E-03,-16.736E-03
-41.565762E+00,+8.493E-03,+16.736E-03
-41.564362E+00,+8.493E-03,+16.736E-03
-41.562962E+00,+8.995E-03,+0.0E+00
-41.561562E+00,+8.660E-03,+33.473E-03
-41.560162E+00,+8.493E-03,+16.736E-03
-41.558762E+00,+8.995E-03,+33.473E-03
-41.557362E+00,+9.162E-03,+16.736E-03
-41.555962E+00,+8.828E-03,-0.0E+00
-41.554562E+00,+8.828E-03,-16.736E-03
-41.553162E+00,+8.493E-03,-16.736E-03
-41.551762E+00,+9.162E-03,-16.736E-03
-41.550362E+00,+9.832E-03,+16.736E-03
-41.548962E+00,+9.832E-03,-16.736E-03
-41.547562E+00,+9.330E-03,+0.0E+00
-41.546162E+00,+9.497E-03,+16.736E-03
-41.544762E+00,+8.660E-03,+16.736E-03
-41.543362E+00,+8.493E-03,+16.736E-03
-41.541962E+00,+8.326E-03,+16.736E-03
-41.540562E+00,+8.326E-03,+16.736E-03
-41.539162E+00,+9.330E-03,+16.736E-03
-41.537762E+00,+9.162E-03,+16.736E-03
-41.536362E+00,+8.660E-03,+50.209E-03
-41.534961E+00,+8.493E-03,-16.736E-03
-41.533561E+00,+8.995E-03,+50.209E-03
-41.532161E+00,+9.162E-03,+16.736E-03
-41.530761E+00,+8.326E-03,-33.473E-03
-41.529361E+00,+8.493E-03,-16.736E-03
-41.527961E+00,+8.995E-03,-16.736E-03
-41.526561E+00,+8.326E-03,+16.736E-03
-41.525161E+00,+8.493E-03,+33.473E-03
-41.523761E+00,+9.162E-03,+16.736E-03
-41.522361E+00,+9.665E-03,+0.0E+00
-41.520961E+00,+8.828E-03,-0.0E+00
-41.519561E+00,+9.162E-03,-16.736E-03
-41.518161E+00,+8.660E-03,+0.0E+00
-41.516761E+00,+9.497E-03,+16.736E-03
-41.515361E+00,+8.158E-03,-0.0E+00
-41.513961E+00,+9.497E-03,-16.736E-03
-41.512561E+00,+8.493E-03,+16.736E-03
-41.511161E+00,+8.660E-03,-16.736E-03
-41.509761E+00,+8.995E-03,-16.736E-03
-41.508361E+00,+8.828E-03,-16.736E-03
-41.506961E+00,+8.326E-03,-16.736E-03
-41.505561E+00,+8.660E-03,-0.0E+00
-41.504161E+00,+8.493E-03,-16.736E-03
-41.502761E+00,+9.162E-03,+0.0E+00
-41.501361E+00,+8.660E-03,+16.736E-03
-41.499961E+00,+9.162E-03,+16.736E-03
-41.498561E+00,+7.656E-03,+33.473E-03
-41.497161E+00,+8.158E-03,+16.736E-03
-41.495761E+00,+8.828E-03,-16.736E-03
-41.494361E+00,+9.330E-03,+16.736E-03
-41.492961E+00,+9.497E-03,+16.736E-03
-41.491561E+00,+8.995E-03,+0.0E+00
-41.490161E+00,+8.995E-03,+0.0E+00
-41.488761E+00,+9.832E-03,-0.0E+00
-41.487361E+00,+8.660E-03,-16.736E-03
-41.485961E+00,+8.660E-03,-50.209E-03
-41.484561E+00,+8.995E-03,-16.736E-03
-41.483161E+00,+8.326E-03,-16.736E-03
-41.481761E+00,+8.660E-03,-0.0E+00
-41.480361E+00,+8.660E-03,-16.736E-03
-41.478961E+00,+9.497E-03,+16.736E-03
-41.477561E+00,+8.995E-03,+0.0E+00
-41.476161E+00,+9.162E-03,+16.736E-03
-41.474761E+00,+9.162E-03,+16.736E-03
-41.473361E+00,+8.995E-03,-16.736E-03
-41.471961E+00,+9.330E-03,-33.473E-03
-41.470561E+00,+8.995E-03,+33.473E-03
-41.469161E+00,+8.326E-03,-16.736E-03
-41.467761E+00,+9.162E-03,-33.473E-03
-41.466361E+00,+8.828E-03,-0.0E+00
-41.464961E+00,+8.995E-03,-16.736E-03
-41.463561E+00,+8.660E-03,-0.0E+00
-41.462161E+00,+8.493E-03,-16.736E-03
-41.460761E+00,+9.330E-03,+0.0E+00
-41.459361E+00,+8.158E-03,+0.0E+00
-41.457961E+00,+8.828E-03,+0.0E+00
-41.456561E+00,+8.828E-03,+0.0E+00
-41.455161E+00,+9.162E-03,-0.0E+00
-41.453761E+00,+9.665E-03,-16.736E-03
-41.452361E+00,+8.660E-03,-16.736E-03
-41.450961E+00,+8.828E-03,-16.736E-03
-41.449561E+00,+8.158E-03,+33.473E-03
-41.448161E+00,+8.828E-03,+0.0E+00
-41.446761E+00,+9.665E-03,+16.736E-03
-41.445361E+00,+8.995E-03,+16.736E-03
-41.443960E+00,+8.493E-03,+33.473E-03
-41.442560E+00,+8.828E-03,-16.736E-03
-41.441160E+00,+9.330E-03,+16.736E-03
-41.439760E+00,+8.995E-03,-33.473E-03
-41.438360E+00,+8.995E-03,-16.736E-03
-41.436960E+00,+9.832E-03,+16.736E-03
-41.435560E+00,+8.995E-03,+16.736E-03
-41.434160E+00,+8.828E-03,-0.0E+00
-41.432760E+00,+9.497E-03,-16.736E-03
-41.431360E+00,+9.162E-03,+16.736E-03
-41.429960E+00,+9.162E-03,-16.736E-03
-41.428560E+00,+8.995E-03,+33.473E-03
-41.427160E+00,+9.330E-03,-33.473E-03
-41.425760E+00,+9.162E-03,-16.736E-03
-41.424360E+00,+9.330E-03,+0.0E+00
-41.422960E+00,+9.497E-03,+16.736E-03
-41.421560E+00,+9.330E-03,+16.736E-03
-41.420160E+00,+9.162E-03,-16.736E-03
-41.418760E+00,+8.828E-03,-16.736E-03
-41.417360E+00,+7.824E-03,+0.0E+00
-41.415960E+00,+8.158E-03,+0.0E+00
-41.414560E+00,+8.828E-03,-0.0E+00
-41.413160E+00,+8.326E-03,-16.736E-03
-41.411760E+00,+9.330E-03,+0.0E+00
-41.410360E+00,+8.326E-03,+0.0E+00
-41.408960E+00,+8.493E-03,+33.473E-03
-41.407560E+00,+8.828E-03,-0.0E+00
-41.406160E+00,+8.995E-03,-16.736E-03
-41.404760E+00,+9.330E-03,-16.736E-03
-41.403360E+00,+7.991E-03,+16.736E-03
-41.401960E+00,+9.162E-03,+16.736E-03
-41.400560E+00,+8.828E-03,-16.736E-03
-41.399160E+00,+9.330E-03,+33.473E-03
-41.397760E+00,+9.162E-03,+0.0E+00
-41.396360E+00,+9.162E-03,+50.209E-03
-41.394960E+00,+9.832E-03,+33.473E-03
-41.393560E+00,+7.991E-03,+50.209E-03
-41.392160E+00,+8.828E-03,-16.736E-03
-41.390760E+00,+8.828E-03,+0.0E+00
-41.389360E+00,+8.828E-03,+0.0E+00
-41.387960E+00,+9.162E-03,+0.0E+00
-41.386560E+00,+9.162E-03,+16.736E-03
-41.385160E+00,+8.158E-03,+16.736E-03
-41.383760E+00,+8.828E-03,+16.736E-03
-41.382360E+00,+8.995E-03,-33.473E-03
-41.380960E+00,+9.665E-03,+33.473E-03
-41.379560E+00,+9.162E-03,+0.0E+00
-41.378160E+00,+8.660E-03,+33.473E-03
-41.376760E+00,+8.828E-03,-16.736E-03
-41.375360E+00,+8.660E-03,-16.736E-03
-41.373960E+00,+8.158E-03,+0.0E+00
-41.372560E+00,+8.828E-03,+16.736E-03
-41.371160E+00,+8.660E-03,+16.736E-03
-41.369760E+00,+8.158E-03,+33.473E-03
-41.368360E+00,+8.493E-03,+33.473E-03
-41.366960E+00,+9.162E-03,-33.473E-03
-41.365560E+00,+9.330E-03,+0.0E+00
-41.364160E+00,+8.828E-03,+0.0E+00
-41.362760E+00,+8.995E-03,+33.473E-03
-41.361360E+00,+8.660E-03,-33.473E-03
-41.359960E+00,+9.665E-03,-33.473E-03
-41.358560E+00,+8.995E-03,+0.0E+00
-41.357160E+00,+8.828E-03,+0.0E+00
-41.355760E+00,+8.995E-03,+0.0E+00
-41.354359E+00,+8.660E-03,+0.0E+00
-41.352959E+00,+8.995E-03,+0.0E+00
-41.351559E+00,+8.326E-03,+16.736E-03
-41.350159E+00,+8.158E-03,-0.0E+00
-41.348759E+00,+8.828E-03,-16.736E-03
-41.347359E+00,+8.828E-03,-16.736E-03
-41.345959E+00,+9.497E-03,+16.736E-03
-41.344559E+00,+8.158E-03,+16.736E-03
-41.343159E+00,+9.162E-03,-33.473E-03
-41.341759E+00,+8.326E-03,-0.0E+00
-41.340359E+00,+8.326E-03,-50.209E-03
-41.338959E+00,+7.991E-03,-0.0E+00
-41.337559E+00,+8.158E-03,-16.736E-03
-41.336159E+00,+8.326E-03,+16.736E-03
-41.334759E+00,+8.493E-03,+16.736E-03
-41.333359E+00,+9.665E-03,+33.473E-03
-41.331959E+00,+8.828E-03,+16.736E-03
-41.330559E+00,+9.832E-03,+16.736E-03
-41.329159E+00,+7.991E-03,+16.736E-03
-41.327759E+00,+8.995E-03,+0.0E+00
-41.326359E+00,+9.330E-03,+16.736E-03
-41.324959E+00,+8.493E-03,-16.736E-03
-41.323559E+00,+8.660E-03,-16.736E-03
-41.322159E+00,+9.330E-03,-33.473E-03
-41.320759E+00,+8.660E-03,-33.473E-03
-41.319359E+00,+9.330E-03,+16.736E-03
-41.317959E+00,+8.493E-03,-16.736E-03
-41.316559E+00,+8.995E-03,+16.736E-03
-41.315159E+00,+8.828E-03,+16.736E-03
-41.313759E+00,+8.660E-03,-0.0E+00
-41.312359E+00,+9.162E-03,-16.736E-03
-41.310959E+00,+8.995E-03,+33.473E-03
-41.309559E+00,+8.660E-03,+16.736E-03
-41.308159E+00,+8.660E-03,+16.736E-03
-41.306759E+00,+9.330E-03,-0.0E+00
-41.305359E+00,+8.158E-03,-16.736E-03
-41.303959E+00,+8.493E-03,+16.736E-03
-41.302559E+00,+8.660E-03,+0.0E+00
-41.301159E+00,+8.493E-03,+0.0E+00
-41.299759E+00,+8.493E-03,+0.0E+00
-41.298359E+00,+9.162E-03,-0.0E+00
-41.296959E+00,+8.995E-03,-16.736E-03
-41.295559E+00,+8.493E-03,+16.736E-03
-41.294159E+00,+8.326E-03,+0.0E+00
-41.292759E+00,+8.828E-03,+0.0E+00
-41.291359E+00,+8.493E-03,+16.736E-03
-41.289959E+00,+8.995E-03,+16.736E-03
-41.288559E+00,+9.162E-03,-0.0E+00
-41.287159E+00,+8.828E-03,-16.736E-03
-41.285759E+00,+9.497E-03,+16.736E-03
-41.284359E+00,+8.828E-03,+33.473E-03
-41.282959E+00,+8.493E-03,+16.736E-03
-41.281559E+00,+8.995E-03,+0.0E+00
-41.280159E+00,+8.660E-03,+16.736E-03
-41.278759E+00,+8.493E-03,+33.473E-03
-41.277359E+00,+8.995E-03,+16.736E-03
-41.275959E+00,+8.995E-03,+50.209E-03
-41.274559E+00,+8.828E-03,-33.473E-03
-41.273159E+00,+8.828E-03,+33.473E-03
-41.271759E+00,+8.660E-03,+16.736E-03
-41.270359E+00,+8.660E-03,+0.0E+00
-41.268959E+00,+8.995E-03,+33.473E-03
-41.267559E+00,+8.995E-03,-16.736E-03
-41.266159E+00,+8.995E-03,-0.0E+00
-41.264758E+00,+8.828E-03,-16.736E-03
-41.263358E+00,+8.995E-03,+0.0E+00
-41.261958E+00,+8.995E-03,+16.736E-03
-41.260558E+00,+8.828E-03,+16.736E-03
-41.259158E+00,+8.158E-03,+50.209E-03
-41.257758E+00,+9.330E-03,-16.736E-03
-41.256358E+00,+8.995E-03,+0.0E+00
-41.254958E+00,+8.326E-03,+33.473E-03
-41.253558E+00,+8.995E-03,+33.473E-03
-41.252158E+00,+8.995E-03,+0.0E+00
-41.250758E+00,+8.660E-03,+16.736E-03
-41.249358E+00,+8.660E-03,+33.473E-03
-41.247958E+00,+8.995E-03,-16.736E-03
-41.246558E+00,+9.665E-03,+16.736E-03
-41.245158E+00,+9.162E-03,+0.0E+00
-41.243758E+00,+8.828E-03,+16.736E-03
-41.242358E+00,+8.828E-03,-16.736E-03
-41.240958E+00,+8.660E-03,-0.0E+00
-41.239558E+00,+9.162E-03,-16.736E-03
-41.238158E+00,+8.995E-03,-16.736E-03
-41.236758E+00,+9.330E-03,+33.473E-03
-41.235358E+00,+9.665E-03,+33.473E-03
-41.233958E+00,+9.330E-03,-16.736E-03
-41.232558E+00,+9.162E-03,-33.473E-03
-41.231158E+00,+8.828E-03,-16.736E-03
-41.229758E+00,+9.497E-03,+16.736E-03
-41.228358E+00,+8.660E-03,-16.736E-03
-41.226958E+00,+8.995E-03,+16.736E-03
-41.225558E+00,+9.162E-03,-16.736E-03
-41.224158E+00,+8.828E-03,-0.0E+00
-41.222758E+00,+8.828E-03,-16.736E-03
-41.221358E+00,+8.828E-03,+16.736E-03
-41.219958E+00,+8.326E-03,-33.473E-03
-41.218558E+00,+8.326E-03,+16.736E-03
-41.217158E+00,+9.665E-03,-16.736E-03
